%YAML:1.0
my_svm: !!opencv-ml-svm
   svm_type: C_SVC
   kernel: { type:RBF, gamma:3. }
   C: 1.0000000000000001e-01
   term_criteria: { epsilon:2.2204460492503131e-16, iterations:100 }
   var_all: 128
   var_count: 128
   class_count: 10
   class_labels: !!opencv-matrix
      rows: 1
      cols: 10
      dt: i
      data: [ 1, 2, 3, 4, 5, 6, 7, 8, 9, 10 ]
   sv_total: 240
   support_vectors:
      - [ 7.17464814e-43, 0., 5.04469799e-10, 4.57818221e-41,
          4.73459094e-39, 3.46777940e+00, -1.58950480e+33,
          2.98767114e+00, 0., 3.50000000e+00, -2.97504117e-37,
          3.36871409e+00, 2.46777455e-03, 3.38640070e+00, 1.12446855e+24,
          3.46211886e+00, 1.00763333e-24, 3.42834949e+00,
          -7.92062419e-05, 3.10579467e+00, -4.81932175e-19,
          2.92294836e+00, 0., 3.50000000e+00, -1.01084053e-23,
          3.01583362e+00, 0., 0., 0., 0., 0., 3.50000000e+00,
          4.04804264e-22, 3.42297459e+00, 5.15762438e-16, 3.49796081e+00,
          7.17464814e-43, 0., 1.40129846e-45, 0., 7.17464814e-43, 0.,
          1.40129846e-45, 0., -3.58702104e+25, 4.59135442e-41,
          4.62524463e-10, 4.57818221e-41, 0., 3.50000000e+00,
          5.24204212e+11, 3.30865097e+00, -1.24936626e+11,
          3.19683290e+00, .Nan, .Nan, 9.90304395e-27, 3.18227983e+00, 0.,
          0., -3.58684026e+25, 4.59135442e-41, -3.58684395e+25,
          4.59135442e-41, -3.58683934e+25, 4.59135442e-41,
          -3.58683957e+25, 4.59135442e-41, 2.80259693e-45,
          7.00649232e-45, 5.60519386e-45, 0., 0., 3.50000000e+00, 0.,
          3.50000000e+00, 0., 3.50000000e+00, 0., 3.50000000e+00, 0.,
          3.50000000e+00, -353844512., 3.18494987e+00, -1.65950949e-03,
          3.37806702e+00, 0., 3.50000000e+00, -9.56833744e-30,
          3.30006027e+00, 0., 0., 0., 0., -2.04836270e+10,
          3.13869619e+00, -1.50102050e+24, 3.07180858e+00, 0.,
          3.50000000e+00, 9.17128879e-20, 3.44209051e+00, 0.,
          3.50000000e+00, -5.20260303e-29, 3.49449897e+00,
          -3.58701366e+25, 4.59135442e-41, 0., 0., 1.79366203e-43, 0.,
          7.00649232e-45, 0., 1.40129846e-45, 0., .Nan, 0.,
          4.61961219e-10, 4.57818221e-41, 0., 3.50000000e+00,
          -3.40017090e+02, 2.77904177e+00, 0., 0., 4.59871169e-10,
          4.57818221e-41 ]
      - [ 1.73761010e-43, 3.50000000e+00, -3.93452901e-21,
          3.31951261e+00, 7.26343870e+00, 3.49681497e+00,
          -1.06491968e-01, 3.09356093e+00, 2.65748967e-38, 0.,
          1.49995572e-09, 4.57818221e-41, 1.47416598e-42, 0.,
          2.80259693e-45, 0., 1.47416598e-42, 0., 2.65801880e-38, 0.,
          8.97441983e-39, 0., 2.97418895e-11, 4.57818221e-41,
          8.97441983e-39, 0., 2.13412039e-38, 0., 2.65801880e-38, 0.,
          4.17833086e-14, 4.57818221e-41, .Nan, .Nan, 4.61961219e-10,
          4.57818221e-41, 0., 3.50000000e+00, 1.44053482e-42, 0.,
          2.80259693e-45, 0., 4.59871169e-10, 4.57818221e-41,
          1.43492963e-42, 0., 5.04469799e-10, 4.57818221e-41, 0.,
          3.50000000e+00, 1.54640470e+20, 3.29707956e+00, 6.74924784e+14,
          3.38757467e+00, 0., 3.50000000e+00, -8.69211832e+12,
          3.48870969e+00, -4.95355499e-26, 3.27968168e+00,
          6.24418324e+10, 3.10566449e+00, 9.66080639e-04, 3.49011874e+00,
          6.31985383e-38, 3.28145218e+00, -4.19084566e-31,
          3.37137818e+00, 0., 3.50000000e+00, 1.60746104e+19,
          3.34207678e+00, 0., 3.50000000e+00, 0., 3.50000000e+00, 0.,
          3.50000000e+00, -3.58693249e+25, 4.59135442e-41,
          8.97440862e-39, 0., 1.40129846e-45, 0., -3.58688453e+25,
          4.59135442e-41, 7.00649232e-45, 0., -3.58693249e+25,
          4.59135442e-41, 4.98326824e-10, 4.57818221e-41, 0.,
          3.13121963e+00, 1063107584., 3.47455597e+00, -2.09491553e+03,
          3.31840634e+00, .Nan, .Nan, 0., 3.50000000e+00, 0.,
          3.50000000e+00, -3.58688084e+25, 4.59135442e-41,
          -3.58688453e+25, 4.59135442e-41, -3.58687992e+25,
          4.59135442e-41, -3.58688015e+25, 4.59135442e-41,
          2.80259693e-45, 7.00649232e-45, 5.60519386e-45, 0.,
          -1.67390748e-31, 3.31597400e+00, 0., 3.50000000e+00, 0.,
          3.50000000e+00, 1.47093998e+27, 3.30961633e+00, 1.27875038e+02,
          2.80259693e-45, 0., 0. ]
      - [ 1.73761010e-43, 3.50000000e+00, -4.50799214e-35,
          3.36575675e+00, -3.04366331e-05, 3.29711390e+00, -12153319.,
          3.07053900e+00, 2.56106240e-38, 0., 1.49995572e-09,
          4.57818221e-41, 2.19163080e-42, 0., 2.80259693e-45, 0.,
          2.19163080e-42, 0., 2.56118796e-38, 0., 8.97441983e-39, 0.,
          2.97418895e-11, 4.57818221e-41, 8.97441983e-39, 0.,
          2.13412039e-38, 0., 2.56118796e-38, 0., 4.17833086e-14,
          4.57818221e-41, .Nan, .Nan, 4.61961219e-10, 4.57818221e-41,
          1.37167854e+01, 3.41095471e+00, 2.15799964e-42, 0.,
          4.20389539e-45, 0., 4.59871169e-10, 4.57818221e-41,
          2.15239444e-42, 0., 5.04469799e-10, 4.57818221e-41, 0.,
          3.50000000e+00, 26670502., 3.30263638e+00, 3.24345599e-31,
          3.19694734e+00, -5.51103682e+15, 3.40141797e+00, 1747982.,
          3.13995385e+00, 0., 0., 0., 0., 4.85688564e-24, 3.25149012e+00,
          2.03015858e-07, 3.18162894e+00, -9.76333509e+27,
          3.49415874e+00, 1.46691193e-09, 3.49473643e+00, 3.22226125e+06,
          3.39199901e+00, 0., 3.50000000e+00, 0., 3.50000000e+00, 0.,
          3.50000000e+00, -3.58693249e+25, 4.59135442e-41,
          8.97440862e-39, 0., 2.80259693e-45, 0., -3.58688453e+25,
          4.59135442e-41, 7.00649232e-45, 0., -3.58693249e+25,
          4.59135442e-41, 4.98326824e-10, 4.57818221e-41, 0., 0.,
          -2.59540558e-28, 3.21934128e+00, 5.64074644e-27,
          3.17294884e+00, .Nan, .Nan, 2.49430278e-13, 3.40653539e+00, 0.,
          3.50000000e+00, -3.58688084e+25, 4.59135442e-41,
          -3.58688453e+25, 4.59135442e-41, -3.58687992e+25,
          4.59135442e-41, -3.58688015e+25, 4.59135442e-41,
          2.80259693e-45, 7.00649232e-45, 5.60519386e-45, 0.,
          -3.29109145e+32, 3.21269369e+00, 1.54514717e+29,
          3.48774338e+00, 0., 3.50000000e+00, 0., 0., 1.27875038e+02,
          2.80259693e-45, 0., 0. ]
      - [ 1.73761010e-43, 3.50000000e+00, 0., 3.50000000e+00,
          5.25274542e+25, 3.49562645e+00, 2.91952248e+01, 3.09355974e+00,
          2.57942950e-38, 0., 1.49995572e-09, 4.57818221e-41,
          3.62656043e-42, 0., 2.80259693e-45, 0., 3.62656043e-42, 0.,
          2.57985101e-38, 0., 8.97441983e-39, 0., 2.97418895e-11,
          4.57818221e-41, 8.97441983e-39, 0., 2.13412039e-38, 0.,
          2.57985101e-38, 0., 4.17833086e-14, 4.57818221e-41, .Nan, .Nan,
          4.61961219e-10, 4.57818221e-41, 0., 3.50000000e+00,
          3.59292926e-42, 0., 7.00649232e-45, 0., 4.59871169e-10,
          4.57818221e-41, 3.58732407e-42, 0., 5.04469799e-10,
          4.57818221e-41, 0., 3.50000000e+00, -4.50379272e+36,
          3.12062812e+00, -3.78402821e-13, 3.37725163e+00, 0.,
          3.50000000e+00, -7.12335268e+12, 3.48870969e+00,
          3.20020920e+21, 3.24579024e+00, -5.89708948e-37,
          3.26575851e+00, 4.06979353e-30, 3.44511414e+00,
          -6.31263891e+14, 3.28217268e+00, -5.35725085e-32,
          3.43093848e+00, 0., 3.50000000e+00, 8.80877222e+31,
          3.37243271e+00, 0., 3.50000000e+00, 2.95358469e+05,
          3.03004575e+00, -2.51228232e-02, 3.49873209e+00,
          -3.58693249e+25, 4.59135442e-41, 8.97440862e-39, 0.,
          4.20389539e-45, 0., -3.58688453e+25, 4.59135442e-41,
          7.00649232e-45, 0., -3.58693249e+25, 4.59135442e-41,
          4.98326824e-10, 4.57818221e-41, 0., 3.35329103e+00,
          -1006420480., 3.42294836e+00, 5.88727740e+19, 3.27507472e+00,
          .Nan, .Nan, 0., 3.50000000e+00, 0., 3.50000000e+00,
          -3.58688084e+25, 4.59135442e-41, -3.58688453e+25,
          4.59135442e-41, -3.58687992e+25, 4.59135442e-41,
          -3.58688015e+25, 4.59135442e-41, 2.80259693e-45,
          7.00649232e-45, 5.60519386e-45, 0., -6.38540135e-20,
          3.32053494e+00, 0., 3.50000000e+00, -4.51260358e-02,
          3.44927526e+00, 9.12951236e+17, 2.78888226e+00, 1.27875038e+02,
          2.80259693e-45, 0., 0. ]
      - [ -6.23026015e-21, 3.35964608e+00, -3.67163328e-10,
          3.48311377e+00, 4.57424469e+02, 3.37037277e+00, 1.40310545e+01,
          3.01056981e+00, 0., 3.50000000e+00, -8.16763150e+06,
          3.34125590e+00, 2.70238769e+38, 2.86841249e+00, -102797176.,
          3.41762018e+00, -5.46448571e+34, 3.45839405e+00,
          -8.55556199e-36, 3.15854120e+00, -1.76037706e-21,
          2.86819792e+00, 0., 3.50000000e+00, -2.37699055e-10,
          3.01035523e+00, 0., 0., 0., 0., 1.45067891e+04, 3.30343795e+00,
          -1.63222433e+32, 3.21260357e+00, 1.67586421e+28,
          3.41734076e+00, -6.94304049e-33, 3.48584533e+00,
          -1.57401738e-18, 3.04911518e+00, -9.67430014e-33,
          3.45600224e+00, 9.91325093e-19, 3.31840205e+00, 2.18885922e+34,
          3.37039685e+00, -1.65707863e-31, 3.37137175e+00, 0.,
          3.50000000e+00, 1.19555784e-33, 3.09360790e+00, 1.01826933e-16,
          3.09354091e+00, -3.75812714e-32, 3.33625817e+00,
          2.43481230e+04, 3.08900571e+00, 0., 0., 0., 0., 3.86421617e+35,
          3.04514027e+00, -1.74147251e+22, 3.02994347e+00,
          2.89408816e-03, 3.17632031e+00, -7.15240978e-09,
          3.49979734e+00, -1.68908017e+12, 3.39335346e+00,
          -1.57300085e-15, 3.44389296e+00, -1.50873281e+23,
          3.18161035e+00, 0., 3.50000000e+00, 0., 3.50000000e+00,
          -3.83268992e-13, 3.49583912e+00, -2.89682429e-02,
          2.98584008e+00, -5.03034920e+22, 3.43161035e+00,
          -3.79565358e-06, 3.35283065e+00, 7.60267160e-18,
          3.31100678e+00, 0., 0., 0., 0., 1.87541003e+03, 3.13122010e+00,
          -8.75268261e-11, 2.86826968e+00, -1.28478563e+25,
          3.20330477e+00, 0., 3.50000000e+00, 0., 3.50000000e+00,
          -3.92306030e+03, 3.30705571e+00, -8.82041176e+31,
          3.40722489e+00, 1.02980111e+21, 3.47697687e+00, 0.,
          3.50000000e+00, -1.39984241e+30, 3.43527532e+00,
          2.01007558e+33, 3.01035523e+00, 1.64191584e-30, 3.30782843e+00,
          8.54774974e+37, 3.35757327e+00, 9.56307068e+02, 3.27915096e+00,
          0., 0., -3.40017090e+02, 2.77904177e+00, 1.80215572e-38,
          3.18786645e+00 ]
      - [ 1.73761010e-43, 3.42484832e+00, 0., 3.50000000e+00,
          -5.16918899e+19, 3.25665998e+00, -1.80404507e+34,
          2.92424202e+00, 4.24624375e-38, 0., 1.49995572e-09,
          4.57818221e-41, 5.77895487e-42, 0., 2.80259693e-45, 0.,
          5.77895487e-42, 0., 4.24728408e-38, 0., 8.97441983e-39, 0.,
          2.97418895e-11, 4.57818221e-41, 8.97441983e-39, 0.,
          2.13412039e-38, 0., 4.24728408e-38, 0., 4.17833086e-14,
          4.57818221e-41, .Nan, .Nan, 4.61961219e-10, 4.57818221e-41,
          -4.03041089e+03, 3.39199996e+00, 5.74532370e-42, 0.,
          1.12103877e-44, 0., 4.59871169e-10, 4.57818221e-41,
          5.73971851e-42, 0., 5.04469799e-10, 4.57818221e-41, 0.,
          3.50000000e+00, 0., 0., 0., 0., 1.15924720e-02, 3.47789907e+00,
          2.56189102e+24, 3.07254672e+00, 0., 0., 0., 0., 7.29593665e-08,
          3.29215765e+00, -3.10352902e+20, 3.10621285e+00,
          -2.37489264e+34, 3.49252987e+00, 0., 3.50000000e+00,
          -1.04528812e-36, 3.43334126e+00, 0., 3.50000000e+00,
          -1.40490515e+36, 3.07078338e+00, -6.32507668e+01,
          3.36819792e+00, -3.58693249e+25, 4.59135442e-41,
          8.97440862e-39, 0., 7.00649232e-45, 0., -3.58688453e+25,
          4.59135442e-41, 7.00649232e-45, 0., -3.58693249e+25,
          4.59135442e-41, 4.98326824e-10, 4.57818221e-41, 0., 0.,
          -555446400., 3.08290911e+00, 2.87067498e-21, 2.92423248e+00,
          .Nan, .Nan, -7.33768823e-10, 3.49377775e+00, -6.18024986e-22,
          3.49356866e+00, -3.58688084e+25, 4.59135442e-41,
          -3.58688453e+25, 4.59135442e-41, -3.58687992e+25,
          4.59135442e-41, -3.58688015e+25, 4.59135442e-41,
          2.80259693e-45, 7.00649232e-45, 5.60519386e-45, 0.,
          -2.62963018e+20, 3.18161035e+00, 5.34437537e-01,
          3.40780663e+00, -1.23229824e+04, 3.40436411e+00, 0., 0.,
          1.27875038e+02, 2.80259693e-45, 0., 0. ]
      - [ 0., 3.50000000e+00, 0., 3.50000000e+00, -8.57610232e-08,
          3.41179395e+00, -4.86123752e-10, 2.99035430e+00, 0.,
          3.50000000e+00, 8.54531668e+35, 3.37845516e+00, 0.,
          3.50000000e+00, 51947380., 3.46210599e+00, 0., 3.50000000e+00,
          -215131808., 3.07150793e+00, -495208256., 3.21258879e+00, 0.,
          3.50000000e+00, 9.60352700e-05, 3.07060599e+00, 0., 0.,
          -1.47468606e-29, 3.31309009e+00, 0., 3.50000000e+00,
          5.67887649e-14, 3.34844995e+00, 0., 3.50000000e+00,
          6.34593222e-09, 3.44948244e+00, -5.85331676e-08,
          3.14777017e+00, 0., 3.50000000e+00, 0., 3.50000000e+00, 0.,
          3.50000000e+00, 0., 3.50000000e+00, 0., 3.50000000e+00,
          -8.97490551e+11, 3.25206327e+00, -6.41956956e-23,
          3.24591899e+00, 0., 3.50000000e+00, 3.11974828e-18,
          3.21262217e+00, 0., 0., 0., 0., -3.91547254e+13,
          3.31595731e+00, 1.10268064e-17, 3.13120842e+00,
          -9.13636825e+33, 3.49482846e+00, 0., 3.50000000e+00,
          -4.47644992e-03, 3.33218145e+00, 0., 3.50000000e+00, 0.,
          3.50000000e+00, 0., 3.50000000e+00, 0., 3.50000000e+00, 0.,
          3.50000000e+00, -6.70654579e-23, 3.10580277e+00,
          -3.11015800e-19, 3.40185070e+00, -4.49885132e+02,
          3.45812011e+00, -3.04631907e+25, 3.30347776e+00, 0., 0., 0.,
          0., -7.66191180e+12, 3.24583077e+00, -2.56994365e+10,
          3.34125471e+00, -2.27559398e+36, 3.49473619e+00, 0.,
          3.50000000e+00, 0., 3.50000000e+00, -1.97466727e-34,
          3.48165369e+00, 3.08482014e-32, 3.46616793e+00, 0.,
          3.50000000e+00, 0., 3.50000000e+00, 0., 3.50000000e+00,
          -7.47151993e-11, 2.86826968e+00, 4.38563281e+03,
          3.21929073e+00, 5.60328310e-21, 3.48187709e+00, 1.35545254e+35,
          3.49153042e+00, 0., 0., 0., 0., 5.08909200e-36, 3.26609659e+00 ]
      - [ 21462280., 3.44044995e+00, 0., 3.50000000e+00, 1.16528328e+05,
          3.49485373e+00, 1.35013867e+15, 2.92661142e+00, 0.,
          3.50000000e+00, -1.81882356e-29, 3.39055133e+00,
          4.19363810e-14, 3.42014575e+00, -4.89584314e+36,
          3.40074682e+00, 1.91744068e-04, 3.38986444e+00,
          -8.04493357e-06, 3.15854120e+00, 2.65855095e+18,
          3.07053494e+00, 0., 3.50000000e+00, 1.32859713e-11,
          3.01362181e+00, 0., 0., 0., 0., 0., 3.50000000e+00,
          -4.77517678e-18, 3.40095854e+00, 0., 3.50000000e+00,
          3.16711771e+22, 3.46691227e+00, -4.44838518e+18,
          3.07158232e+00, 0., 3.50000000e+00, 0., 3.50000000e+00, 0.,
          3.50000000e+00, 5.89938784e-34, 3.41433525e+00, 0.,
          3.50000000e+00, 7.55749043e-20, 3.28534079e+00, 5.07419831e+20,
          3.13545918e+00, 0., 3.50000000e+00, 2.81283607e+35,
          3.23660588e+00, 0., 0., 0., 0., 1.04698133e+00, 3.37037277e+00,
          1.10634388e-33, 3.15855384e+00, -6.58553017e+19,
          3.43839717e+00, 0., 3.50000000e+00, 5.19844512e-38,
          3.40722513e+00, 0., 3.50000000e+00, 0., 3.50000000e+00, 0.,
          3.50000000e+00, 0., 3.50000000e+00, -1.66353776e+34,
          3.49867797e+00, -4.56355134e-04, 3.20332694e+00,
          1.76240107e+16, 3.40432286e+00, 0., 3.50000000e+00,
          7.74004081e+11, 3.33381128e+00, 0., 0., 0., 0.,
          -3.97525393e+21, 3.26036191e+00, 2.25436646e+35,
          3.01035523e+00, 0., 3.50000000e+00, 0., 3.50000000e+00,
          -6.54760791e+12, 3.44740891e+00, 3.58952441e+03,
          3.38898921e+00, -1.16461715e-20, 3.48427486e+00,
          3.32279623e-36, 3.36868000e+00, 0., 3.50000000e+00, 0.,
          3.50000000e+00, -1.05495162e-13, 2.86826968e+00,
          1.67423831e+18, 3.23584056e+00, 3.05911026e+01, 3.47078776e+00,
          -3.19447604e+12, 3.39462519e+00, 0., 0., 0., 0.,
          -8.99688410e-37, 3.28715086e+00 ]
      - [ 1.73761010e-43, 3.28029490e+00, 0., 3.50000000e+00,
          -2.62246601e-19, 3.39783287e+00, 8.76036620e-29,
          3.02916074e+00, 4.24739170e-38, 0., 1.49995572e-09,
          4.57818221e-41, 8.64881412e-42, 0., 2.80259693e-45, 0.,
          8.64881412e-42, 0., 4.24844547e-38, 0., 8.97441983e-39, 0.,
          2.97418895e-11, 4.57818221e-41, 8.97441983e-39, 0.,
          2.13412039e-38, 0., 4.24844547e-38, 0., 4.17833086e-14,
          4.57818221e-41, .Nan, .Nan, 4.61961219e-10, 4.57818221e-41,
          2.59034425e+17, 3.49280524e+00, 8.61518296e-42, 0.,
          1.68155816e-44, 0., 4.59871169e-10, 4.57818221e-41,
          8.60957776e-42, 0., 5.04469799e-10, 4.57818221e-41, 0.,
          3.50000000e+00, -7.65506683e+11, 3.31599832e+00,
          -6.58855100e+11, 3.21938205e+00, 0., 3.50000000e+00,
          -1.04539508e-26, 3.13234854e+00, 0., 0., 0., 0.,
          -1.81748925e+29, 3.28992796e+00, -9.18127050e+17,
          3.06157374e+00, 8.82916689e+21, 3.43801284e+00, 0.,
          3.50000000e+00, -2.95277951e-15, 3.01986837e+00, 0.,
          3.50000000e+00, 0., 3.50000000e+00, 0., 3.50000000e+00,
          -3.58693249e+25, 4.59135442e-41, 8.97440862e-39, 0.,
          1.12103877e-44, 0., -3.58688453e+25, 4.59135442e-41,
          7.00649232e-45, 0., -3.58693249e+25, 4.59135442e-41,
          4.98326824e-10, 4.57818221e-41, 0., 0., -1.13170770e-37,
          3.18786716e+00, -2.36774441e+36, 2.92660689e+00, .Nan, .Nan,
          1.72717600e+24, 3.49189806e+00, -1.46639626e-02,
          3.21787596e+00, -3.58688084e+25, 4.59135442e-41,
          -3.58688453e+25, 4.59135442e-41, -3.58687992e+25,
          4.59135442e-41, -3.58688015e+25, 4.59135442e-41,
          2.80259693e-45, 7.00649232e-45, 5.60519386e-45, 0.,
          -9.54009277e+03, 3.29212332e+00, 1.42054829e-19,
          3.37032175e+00, 2.30334697e-34, 3.40582275e+00, 0., 0.,
          1.27875038e+02, 2.80259693e-45, 0., 0. ]
      - [ 0., 3.50000000e+00, 0., 3.50000000e+00, 0., 3.50000000e+00,
          -1.52583770e+29, 3.03004241e+00, 0., 3.50000000e+00,
          -4.80702056e-09, 3.19683838e+00, -5.58388552e+10,
          3.46258855e+00, -6.60641681e+33, 3.37592888e+00, 0.,
          3.50000000e+00, -5.23202749e-19, 3.17294836e+00,
          -2.62963018e+20, 3.18161035e+00, 3.74661612e+34,
          3.44464755e+00, -1.65357722e+22, 3.07438326e+00,
          4.36873415e+29, 3.30961633e+00, 3.89666906e+34, 3.31595731e+00,
          5.31636485e-30, 3.19700742e+00, 1.09660246e-31, 3.39695597e+00,
          6.78388926e-04, 3.49777889e+00, 0., 3.50000000e+00,
          1.74466416e+13, 3.10583901e+00, 0., 3.50000000e+00, 0.,
          3.50000000e+00, 0., 3.50000000e+00, -3.04611132e-15,
          3.45728064e+00, 0., 3.50000000e+00, -1.11622429e+00,
          3.48584008e+00, -1.19948467e-20, 3.48427486e+00,
          1.35476579e+32, 3.38550544e+00, 9.75801758e+03, 3.20338821e+00,
          -4.57595102e-02, 3.48584008e+00, 3.90232351e+10,
          3.25663710e+00, -4.85066266e-06, 3.44044995e+00,
          -1.72430698e+25, 3.22896409e+00, 0., 3.50000000e+00,
          6.47893456e-34, 3.48427510e+00, 1.43011892e-32, 3.19684410e+00,
          3.31805524e+35, 3.43333054e+00, 0., 3.50000000e+00, 0.,
          3.50000000e+00, 0., 3.50000000e+00, 2.12094230e-39,
          3.33093905e+00, -8.08293298e-02, 3.48584008e+00,
          8.57237658e-27, 3.42769408e+00, 0., 3.50000000e+00,
          6.13926875e+04, 3.10569167e+00, -5.01159266e-26,
          3.28695989e+00, 2.01007558e+33, 3.26035523e+00, 1.28020375e-35,
          3.48644972e+00, 4.11492334e+15, 3.21930218e+00, 0.,
          3.50000000e+00, -3.93476758e+03, 3.48433781e+00,
          7.13580554e-32, 3.32185912e+00, 3.46946949e-03, 3.47528768e+00,
          7.58603433e-39, 3.45598245e+00, 8.11224153e-39, 3.42769384e+00,
          0., 3.50000000e+00, 0., 3.50000000e+00, 2.09912747e+37,
          3.04906964e+00, 9.12951236e+17, 2.78888226e+00, 0.,
          3.50000000e+00, 1.37311487e-27, 3.35964632e+00, 0., 0.,
          -3.40017090e+02, 2.77904177e+00, -1.63143341e-05,
          3.48584008e+00 ]
      - [ -6.91137981e+00, 3.19683838e+00, -2.19340761e+30,
          3.43645287e+00, 1.95622775e-16, 3.34741569e+00,
          -4.31021030e+24, 2.92295861e+00, 6.36860258e+37,
          3.46812987e+00, -6.86241710e+10, 3.39699864e+00,
          -3.15993457e+11, 3.48870969e+00, -3.83081430e-20,
          3.30710411e+00, -3.77392059e+02, 3.38980579e+00,
          -8.51819077e+01, 3.11819792e+00, 1.16362050e+25,
          3.18786383e+00, 0., 3.50000000e+00, 1.23903687e+36,
          3.07053590e+00, 0., 0., 0., 0., -1.39350606e+32,
          3.48082328e+00, -2.06800959e+32, 2.98584151e+00,
          2.07298867e+22, 3.41333580e+00, -8.34293047e+04,
          3.34125948e+00, 6079398., 2.93854308e+00, -1.80777729e-35,
          3.39211845e+00, 0., 3.50000000e+00, 0., 3.50000000e+00,
          5.56446509e+20, 3.30116630e+00, 0., 3.50000000e+00,
          2.43196814e-06, 3.26589346e+00, -1.52852624e-30,
          3.23588753e+00, 2.08702648e+10, 3.34282255e+00, 2.15968994e-05,
          3.22891212e+00, 0., 0., 0., 0., -4.76131280e-15,
          3.08382940e+00, -1.25455869e+13, 3.00148678e+00, 0.,
          3.50000000e+00, 6.11039334e+09, 3.49476194e+00, 8.42350346e-14,
          3.20331049e+00, -2.25311957e-13, 3.46059680e+00, 0.,
          3.50000000e+00, 0., 3.50000000e+00, -1.42632054e+23,
          3.43790579e+00, -1.11056627e-31, 3.49483180e+00,
          6.89138550e+06, 3.17295361e+00, -1.94815428e+20,
          3.40435195e+00, 0., 3.50000000e+00, 3.73188312e-28,
          3.34125519e+00, 0., 0., 0., 0., -23026502., 3.23593497e+00,
          2.67585328e-19, 3.09354091e+00, 0., 3.50000000e+00,
          -1.48902251e-29, 3.43820977e+00, 1.52978425e+06,
          3.40313506e+00, -2.66821374e-24, 3.28541613e+00, 0.,
          3.50000000e+00, 1.88889068e+10, 3.43828869e+00, 0.,
          3.50000000e+00, 0., 3.50000000e+00, 1.52379563e-21,
          2.92423248e+00, 1.67197238e+15, 3.24363804e+00,
          -5.76494564e+34, 3.43647838e+00, -1.69068225e+03,
          3.49979305e+00, 0., 0., 0., 0., 2.90643251e+10, 3.28481221e+00 ]
      - [ -5.80920138e+33, 3.38474727e+00, 0., 3.50000000e+00,
          2.70082949e+04, 3.29917884e+00, 2869128., 2.99003339e+00, 0.,
          3.50000000e+00, -6.48002934e-27, 3.38509631e+00,
          8.71009616e+12, 3.39335346e+00, 1.57537590e-23, 3.45346284e+00,
          2.34520624e-38, 3.41663575e+00, -8.39850721e+37,
          3.08999252e+00, 2.71713640e+14, 3.01055717e+00, 0.,
          3.50000000e+00, 4.06647504e-26, 3.01076865e+00, 0., 0., 0., 0.,
          -4.18215046e+35, 3.43334603e+00, 1.58936323e+20,
          3.14918065e+00, 0., 3.50000000e+00, -2.01709499e+01,
          3.42696357e+00, -6.36190934e-30, 3.10575271e+00,
          1.34258105e-09, 3.41998768e+00, 0., 3.50000000e+00, 0.,
          3.50000000e+00, 0., 3.50000000e+00, 0., 3.50000000e+00,
          5.20933552e-36, 3.30772686e+00, -1.01390462e+22,
          3.22001314e+00, -2.92493142e+25, 3.35665774e+00,
          2.07451381e+31, 3.20341015e+00, 0., 0., 0., 0., 1.15241218e-13,
          3.07078743e+00, -7.69896953e+19, 3.09578061e+00, 0.,
          3.50000000e+00, 0., 3.50000000e+00, -1.07253158e-14,
          3.25149536e+00, 0., 3.50000000e+00, 0., 3.50000000e+00, 0.,
          3.50000000e+00, -6.74918970e-25, 3.39763904e+00, 0.,
          3.50000000e+00, 4.95310622e-17, 3.17359972e+00,
          -8.70200156e+04, 3.41878033e+00, 1.12617090e-32,
          3.45899820e+00, 1.23631059e+24, 3.29907012e+00, 0., 0., 0., 0.,
          -396455872., 3.24579954e+00, -2.37639106e-04, 3.15854120e+00,
          -8.14469939e+09, 3.39523268e+00, 0., 3.50000000e+00, 0.,
          3.50000000e+00, 0., 3.50000000e+00, -42368364., 3.43494987e+00,
          -3.35404538e-02, 3.46625543e+00, 0., 3.50000000e+00, 0.,
          3.50000000e+00, -1.07564097e-13, 2.86826968e+00,
          -1.31713376e-10, 3.17328143e+00, -6.40163115e-32,
          3.49063134e+00, -1.11676635e-34, 3.34944940e+00, 0., 0., 0.,
          0., -3.15921816e-10, 3.23593497e+00 ]
      - [ 1.73761010e-43, 3.50000000e+00, 0., 3.50000000e+00,
          -3.86441625e+05, 3.48627615e+00, -4.40396340e+21,
          3.10565686e+00, 4.22558077e-38, 0., 1.49995572e-09,
          4.57818221e-41, 1.29536030e-41, 0., 2.80259693e-45, 0.,
          1.29536030e-41, 0., 4.22617268e-38, 0., 8.97441983e-39, 0.,
          2.97418895e-11, 4.57818221e-41, 8.97441983e-39, 0.,
          2.13412039e-38, 0., 4.22617268e-38, 0., 4.17833086e-14,
          4.57818221e-41, .Nan, .Nan, 4.61961219e-10, 4.57818221e-41,
          1.33295012e-19, 3.49778247e+00, 1.29199718e-41, 0.,
          2.52233724e-44, 0., 4.59871169e-10, 4.57818221e-41,
          1.29143666e-41, 0., 5.04469799e-10, 4.57818221e-41, 0.,
          3.50000000e+00, 2.39154071e-01, 3.26675487e+00,
          -3.72866753e+27, 3.42544699e+00, 0., 3.50000000e+00, 0.,
          3.50000000e+00, 8.93717851e+18, 3.07053494e+00,
          -1.18153667e+11, 3.37573862e+00, 5.98487797e+19,
          3.41050601e+00, 1.42043550e-02, 3.37573957e+00, 0.,
          3.50000000e+00, 0., 3.50000000e+00, 2.46180516e+17,
          3.36546063e+00, 0., 3.50000000e+00, 0., 3.50000000e+00,
          3.05561781e+00, 3.49580503e+00, -3.58693249e+25,
          4.59135442e-41, 8.97440862e-39, 0., 1.68155816e-44, 0.,
          -3.58688453e+25, 4.59135442e-41, 7.00649232e-45, 0.,
          -3.58693249e+25, 4.59135442e-41, 4.98326824e-10,
          4.57818221e-41, 0., 3.09354091e+00, -1.35316662e-35,
          3.40722537e+00, -2.10305795e-38, 3.29906964e+00, .Nan, .Nan,
          0., 3.50000000e+00, 0., 3.50000000e+00, -3.58688084e+25,
          4.59135442e-41, -3.58688453e+25, 4.59135442e-41,
          -3.58687992e+25, 4.59135442e-41, -3.58688015e+25,
          4.59135442e-41, 2.80259693e-45, 7.00649232e-45, 5.60519386e-45,
          0., -2.80902034e+21, 3.30258369e+00, -3.99825156e+21,
          3.48473406e+00, 0., 3.50000000e+00, 9.20570148e+16,
          3.39905238e+00, 1.27875038e+02, 2.80259693e-45, 0., 0. ]
      - [ -3.40998551e-20, 3.33864570e+00, 5.03242845e-05,
          3.38485169e+00, -4.86110960e-24, 3.40049815e+00,
          1.20524798e+27, 2.88121963e+00, 0., 3.50000000e+00,
          -1.39197397e-07, 3.47682309e+00, 0., 3.50000000e+00,
          -1.61974043e+11, 3.35642600e+00, 17743622., 3.48365021e+00,
          8.75904970e+34, 3.28475666e+00, -1.30292850e-19,
          3.00148654e+00, 0., 3.50000000e+00, -8.78873369e+27,
          3.02920437e+00, 0., 0., 0., 0., 8.57059131e-05, 3.35058236e+00,
          2.83901920e+28, 2.93920302e+00, -1.53809571e-32,
          3.48870993e+00, -6.92507293e-12, 3.43654227e+00, .Nan,
          3.05022621e+00, 2.14895550e-08, 3.41354084e+00, 0.,
          3.50000000e+00, 0., 3.50000000e+00, 4.57742148e+04,
          3.39358664e+00, 0., 3.50000000e+00, 2.86105424e+31,
          3.29707980e+00, -1.43684930e-28, 3.21627164e+00,
          -1.77032848e+17, 3.31258106e+00, 7.05720112e-02,
          3.13649583e+00, 0., 0., 0., 0., 4.33721996e-17, 3.08190346e+00,
          -9.08533072e+16, 3.05246043e+00, -3.76911012e-05,
          3.47458839e+00, 0., 3.50000000e+00, -1.40333251e+10,
          3.01036811e+00, -3.56021938e-22, 3.42927909e+00, 0.,
          3.50000000e+00, 0., 3.50000000e+00, -4.55563570e-19,
          3.35304451e+00, -3.59260133e+17, 3.45606208e+00,
          2.91437317e+23, 3.20029473e+00, -3.41732945e-34,
          3.42300510e+00, 3.68296682e+30, 3.49930143e+00, 5.27062615e+28,
          3.30961728e+00, 0., 0., 0., 0., 16170839., 3.11866045e+00,
          -3.22220413e-24, 3.04908514e+00, 0., 3.50000000e+00, 0.,
          3.50000000e+00, 2.80742246e+09, 3.07413125e+00, 0.,
          3.50000000e+00, 0., 3.50000000e+00, 0., 3.50000000e+00, 0.,
          3.50000000e+00, 0., 3.50000000e+00, 6.39932779e-26,
          2.98740458e+00, -2.18834670e-20, 3.33865666e+00, 0.,
          3.50000000e+00, 1.01510068e-05, 3.48082232e+00, 0., 0.,
          -3.40017090e+02, 2.77904177e+00, -4.55609324e-06,
          3.26035523e+00 ]
      - [ 1.47643539e-06, 3.28891444e+00, -2.70282719e+05,
          3.46258903e+00, -8.48480594e+12, 3.41917562e+00,
          -1.61563560e-20, 3.01039338e+00, 0., 3.50000000e+00,
          -1.09733356e+29, 3.32259560e+00, 2.42792808e-09,
          3.47206259e+00, -4.11862075e-30, 3.34096146e+00,
          1.39416601e+24, 3.31234479e+00, -4.05540390e+16,
          3.14462471e+00, 2.75145442e+30, 2.88118243e+00, 0.,
          3.50000000e+00, -4.73279457e+22, 3.02989531e+00, 0., 0.,
          2.06414177e+18, 3.07053494e+00, -3.94231420e-29,
          3.40432167e+00, 1.74327193e+15, 3.17319489e+00, 2.88067598e+23,
          3.47637868e+00, 0., 3.50000000e+00, 5.75107038e-08,
          3.05025268e+00, 7.75635689e-02, 3.47008491e+00, 0.,
          3.50000000e+00, 0., 3.50000000e+00, 0., 3.50000000e+00,
          7.52867607e-30, 3.46292043e+00, 4.49236688e+05, 3.33183861e+00,
          -3.51368311e+16, 3.14462471e+00, 0., 3.50000000e+00,
          2.57820904e-10, 3.15317440e+00, 0., 0., -7.68504704e-11,
          2.86826968e+00, -1.04149666e-32, 3.25677419e+00,
          -6.69512059e-12, 3.02999473e+00, 0., 3.50000000e+00, 0.,
          3.50000000e+00, -2.18777905e+03, 3.09464908e+00, 0.,
          3.50000000e+00, 0., 3.50000000e+00, 0., 3.50000000e+00, 0.,
          3.50000000e+00, 0., 3.50000000e+00, -4.94145987e+10,
          3.21258855e+00, 4.70603805e+29, 3.30961633e+00, 0.,
          3.50000000e+00, -1.87070092e+15, 3.40096116e+00, 0., 0.,
          -4.63589704e-19, 2.92294836e+00, 1.23382011e+02,
          3.18805003e+00, -1.45938043e+10, 3.01036811e+00, 0.,
          3.50000000e+00, 0., 3.50000000e+00, 2.10488054e-08,
          3.45888710e+00, 1.10080617e-22, 3.39400816e+00, 0.,
          3.50000000e+00, 0., 3.50000000e+00, 0., 3.50000000e+00, 0.,
          3.50000000e+00, -4.30292815e-19, 2.92294836e+00,
          1.17457392e-04, 3.48082232e+00, -2.32697211e-28,
          3.42307019e+00, 0., 3.50000000e+00, 0., 0., -3.40017090e+02,
          3.02904177e+00, -7.26150496e+21, 3.01346016e+00 ]
      - [ 2.03713313e-01, 3.37573886e+00, 0., 3.50000000e+00,
          1.32966207e-12, 3.47461414e+00, -1.42792500e-27,
          3.15885806e+00, 0., 3.50000000e+00, 6.21655583e-01,
          3.39200735e+00, 0., 3.50000000e+00, 0., 3.50000000e+00,
          -6.66443871e-15, 3.46424055e+00, 6.29958308e-09,
          3.19683123e+00, -9.00573288e-18, 3.14464402e+00, 0.,
          3.50000000e+00, 2.60827082e+38, 3.05985689e+00, 0., 0.,
          9.51943308e+34, 3.04906964e+00, 1.11367634e+17, 3.39905238e+00,
          -7.62458849e+10, 3.11822033e+00, 0., 3.50000000e+00, 0.,
          3.50000000e+00, -1.34614428e-23, 3.03419709e+00,
          5.31358057e+03, 3.39305353e+00, 0., 3.50000000e+00, 0.,
          3.50000000e+00, 1.65612597e-16, 3.49708295e+00, 0.,
          3.50000000e+00, 1.68435347e-17, 3.21930504e+00, 8.32118200e-22,
          3.18260026e+00, 5.54354883e+04, 3.37472987e+00, 1.58517856e+19,
          3.25664544e+00, 0., 0., 0., 0., -3.55598254e+26,
          3.04909873e+00, -3.91545257e+24, 3.07066369e+00, 0.,
          3.50000000e+00, 1.87637340e+14, 3.45330691e+00,
          -1.89308417e-28, 3.19683170e+00, 0., 3.50000000e+00, 0.,
          3.50000000e+00, 0., 3.50000000e+00, -4.92090940e-14,
          3.46393657e+00, 0., 3.50000000e+00, 9.20698170e-11,
          3.13122201e+00, 4.24587274e-33, 3.37886143e+00, 0.,
          3.50000000e+00, 6.67561536e+21, 3.32053518e+00, 0., 0., 0., 0.,
          1.83558032e-24, 3.24585509e+00, -3.42828650e-38,
          3.04906964e+00, 9.49047804e-02, 3.44193101e+00,
          -3.74107824e-26, 3.35964608e+00, 7.62078983e+31,
          3.37519622e+00, -1.07502501e+29, 3.39920950e+00,
          1.80643234e+11, 3.39335346e+00, 1.85642841e+19, 3.39434719e+00,
          0., 3.50000000e+00, 0., 3.50000000e+00, -4.30292815e-19,
          2.92294836e+00, -1.07188516e+05, 3.20434427e+00,
          -1.15836564e-18, 3.49017954e+00, 1.06707844e-24,
          3.38789105e+00, 0., 0., 0., 0., 3.76703433e+26, 3.19683266e+00 ]
      - [ 0., 3.50000000e+00, 0., 3.50000000e+00, -1.94494246e-33,
          3.45330763e+00, -7.17291449e-31, 2.95435095e+00, 0.,
          3.50000000e+00, 2.22184929e+16, 3.43786526e+00, 0.,
          3.50000000e+00, -2.47512837e+31, 3.42018104e+00,
          -1.44595555e+32, 3.31383228e+00, 5.58676203e+16,
          3.29707956e+00, 8162338., 2.98584056e+00, 0., 3.50000000e+00,
          -7.50145861e-28, 2.92296386e+00, 0., 0., 0., 0.,
          1.97454185e-07, 3.40352964e+00, 8.64548199e-17, 3.28696012e+00,
          1.45559770e-05, 3.47897267e+00, 1.11881368e+12, 3.37720013e+00,
          -4.40166368e-05, 3.08194590e+00, 1.12152378e+24,
          3.44484949e+00, 0., 3.50000000e+00, 0., 3.50000000e+00,
          7.74040760e-04, 3.48050547e+00, 0., 3.50000000e+00,
          -1.63073721e-09, 3.28696036e+00, -875750080., 3.26035833e+00,
          -1.20904762e+30, 3.36670518e+00, -6.42989394e-12,
          3.10057735e+00, 0., 0., 0., 0., -6.62999338e+14,
          3.10622859e+00, 2.14638671e-32, 3.05352354e+00,
          -4.27906741e-07, 3.41052222e+00, 0., 3.50000000e+00,
          -4.41049929e-15, 3.22905731e+00, 0., 3.50000000e+00, 0.,
          3.50000000e+00, 0., 3.50000000e+00, -3.91661601e+28,
          3.37792683e+00, 0., 3.50000000e+00, 4.35971345e+35,
          3.13119173e+00, 2.23519219e+05, 3.43862081e+00,
          -2.31374922e+05, 3.36895585e+00, 2.31383591e+27,
          3.37037349e+00, 0., 0., -3.40017090e+02, 2.77904177e+00,
          6.61889680e-06, 3.01598692e+00, 1.80011548e-16, 3.00151157e+00,
          0., 3.50000000e+00, 0., 3.50000000e+00, 0., 3.50000000e+00,
          -1.70642493e+10, 3.39858794e+00, 0., 3.50000000e+00,
          -4.02729322e-10, 3.32073331e+00, 0., 3.50000000e+00,
          1.13754281e+29, 3.48858905e+00, -1.05495162e-13,
          2.86826968e+00, 4.41843176e+00, 3.37037277e+00,
          -9.03973785e-07, 3.45187044e+00, 2.34917793e+36,
          3.27506757e+00, 0., 0., 2.01007558e+33, 3.01035523e+00,
          -8.47486135e+13, 3.01038074e+00 ]
      - [ 1.46519121e+04, 3.19277692e+00, 8.66284668e+02, 3.39667821e+00,
          9.65117940e+14, 3.38939309e+00, 3.14754270e+21, 3.02904868e+00,
          4.69734386e-13, 3.49163485e+00, -2.49263663e-02,
          3.36293960e+00, -4.11480733e-06, 3.18786359e+00, 0.,
          3.50000000e+00, 0., 3.50000000e+00, -2.62894599e-22,
          3.17294836e+00, 1.03018827e-16, 3.09354091e+00, 0.,
          3.50000000e+00, 9.74004559e+29, 3.01327634e+00, 0., 0., 0., 0.,
          0., 3.50000000e+00, 1.12717056e+28, 2.93854046e+00,
          -5.74164680e-08, 3.41096425e+00, 0., 3.50000000e+00,
          1.63634474e+16, 3.12037706e+00, -2.17349767e-11,
          3.32152724e+00, -3.39311868e-04, 3.36293960e+00,
          -1.12100227e-19, 3.28695989e+00, 0., 3.50000000e+00,
          -1.21835917e-15, 3.42166781e+00, -2.01412045e-24,
          3.11819792e+00, 1.00813822e-16, 3.09354091e+00, 0.,
          3.50000000e+00, -1.89083841e+15, 3.05536318e+00, 0., 0., 0.,
          0., -1.03373541e-13, 3.29908442e+00, -9.26419330e-10,
          3.14462972e+00, 5.02185889e+03, 3.37873030e+00, 0.,
          3.50000000e+00, 4.10882586e+09, 3.01035547e+00, 0.,
          3.50000000e+00, 9.85788053e+28, 2.88118243e+00, 0.,
          3.50000000e+00, 1.61551198e+38, 3.38142729e+00, 0.,
          3.50000000e+00, 0., 0., 2.05680169e-03, 3.41690826e+00,
          1.87111307e-23, 3.44595003e+00, -1.59483238e+16,
          3.26955628e+00, 0., 0., 0., 0., 7.46669724e+34, 3.12237644e+00,
          -3.04699072e+22, 3.01035523e+00, -605747072., 3.33866763e+00,
          -7.42914428e-32, 3.46731138e+00, 2.62345965e-23,
          3.01953673e+00, 0., 3.50000000e+00, -3.40017090e+02,
          2.77904177e+00, -1.21742719e+27, 3.49473739e+00,
          7.15084045e+02, 3.48586392e+00, 0., 3.50000000e+00, 0., 0.,
          3.03737167e+16, 3.29479861e+00, 2.65565557e+31, 3.33124948e+00,
          0., 3.50000000e+00, 0., 0., 0., 0., 2.60647484e+05,
          3.18787456e+00 ]
      - [ 1.73761010e-43, 3.50000000e+00, 0., 3.50000000e+00, 0.,
          3.50000000e+00, -1.03166114e-33, 2.92423725e+00,
          4.23591226e-38, 0., 1.49995572e-09, 4.57818221e-41,
          1.94107863e-41, 0., 2.80259693e-45, 0., 1.94107863e-41, 0.,
          4.23657592e-38, 0., 8.97441983e-39, 0., 2.97418895e-11,
          4.57818221e-41, 8.97441983e-39, 0., 2.13412039e-38, 0.,
          4.23657592e-38, 0., 4.17833086e-14, 4.57818221e-41, .Nan, .Nan,
          4.61961219e-10, 4.57818221e-41, 0., 3.50000000e+00,
          1.93771552e-41, 0., 3.78350585e-44, 0., 4.59871169e-10,
          4.57818221e-41, 1.93715500e-41, 0., 5.04469799e-10,
          4.57818221e-41, 0., 3.50000000e+00, -1.60029583e-06,
          3.32675600e+00, -2.90963667e+14, 3.21270871e+00,
          5.25633659e-05, 3.44594336e+00, -1.31621800e-05,
          3.10129356e+00, 0., 0., 0., 0., -6.07844355e+12,
          3.23873091e+00, -1.64999799e+35, 3.05243754e+00, 0.,
          3.50000000e+00, 0., 3.50000000e+00, 1.68184873e-37,
          3.08332896e+00, 2.10709125e-37, 3.42041445e+00, 0.,
          3.50000000e+00, 0., 3.50000000e+00, -3.58693249e+25,
          4.59135442e-41, 8.97440862e-39, 0., 2.52233724e-44, 0.,
          -3.58688453e+25, 4.59135442e-41, 7.00649232e-45, 0.,
          -3.58693249e+25, 4.59135442e-41, 4.98326824e-10,
          4.57818221e-41, 0., 0., -6.71501093e+27, 3.12236524e+00,
          1.72200884e+20, 2.78888226e+00, .Nan, .Nan, -6.91939886e-13,
          3.46488619e+00, -6.64420189e+24, 3.44583011e+00,
          -3.58688084e+25, 4.59135442e-41, -3.58688453e+25,
          4.59135442e-41, -3.58687992e+25, 4.59135442e-41,
          -3.58688015e+25, 4.59135442e-41, 2.80259693e-45,
          7.00649232e-45, 5.60519386e-45, 0., 2.82567505e+02,
          3.31842089e+00, 0., 3.50000000e+00, 990544192., 3.44489145e+00,
          0., 0., 1.27875038e+02, 2.80259693e-45, 0., 0. ]
      - [ 0., 3.50000000e+00, 3.14241499e-24, 3.47177410e+00,
          1.08342658e-11, 3.29712939e+00, -2.24036950e-04,
          3.01058221e+00, 0., 3.50000000e+00, -1.14915150e+21,
          3.13369846e+00, 1.24832088e-19, 3.40270686e+00, 6.44655250e+05,
          3.40118527e+00, -5.23161468e+25, 3.31323290e+00,
          2.01007558e+33, 3.01035523e+00, -5.76929423e+10,
          3.21258855e+00, 0., 3.50000000e+00, -3.64863967e+30,
          3.02904177e+00, 0., 0., 0., 0., 0., 3.50000000e+00,
          -3.91860814e+28, 3.41312480e+00, 0., 3.50000000e+00,
          9.71062450e+32, 3.35352421e+00, -4.11291162e+03,
          3.17313504e+00, 0., 3.50000000e+00, 1.79631255e-26,
          3.41462159e+00, -2.74362289e-22, 3.33513713e+00, 0.,
          3.50000000e+00, 0., 3.50000000e+00, -9.75340817e+37,
          3.26568723e+00, -6.63063998e-19, 3.17294836e+00,
          1.86343201e+12, 3.48261619e+00, -3.01597567e+21,
          3.20331049e+00, 0., 0., 0., 0., 8.40081388e-17, 3.34354091e+00,
          2.10768224e-32, 3.12575793e+00, 7.00093082e+32, 3.40356827e+00,
          6.48004791e+29, 3.49067450e+00, -9.70608586e+22,
          3.23905373e+00, 0., 3.50000000e+00, 5.66930648e-05,
          3.08863473e+00, 0., 3.50000000e+00, -3.40293446e-34,
          3.46936059e+00, 0., 3.50000000e+00, 2.99305764e+30,
          2.88118243e+00, 1.29928803e-05, 3.40722513e+00,
          -9.96627274e+01, 3.45033884e+00, -5.28680820e-38,
          3.32799172e+00, 0., 0., 0., 0., -2.52420449e+04,
          3.25148654e+00, 1.94114205e-06, 3.14462495e+00,
          -1.88962615e-13, 3.30250239e+00, 0., 3.50000000e+00, 0.,
          3.50000000e+00, -42198940., 3.43552542e+00, -3.40017090e+02,
          2.77904177e+00, 1.09047083e-20, 3.45185208e+00, 0.,
          3.50000000e+00, 0., 3.50000000e+00, -1.32957984e-21,
          2.86819792e+00, -3.64980327e-20, 3.26575637e+00,
          4.36117222e-26, 3.44198465e+00, -1.35823419e-14,
          3.44278169e+00, 0., 0., 0., 0., 5.97351933e+29, 3.28217673e+00 ]
      - [ -1.20755315e-20, 3.29873013e+00, 0., 3.50000000e+00, 0.,
          3.50000000e+00, -3.51770047e+28, 2.98740578e+00, 0.,
          3.50000000e+00, -3.14865889e-32, 3.38628960e+00,
          4.51921727e-22, 3.49962640e+00, 1.18902004e-04, 3.38398457e+00,
          7.16535668e-35, 3.47043300e+00, -4.60674462e-04,
          3.25148654e+00, -4.63947852e+04, 2.77904177e+00, 0.,
          3.50000000e+00, -8.49543168e+12, 3.03888392e+00, 0., 0., 0.,
          0., -1.20733431e-28, 3.32963037e+00, -1.59872683e+28,
          3.14931560e+00, 0., 3.50000000e+00, -1.05724668e+18,
          3.39129233e+00, -1.20207795e+27, 3.11849284e+00,
          -2.13525974e+12, 3.39849520e+00, 0., 3.50000000e+00, 0.,
          3.50000000e+00, 5.82100601e+01, 3.47470546e+00,
          -1.28047857e-17, 3.46669602e+00, -9.05710797e+11,
          3.31722426e+00, -5.10040392e+10, 3.21258855e+00,
          7.35566858e+19, 3.40587544e+00, -1.37328929e-20,
          3.02124000e+00, 0., 0., 0., 0., -2.70045153e+38,
          2.92545104e+00, 1.89836397e-14, 3.07438636e+00, 0.,
          3.50000000e+00, 0., 3.50000000e+00, 2.24085717e-14,
          3.31840324e+00, 0., 3.50000000e+00, 0., 3.50000000e+00, 0.,
          3.50000000e+00, -8.00328235e-06, 3.44096279e+00,
          1.90407581e-19, 3.48145175e+00, 2.60015673e-17, 3.21264887e+00,
          2.59225561e-15, 3.33556175e+00, -7.96502395e+37,
          3.44832277e+00, 3.50044050e+06, 3.08183861e+00, 0., 0., 0., 0.,
          1.07215772e-06, 3.06032681e+00, 2.82538103e+38, 2.86841249e+00,
          0., 3.50000000e+00, 0., 3.50000000e+00, 0., 3.50000000e+00,
          1.79221222e+20, 3.40635943e+00, 0., 3.50000000e+00,
          -4.87781633e-23, 3.48731565e+00, 0., 3.50000000e+00,
          1.72025638e+16, 3.43393254e+00, -3.40017090e+02,
          2.77904177e+00, 1.00585342e+15, 3.15855122e+00, 0.,
          3.50000000e+00, -8.23266352e+37, 3.11822057e+00, 0., 0., 0.,
          0., 9.49239109e-07, 3.02123427e+00 ]
      - [ 7.49339277e-18, 3.31598830e+00, 0., 3.50000000e+00,
          -1.47148565e-20, 3.48427486e+00, 3.98488983e+37,
          3.18786383e+00, 0., 3.50000000e+00, -1.00775198e+31,
          3.38261986e+00, -1.81868973e+01, 3.49249101e+00,
          -3.62672098e+32, 3.46646857e+00, -6.21731509e-23,
          3.31187367e+00, 1.51525299e-33, 3.19694734e+00,
          -8.76233105e+03, 3.01036787e+00, 0., 3.50000000e+00,
          1.09370719e+23, 3.01036811e+00, 0., 0., 0., 0., 0.,
          3.50000000e+00, -2.62138368e-35, 3.24579072e+00, 0.,
          3.50000000e+00, -59658988., 3.43700218e+00, 6.42588942e-14,
          3.05628395e+00, -1.28579753e-27, 3.45575309e+00, 0.,
          3.50000000e+00, 0., 3.50000000e+00, 1.16044357e+02,
          3.49320483e+00, 0., 3.50000000e+00, 3.49768020e-10,
          3.29708791e+00, -9.57448392e+21, 3.22001314e+00,
          -2.42449727e-10, 3.49679255e+00, 8.32709766e+19,
          3.13206100e+00, 0., 0., 0., 0., -19958516., 3.25365973e+00,
          2.18307553e-34, 3.04253173e+00, 0., 3.50000000e+00, 0.,
          3.50000000e+00, -5.28357523e+13, 3.45839071e+00, 0.,
          3.50000000e+00, 0., 3.50000000e+00, 0., 3.50000000e+00, 0.,
          3.50000000e+00, 0., 3.50000000e+00, 4.66408661e-30,
          3.14462972e+00, -4.82213199e-01, 3.40932465e+00,
          -1.14330903e+11, 3.43251777e+00, 9.30535375e-32,
          3.30966926e+00, 0., 0., 0., 0., -1.33780770e+28,
          3.15997839e+00, -1.68799496e-34, 2.86876488e+00, 0.,
          3.50000000e+00, 0., 3.50000000e+00, 0., 3.50000000e+00,
          1.82328284e+03, 3.45375586e+00, 0., 3.50000000e+00, 0.,
          3.50000000e+00, 0., 3.50000000e+00, 0., 3.50000000e+00,
          -2.62894599e-22, 2.92294836e+00, 1.70128642e+24,
          3.27037978e+00, 0., 3.50000000e+00, 0., 3.50000000e+00, 0., 0.,
          0., 0., 2.03528798e-19, 3.18790913e+00 ]
      - [ -1.07371343e-35, 3.41515732e+00, 0., 3.50000000e+00,
          7.68862228e+15, 3.37426639e+00, 8.07444689e-09, 3.07078815e+00,
          0., 3.50000000e+00, -7.51153874e-19, 3.47683549e+00,
          4.76500799e-15, 3.03217268e+00, -1.79947158e-19,
          3.46002889e+00, 4.61580858e+35, 3.49941516e+00, 9.51943308e+34,
          3.29906964e+00, 0., 0., 0., 3.50000000e+00, -335815680.,
          3.02999783e+00, 0., 0., 0., 0., 9.58236956e-09, 3.47466898e+00,
          2.47906710e-38, 3.21778131e+00, -9.36474415e-18,
          3.47750759e+00, -5.06831144e+36, 3.38353372e+00,
          -5.87787652e+30, 3.10839152e+00, 3.37024542e-21,
          3.48293185e+00, 1.09039820e+26, 3.28519654e+00, 6.36407534e+19,
          3.37410760e+00, 0., 3.50000000e+00, 0., 3.50000000e+00,
          4.30785901e-29, 3.02904534e+00, -5.35635847e+22,
          3.18161035e+00, 0., 3.50000000e+00, -5.50362437e+25,
          3.13179636e+00, 0., 0., 0., 0., 9.72226202e-01, 3.15964460e+00,
          8.11090019e-14, 3.09522390e+00, 5.11674810e-23, 3.49250603e+00,
          5.00418553e-30, 3.49680662e+00, 2.93312132e-01, 3.31314015e+00,
          0., 3.50000000e+00, -3.07212905e-22, 3.46777868e+00, 0.,
          3.50000000e+00, 0., 3.50000000e+00, 0., 3.50000000e+00,
          -2.36996980e+24, 3.10565567e+00, -1.03752564e-06,
          3.49129105e+00, -3.30753329e+18, 3.39919257e+00,
          -7.83233208e-33, 3.37864590e+00, 0., 0., -3.40017090e+02,
          2.77904177e+00, 2.05564764e-04, 3.08337164e+00, 1.13256778e-20,
          3.00234318e+00, -4.27261058e-29, 3.41692519e+00,
          -7.25631045e-30, 3.43681145e+00, 0., 3.50000000e+00, 0.,
          3.50000000e+00, -4.46360782e-10, 3.43786359e+00,
          -4.75014499e+32, 3.49680352e+00, 0., 3.50000000e+00, 0.,
          3.50000000e+00, -3.40017090e+02, 2.77904177e+00,
          -4.97474499e-32, 3.38005304e+00, 0., 3.50000000e+00,
          6.49549670e+09, 3.39072633e+00, 0., 0., -3.40017090e+02,
          3.02904177e+00, 1.05148287e+01, 3.07066870e+00 ]
      - [ 1.29674963e+23, 3.28477550e+00, -1.22518020e+19,
          3.44164228e+00, 2.90569349e+12, 3.31840229e+00,
          -1.53615940e-06, 3.00693464e+00, 0., 3.50000000e+00,
          -8.40756305e-26, 3.43645453e+00, -3.55393894e+09,
          3.44862294e+00, 3.64590973e+02, 3.46262479e+00,
          -4.65421183e+18, 3.41390967e+00, -6.83349864e-36,
          3.26568842e+00, -3.27594876e-02, 2.98584008e+00, 0.,
          3.50000000e+00, -5.42351902e-02, 2.93787694e+00, 0., 0., 0.,
          0., -8.41504807e-05, 3.41088319e+00, 2.05227476e+25,
          3.24579024e+00, 0., 3.50000000e+00, -1.08607037e+10,
          3.38901830e+00, 1.17388385e+12, 3.07110929e+00,
          -2.06102300e+15, 3.48970985e+00, 0., 3.50000000e+00,
          -6.48029685e-11, 3.49783254e+00, 0., 3.50000000e+00, 0.,
          3.50000000e+00, 3.09881447e-14, 3.33556175e+00,
          -1.46947360e-38, 3.18334126e+00, 0., 3.50000000e+00,
          -1.05241793e-30, 3.12236214e+00, 0., 0., 0., 0.,
          -2.14063836e+23, 3.17312574e+00, -1.98269724e-15,
          3.05262756e+00, -4.65293543e-27, 3.32131481e+00, 0.,
          3.50000000e+00, 6.56374894e-15, 3.25148821e+00, 0.,
          3.50000000e+00, 0., 3.50000000e+00, 0., 3.50000000e+00,
          -1.15569428e-07, 3.42820001e+00, 0., 3.50000000e+00,
          2.55679724e-17, 3.21264887e+00, 2.29624232e-37, 3.46616936e+00,
          -1.59165953e-26, 3.49048257e+00, 1.27210594e-19,
          3.36574888e+00, 0., 0., -3.40017090e+02, 2.77904177e+00,
          -9.39082642e+01, 3.09423494e+00, 5.30488800e+36,
          2.79906964e+00, 1.66986156e+22, 3.45294809e+00, 0.,
          3.50000000e+00, 1.68984053e-38, 3.45346045e+00,
          -9.22973886e-24, 3.40965176e+00, 0., 3.50000000e+00,
          -2.50789346e-15, 3.49371195e+00, 0., 3.50000000e+00, 0.,
          3.50000000e+00, 8.49371633e+18, 3.07053494e+00, 9.11226360e+16,
          3.37760496e+00, -4.45507477e+02, 3.49876595e+00,
          3.15411325e+14, 3.38155174e+00, 0., 0., -2.01412045e-24,
          2.86819792e+00, -2.88407595e+19, 3.23585200e+00 ]
      - [ 0., 3.50000000e+00, 0., 3.50000000e+00, -4.81344115e+16,
          3.42485118e+00, 5.06118767e+11, 2.89466333e+00, 0.,
          3.50000000e+00, 2.83129913e+02, 3.43786478e+00, 1.07634166e+20,
          3.47682285e+00, -3.89205086e+25, 3.39135528e+00,
          1.38332887e+10, 3.49459457e+00, 1.37064513e-13, 3.22890186e+00,
          -3.04864943e-02, 2.98584008e+00, 0., 3.50000000e+00,
          3.51003737e-27, 3.01787710e+00, 0., 0., 0., 0.,
          -3.36656660e+22, 3.38426518e+00, -3.12006387e-06,
          3.45312953e+00, -3.21214105e-18, 3.40276647e+00, 0.,
          3.50000000e+00, -2.01984425e+30, 3.11584449e+00, 0.,
          3.50000000e+00, 0., 3.50000000e+00, 0., 3.50000000e+00, 0.,
          3.50000000e+00, 0., 3.50000000e+00, 1.39093081e-09,
          3.33560348e+00, 2.57095675e-14, 3.21931362e+00, 0.,
          3.50000000e+00, 3.62069230e+11, 3.12805080e+00, 0., 0., 0., 0.,
          -2.55906216e+25, 3.25108767e+00, 6.34236500e-12,
          3.15010238e+00, 0., 3.50000000e+00, -5.16175813e+24,
          3.49698877e+00, -8.18008676e+27, 3.47476292e+00, 0.,
          3.50000000e+00, 0., 3.50000000e+00, 0., 3.50000000e+00, 0.,
          3.50000000e+00, 0., 3.50000000e+00, -9.24067748e-29,
          3.14470291e+00, -3.42806984e-35, 3.31596565e+00, 0.,
          3.50000000e+00, 4.02341560e+10, 3.36340833e+00,
          -4.63589704e-19, 2.92294836e+00, 0., 0., 4.04567350e+27,
          3.15014768e+00, 8.83831581e-06, 3.17296910e+00, 0.,
          3.50000000e+00, 0., 3.50000000e+00, 0., 3.50000000e+00, 0.,
          3.50000000e+00, -1.34030594e-24, 3.32065964e+00, 0.,
          3.50000000e+00, 0., 3.50000000e+00, 0., 3.50000000e+00, 0., 0.,
          -6.65940927e+22, 3.18786621e+00, 0., 3.50000000e+00, 0.,
          3.50000000e+00, -3.40017090e+02, 2.77904177e+00, 0., 0.,
          -3.21213302e-35, 3.25663733e+00 ]
      - [ 0., 3.50000000e+00, 0., 3.50000000e+00, 6.65858208e+29,
          3.35328913e+00, 1.20524798e+27, 2.88121963e+00, 0.,
          3.50000000e+00, 2.32981553e+16, 3.36576319e+00,
          -6.06326489e+13, 3.45839071e+00, -1.19009792e-17,
          3.35094237e+00, 7.60093766e+24, 3.39179206e+00, 2.68938598e+09,
          3.27505684e+00, 2.12458954e+35, 3.01035523e+00, 0.,
          3.50000000e+00, 4.42009797e-12, 3.04931784e+00, 0., 0., 0., 0.,
          0., 3.50000000e+00, 2.81751283e+28, 3.32053494e+00,
          -3.79748407e+34, 3.44539165e+00, 1.10998221e+18,
          3.29479861e+00, -7.54671891e+13, 3.03415608e+00, 0.,
          3.50000000e+00, 0., 3.50000000e+00, -3.25677450e+38,
          3.49871850e+00, 0., 3.50000000e+00, 0., 3.50000000e+00,
          3.79607732e+15, 3.41095877e+00, -2.78502130e+28,
          3.20330477e+00, 0., 3.50000000e+00, -6.46666729e-29,
          3.10130453e+00, 0., 0., 0., 0., 0., 3.50000000e+00,
          -2.22330959e-06, 3.08247685e+00, 0., 3.50000000e+00,
          1.63249193e+10, 3.18786502e+00, 3.29456816e-05, 3.33863473e+00,
          2.18654260e-01, 3.46630454e+00, 0., 3.50000000e+00,
          -5.99208816e-09, 3.49984837e+00, 0., 3.50000000e+00,
          3.24790918e+04, 3.42553020e+00, .Nan, 3.18803406e+00,
          5.18630638e+01, 3.32722688e+00, 0., 3.50000000e+00,
          -8.37763764e-06, 3.18786359e+00, 0., 0., 0., 0.,
          1.66819895e-23, 3.15338182e+00, -1.25659835e-06,
          2.93786359e+00, 0., 3.50000000e+00, -7.49234056e+00,
          3.18786359e+00, 0., 3.50000000e+00, 1.02674934e+10,
          3.49848676e+00, -1.53401716e-28, 3.31309009e+00,
          -5.66060058e+36, 3.20598221e+00, 0., 3.50000000e+00, 0.,
          3.50000000e+00, -1.03901738e+36, 3.01036787e+00,
          -3.13662953e-25, 3.04997754e+00, -1.24367761e-37,
          3.45466423e+00, -1.31100457e+26, 3.26075602e+00,
          -4.82235117e+04, 3.02904177e+00, 0., 0., 1.12922407e-13,
          3.02999163e+00 ]
      - [ 0., 3.50000000e+00, 5.55728630e+23, 3.49777961e+00,
          2.50375991e-17, 3.42973685e+00, 5.89244604e+00, 2.93919802e+00,
          0., 3.50000000e+00, -7.44219175e-09, 3.39695644e+00,
          -7.42820728e+12, 3.48870969e+00, 0., 3.50000000e+00,
          3.28829961e+04, 3.40788937e+00, -5.63385000e+04,
          3.27904177e+00, 8365283., 2.98584056e+00, 0., 3.50000000e+00,
          1.22937303e-20, 3.01347065e+00, 0., 0., 0., 0., 0.,
          3.50000000e+00, 8.23229798e+09, 3.33898401e+00,
          -5.33093883e+17, 3.46282864e+00, 0., 3.50000000e+00,
          1238593024., 3.08913612e+00, 0., 3.50000000e+00, 0.,
          3.50000000e+00, 0., 3.50000000e+00, 0., 3.50000000e+00, 0.,
          3.50000000e+00, -1.65322199e-05, 3.38899231e+00,
          -1.88860272e-35, 3.22891736e+00, 0., 3.50000000e+00,
          -7.36958938e-08, 3.14992833e+00, 0., 0., 0., 0.,
          -3.02953139e-16, 3.49680901e+00, -415388672., 3.09832144e+00,
          0., 3.50000000e+00, -5.04479361e-20, 3.41566586e+00,
          -7.73876966e+17, 3.25153589e+00, 1.68829638e+13,
          3.49973416e+00, 0., 3.50000000e+00, 0., 3.50000000e+00, 0.,
          3.50000000e+00, 7.62353091e+11, 3.45158458e+00,
          -1.63164394e-29, 3.17296934e+00, -1.38036530e+02,
          3.32072163e+00, 0., 3.50000000e+00, 2.60420456e+18,
          3.29707956e+00, 0., 0., 0., 0., -1.85591970e-02,
          3.14271641e+00, -4.91950451e+28, 3.20330477e+00, 0.,
          3.50000000e+00, -8168982., 3.45871091e+00, 1.07808569e-06,
          3.39907193e+00, 0., 3.50000000e+00, 4.37831939e-16,
          3.34354091e+00, -6.89161724e-38, 3.16736484e+00, 0.,
          3.50000000e+00, 0., 3.50000000e+00, 9.12951236e+17,
          2.78888226e+00, -4.26814993e-31, 3.01328659e+00, 0.,
          3.50000000e+00, -3.73963925e+20, 3.38730049e+00,
          -1.32957984e-21, 2.86819792e+00, 0., 0., 6.61942090e+03,
          3.08238530e+00 ]
      - [ 1.73761010e-43, 3.50000000e+00, -3.31275395e+38,
          3.49871850e+00, 8.21316270e-25, 3.36574793e+00,
          -3.58034186e-02, 3.01055717e+00, 4.27723823e-38, 0.,
          1.49995572e-09, 4.57818221e-41, 2.94552937e-41, 0.,
          2.80259693e-45, 0., 2.94552937e-41, 0., 4.27793328e-38, 0.,
          8.97441983e-39, 0., 2.97418895e-11, 4.57818221e-41,
          8.97441983e-39, 0., 2.13412039e-38, 0., 4.27793328e-38, 0.,
          4.17833086e-14, 4.57818221e-41, .Nan, .Nan, 4.61961219e-10,
          4.57818221e-41, 1.82988767e+31, 3.31840420e+00, 2.94216626e-41,
          0., 5.74532370e-44, 0., 4.59871169e-10, 4.57818221e-41,
          2.94160574e-41, 0., 5.04469799e-10, 4.57818221e-41, 0.,
          3.50000000e+00, 9.26717051e+11, 3.25663710e+00,
          -5.10040392e+10, 3.21258855e+00, 0., 3.50000000e+00,
          -6.07357986e-09, 3.12256479e+00, 0., 0., 0., 0.,
          -3.46888243e+09, 3.36575174e+00, -1.04899228e+12,
          3.08275771e+00, 0., 3.50000000e+00, -1.67908617e+22,
          3.28243470e+00, -1.45617557e-12, 3.28724957e+00,
          3.39023582e-15, 3.49883962e+00, 0., 3.50000000e+00, 0.,
          3.50000000e+00, -3.58693249e+25, 4.59135442e-41,
          8.97440862e-39, 0., 3.78350585e-44, 0., -3.58688453e+25,
          4.59135442e-41, 7.00649232e-45, 0., -3.58693249e+25,
          4.59135442e-41, 4.98326824e-10, 4.57818221e-41, 0., 0.,
          1.13345330e+37, 3.17338204e+00, 9.98390703e-10, 3.13118744e+00,
          .Nan, .Nan, 8.08363193e+37, 3.39911461e+00, 0., 3.50000000e+00,
          -3.58688084e+25, 4.59135442e-41, -3.58688453e+25,
          4.59135442e-41, -3.58687992e+25, 4.59135442e-41,
          -3.58688015e+25, 4.59135442e-41, 2.80259693e-45,
          7.00649232e-45, 5.60519386e-45, 0., -1.46650940e+02,
          3.08184052e+00, 0., 3.50000000e+00, -1.01931231e+22,
          3.46797276e+00, 0., 0., 1.27875038e+02, 2.80259693e-45, 0., 0. ]
      - [ 0., 3.50000000e+00, 0., 3.50000000e+00, 7.19506413e+37,
          3.36439514e+00, 9.51943308e+34, 2.79906964e+00, 0.,
          3.50000000e+00, 0., 3.50000000e+00, 0., 3.50000000e+00,
          -2.30804347e-30, 3.32255387e+00, 8.64413378e-39,
          3.45443678e+00, 2.68553275e-31, 3.30520964e+00, 6.30425977e+03,
          3.02915049e+00, 0., 3.50000000e+00, -9.01751378e-07,
          3.13119650e+00, 0., 0., 0., 0., 0., 3.50000000e+00, 0.,
          3.50000000e+00, 0., 3.50000000e+00, 2.21869320e+32,
          3.38173318e+00, -4.90833711e+04, 3.13455486e+00, 0.,
          3.50000000e+00, 0., 3.50000000e+00, 0., 3.50000000e+00, 0.,
          3.50000000e+00, 0., 3.50000000e+00, 1.18257626e-11,
          3.41509843e+00, -6.17765617e+00, 3.28218389e+00, 0.,
          3.50000000e+00, 5.12717742e+10, 3.13210344e+00,
          -6.63637183e-19, 2.92294836e+00, 0., 0., -3.94141788e-21,
          3.49886250e+00, 2.96201665e-25, 3.12517786e+00, 4.15551510e+37,
          3.29058862e+00, -2.48456539e+36, 3.22271204e+00,
          3.39136776e-25, 3.40722966e+00, 0., 3.50000000e+00,
          5.69592719e+19, 3.37410760e+00, 0., 3.50000000e+00, 0.,
          3.50000000e+00, 0., 3.50000000e+00, -2.11431682e-01,
          3.18794894e+00, 1.66332436e-04, 3.26953840e+00, 0.,
          3.50000000e+00, 1.58620547e-10, 3.49129581e+00,
          -4.58190891e+16, 3.14462471e+00, 0., 0., 2.74901391e-31,
          3.25664926e+00, 1.05797585e-16, 3.34354091e+00, 2.66161974e-34,
          3.42013407e+00, -6.66222090e+24, 3.35620332e+00,
          -1.64482484e-22, 3.46271825e+00, -2.82537715e-21,
          3.40708542e+00, 7.40172065e-17, 3.42973685e+00,
          -2.75924255e-26, 3.35057664e+00, 0., 3.50000000e+00, 0.,
          3.50000000e+00, 1.00829975e+24, 3.24579024e+00, 9.85788053e+28,
          2.88118243e+00, 0., 3.50000000e+00, 8.98630013e-25,
          3.46400595e+00, 7.19903864e+18, 2.79479861e+00,
          -3.40017090e+02, 2.77904177e+00, 3.08079200e+18,
          3.01956964e+00 ]
      - [ 0., 3.50000000e+00, 0., 3.50000000e+00, 2.55406622e-17,
          3.45191503e+00, -1.35710114e-26, 3.04908514e+00, 0.,
          3.50000000e+00, 4.45731697e-30, 3.37730217e+00,
          -3.45582771e-06, 3.18786359e+00, -8.19192643e+36,
          3.39452577e+00, 2.83331303e-35, 3.41652369e+00, 2.71939084e+17,
          3.29707956e+00, 0., 0., 0., 3.50000000e+00, 1.84179129e-07,
          3.08380079e+00, 0., 0., 0., 0., 5.14031172e+00, 3.42973685e+00,
          -1.00463045e-25, 3.31309009e+00, 0., 3.50000000e+00, 0.,
          3.50000000e+00, 5.34054598e+28, 3.10778856e+00, 0.,
          3.50000000e+00, 0., 3.50000000e+00, 0., 3.50000000e+00, 0.,
          3.50000000e+00, 0., 3.50000000e+00, -4.25142628e+34,
          3.43786359e+00, 1.54493176e+03, 2.98584056e+00, 0.,
          3.50000000e+00, 1.79791552e-32, 3.14533186e+00, 0., 0., 0., 0.,
          -7.91462436e+28, 3.30961633e+00, 1.89415030e-17,
          3.05582786e+00, 0., 3.50000000e+00, -4.82990766e-37,
          3.48658824e+00, 2.98301767e-33, 3.28492284e+00, 4.92727223e+29,
          3.41631627e+00, 0., 3.50000000e+00, 0., 3.50000000e+00, 0.,
          3.50000000e+00, 2.69573801e-27, 3.37140226e+00,
          -2.11880296e+11, 3.10620332e+00, -2.69631060e-18,
          3.23802185e+00, 0., 3.50000000e+00, 8.60422733e-04,
          3.01038074e+00, 0., 0., 0., 0., -5.04364247e+23,
          3.10356307e+00, -1.44333347e-14, 3.20330501e+00,
          9.57263660e+00, 3.41132569e+00, 3.35380346e-09, 3.48586392e+00,
          6.27459400e+19, 3.45333338e+00, 4.99097616e+32, 3.48082566e+00,
          -2.24325914e-23, 3.10565686e+00, 1.02359408e+37,
          3.37410760e+00, 0., 3.50000000e+00, -1.81979447e-28,
          3.49526858e+00, -3.40017090e+02, 2.77904177e+00, 10838179.,
          2.98584056e+00, 0., 3.50000000e+00, -1.13604018e+11,
          3.18161058e+00, 0., 0., 0., 0., -9.42127572e-32,
          3.04910064e+00 ]
      - [ 0., 3.50000000e+00, 0., 3.50000000e+00, 7.66371486e-34,
          3.42750931e+00, -2.28467771e-13, 3.02905202e+00, 0.,
          3.50000000e+00, -8.81306250e+04, 3.38344216e+00,
          2.73505840e-09, 3.47206259e+00, -3.39888393e-21,
          3.39401889e+00, 4.25084757e-28, 3.49883485e+00, 3.08456648e+35,
          3.26035523e+00, 2.01644210e+35, 3.01035523e+00, 0.,
          3.50000000e+00, 5.35783753e-20, 3.05359983e+00, 0., 0., 0., 0.,
          2.15365091e-07, 3.49697351e+00, -2.15288463e-19,
          3.39331269e+00, 4.80950682e+09, 3.45803046e+00, 0.,
          3.50000000e+00, 4.51648907e-26, 3.13134718e+00, 0.,
          3.50000000e+00, 0., 3.50000000e+00, 0., 3.50000000e+00, 0.,
          3.50000000e+00, 0., 3.50000000e+00, -1.98827493e-07,
          3.39055777e+00, 9.56694184e-18, 3.20331049e+00, 0.,
          3.50000000e+00, -7.66318831e+31, 3.12769127e+00, 0., 0., 0.,
          0., -1.30173710e-29, 3.47682285e+00, 1.66870343e+30,
          3.15921330e+00, 0., 3.50000000e+00, 0., 3.50000000e+00,
          -1.03844098e-33, 3.21780324e+00, 0., 3.50000000e+00, 0.,
          3.50000000e+00, 0., 3.50000000e+00, 0., 3.50000000e+00, 0.,
          3.50000000e+00, 6.82323626e+29, 3.18794918e+00,
          -2.58270845e+14, 3.30970669e+00, 0., 3.50000000e+00,
          1.68650375e+36, 3.30521512e+00, -4.63947852e+04,
          2.77904177e+00, 0., 0., -5.85342462e+32, 3.13821816e+00,
          -3.33753049e+24, 3.14462590e+00, 0., 3.50000000e+00, 0.,
          3.50000000e+00, 2.64843783e+35, 3.44864035e+00, 0.,
          3.50000000e+00, 6.88250309e+29, 3.35328913e+00, 0.,
          3.50000000e+00, 0., 3.50000000e+00, 0., 3.50000000e+00,
          9.12951236e+17, 2.78888226e+00, -1.49394577e-25,
          3.10580277e+00, 0., 3.50000000e+00, -4.70278887e+14,
          3.39979315e+00, -4.82235117e+04, 3.02904177e+00, 0., 0.,
          1.94978630e+16, 3.22207332e+00 ]
      - [ 0., 3.50000000e+00, 6.37523856e+24, 3.33183908e+00,
          -2.49863541e-26, 3.41865540e+00, -119364256., 3.34125471e+00,
          0., 3.50000000e+00, 1.26551344e-24, 3.36574793e+00,
          1.43381980e-38, 3.45598245e+00, -1.73530408e-20,
          3.33557725e+00, 2.79078254e-08, 3.40751719e+00, 2.37443354e+09,
          3.27505684e+00, -1.32957984e-21, 2.86819792e+00, 0.,
          3.50000000e+00, 1.15505024e-28, 3.09380960e+00,
          -3.40017090e+02, 2.77904177e+00, -1.49148673e-06,
          3.18786359e+00, -4.76933489e+10, 3.37038469e+00,
          7.20589499e-09, 3.48084760e+00, -1.38260968e-30,
          3.35085058e+00, 4.58733093e+02, 3.37037277e+00,
          -1.10082005e+24, 3.05300641e+00, 0., 3.50000000e+00, 0.,
          3.50000000e+00, -3.25363174e+38, 3.49871850e+00,
          -6.15957623e-24, 3.44949007e+00, 0., 3.50000000e+00,
          -4.20646907e+16, 3.39462471e+00, 8.44259052e+31,
          3.13118243e+00, 1.05961175e+31, 3.40151048e+00, 7.12091150e-12,
          3.15103078e+00, 0., 0., -1.67579562e+28, 3.20330477e+00,
          -3.53880978e+12, 3.18207407e+00, 4.14169768e-30,
          3.34360790e+00, 2.43034477e-12, 3.27616405e+00, -881829760.,
          3.26035833e+00, 2.07916107e+01, 3.19862318e+00, 0.,
          3.50000000e+00, -2.67372599e-07, 3.37726808e+00,
          1.24763410e+16, 3.49871874e+00, 0., 3.50000000e+00, 0.,
          3.50000000e+00, -2.96152472e-01, 3.11293960e+00,
          3.43076863e+26, 3.25663733e+00, 0., 3.50000000e+00,
          -1.29350164e-25, 3.35964608e+00, 0., 0., -3.40017090e+02,
          2.77904177e+00, -1.50842300e+02, 3.13309622e+00,
          1.32324249e-14, 3.22890186e+00, 4.55452222e+32, 3.09355760e+00,
          -1.99104446e+30, 3.40722489e+00, 0., 3.50000000e+00,
          -5.63385831e+33, 3.39357567e+00, -3.57959904e-02,
          3.23584008e+00, 1.47464540e+25, 3.10964656e+00, 0.,
          3.50000000e+00, 0., 3.50000000e+00, 3.06279615e+16,
          3.07053494e+00, 3.26184084e+30, 2.88118243e+00, -33617980.,
          3.49002957e+00, 1.63323101e+34, 3.29811001e+00, 0., 0., 0., 0.,
          1.54863841e-21, 3.12040949e+00 ]
      - [ 7.82254186e+24, 3.32413125e+00, 0., 3.50000000e+00,
          -6.86278719e-19, 3.42294836e+00, 2.06843800e+16,
          2.92545581e+00, 0., 3.50000000e+00, 6.92959666e+34,
          3.27561879e+00, 3.64429953e-09, 3.48082232e+00,
          -1.58800540e+32, 3.38838601e+00, 2.04161809e-23,
          3.46311426e+00, -4.11098674e-02, 2.98584008e+00,
          -2.89682429e-02, 2.98584008e+00, 0., 3.50000000e+00,
          2.10236914e-24, 3.05045295e+00, 0., 0., 0., 0.,
          -8.98290594e+22, 3.42552257e+00, 3.40168013e+23,
          3.02994037e+00, 0., 3.50000000e+00, -4.49692099e+10,
          3.37573862e+00, 3.68942653e+10, 3.07502556e+00, 1.45728936e+28,
          3.37940121e+00, 0., 3.50000000e+00, 8.70187034e-09,
          3.49680328e+00, 0., 3.50000000e+00, 0., 3.50000000e+00,
          3.30769453e-22, 3.26953673e+00, -1.15742330e-06,
          3.18786359e+00, 0., 3.50000000e+00, -101063440.,
          3.13123870e+00, 0., 0., 0., 0., 1.69869850e+06, 3.47455597e+00,
          -2.19025189e-12, 3.10570836e+00, 0., 3.50000000e+00,
          -1.08840967e+38, 3.26568723e+00, -1.09534349e+19,
          3.30972171e+00, 0., 3.50000000e+00, 0., 3.50000000e+00,
          8.00229127e-09, 3.49680328e+00, 0., 3.50000000e+00, 0.,
          3.50000000e+00, -4.71771517e+22, 3.18161035e+00,
          2.43498567e+17, 3.29707956e+00, 0., 3.50000000e+00,
          2.92290292e-19, 3.13119197e+00, 0., 0., 0., 0.,
          -8.94340221e-03, 3.13817215e+00, 2.73863382e-38,
          3.26568747e+00, 0., 3.50000000e+00, -1.77257170e-05,
          3.10566497e+00, -1.65812145e-12, 3.39708042e+00,
          3.36133031e+34, 3.48434615e+00, -3.19813450e+24,
          3.35565567e+00, 2.35688059e-17, 3.22890186e+00, 0.,
          3.50000000e+00, 1.28834621e-27, 3.42545485e+00, 0., 0.,
          -3.40017090e+02, 3.02904177e+00, 0., 3.50000000e+00,
          -1.00844260e-17, 3.14464402e+00, 0., 0., 0., 0.,
          8.22936272e-05, 3.15856433e+00 ]
      - [ 0., 3.50000000e+00, 2.83567416e+29, 3.49680662e+00,
          5.87841123e-06, 3.40545726e+00, -1.80404507e+34,
          2.92424202e+00, 0., 3.50000000e+00, -5.07083931e+01,
          3.43161058e+00, 1.64516113e-24, 3.46929073e+00, 7.00963853e-12,
          3.28934169e+00, 0., 3.50000000e+00, 2.51679271e+35,
          3.26035523e+00, 2.68602805e-27, 3.04058862e+00, 0.,
          3.50000000e+00, 2.90991557e-05, 3.07423639e+00,
          -3.59050070e-18, 3.17294836e+00, 0., 0., 0., 3.50000000e+00,
          0., 3.50000000e+00, -1.76651319e+27, 3.49789786e+00, 0.,
          3.50000000e+00, -7.87253856e-12, 3.14495111e+00, 0.,
          3.50000000e+00, 0., 3.50000000e+00, 0., 3.50000000e+00, 0.,
          3.50000000e+00, 0., 3.50000000e+00, -5.57108856e-32,
          3.48875880e+00, 3.77688130e+37, 3.44866347e+00,
          -5.32577756e-18, 3.43727183e+00, -8.99105489e+11,
          3.19703531e+00, 3.82590901e-33, 3.49890566e+00, 3.06279508e+16,
          3.07053494e+00, 0., 3.50000000e+00, -8.06190351e+36,
          3.12163758e+00, 0., 3.50000000e+00, -2.82455120e+01,
          3.48584008e+00, -5.58835140e+13, 3.44776154e+00, 0.,
          3.50000000e+00, 0., 3.50000000e+00, 0., 3.50000000e+00, 0.,
          3.50000000e+00, 2.49609314e+02, 3.49695873e+00, 0.,
          3.50000000e+00, -9.10094173e+26, 3.31467509e+00, 0.,
          3.50000000e+00, 1.31425201e+02, 3.08391595e+00, 6.68518843e-13,
          3.46306586e+00, -2.62894599e-22, 2.92294836e+00, -1746527488.,
          3.36177039e+00, -1.97085778e-10, 3.29351878e+00,
          1.61525529e+18, 3.49990368e+00, 1.66780952e+13, 3.34134507e+00,
          0., 3.50000000e+00, 0., 3.50000000e+00, 4.91812850e+22,
          3.35057664e+00, -6.33726506e+18, 3.19862461e+00, 0.,
          3.50000000e+00, -5.43737766e-15, 3.45602393e+00,
          1.01614832e-28, 3.19706464e+00, -1.73523745e-23,
          3.01327634e+00, 0., 3.50000000e+00, -22075816., 3.00155997e+00,
          -5.21763865e-37, 3.18786430e+00, 0., 0., -1.36858797e+05,
          3.23272824e+00 ]
      - [ 1.07596145e+13, 3.36589789e+00, 0., 3.50000000e+00,
          -1.69550190e-32, 3.40854120e+00, -2.38278746e-29,
          2.93920803e+00, 0., 3.50000000e+00, 7.92087812e+04,
          3.35567331e+00, 1.43158641e-38, 3.45598245e+00,
          -8.65298646e-19, 3.49874282e+00, 3.50216225e-22,
          3.44885755e+00, -3.94018367e-02, 3.23584008e+00,
          2.38285855e+12, 3.01055717e+00, 0., 3.50000000e+00,
          2.15844644e-36, 3.01775813e+00, -5.09445857e-19,
          2.92294836e+00, 0., 0., 9.63144157e-06, 3.42886567e+00,
          3.62219515e-29, 3.27505922e+00, 0., 3.50000000e+00,
          4.80600337e-10, 3.36575556e+00, -4.95805895e+32,
          3.13959312e+00, 0., 3.50000000e+00, 0., 3.50000000e+00,
          1.49133423e+24, 3.49579024e+00, 0., 3.50000000e+00,
          -1.43460135e+15, 3.48670220e+00, 8.15141172e+14,
          3.38042378e+00, 4.53894464e-27, 3.35328937e+00, 0.,
          3.50000000e+00, -5.65229027e-12, 3.07174683e+00,
          2.58361363e-31, 3.45028853e+00, -3.40017090e+02,
          2.77904177e+00, 0., 3.50000000e+00, 1.89712338e-07,
          3.18804908e+00, -6.17811047e-09, 3.34739518e+00,
          -5.83781002e-06, 3.35567307e+00, 1.51148593e-15,
          3.28696012e+00, 0., 3.50000000e+00, -3.16364502e+13,
          3.23584008e+00, 4.05583715e-20, 3.49753809e+00, 0.,
          3.50000000e+00, -2.76884839e-06, 3.44752836e+00,
          2.11811128e-36, 3.46058059e+00, -5.81721970e+37,
          3.28593278e+00, 0., 3.50000000e+00, 1.24446797e-06,
          2.92296910e+00, -1.22664425e-22, 3.46777868e+00, 0., 0.,
          -2.91531177e+22, 3.34125471e+00, 3.30978847e-34,
          3.26568747e+00, 9.51943308e+34, 3.29906964e+00, 1.04759359e-22,
          3.46929073e+00, -30989216., 3.41513515e+00, 0., 3.50000000e+00,
          -4.31675457e+24, 2.92295861e+00, 4.39896600e-13,
          3.22238827e+00, 0., 3.50000000e+00, 6.56144189e+03,
          3.39695740e+00, 9.14607625e+05, 3.08183861e+00, 2.60450853e-23,
          3.01953673e+00, -1.71920791e-01, 3.37069273e+00,
          1.52464779e-16, 3.09354091e+00, -2.37082210e+24,
          3.14462590e+00, 0., 0., -2.46623045e-14, 2.88133073e+00 ]
      - [ 0., 3.50000000e+00, 0., 3.50000000e+00, 2.02793155e+18,
          3.42158580e+00, 6.20535264e-12, 2.93854570e+00, 0.,
          3.50000000e+00, 1.30361659e-11, 3.42013431e+00, 1.18093195e+24,
          3.49579024e+00, 3.34487469e-33, 3.40859675e+00, 6.84735416e+35,
          3.41650462e+00, 6.35518325e+29, 3.35328913e+00, 7.55229065e+02,
          3.04930162e+00, 0., 3.50000000e+00, -4.80743740e-17,
          3.09467959e+00, -4.82235117e+04, 2.77904177e+00, 0., 0.,
          -1.29599567e+38, 3.37088037e+00, 6.40737222e+32,
          3.43092585e+00, -6.70004186e-17, 3.46768236e+00,
          -3.37116489e-22, 3.48737097e+00, -1.70631429e+31,
          3.11824751e+00, 0., 3.50000000e+00, 0., 3.50000000e+00,
          -2.85671339e-38, 3.49777842e+00, 0., 3.50000000e+00, 0.,
          3.50000000e+00, 4.03480133e-18, 3.46258974e+00, 211610160.,
          3.37232995e+00, 0., 3.50000000e+00, -7.40375088e-16,
          3.13128710e+00, 4.68996490e+02, 3.37037277e+00,
          -3.40017090e+02, 2.77904177e+00, 0., 3.50000000e+00,
          2.02844864e-28, 3.16097283e+00, 0., 3.50000000e+00,
          7.65576697e-23, 3.41312575e+00, -5.93323902e-24,
          3.35456753e+00, 0., 3.50000000e+00, 0., 3.50000000e+00, 0.,
          3.50000000e+00, 0., 3.50000000e+00, 0., 3.50000000e+00,
          -2.88193297e-12, 3.42294836e+00, 1.34799815e-30,
          3.29708171e+00, 0., 3.50000000e+00, -1.09900744e+20,
          3.05104518e+00, -8.03819529e-15, 3.42544651e+00, 0., 0.,
          -5.10467265e+29, 3.29480481e+00, -2.88715650e+06,
          3.31460238e+00, 0., 3.50000000e+00, -6.37758780e-24,
          3.22001338e+00, 3.77090784e+16, 3.42207766e+00, 0.,
          3.50000000e+00, -4.31402516e+10, 3.37573862e+00,
          1.81989478e-07, 3.18205571e+00, 0., 3.50000000e+00, 581326208.,
          3.38365889e+00, 1.07389521e+19, 3.07053494e+00,
          -1.38294501e-20, 3.00148654e+00, 2.14014057e-35,
          3.43717718e+00, 2.45038477e+03, 3.09739709e+00,
          -5.36959590e-19, 2.92294836e+00, 0., 0., 7.70667818e-13,
          3.08206439e+00 ]
      - [ 0., 3.50000000e+00, 0., 3.50000000e+00, 2.54591816e+10,
          3.44249797e+00, 5.11580351e-20, 2.88125682e+00, 0.,
          3.50000000e+00, 4.37143612e-17, 3.44862318e+00,
          -5.85388705e+28, 3.45330477e+00, 1.55926883e-01,
          3.34824562e+00, 2.19471805e+33, 3.41091990e+00, 2.36538650e+35,
          3.26035523e+00, -3.17945324e-34, 3.15854120e+00, 0.,
          3.50000000e+00, 88307144., 3.18162870e+00, 0., 0.,
          -3.40017090e+02, 2.77904177e+00, 2.17675961e+25,
          3.35335064e+00, 0., 3.50000000e+00, 31325350., 3.47629023e+00,
          0., 3.50000000e+00, 6.49749375e+04, 3.14704704e+00, 0.,
          3.50000000e+00, 0., 3.50000000e+00, 0., 3.50000000e+00, 0.,
          3.50000000e+00, 0., 3.50000000e+00, -3.51855072e+02,
          3.35328913e+00, 0., 3.50000000e+00, 0., 3.50000000e+00,
          5.76595403e-11, 3.18227959e+00, 0., 0., 7.42539448e+15,
          3.07053494e+00, 0., 3.50000000e+00, 1.68562828e+35,
          3.09767890e+00, 0., 3.50000000e+00, 318529120., 3.42013693e+00,
          1.22192238e+35, 3.46949601e+00, 0., 3.50000000e+00, 0.,
          3.50000000e+00, 0., 3.50000000e+00, 0., 3.50000000e+00, 0.,
          3.50000000e+00, -1.32337809e-19, 3.00148654e+00,
          4.35512788e+13, 3.30086875e+00, 0., 3.50000000e+00,
          2.11024515e+30, 3.18794918e+00, -3.04864943e-02,
          2.98584008e+00, -2.62894599e-22, 2.92294836e+00,
          -1.87916198e-37, 3.32710004e+00, -7.41879783e-22,
          3.32793093e+00, 3.80863441e-35, 3.45200872e+00, -119221120.,
          3.34125471e+00, 0., 3.50000000e+00, 0., 3.50000000e+00,
          -3.62310588e+19, 3.14462471e+00, 3.61125970e+11,
          3.21931362e+00, 0., 3.50000000e+00, -1.22519036e-20,
          3.46779847e+00, 0., 0., -2.70186775e+20, 3.01035523e+00, 0.,
          3.50000000e+00, -1.64214443e-12, 3.19683123e+00,
          -3.40017090e+02, 2.77904177e+00, 0., 0., 6.29320796e+13,
          3.07492614e+00 ]
      - [ 0., 3.50000000e+00, 4.17589304e-20, 3.13118267e+00,
          -2.50392522e-30, 2.92423725e+00, -1.17288124e+02,
          3.11819792e+00, 0., 3.50000000e+00, -4.77346418e-12,
          3.32053781e+00, -6.07724872e+10, 3.21258855e+00,
          -1.39555329e-11, 3.39927173e+00, -7.00311773e-08,
          3.46427417e+00, 2.22511662e-08, 3.19683123e+00,
          -4.39188364e+30, 3.02909613e+00, 0., 3.50000000e+00,
          1.38261787e-24, 3.08190536e+00, 0., 0., 0., 0., 0.,
          3.50000000e+00, 3.88274005e-12, 3.32713151e+00, 6.70049478e+25,
          3.32103086e+00, 6.16169780e+18, 2.79479861e+00, -7594802.,
          3.10792065e+00, 0., 3.50000000e+00, 0., 3.50000000e+00,
          -4.10916320e-35, 3.10673547e+00, 0., 3.50000000e+00, 0.,
          3.50000000e+00, 5.49143178e+22, 3.37411427e+00, 9.17114537e+17,
          3.28888226e+00, 0., 3.50000000e+00, -7.32948451e-14,
          3.08263445e+00, -1.60285708e-19, 3.25148654e+00, 0., 0., 0.,
          3.50000000e+00, 1.87180919e-15, 3.13900828e+00, 0.,
          3.50000000e+00, -3.36317107e+09, 3.18162441e+00,
          -4.20444083e+37, 3.14464402e+00, 0., 3.50000000e+00, 0.,
          3.50000000e+00, -6.88683953e-19, 3.40185070e+00, 0.,
          3.50000000e+00, 0., 3.50000000e+00, 3.15640303e+16,
          3.33183885e+00, 3.44945089e-18, 3.21933722e+00, 0.,
          3.50000000e+00, -3.98126893e+18, 3.10566545e+00,
          -2.93745045e-02, 3.36293960e+00, 0., 0., 4.43169381e-04,
          3.26040769e+00, -7.25237846e-01, 2.98593664e+00, 0.,
          3.50000000e+00, -3.91391694e+28, 3.35198236e+00,
          -4.06508398e+00, 3.41861153e+00, -2.86610560e+09,
          3.34964776e+00, 1.63779286e+30, 3.31313896e+00,
          -5.41355402e-24, 3.15978146e+00, 0., 3.50000000e+00,
          2.77456044e-18, 3.41961312e+00, 4.91316954e-31, 3.09360790e+00,
          11882516., 2.98584056e+00, 2.15865182e+13, 3.46567845e+00,
          2.92128620e+34, 3.15353274e+00, -2.63389126e+24,
          3.14462590e+00, 0., 0., 1.23990294e+17, 3.01610494e+00 ]
      - [ 0., 3.50000000e+00, 0., 3.50000000e+00, -1.72144880e+15,
          3.39462471e+00, -1.66240305e-01, 2.94775629e+00, 0.,
          3.50000000e+00, 2.44730334e-17, 3.38144374e+00, 4.33779538e-01,
          3.45598245e+00, 1.41758626e+30, 3.35997796e+00,
          -5.13509929e-01, 3.46641707e+00, 1.03264482e+35,
          3.28475666e+00, 3.18038175e+06, 3.05242515e+00, 0.,
          3.50000000e+00, -4.88928248e+32, 3.10797453e+00, 0., 0., 0.,
          0., -1.51191892e+23, 3.43920803e+00, 5.80359693e+26,
          3.48749375e+00, 6.72237336e-25, 3.43405938e+00, 0.,
          3.50000000e+00, 7.01961795e+29, 3.12260342e+00, 0.,
          3.50000000e+00, 0., 3.50000000e+00, 0., 3.50000000e+00, 0.,
          3.50000000e+00, 0., 3.50000000e+00, 7.67283328e-38,
          3.37865663e+00, 7.99927705e-07, 3.37233043e+00, 0.,
          3.50000000e+00, -4.56144066e+01, 3.17631745e+00, 0., 0.,
          -2.01412045e-24, 2.86819792e+00, 0., 3.50000000e+00,
          5.03451150e+33, 3.13777804e+00, 0., 3.50000000e+00,
          1.09803888e-15, 3.47852492e+00, -1.09540497e+30,
          3.45184445e+00, 0., 3.50000000e+00, 0., 3.50000000e+00, 0.,
          3.50000000e+00, 0., 3.50000000e+00, 0., 3.50000000e+00,
          5.86941465e+13, 3.18787503e+00, -2.17993520e+22,
          3.31600022e+00, 0., 3.50000000e+00, 3.18739406e+05,
          3.31840205e+00, 0., 0., 0., 0., -3.10784468e-04,
          3.29909587e+00, -299552032., 3.18786359e+00, 0.,
          3.50000000e+00, -9.33555530e+20, 3.49129105e+00, 0.,
          3.50000000e+00, 0., 3.50000000e+00, 2.01211332e+20,
          3.37410760e+00, 3.79939691e+12, 3.36576891e+00, 0.,
          3.50000000e+00, 0., 3.50000000e+00, 9.12951236e+17,
          2.78888226e+00, 1.08671350e-06, 3.01953673e+00, 0.,
          3.50000000e+00, 1.65647602e+20, 3.37410760e+00,
          -2.62894599e-22, 2.92294836e+00, 0., 0., -2.87610404e+30,
          3.09395862e+00 ]
      - [ -9.33197405e-25, 3.47920394e+00, -4.85617271e-08,
          3.49984145e+00, 1.52120312e-21, 3.41101670e+00,
          -3.40017090e+02, 2.77904177e+00, 0., 3.50000000e+00,
          -2.05099886e+19, 3.41095424e+00, -2.25030248e+14,
          3.46258855e+00, -3.03539867e+12, 3.29734254e+00,
          3.59847998e-16, 3.45050621e+00, 5.40123132e-18, 3.31840205e+00,
          2.04347305e+37, 3.04906964e+00, 0., 3.50000000e+00,
          7.59587839e+36, 3.11821651e+00, 0., 0., 0., 0., 4.65153700e-14,
          3.41509843e+00, 7.40057194e-19, 3.45330739e+00,
          -3.12320957e-35, 3.43495011e+00, 0., 3.50000000e+00,
          -6.71144922e+03, 3.02994347e+00, 0., 3.50000000e+00, 0.,
          3.50000000e+00, 0., 3.50000000e+00, 0., 3.50000000e+00, 0.,
          3.50000000e+00, -4.67665206e+23, 3.48870969e+00,
          4.50532096e+09, 3.24579835e+00, 0., 3.50000000e+00, -26129254.,
          3.14528966e+00, 0., 0., 0., 0., -1.30647782e-03,
          3.18161082e+00, -5.65163240e-23, 3.02994990e+00, 0.,
          3.50000000e+00, -4.37634929e+21, 3.42294836e+00,
          4.74407784e-08, 3.49680328e+00, 0., 3.50000000e+00, 0.,
          3.50000000e+00, 0., 3.50000000e+00, 0., 3.50000000e+00, 0.,
          3.50000000e+00, -1.60142117e-17, 3.20028996e+00,
          5.05852429e-19, 3.33658051e+00, 0., 3.50000000e+00,
          -1.18409254e-25, 3.31309009e+00, 0., 0., 0., 0.,
          1.12686231e-32, 3.17581439e+00, -1.76817409e-21,
          3.11819792e+00, 0., 3.50000000e+00, -9.63990867e-34,
          3.14470172e+00, 0., 3.50000000e+00, -4.55911521e+36,
          3.49962902e+00, -2.54557720e-17, 3.42294836e+00,
          -3.60197987e-06, 3.43786359e+00, 0., 3.50000000e+00, 0.,
          3.50000000e+00, -3.40017090e+02, 2.77904177e+00,
          1.09481939e+33, 3.11820245e+00, 0., 3.50000000e+00, 0.,
          3.50000000e+00, 0., 0., 0., 0., -2.09049042e-02,
          3.08200216e+00 ]
      - [ 0., 3.50000000e+00, 0., 3.50000000e+00, 4.72615656e+05,
          3.33183861e+00, 9.69909553e+19, 3.08184099e+00, 0.,
          3.50000000e+00, -1.61416588e+01, 3.32055831e+00,
          3.51037937e-32, 3.46616793e+00, .Nan, 3.33490133e+00,
          -1.56039547e-18, 3.46884084e+00, -1.06915925e+06,
          3.18794894e+00, 7.42261950e+06, 3.07413125e+00, 0.,
          3.50000000e+00, -9.10205939e-34, 3.07059813e+00, 0., 0.,
          -2.62894599e-22, 3.17294836e+00, 0., 3.50000000e+00,
          3.80506244e+27, 3.31840205e+00, -4.55904473e-03,
          3.49962783e+00, -1.09281037e-25, 3.28695989e+00,
          -7.32836222e-11, 3.10080409e+00, 0., 3.50000000e+00, 0.,
          3.50000000e+00, 0., 3.50000000e+00, 0., 3.50000000e+00, 0.,
          3.50000000e+00, 7.13741674e-14, 3.37997174e+00, 4.60190495e-04,
          3.19683123e+00, 0., 3.50000000e+00, -1.29078960e+11,
          3.08275771e+00, 0., 0., -3.40017090e+02, 2.77904177e+00,
          5.80574024e-08, 3.45188594e+00, 2.56797817e-20, 3.12044978e+00,
          0., 3.50000000e+00, 5.02578914e-03, 3.18161511e+00,
          -1.81444193e-05, 3.12038898e+00, 0., 3.50000000e+00, 0.,
          3.50000000e+00, 0., 3.50000000e+00, 0., 3.50000000e+00, 0.,
          3.50000000e+00, -3.34771307e+21, 3.15858102e+00,
          -1.88213653e-06, 3.34743595e+00, 0., 3.50000000e+00,
          6.65982490e+36, 3.28475666e+00, -4.63947852e+04,
          2.77904177e+00, 0., 0., -1.28328834e-10, 3.11380577e+00,
          4.87186038e+19, 2.92545581e+00, 0., 3.50000000e+00,
          -1.29870798e-30, 3.14470172e+00, 1.47791707e-06,
          3.42359972e+00, 1.92508873e-11, 3.33641887e+00,
          -6.66499174e+09, 3.34125471e+00, 4.64933034e-38,
          3.17769384e+00, 0., 3.50000000e+00, -1.44284338e-22,
          3.48545885e+00, -1.05495162e-13, 2.86826968e+00,
          -2.84325363e+27, 3.02988887e+00, -2.23675223e+32,
          3.49692845e+00, 3.47666144e-01, 3.16690826e+00, 1.91626292e+37,
          3.04906964e+00, 0., 0., 3.49533821e+30, 3.21929073e+00 ]
      - [ 1.73761010e-43, 3.50000000e+00, 0., 3.50000000e+00,
          2.06830137e-34, 3.38898921e+00, 1.20524798e+27, 2.88121963e+00,
          2.19601630e-38, 0., 1.49995572e-09, 4.57818221e-41,
          4.45220548e-41, 0., 2.80259693e-45, 0., 4.45220548e-41, 0.,
          2.19609926e-38, 0., 8.97441983e-39, 0., 2.97418895e-11,
          4.57818221e-41, 8.97441983e-39, 0., 2.13412039e-38, 0.,
          2.19609926e-38, 0., 4.17833086e-14, 4.57818221e-41, .Nan, .Nan,
          4.61961219e-10, 4.57818221e-41, -2.66232422e+02,
          3.36934137e+00, 4.44884236e-41, 0., 8.68805048e-44, 0.,
          4.59871169e-10, 4.57818221e-41, 4.44828185e-41, 0.,
          5.04469799e-10, 4.57818221e-41, 0., 3.50000000e+00,
          -5.12448922e-02, 3.41096759e+00, -4.63618605e+22,
          3.18161035e+00, 0., 3.50000000e+00, -6.25666142e-01,
          3.12088847e+00, 0., 0., 0., 0., 1.56914573e-02, 3.37864614e+00,
          -1.43726468e+17, 3.05065298e+00, 0., 3.50000000e+00,
          9.49147748e-20, 3.23584032e+00, 4.69281780e-29, 3.37514281e+00,
          8.42460459e+37, 3.37329674e+00, 0., 3.50000000e+00,
          3.43800488e+03, 3.49976540e+00, -3.58693249e+25,
          4.59135442e-41, 8.97440862e-39, 0., 5.74532370e-44, 0.,
          -3.58688453e+25, 4.59135442e-41, 7.00649232e-45, 0.,
          -3.58693249e+25, 4.59135442e-41, 4.98326824e-10,
          4.57818221e-41, 0., 0., -4.21306959e+26, 3.12848687e+00,
          2.36041560e-05, 3.33863473e+00, .Nan, .Nan, 2.43576997e-05,
          3.33863473e+00, 2.81813733e-40, 3.40917039e+00,
          -3.58688084e+25, 4.59135442e-41, -3.58688453e+25,
          4.59135442e-41, -3.58687992e+25, 4.59135442e-41,
          -3.58688015e+25, 4.59135442e-41, 2.80259693e-45,
          7.00649232e-45, 5.60519386e-45, 0., -2.64511837e+35,
          2.98593473e+00, -1.91832596e-12, 3.40047026e+00,
          3.70706464e-35, 3.35572577e+00, 0., 0., 1.27875038e+02,
          2.80259693e-45, 0., 0. ]
      - [ 5.41044518e-29, 3.46258879e+00, 0., 3.50000000e+00,
          -9.03911993e-34, 3.37864590e+00, -3.58034186e-02,
          3.01055717e+00, 0., 3.50000000e+00, -1.07873462e-26,
          3.40096211e+00, 1.85253134e+34, 3.46444368e+00, 2.89924547e-34,
          3.48082352e+00, 0., 3.50000000e+00, 3.74290367e-22,
          3.26953673e+00, 2.05970108e+35, 3.01035523e+00, 0.,
          3.50000000e+00, -2.99803463e-35, 3.05245018e+00, 0., 0., 0.,
          0., 6.06797601e+28, 3.40705466e+00, 7.90731747e-36,
          3.11931586e+00, 0., 3.50000000e+00, -706492224.,
          3.32710743e+00, 5.17136835e+10, 3.10058880e+00,
          -2.09777334e-11, 3.41532803e+00, 0., 3.50000000e+00,
          4.67035999e-22, 3.49962640e+00, 0., 3.50000000e+00, 0.,
          3.50000000e+00, 2.27994606e-01, 3.37233996e+00,
          -5.16000809e+10, 3.21258855e+00, 0., 3.50000000e+00,
          -6.93756081e+19, 3.10622072e+00, 0., 0., 0., 0.,
          1.07303650e-14, 3.37411761e+00, 5.90225577e-11, 3.08439684e+00,
          0., 3.50000000e+00, -3.73654441e-09, 3.31841969e+00,
          7.13513017e-01, 2.98879552e+00, 0., 3.50000000e+00, 0.,
          3.50000000e+00, 0., 3.50000000e+00, 0., 3.50000000e+00,
          -4.27389127e+30, 3.49886274e+00, -1.71163560e-19,
          3.18161392e+00, -3.10810591e-22, 3.31596756e+00, 0.,
          3.50000000e+00, 3.83809504e-19, 3.42973685e+00, 0., 0., 0., 0.,
          2.52550496e+36, 3.17378068e+00, 1.69544841e-23, 2.98593569e+00,
          0., 3.50000000e+00, -6.78620701e-11, 3.43509507e+00,
          -9.91304274e-14, 3.39335370e+00, -4.37953088e+32,
          3.48904800e+00, 1872308736., 3.33863473e+00, -2.63912934e+27,
          3.30756664e+00, 0., 3.50000000e+00, 0., 3.50000000e+00,
          8.30223694e+01, 2.92295361e+00, 3.37734421e-28, 3.13119197e+00,
          .Nan, 3.41651225e+00, -5.25094318e+18, 3.44489527e+00,
          -3.04864943e-02, 2.98584008e+00, -3.40017090e+02,
          2.77904177e+00, -2.22884003e-22, 3.19683170e+00 ]
      - [ 0., 3.50000000e+00, 0., 3.50000000e+00, 1.10315720e+17,
          3.39905238e+00, -5.84442720e+28, 3.01327634e+00, 0.,
          3.50000000e+00, 3.23609113e+32, 3.40096927e+00,
          -1.31395939e-06, 3.49129105e+00, 1.85321462e-30,
          3.32372475e+00, -7.62490211e+31, 3.43169713e+00,
          -2.51318891e+05, 3.29212332e+00, 2.18062368e+14,
          3.01055717e+00, -1.86659279e+15, 3.49579620e+00,
          6.30935363e+28, 3.04911613e+00, 0., 0., 0., 0., 1.97017574e+13,
          3.46071100e+00, -2.24587215e-09, 3.29918599e+00,
          -1.88815462e+06, 3.38902068e+00, 196618288., 3.35057664e+00,
          -8.75668859e+17, 3.09364533e+00, 0., 3.50000000e+00, 0.,
          3.50000000e+00, 1.24159529e+24, 3.49579024e+00, 0.,
          3.50000000e+00, 0., 3.50000000e+00, -5.20051198e-21,
          3.39905524e+00, 3.82665969e+25, 3.28230429e+00, 0.,
          3.50000000e+00, -4.01040928e-34, 3.16096377e+00,
          -4.62814085e-02, 2.98584008e+00, 0., 0., -9.11315279e-32,
          3.49777842e+00, -3.69328184e+28, 3.10623765e+00, 0.,
          3.50000000e+00, 1.32323164e+16, 3.23584175e+00,
          -7.78264040e+24, 3.26727200e+00, 0., 3.50000000e+00, 0.,
          3.50000000e+00, -1.08997710e+38, 3.49661613e+00, 0.,
          3.50000000e+00, 1.44976040e+37, 3.32041001e+00, 4.35038917e-15,
          3.15889740e+00, -3.63838711e+04, 3.30759025e+00, 0.,
          3.50000000e+00, 1.64000486e-19, 2.93786907e+00,
          -1.70887168e-32, 3.15854120e+00, 0., 0., -1.19558325e-34,
          3.25672197e+00, -4.86989009e-28, 2.98740482e+00, 0.,
          3.50000000e+00, -1.65019382e-14, 3.37724543e+00, 0.,
          3.50000000e+00, 3.73999089e-01, 3.36231565e+00,
          -8.49999965e-34, 3.37864590e+00, 1.04468524e-38,
          3.23593497e+00, 0., 3.50000000e+00, -5.43262956e-39,
          3.35332251e+00, 1.03103095e+18, 2.79479861e+00,
          -1.00796109e-08, 3.04908419e+00, -6.10606224e-34,
          3.49728084e+00, 6.99923661e+10, 3.04907060e+00,
          -1.65315095e-21, 2.86819792e+00, 0., 0., 5.64123396e+33,
          3.04061532e+00 ]
      - [ 0., 3.50000000e+00, -3.24352921e+32, 3.30755591e+00,
          -1.46887080e-08, 3.37864637e+00, 34021116., 3.03217816e+00, 0.,
          3.50000000e+00, 5.55903463e-18, 3.31840205e+00, 9.43443911e+24,
          3.44532967e+00, 1.42919322e-11, 3.44386983e+00, 6.85158339e+26,
          3.43766570e+00, 9.62645151e+34, 3.28475666e+00,
          -2.84560773e-21, 3.17303085e+00, 0., 3.50000000e+00,
          -1.13715811e-29, 3.15855122e+00, 0., 0., -4.56173781e-29,
          3.30519462e+00, 0., 3.50000000e+00, -4.54967280e-38,
          3.49386048e+00, 2.26901136e-02, 3.32413483e+00,
          -5.72253609e+35, 3.32760310e+00, -8.57045768e+36,
          3.13134480e+00, 0., 3.50000000e+00, 0., 3.50000000e+00, 0.,
          3.50000000e+00, 0., 3.50000000e+00, 0., 3.50000000e+00,
          623448512., 3.44489145e+00, -1.50859452e-24, 3.37410760e+00,
          -1.03479015e+20, 3.49645281e+00, 4.72138646e-18,
          3.21405745e+00, 0., 0., 9.85788053e+28, 2.88118243e+00, 0.,
          3.50000000e+00, -4.85507295e+27, 3.09466290e+00,
          1.02663127e+15, 3.02989221e+00, -7.68687969e-05,
          3.33500242e+00, 7.27846429e-12, 3.49140263e+00, 0.,
          3.50000000e+00, 1.91793529e+11, 3.39335346e+00, 0.,
          3.50000000e+00, 0., 3.50000000e+00, 0., 3.50000000e+00,
          1.57775899e-24, 3.21929073e+00, -1.28246246e-21,
          3.26570892e+00, 0., 3.50000000e+00, -7.45307420e+14,
          3.30963135e+00, -2.09564370e-21, 3.11819792e+00,
          -3.40017090e+02, 2.77904177e+00, -2.47998733e-09,
          3.29909658e+00, 5.82049747e-34, 3.37447619e+00,
          -2.62894599e-22, 2.92294836e+00, 2.14885279e-26,
          3.43543053e+00, 0., 3.50000000e+00, 0., 3.50000000e+00,
          1.41769033e+20, 3.28888226e+00, 5.61256017e+34, 3.31840420e+00,
          0., 3.50000000e+00, 0., 3.50000000e+00, -1.07603860e-13,
          3.12038875e+00, 8.30223694e+01, 2.92295361e+00, -528014656.,
          3.48808146e+00, 2.10765316e+11, 3.33863473e+00, -720778944.,
          3.32710743e+00, 0., 0., 1.55670667e-38, 3.07640743e+00 ]
      - [ 0., 3.50000000e+00, 0., 3.50000000e+00, -1.23127940e-12,
          3.37724543e+00, -2.67762604e-30, 3.02989221e+00, 0.,
          3.50000000e+00, -5.07163915e-33, 3.39905429e+00,
          9.78762878e+02, 3.47455597e+00, 3.72354251e+16, 3.41877794e+00,
          5.60078286e-02, 3.43911386e+00, 3.74290367e-22, 3.26953673e+00,
          2.10296005e+35, 3.01035523e+00, 0., 3.50000000e+00,
          -2.95424356e+31, 3.04064035e+00, 0., 0., 0., 0.,
          -8.16674556e+15, 3.38343692e+00, -2.68241473e-30,
          3.29059482e+00, -3.67618620e+21, 3.46779084e+00,
          3.99196625e+06, 3.30962014e+00, 5.93816400e-01, 3.10602665e+00,
          0., 3.50000000e+00, 0., 3.50000000e+00, 4.70058863e-22,
          3.49962640e+00, 0., 3.50000000e+00, 0., 3.50000000e+00,
          2.27994263e-01, 3.37233996e+00, -2.82991448e+28,
          3.20330477e+00, 0., 3.50000000e+00, 9.40284125e+05,
          3.08222532e+00, 0., 0., 0., 0., 3.56899504e-31, 3.29239845e+00,
          -3.65969017e-12, 3.10661221e+00, 0., 3.50000000e+00,
          -6.42563455e-24, 3.28223872e+00, -1.25949156e+19,
          3.30242538e+00, 0., 3.50000000e+00, 0., 3.50000000e+00, 0.,
          3.50000000e+00, 0., 3.50000000e+00, 0., 3.50000000e+00,
          1.61287906e+05, 3.17295361e+00, -5.51406585e+15,
          3.32963490e+00, 0., 3.50000000e+00, 1.44430231e+26,
          3.44489145e+00, -4.63589704e-19, 2.92294836e+00, 0., 0.,
          -1.24935314e+12, 3.11494017e+00, 5.25115100e+34,
          3.21929145e+00, 0., 3.50000000e+00, -9.19955437e-14,
          3.39749980e+00, -2.27646034e+25, 3.49009299e+00,
          -3.35938960e-01, 3.46597600e+00, -3.71276625e+05,
          3.38343382e+00, 2.21608314e-30, 3.30522513e+00, 0.,
          3.50000000e+00, 1.17858168e-09, 3.45589304e+00, 8.30223694e+01,
          2.92295361e+00, -2.82074360e+20, 3.08234954e+00, 0.,
          3.50000000e+00, 2.00528548e-28, 3.49363804e+00,
          -1.20911518e-32, 3.15854120e+00, -3.40017090e+02,
          2.77904177e+00, -1.06268766e+19, 3.14523935e+00 ]
      - [ 0., 3.50000000e+00, 0., 3.50000000e+00, -6.06897539e-29,
          3.32963037e+00, -5.85347220e-36, 3.01058221e+00, 0.,
          3.50000000e+00, 0., 3.50000000e+00, 3.65377262e-09,
          3.48082232e+00, 7.45376469e-22, 3.36437535e+00, 0.,
          3.50000000e+00, 0., 3.50000000e+00, 2.80299491e-06,
          3.08863473e+00, 0., 3.50000000e+00, 1.51211632e-09,
          3.20468307e+00, 0., 3.50000000e+00, 0., 0., 4.90722660e-25,
          3.44866562e+00, 8.71693765e-26, 3.49625421e+00,
          -2.84629558e-38, 3.49307084e+00, -1.12796341e+38,
          3.26568723e+00, 5.01644493e+11, 3.13133788e+00, 0.,
          3.50000000e+00, 0., 3.50000000e+00, 0., 3.50000000e+00, 0.,
          3.50000000e+00, 0., 3.50000000e+00, 1.22244492e+04,
          3.42021680e+00, -5.47727110e-28, 3.43161058e+00, 0.,
          3.50000000e+00, -1.37350760e-30, 3.12413144e+00,
          1.06265394e+17, 3.41509843e+00, -2.62894599e-22,
          2.92294836e+00, 0., 3.50000000e+00, 7.30082339e-20,
          3.12870932e+00, 0., 3.50000000e+00, -1.77238871e-05,
          3.13133073e+00, 3.04358220e-03, 3.37021136e+00, 2.56827873e+35,
          3.49686289e+00, 0., 3.50000000e+00, 0., 3.50000000e+00, 0.,
          3.50000000e+00, -4.77907471e-02, 3.49589539e+00,
          -1.43600464e-01, 3.48584008e+00, -1.68404320e+38,
          3.34150171e+00, 0., 3.50000000e+00, -8.03106472e+14,
          3.25148726e+00, 2.44951248e-03, 3.41690826e+00,
          -2.16434618e-12, 3.01035523e+00, -2.82607534e+10,
          3.33863926e+00, 6.10523360e-22, 3.28217268e+00, 0.,
          3.50000000e+00, 9.15041064e+17, 3.28888226e+00, 0.,
          3.50000000e+00, 0., 3.50000000e+00, -1.34571514e-28,
          3.37995434e+00, 1.15389857e+35, 3.21949601e+00, 0.,
          3.50000000e+00, 1.17016755e-16, 3.41100168e+00, 1.41380135e-16,
          3.09354091e+00, 0., 3.50000000e+00, -4.25352543e-13,
          3.43406224e+00, 3.14238095e+28, 3.12345934e+00, 7.50009467e+10,
          3.04907060e+00, -20885720., 3.44862294e+00, 0., 3.50000000e+00 ]
      - [ 1.39451948e-21, 3.49962640e+00, 0., 3.50000000e+00,
          2.25402143e+11, 3.39335346e+00, 1.24905599e+31, 3.02910304e+00,
          0., 3.50000000e+00, 1.69829485e-38, 3.24003291e+00,
          2.12006633e-33, 3.48731518e+00, 1.28290881e-37, 3.39370584e+00,
          307265504., 3.41893244e+00, -5.85108533e-19, 2.92294836e+00,
          -3.12456191e-02, 2.98584008e+00, 0., 3.50000000e+00,
          8.15427912e+31, 3.05262542e+00, 0., 0., 0., 0., 0.,
          3.50000000e+00, -4.86766649e-37, 3.18786430e+00, 0.,
          3.50000000e+00, 2.24628835e-07, 3.31309628e+00, 7.94433598e-38,
          3.12281084e+00, -5.04835999e-11, 3.43167186e+00, 0.,
          3.50000000e+00, -5.87382838e-39, 3.49777842e+00, 0.,
          3.50000000e+00, 0., 3.50000000e+00, 2.41388365e+35,
          3.26035523e+00, -1.68701891e+28, 3.20330477e+00, 0.,
          3.50000000e+00, 5.38407849e-38, 3.08200598e+00, 0., 0., 0., 0.,
          3.06837865e-29, 3.39336133e+00, -3.66463924e+34,
          3.15858912e+00, 0., 3.50000000e+00, 1.22816891e-29,
          3.21616793e+00, -6.62676467e+20, 3.35725355e+00, 0.,
          3.50000000e+00, 0., 3.50000000e+00, -5.17616671e-39,
          3.49777842e+00, 0., 3.50000000e+00, 0., 3.50000000e+00,
          -4.60900998e+22, 3.18161035e+00, 238139488., 3.32413125e+00,
          0., 3.50000000e+00, -5.50428051e-31, 3.15854120e+00, 0., 0.,
          0., 0., -4.37248590e+12, 3.14590216e+00, 2.74748797e+18,
          3.32053494e+00, 0., 3.50000000e+00, 4.10402506e-13,
          3.32963061e+00, -1.89063034e+17, 3.45507216e+00, 0.,
          3.50000000e+00, -1.64928303e-21, 3.36819792e+00,
          -9.58313083e+20, 3.18161035e+00, 0., 3.50000000e+00,
          3.25591550e-16, 3.38046336e+00, -4.63947852e+04,
          2.77904177e+00, -3.40017090e+02, 3.02904177e+00, 0.,
          3.50000000e+00, 3.23634869e-22, 3.01953673e+00, 0., 0., 0., 0.,
          7.00757007e-23, 3.10579538e+00 ]
      - [ 2.97783147e-27, 3.16312504e+00, 0., 3.50000000e+00,
          -5.53279059e-26, 3.34264898e+00, 1.01401810e-07,
          3.13177848e+00, -4.52349970e+29, 3.42394471e+00, 0.,
          3.50000000e+00, 8.91790930e+27, 2.98603034e+00, 3.95668983e-18,
          3.33209109e+00, 5.00686135e-13, 3.49461579e+00,
          -2.92277447e-09, 3.30083942e+00, 3.95132646e+09,
          3.09360790e+00, 0., 3.50000000e+00, 0., 3.50000000e+00,
          -3.28765611e-38, 3.04906964e+00, 8.53910043e+15,
          3.31882310e+00, 0., 3.50000000e+00, 8.28726489e+14,
          3.14466333e+00, 6.45031398e-28, 3.49189162e+00, 5.16970999e-08,
          3.44284439e+00, -2.09610343e-10, 3.35602570e+00,
          -2.32996058e-18, 3.39420152e+00, 0., 3.50000000e+00,
          1.10906646e+22, 3.40353012e+00, 0., 3.50000000e+00, 0.,
          3.50000000e+00, -6.21814131e+29, 3.35566163e+00,
          3.00110012e-01, 3.44277692e+00, 0., 3.50000000e+00, 0.,
          3.50000000e+00, 2.48699755e+17, 3.29707956e+00,
          -8.75182129e+03, 3.49788284e+00, 0., 3.50000000e+00,
          9.61232717e+25, 3.32712126e+00, -3.05574975e-11,
          3.40818667e+00, 0., 3.50000000e+00, 5.73463839e+33,
          3.44863987e+00, 0., 3.50000000e+00, 1.36502135e+13,
          3.39930153e+00, 0., 3.50000000e+00, 4.95271645e-21,
          3.46267962e+00, 0., 3.50000000e+00, 8.80005965e-36,
          3.46058059e+00, -5.41008085e-05, 3.29564500e+00, 0.,
          3.50000000e+00, 0., 3.50000000e+00, 8.67235156e+04,
          3.49854493e+00, 3.47503729e+18, 3.31882310e+00, 0.,
          3.50000000e+00, -4.71791229e+02, 3.35328913e+00,
          2.96828578e-24, 3.31628346e+00, 0., 3.50000000e+00,
          -4.49915355e-10, 3.41691494e+00, 0., 3.50000000e+00,
          3.13593010e-26, 3.20028853e+00, 0., 3.50000000e+00, 0.,
          3.50000000e+00, 0., 3.50000000e+00, -2.36577503e+28,
          3.09739518e+00, -3.98799772e+12, 3.34125471e+00,
          -8.16561440e+24, 3.32574010e+00, 2.16383417e-18,
          3.48350739e+00, -8.75254329e-07, 3.40600300e+00,
          -2.68534819e-07, 3.09739518e+00, -1.22909614e-05,
          3.42363715e+00 ]
      - [ -1.94514344e+17, 3.29497027e+00, 0., 3.50000000e+00,
          -8.86874927e+16, 3.37724543e+00, 2.23941111e+36,
          3.27925825e+00, 0., 3.50000000e+00, 2.27853877e+11,
          3.42397952e+00, 1.36294968e+26, 3.44862556e+00, 6.00410931e+09,
          3.39545727e+00, 0., 3.50000000e+00, 3.37378486e-19,
          3.37037683e+00, -2.11078570e+15, 3.37323833e+00, 0.,
          3.50000000e+00, 0., 3.50000000e+00, 0., 3.50000000e+00,
          1.44236058e-03, 3.30390215e+00, 0., 3.50000000e+00,
          2.38662832e-17, 3.03010297e+00, 0., 3.50000000e+00,
          3.14567818e+34, 3.33385825e+00, 2.18152522e-13, 3.40270686e+00,
          1.47079502e+30, 3.44527698e+00, 0., 3.50000000e+00, 0.,
          3.50000000e+00, 0., 3.50000000e+00, 0., 3.50000000e+00,
          -3.95814581e+13, 3.46716738e+00, -1.15119667e+01,
          3.43334126e+00, -7.07308379e-11, 3.48022318e+00,
          1.40071915e+35, 3.40490174e+00, 2.21002348e+38, 3.49777842e+00,
          6.72699201e-14, 3.15854383e+00, -3.03233535e-33,
          3.49778533e+00, -5.06523550e+12, 3.33189511e+00, 0.,
          3.50000000e+00, -1.01842879e-14, 3.43336749e+00, -768313536.,
          3.35297155e+00, 0., 3.50000000e+00, 0., 3.50000000e+00, 0.,
          3.50000000e+00, 6.86770219e-18, 3.31495357e+00, 0.,
          3.50000000e+00, -14865255., 3.47627497e+00, 2.14771466e+11,
          3.48427868e+00, 0., 3.50000000e+00, 2.04465667e-09,
          3.41312504e+00, 5.14067851e-33, 3.48427701e+00, 7.38080627e+15,
          3.38118267e+00, 0., 3.50000000e+00, 1.73197342e-11,
          3.38929725e+00, 1.19795709e-14, 3.48334384e+00, 0.,
          3.50000000e+00, -8.55635020e+30, 3.37324095e+00,
          -2.22703755e-16, 3.43280029e+00, 2.00414452e-30,
          3.45895720e+00, -2.84401703e-19, 3.39055037e+00,
