%YAML:1.0
my_svm: !!opencv-ml-svm
   svm_type: C_SVC
   kernel: { type:RBF, gamma:1.0000000000000000e-02 }
   C: 3.1250000000000000e+02
   term_criteria: { epsilon:2.2204460492503131e-16, iterations:100 }
   var_all: 408
   var_count: 408
   class_count: 10
   class_labels: !!opencv-matrix
      rows: 1
      cols: 10
      dt: i
      data: [ 1, 2, 3, 4, 5, 6, 7, 8, 9, 10 ]
   sv_total: 217
   support_vectors:
      - [ 8.94197464e-01, 8.81558657e-01, 8.54154527e-01, 9.12283242e-01,
          9.55279946e-01, 8.69879484e-01, 5.95910728e-01, 7.57077336e-01,
          9.83339071e-01, 9.35186803e-01, 8.79593551e-01, 8.25670302e-01,
          8.88680756e-01, 8.72930646e-01, 7.24652350e-01, 9.01019990e-01,
          9.83404815e-01, 8.94728303e-01, 8.13073277e-01, 7.50207126e-01,
          8.23171258e-01, 7.82109559e-01, 7.78560102e-01, 9.22592521e-01,
          8.71212006e-01, 7.70377576e-01, 5.95910728e-01, 5.95910728e-01,
          5.95910728e-01, 5.95910728e-01, 8.37786317e-01, 8.75989437e-01,
          9.07287836e-01, 8.48016083e-01, 8.30817699e-01, 9.16724324e-01,
          9.53499496e-01, 8.68040085e-01, 5.95910728e-01, 8.20519209e-01,
          9.94153857e-01, 9.28156972e-01, 8.85897458e-01, 8.93117428e-01,
          9.10706758e-01, 8.78298163e-01, 7.57077336e-01, 9.36976373e-01,
          1., 9.30718005e-01, 8.63349378e-01, 8.28033328e-01,
          8.41746271e-01, 7.96355367e-01, 7.57077336e-01, 9.21624959e-01,
          8.95643175e-01, 8.21197629e-01, 6.92201793e-01, 5.95910728e-01,
          5.95910728e-01, 5.95910728e-01, 7.06378162e-01, 8.31883609e-01,
          9.05639529e-01, 8.11415434e-01, 7.74673760e-01, 8.95643175e-01,
          9.35186803e-01, 8.97917211e-01, 8.35905433e-01, 8.38244200e-01,
          9.94136095e-01, 9.42134738e-01, 8.22523296e-01, 8.63088608e-01,
          9.12374377e-01, 9.09754574e-01, 8.75989437e-01, 9.31090832e-01,
          9.97702479e-01, 9.39230859e-01, 8.57825279e-01, 7.83775687e-01,
          8.23171258e-01, 8.54154527e-01, 8.80675733e-01, 9.21849906e-01,
          9.05112565e-01, 8.59836280e-01, 7.60113299e-01, 5.95910728e-01,
          5.95910728e-01, 5.95910728e-01, 7.50207126e-01, 8.19830000e-01,
          8.79957080e-01, 7.91226983e-01, 8.57825279e-01, 8.79042804e-01,
          8.71430397e-01, 8.97421181e-01, 8.91307712e-01, 8.93525362e-01,
          9.75307882e-01, 8.96793842e-01, 7.83775687e-01, 8.58118057e-01,
          8.69426429e-01, 8.76965523e-01, 8.96285832e-01, 9.58054185e-01,
          9.76172268e-01, 9.22518790e-01, 7.62935102e-01, 7.16612220e-01,
          8.28033328e-01, 8.16208065e-01, 8.77731740e-01, 9.26485360e-01,
          8.91307712e-01, 8.64883482e-01, 6.68622792e-01, 5.95910728e-01,
          5.95910728e-01, 5.95910728e-01, 7.85377026e-01, 8.29725146e-01,
          0., 0., 0., 0., 0., 0., 0., 0., 0., 0., 0., 0., 0., 0., 0., 0.,
          0., 0., 0., 0., 0., 0., 0., 0., 0., 0., 0., 0., 0., 0., 0., 0.,
          0., 0., 0., 0., 0., 0., 0., 0., 9.21052545e-02, 1.84210509e-01,
          3.55263144e-01, 3.68421018e-01, 3.94736826e-01, 4.07894701e-01,
          4.47368413e-01, 4.47368413e-01, 4.34210509e-01, 3.81578922e-01,
          3.42105240e-01, 3.15789461e-01, 3.02631587e-01, 2.89473683e-01,
          2.76315778e-01, 2.63157904e-01, 2.63157904e-01, 2.63157904e-01,
          2.63157904e-01, 2.63157904e-01, 2.63157904e-01, 2.76315778e-01,
          2.76315778e-01, 3.02631587e-01, 2.76315778e-01, 2.63157904e-01,
          2.76315778e-01, 2.63157904e-01, 2.63157904e-01, 2.63157904e-01,
          2.50000000e-01, 2.50000000e-01, 2.50000000e-01, 2.36842111e-01,
          2.36842111e-01, 2.36842111e-01, 2.36842111e-01, 2.36842111e-01,
          2.36842111e-01, 2.36842111e-01, 2.23684207e-01, 2.36842111e-01,
          2.23684207e-01, 2.10526302e-01, 1.97368413e-01, 1.97368413e-01,
          1.97368413e-01, 1.97368413e-01, 2.10526302e-01, 2.10526302e-01,
          1.97368413e-01, 1.97368413e-01, 2.10526302e-01, 2.10526302e-01,
          2.10526302e-01, 2.23684207e-01, 2.10526302e-01, 2.23684207e-01,
          2.23684207e-01, 2.23684207e-01, 2.36842111e-01, 2.36842111e-01,
          2.36842111e-01, 2.36842111e-01, 2.50000000e-01, 2.50000000e-01,
          2.50000000e-01, 2.50000000e-01, 2.63157904e-01, 2.50000000e-01,
          2.63157904e-01, 2.89473683e-01, 3.15789461e-01, 3.28947335e-01,
          3.28947335e-01, 3.15789461e-01, 3.68421018e-01, 4.34210509e-01,
          4.60526288e-01, 4.73684222e-01, 0., 1.31578939e-02, 0., 0., 0.,
          0., 0., 0., 0., 0., 0., 0., 0., 0., 0., 0., 0., 0., 0., 0., 0.,
          0., 0., 0., 0., 0., 0., 0., 0., 0., 0., 0., 0., 0., 0., 0., 0.,
          0., 5.26315756e-02, 7.89473653e-02, 9.21052545e-02,
          9.21052545e-02, 9.21052545e-02, 1.05263151e-01, 1.05263151e-01,
          1.18421055e-01, 1.05263151e-01, 1.05263151e-01, 1.05263151e-01,
          1.18421055e-01, 1.18421055e-01, 1.18421055e-01, 1.18421055e-01,
          1.18421055e-01, 1.31578952e-01, 1.44736841e-01, 3.42105240e-01,
          4.47368413e-01, 5.39473653e-01, 5.52631557e-01, 5.78947365e-01,
          6.31578922e-01, 7.10526288e-01, 7.89473653e-01, 8.81578922e-01,
          9.47368443e-01, 1., 1., 9.86842096e-01, 9.86842096e-01,
          9.73684132e-01, 9.73684132e-01, 9.73684132e-01, 9.73684132e-01,
          8.55263114e-01, 7.50000000e-01, 6.84210479e-01, 5.78947365e-01,
          3.28947335e-01, 3.02631587e-01, 2.63157904e-01, 2.36842111e-01,
          2.10526302e-01, 1.57894731e-01, 1.31578952e-01, 1.05263151e-01,
          9.21052545e-02, 5.26315756e-02, 3.94736826e-02, 3.94736826e-02,
          3.94736826e-02, 5.26315756e-02, 5.26315756e-02, 3.94736826e-02,
          2.63157878e-02, 0., 0., 0., 0., 0., 0., 0., 0., 0., 0., 0., 0.,
          0., 0., 0., 0., 0., 0., 0., 0., 0., 0., 0., 0., 0., 0., 0., 0.,
          0., 0., 0., 0., 0., 0., 0., 0., 0., 0., 0., 0., 0., 0., 0., 0.,
          0., 0., 0., 0., 0., 0., 0., 0., 1.31578939e-02, 0., 0., 0., 0.,
          0., 1.31578939e-02, 3.94736826e-02, 3.94736826e-02,
          5.26315756e-02, 1.05263151e-01, 1.18421055e-01, 1.18421055e-01 ]
      - [ 8.82570684e-01, 9.01183665e-01, 8.73121023e-01, 8.62765551e-01,
          9.24028933e-01, 8.32480907e-01, 6.00387752e-01, 7.73816168e-01,
          9.75350559e-01, 9.29300547e-01, 8.77536297e-01, 8.60891640e-01,
          9.02110457e-01, 8.66296172e-01, 7.21996069e-01, 9.15313184e-01,
          9.79080081e-01, 9.03785229e-01, 8.41206729e-01, 7.80493855e-01,
          8.18354785e-01, 7.84409344e-01, 8.13027501e-01, 9.35460150e-01,
          8.85832667e-01, 7.80493855e-01, 6.00387752e-01, 6.00387752e-01,
          6.00387752e-01, 6.00387752e-01, 8.52889419e-01, 8.98431122e-01,
          9.04037654e-01, 8.46779644e-01, 8.55117738e-01, 8.90919745e-01,
          9.20674980e-01, 8.60249460e-01, 6.97402239e-01, 8.04702222e-01,
          9.90815103e-01, 9.28473234e-01, 8.85646999e-01, 9.13281083e-01,
          9.29746091e-01, 8.77536297e-01, 7.55843401e-01, 9.24524963e-01,
          1., 9.37331915e-01, 8.59924853e-01, 8.44080508e-01,
          8.44080508e-01, 7.97171414e-01, 7.51872063e-01, 9.13177192e-01,
          9.15709496e-01, 8.25989306e-01, 6.73646152e-01, 6.00387752e-01,
          6.00387752e-01, 6.00387752e-01, 6.97402239e-01, 8.15773726e-01,
          9.02632117e-01, 8.17511499e-01, 8.92713308e-01, 8.94286573e-01,
          8.83554101e-01, 8.77977371e-01, 8.56544256e-01, 8.50544572e-01,
          9.92380261e-01, 9.38335001e-01, 8.64565015e-01, 8.92713308e-01,
          9.16297913e-01, 9.13281083e-01, 8.84326041e-01, 9.23862398e-01,
          9.99851704e-01, 9.34931040e-01, 8.25283587e-01, 7.92830765e-01,
          8.19993317e-01, 8.58936965e-01, 8.79911780e-01, 9.32476938e-01,
          9.18021381e-01, 8.44541907e-01, 7.21996069e-01, 6.00387752e-01,
          6.00387752e-01, 6.00387752e-01, 7.11685121e-01, 8.33080053e-01,
          8.78414214e-01, 7.97171414e-01, 8.65726411e-01, 8.31873477e-01,
          8.12071502e-01, 8.71885121e-01, 8.99964750e-01, 8.90586078e-01,
          9.76059854e-01, 9.07085836e-01, 8.08017969e-01, 8.35397959e-01,
          8.66858840e-01, 8.81970465e-01, 9.04037654e-01, 9.39378917e-01,
          9.83429909e-01, 9.33102012e-01, 7.82498121e-01, 7.30096579e-01,
          8.14877748e-01, 8.16651464e-01, 8.91415656e-01, 9.29672122e-01,
          8.86201859e-01, 8.95357370e-01, 8.20789874e-01, 6.00387752e-01,
          6.00387752e-01, 6.00387752e-01, 7.62765169e-01, 8.31257463e-01,
          0., 0., 0., 0., 0., 0., 0., 0., 0., 0., 0., 0., 0., 0., 0., 0.,
          0., 0., 0., 0., 0., 0., 0., 0., 0., 0., 0., 0., 0., 0., 0., 0.,
          0., 0., 2.46913597e-01, 3.08642000e-01, 3.33333343e-01,
          3.45679015e-01, 3.70370388e-01, 3.95061761e-01, 4.19753104e-01,
          4.07407403e-01, 3.95061761e-01, 3.33333343e-01, 3.08642000e-01,
          2.96296299e-01, 2.96296299e-01, 2.83950627e-01, 2.59259254e-01,
          2.46913597e-01, 2.46913597e-01, 2.46913597e-01, 2.46913597e-01,
          2.46913597e-01, 2.46913597e-01, 2.59259254e-01, 2.59259254e-01,
          2.59259254e-01, 2.46913597e-01, 2.46913597e-01, 2.46913597e-01,
          2.46913597e-01, 2.46913597e-01, 2.46913597e-01, 2.22222224e-01,
          2.22222224e-01, 2.22222224e-01, 2.22222224e-01, 2.22222224e-01,
          2.22222224e-01, 2.34567910e-01, 2.34567910e-01, 2.22222224e-01,
          2.22222224e-01, 2.22222224e-01, 2.22222224e-01, 2.22222224e-01,
          2.09876552e-01, 1.97530881e-01, 2.09876552e-01, 1.97530881e-01,
          1.97530881e-01, 1.97530881e-01, 1.97530881e-01, 2.09876552e-01,
          1.97530881e-01, 1.97530881e-01, 1.97530881e-01, 1.97530881e-01,
          1.97530881e-01, 2.09876552e-01, 2.09876552e-01, 2.22222224e-01,
          2.09876552e-01, 2.09876552e-01, 2.22222224e-01, 2.22222224e-01,
          2.22222224e-01, 2.22222224e-01, 2.34567910e-01, 2.34567910e-01,
          2.46913597e-01, 2.46913597e-01, 2.46913597e-01, 2.46913597e-01,
          2.59259254e-01, 2.59259254e-01, 2.59259254e-01, 2.71604955e-01,
          2.71604955e-01, 2.71604955e-01, 2.83950627e-01, 2.96296299e-01,
          3.20987672e-01, 3.45679015e-01, 3.45679015e-01, 3.95061761e-01,
          4.07407403e-01, 4.19753104e-01, 4.19753104e-01, 0., 0., 0., 0.,
          0., 0., 0., 0., 0., 0., 0., 0., 0., 0., 0., 0., 0., 0., 0., 0.,
          0., 0., 0., 0., 0., 0., 0., 0., 0., 0., 0., 0., 0., 0.,
          3.70370373e-02, 6.17283992e-02, 6.17283992e-02, 6.17283992e-02,
          7.40740746e-02, 8.64197537e-02, 9.87654403e-02, 9.87654403e-02,
          1.11111112e-01, 1.11111112e-01, 1.11111112e-01, 1.11111112e-01,
          1.11111112e-01, 1.11111112e-01, 1.23456798e-01, 1.23456798e-01,
          1.35802478e-01, 1.60493836e-01, 2.22222224e-01, 4.44444448e-01,
          5.30864239e-01, 5.43209910e-01, 5.67901254e-01, 5.92592597e-01,
          6.29629672e-01, 6.54321015e-01, 7.03703761e-01, 7.40740776e-01,
          8.02469194e-01, 8.51851881e-01, 9.01234567e-01, 9.38271642e-01,
          1., 9.87654388e-01, 9.87654388e-01, 9.87654388e-01,
          9.87654388e-01, 8.39506209e-01, 7.65432119e-01, 6.66666687e-01,
          5.06172836e-01, 3.95061761e-01, 3.70370388e-01, 3.45679015e-01,
          3.08642000e-01, 2.83950627e-01, 2.59259254e-01, 2.34567910e-01,
          2.09876552e-01, 1.85185194e-01, 1.60493836e-01, 1.48148149e-01,
          1.11111112e-01, 9.87654403e-02, 8.64197537e-02, 7.40740746e-02,
          6.17283992e-02, 4.93827201e-02, 4.93827201e-02, 4.93827201e-02,
          3.70370373e-02, 0., 0., 0., 0., 0., 0., 0., 0., 0., 0., 0., 0.,
          0., 0., 0., 0., 0., 0., 0., 0., 0., 0., 0., 0., 0., 0., 0., 0.,
          0., 0., 0., 0., 0., 0., 0., 0., 0., 0., 0., 0., 0., 0., 0., 0.,
          0., 0., 0., 0., 0., 0., 0., 0., 0., 0., 0., 0., 0., 0., 0., 0.,
          2.46913601e-02, 4.93827201e-02, 7.40740746e-02, 8.64197537e-02,
          9.87654403e-02 ]
      - [ 8.67664814e-01, 8.05369258e-01, 7.92180181e-01, 8.66738975e-01,
          9.19682980e-01, 8.50846291e-01, 6.03583813e-01, 7.33983159e-01,
          9.74149346e-01, 9.05167580e-01, 8.71753752e-01, 8.70334923e-01,
          9.14005637e-01, 8.89797091e-01, 7.15473652e-01, 8.68572295e-01,
          9.87995803e-01, 9.03497875e-01, 8.37514818e-01, 7.77935445e-01,
          8.22711170e-01, 7.90421426e-01, 7.69900739e-01, 9.20979321e-01,
          9.01176155e-01, 7.82530367e-01, 6.03583813e-01, 6.03583813e-01,
          6.03583813e-01, 6.03583813e-01, 8.19215596e-01, 8.80158067e-01,
          8.80390346e-01, 7.51436114e-01, 8.49496782e-01, 8.88452709e-01,
          9.25486445e-01, 8.61804247e-01, 6.77232146e-01, 7.59867013e-01,
          9.82307017e-01, 8.95158350e-01, 8.91103923e-01, 9.16118562e-01,
          9.38277066e-01, 8.93086672e-01, 7.51436114e-01, 8.76019955e-01,
          1., 9.34172511e-01, 8.68572295e-01, 8.33770633e-01,
          8.62494051e-01, 8.10126305e-01, 7.59867013e-01, 8.92732382e-01,
          9.23752010e-01, 8.33114326e-01, 7.01114714e-01, 6.03583813e-01,
          6.03583813e-01, 6.03583813e-01, 6.03583813e-01, 7.98556685e-01,
          8.77276003e-01, 7.63496816e-01, 8.69754970e-01, 8.93787384e-01,
          9.14906621e-01, 8.92195821e-01, 8.39273870e-01, 8.08985949e-01,
          9.84236360e-01, 8.95995378e-01, 8.55871916e-01, 9.02496040e-01,
          9.29031253e-01, 9.17618275e-01, 8.85848641e-01, 9.00426805e-01,
          9.98134613e-01, 9.26638484e-01, 8.43649030e-01, 7.97051251e-01,
          8.38695288e-01, 8.64173949e-01, 8.91652942e-01, 9.21175659e-01,
          9.25126374e-01, 8.68271828e-01, 7.69900739e-01, 6.03583813e-01,
          6.03583813e-01, 6.03583813e-01, 7.66825616e-01, 8.31084371e-01,
          8.62835050e-01, 7.63496816e-01, 8.75249624e-01, 8.78013551e-01,
          8.39273870e-01, 8.89985979e-01, 9.07697141e-01, 8.79454136e-01,
          9.61663842e-01, 8.66111100e-01, 7.93867767e-01, 8.70907724e-01,
          8.87468219e-01, 8.85434747e-01, 9.10345554e-01, 9.34472024e-01,
          9.81019199e-01, 9.44195926e-01, 7.92180181e-01, 7.33983159e-01,
          8.26717734e-01, 8.25945437e-01, 8.92375350e-01, 9.03356016e-01,
          9.11076069e-01, 8.99818540e-01, 8.34417164e-01, 6.03583813e-01,
          6.03583813e-01, 6.03583813e-01, 8.01415026e-01, 8.30386281e-01,
          0., 0., 0., 0., 0., 0., 0., 0., 0., 0., 0., 0., 0., 0., 0., 0.,
          0., 0., 0., 0., 0., 0., 0., 0., 0., 0., 0., 0., 0., 0., 0., 0.,
          0., 0., 0., 0., 0., 0., 0., 0., 0., 0., 0., 8.45070407e-02,
          3.66197199e-01, 4.08450693e-01, 4.50704247e-01, 5.49295783e-01,
          5.77464759e-01, 6.05633795e-01, 6.05633795e-01, 5.91549277e-01,
          5.35211265e-01, 3.80281687e-01, 3.52112681e-01, 3.38028163e-01,
          3.09859157e-01, 2.95774639e-01, 2.81690121e-01, 2.81690121e-01,
          2.81690121e-01, 2.67605633e-01, 2.67605633e-01, 2.67605633e-01,
          2.81690121e-01, 2.81690121e-01, 2.81690121e-01, 2.81690121e-01,
          2.67605633e-01, 2.67605633e-01, 2.67605633e-01, 2.67605633e-01,
          2.67605633e-01, 2.67605633e-01, 2.67605633e-01, 2.67605633e-01,
          2.67605633e-01, 2.67605633e-01, 2.81690121e-01, 2.81690121e-01,
          2.67605633e-01, 2.81690121e-01, 2.81690121e-01, 2.81690121e-01,
          2.95774639e-01, 2.81690121e-01, 2.67605633e-01, 2.67605633e-01,
          2.53521115e-01, 2.67605633e-01, 2.53521115e-01, 2.67605633e-01,
          2.53521115e-01, 2.53521115e-01, 2.53521115e-01, 2.53521115e-01,
          2.67605633e-01, 2.67605633e-01, 2.67605633e-01, 2.67605633e-01,
          2.67605633e-01, 2.81690121e-01, 2.81690121e-01, 2.81690121e-01,
          2.81690121e-01, 2.95774639e-01, 2.95774639e-01, 2.95774639e-01,
          2.95774639e-01, 3.09859157e-01, 3.09859157e-01, 3.09859157e-01,
          3.23943675e-01, 3.23943675e-01, 3.38028163e-01, 3.52112681e-01,
          3.94366205e-01, 4.22535211e-01, 4.08450693e-01, 4.08450693e-01,
          0., 0., 0., 0., 0., 0., 0., 0., 0., 0., 0., 0., 0., 0.,
          7.04225302e-02, 9.85915512e-02, 1.12676062e-01, 1.12676062e-01,
          1.12676062e-01, 1.12676062e-01, 1.26760557e-01, 1.26760557e-01,
          1.26760557e-01, 1.26760557e-01, 1.26760557e-01, 1.26760557e-01,
          1.26760557e-01, 1.26760557e-01, 1.26760557e-01, 1.26760557e-01,
          1.26760557e-01, 1.40845060e-01, 1.40845060e-01, 1.69014081e-01,
          1.83098599e-01, 1.83098599e-01, 1.97183102e-01, 2.39436626e-01,
          5.49295783e-01, 5.91549277e-01, 6.05633795e-01, 6.05633795e-01,
          6.33802831e-01, 6.47887349e-01, 6.61971867e-01, 6.90140843e-01,
          7.04225361e-01, 7.32394397e-01, 7.74647892e-01, 8.02816868e-01,
          8.45070422e-01, 8.87323976e-01, 9.29577470e-01, 9.43661988e-01,
          9.85915482e-01, 1., 1., 8.02816868e-01, 5.07042229e-01,
          4.64788735e-01, 4.36619729e-01, 4.08450693e-01, 3.80281687e-01,
          3.52112681e-01, 3.38028163e-01, 3.23943675e-01, 2.95774639e-01,
          2.67605633e-01, 2.53521115e-01, 2.25352123e-01, 2.11267605e-01,
          1.83098599e-01, 1.54929578e-01, 1.40845060e-01, 1.12676062e-01,
          9.85915512e-02, 8.45070407e-02, 5.63380308e-02, 4.22535203e-02,
          0., 0., 0., 0., 0., 0., 0., 0., 0., 0., 0., 0., 0., 0., 0., 0.,
          0., 0., 0., 0., 0., 0., 0., 0., 0., 0., 0., 0., 0., 0., 0., 0.,
          0., 0., 0., 0., 0., 0., 0., 0., 0., 0., 0., 0., 0., 0., 0., 0.,
          0., 0., 0., 0., 0., 0., 0., 0., 0., 0., 0., 0., 0., 0., 0., 0.,
          0., 0., 0., 0., 0., 0., 0., 0., 0., 0., 0., 0., 4.22535203e-02,
          5.63380308e-02, 5.63380308e-02, 7.04225302e-02, 7.04225302e-02 ]
      - [ 8.85321915e-01, 8.78326833e-01, 8.61150324e-01, 9.17291582e-01,
          9.45977211e-01, 8.51706505e-01, 5.90084136e-01, 7.62845039e-01,
          9.84644711e-01, 9.40408528e-01, 8.44522178e-01, 8.66436720e-01,
          9.02081370e-01, 8.28205347e-01, 7.09605455e-01, 9.12314951e-01,
          9.87649560e-01, 9.01802123e-01, 7.84819841e-01, 7.46420503e-01,
          7.92007029e-01, 6.85433626e-01, 7.90892184e-01, 9.38520849e-01,
          8.88025284e-01, 7.65028298e-01, 5.90084136e-01, 5.90084136e-01,
          5.90084136e-01, 5.90084136e-01, 8.30497026e-01, 8.90698969e-01,
          9.03633475e-01, 8.22156668e-01, 7.62845039e-01, 9.04523313e-01,
          9.44835305e-01, 8.94005537e-01, 7.24138200e-01, 8.05123329e-01,
          9.92296100e-01, 9.16474044e-01, 8.37115169e-01, 8.76759589e-01,
          8.94770026e-01, 8.85586262e-01, 7.92007029e-01, 9.28409517e-01,
          1., 9.22717094e-01, 8.31380963e-01, 7.99993634e-01,
          8.16991687e-01, 7.95183063e-01, 7.69069135e-01, 9.24320817e-01,
          9.06762064e-01, 8.16991687e-01, 6.62085235e-01, 5.90084136e-01,
          5.90084136e-01, 5.90084136e-01, 6.99471414e-01, 8.19937050e-01,
          8.99310589e-01, 8.04310441e-01, 7.34629512e-01, 8.79991531e-01,
          9.21370029e-01, 9.14439440e-01, 8.22694242e-01, 8.07472408e-01,
          9.91593540e-01, 9.37771678e-01, 7.72742927e-01, 8.53865862e-01,
          8.85454297e-01, 9.13352191e-01, 8.76599908e-01, 9.09618974e-01,
          9.99407232e-01, 9.38999534e-01, 7.83490598e-01, 7.46420503e-01,
          7.69069135e-01, 8.53601515e-01, 8.75630081e-01, 9.24437523e-01,
          9.05136466e-01, 8.41498137e-01, 6.85433626e-01, 5.90084136e-01,
          5.90084136e-01, 5.90084136e-01, 6.85433626e-01, 8.22694242e-01,
          8.79693270e-01, 7.70947576e-01, 8.05920899e-01, 8.68771732e-01,
          8.96576464e-01, 9.01049376e-01, 8.47047687e-01, 8.85189235e-01,
          9.77754772e-01, 9.17020559e-01, 6.85433626e-01, 8.16991687e-01,
          8.33930731e-01, 8.86110425e-01, 8.88892651e-01, 9.39644873e-01,
          9.81846094e-01, 9.43031967e-01, 7.42871881e-01, 5.90084136e-01,
          5.90084136e-01, 8.04310441e-01, 8.73455763e-01, 9.15712416e-01,
          8.86757553e-01, 8.93228412e-01, 7.86107600e-01, 5.90084136e-01,
          5.90084136e-01, 5.90084136e-01, 7.49674857e-01, 8.03481638e-01,
          0., 0., 0., 0., 0., 0., 0., 0., 0., 0., 0., 0., 0., 0., 0., 0.,
          0., 0., 0., 0., 0., 0., 0., 0., 0., 0., 0., 0., 0., 0., 0., 0.,
          0., 0., 0., 2.53164563e-02, 1.51898727e-01, 2.40506321e-01,
          3.29113901e-01, 4.17721510e-01, 4.55696195e-01, 4.68354434e-01,
          4.93670881e-01, 5.06329119e-01, 5.56962013e-01, 5.56962013e-01,
          4.93670881e-01, 4.43037987e-01, 4.17721510e-01, 4.05063301e-01,
          3.92405063e-01, 3.79746854e-01, 3.67088586e-01, 3.67088586e-01,
          3.54430377e-01, 3.41772139e-01, 3.29113901e-01, 3.29113901e-01,
          3.29113901e-01, 3.41772139e-01, 3.41772139e-01, 3.41772139e-01,
          3.41772139e-01, 3.54430377e-01, 3.54430377e-01, 3.54430377e-01,
          3.54430377e-01, 3.54430377e-01, 3.54430377e-01, 3.54430377e-01,
          3.54430377e-01, 3.54430377e-01, 3.41772139e-01, 3.41772139e-01,
          3.41772139e-01, 3.29113901e-01, 3.29113901e-01, 3.29113901e-01,
          3.16455692e-01, 3.16455692e-01, 3.16455692e-01, 3.16455692e-01,
          3.16455692e-01, 3.16455692e-01, 3.16455692e-01, 3.03797454e-01,
          3.03797454e-01, 3.03797454e-01, 3.16455692e-01, 3.03797454e-01,
          3.03797454e-01, 2.91139245e-01, 2.91139245e-01, 2.78481007e-01,
          2.78481007e-01, 2.78481007e-01, 2.65822798e-01, 2.65822798e-01,
          2.65822798e-01, 2.65822798e-01, 2.53164560e-01, 2.53164560e-01,
          2.53164560e-01, 2.53164560e-01, 2.65822798e-01, 2.65822798e-01,
          2.65822798e-01, 2.65822798e-01, 2.78481007e-01, 2.78481007e-01,
          2.65822798e-01, 2.65822798e-01, 2.78481007e-01, 2.78481007e-01,
          2.78481007e-01, 2.78481007e-01, 2.91139245e-01, 2.91139245e-01,
          2.91139245e-01, 2.91139245e-01, 0., 0., 0., 0., 0., 0., 0., 0.,
          0., 0., 0., 0., 0., 5.06329127e-02, 7.59493634e-02,
          7.59493634e-02, 7.59493634e-02, 8.86075944e-02, 8.86075944e-02,
          1.01265825e-01, 1.01265825e-01, 1.01265825e-01, 1.13924049e-01,
          1.26582280e-01, 1.51898727e-01, 1.51898727e-01, 1.39240503e-01,
          1.39240503e-01, 1.26582280e-01, 1.26582280e-01, 1.39240503e-01,
          1.39240503e-01, 1.51898727e-01, 1.64556950e-01, 1.77215189e-01,
          1.89873427e-01, 2.02531651e-01, 2.27848098e-01, 2.40506321e-01,
          2.40506321e-01, 6.07594907e-01, 6.45569623e-01, 6.70886040e-01,
          6.83544278e-01, 6.96202517e-01, 7.08860755e-01, 7.21518934e-01,
          7.59493709e-01, 8.86075974e-01, 1., 9.87341762e-01,
          9.87341762e-01, 9.74683523e-01, 9.62025285e-01, 9.62025285e-01,
          9.62025285e-01, 9.62025285e-01, 9.62025285e-01, 9.49367106e-01,
          9.49367106e-01, 9.49367106e-01, 9.36708868e-01, 9.36708868e-01,
          9.24050629e-01, 9.24050629e-01, 7.84810126e-01, 5.56962013e-01,
          4.30379748e-01, 2.02531651e-01, 1.51898727e-01, 1.01265825e-01,
          5.06329127e-02, 0., 0., 0., 0., 0., 0., 0., 0., 0., 0., 0., 0.,
          0., 0., 0., 0., 0., 0., 0., 0., 0., 0., 0., 0., 0., 0., 0., 0.,
          0., 0., 0., 0., 0., 0., 0., 0., 0., 0., 0., 0., 0., 0., 0., 0.,
          0., 0., 0., 0., 0., 0., 0., 0., 0., 0., 0., 0., 0., 0., 0., 0.,
          0., 0., 0., 0., 0., 0., 0., 0., 0., 0., 0., 0., 0., 0., 0., 0.,
          0., 0., 0., 0., 0., 0., 0., 0., 0., 0., 0., 0. ]
      - [ 8.80531251e-01, 8.94547522e-01, 8.33467603e-01, 9.19931173e-01,
          9.38397527e-01, 8.78604829e-01, 6.00667059e-01, 7.37125337e-01,
          9.77588832e-01, 9.41194654e-01, 8.67818236e-01, 9.03568208e-01,
          9.08327878e-01, 8.65260541e-01, 7.12016165e-01, 8.77274513e-01,
          9.82520640e-01, 9.03568208e-01, 8.42577279e-01, 8.42090368e-01,
          8.45391631e-01, 6.97726667e-01, 6.97726667e-01, 9.32840705e-01,
          8.99131775e-01, 7.82862127e-01, 6.00667059e-01, 6.00667059e-01,
          6.00667059e-01, 6.00667059e-01, 6.00667059e-01, 8.97116363e-01,
          9.02791858e-01, 8.48038435e-01, 7.69024491e-01, 9.16821599e-01,
          9.45927680e-01, 8.95011187e-01, 6.00667059e-01, 7.93199599e-01,
          9.88742769e-01, 9.20385361e-01, 8.62550497e-01, 9.14222300e-01,
          9.38584864e-01, 8.89468193e-01, 7.47804821e-01, 9.05946374e-01,
          9.99114037e-01, 9.18542445e-01, 8.43535364e-01, 8.50940228e-01,
          8.50130260e-01, 8.02711546e-01, 7.42828786e-01, 9.13183928e-01,
          9.11147058e-01, 8.10469687e-01, 6.00667059e-01, 6.00667059e-01,
          6.00667059e-01, 6.00667059e-01, 6.00667059e-01, 8.27068269e-01,
          9.06068265e-01, 7.86601782e-01, 8.64967227e-01, 9.21014130e-01,
          9.35365975e-01, 8.98134828e-01, 7.71682024e-01, 8.02711546e-01,
          9.91253972e-01, 9.07860935e-01, 8.24220121e-01, 9.03051972e-01,
          9.27127659e-01, 9.13497746e-01, 8.47608149e-01, 8.94079268e-01,
          1., 9.21546638e-01, 7.37125337e-01, 8.01477373e-01,
          8.31019104e-01, 8.69179606e-01, 8.63166869e-01, 9.10374224e-01,
          9.12656248e-01, 8.47608149e-01, 6.00667059e-01, 6.00667059e-01,
          6.00667059e-01, 6.00667059e-01, 7.12016165e-01, 8.12449276e-01,
          8.98278534e-01, 6.97726667e-01, 8.25667500e-01, 9.01468933e-01,
          9.08905089e-01, 8.83179605e-01, 8.61609995e-01, 8.92968297e-01,
          9.84544873e-01, 8.48886967e-01, 7.76526392e-01, 8.92483950e-01,
          8.87162685e-01, 8.95011187e-01, 8.94391954e-01, 9.45712209e-01,
          9.83683348e-01, 9.04834628e-01, 6.00667059e-01, 7.22331941e-01,
          7.63119996e-01, 8.39572132e-01, 8.70761573e-01, 9.19472635e-01,
          9.00108099e-01, 8.60649586e-01, 6.00667059e-01, 6.00667059e-01,
          6.00667059e-01, 6.73959494e-01, 7.59807229e-01, 8.15256834e-01,
          0., 0., 0., 0., 0., 0., 0., 0., 0., 0., 0., 0., 0., 0., 0., 0.,
          0., 0., 0., 0., 0., 0., 0., 0., 0., 0., 0., 0., 1.25000000e-01,
          3.28125000e-01, 4.06250000e-01, 4.68750030e-01, 6.09375000e-01,
          7.03125060e-01, 7.34375060e-01, 7.65625000e-01, 7.81250060e-01,
          7.81250060e-01, 7.81250060e-01, 7.03125060e-01, 6.09375000e-01,
          5.62500000e-01, 5.15625000e-01, 4.84375030e-01, 4.37500030e-01,
          4.21875030e-01, 3.75000030e-01, 3.75000030e-01, 3.59375000e-01,
          3.59375000e-01, 3.75000030e-01, 3.59375000e-01, 3.59375000e-01,
          3.75000030e-01, 3.59375000e-01, 3.75000030e-01, 3.75000030e-01,
          3.75000030e-01, 3.75000030e-01, 3.90625030e-01, 3.75000030e-01,
          3.75000030e-01, 3.90625030e-01, 4.06250000e-01, 4.06250000e-01,
          3.75000030e-01, 3.90625030e-01, 3.75000030e-01, 3.59375000e-01,
          3.59375000e-01, 3.43750030e-01, 2.96875030e-01, 2.81250000e-01,
          2.96875030e-01, 2.81250000e-01, 2.96875030e-01, 2.96875030e-01,
          2.81250000e-01, 2.96875030e-01, 2.96875030e-01, 2.96875030e-01,
          2.96875030e-01, 2.96875030e-01, 3.12500000e-01, 3.12500000e-01,
          3.28125000e-01, 3.12500000e-01, 3.28125000e-01, 3.28125000e-01,
          3.43750030e-01, 3.43750030e-01, 3.43750030e-01, 3.43750030e-01,
          3.43750030e-01, 3.43750030e-01, 3.59375000e-01, 3.43750030e-01,
          3.59375000e-01, 3.59375000e-01, 3.59375000e-01, 3.75000030e-01,
          3.75000030e-01, 3.75000030e-01, 3.90625030e-01, 3.90625030e-01,
          4.06250000e-01, 3.90625030e-01, 4.06250000e-01, 4.06250000e-01,
          4.21875030e-01, 4.21875030e-01, 4.21875030e-01, 4.37500030e-01,
          4.53125000e-01, 4.53125000e-01, 4.68750030e-01, 4.53125000e-01,
          4.68750030e-01, 4.84375030e-01, 4.84375030e-01, 0.,
          1.56250000e-02, 0., 0., 0., 0., 0., 0., 0., 0., 0., 0., 0., 0.,
          0., 0., 0., 0., 0., 0., 0., 0., 0., 0., 0., 0., 0., 0., 0.,
          4.68750037e-02, 7.81250000e-02, 7.81250000e-02, 9.37500075e-02,
          9.37500075e-02, 9.37500075e-02, 9.37500075e-02, 1.09375007e-01,
          1.25000000e-01, 1.25000000e-01, 1.25000000e-01, 1.25000000e-01,
          1.25000000e-01, 1.25000000e-01, 1.40625000e-01, 1.40625000e-01,
          1.40625000e-01, 1.71875015e-01, 1.71875015e-01, 1.71875015e-01,
          1.87500015e-01, 2.03125000e-01, 2.03125000e-01, 2.03125000e-01,
          2.34375015e-01, 2.34375015e-01, 2.34375015e-01, 2.50000000e-01,
          2.50000000e-01, 2.65625000e-01, 2.65625000e-01, 2.65625000e-01,
          2.81250000e-01, 2.96875030e-01, 3.12500000e-01, 3.43750030e-01,
          3.75000030e-01, 4.06250000e-01, 4.37500030e-01, 4.68750030e-01,
          5.00000000e-01, 5.15625000e-01, 5.46875060e-01, 5.78125000e-01,
          5.93750060e-01, 5.93750060e-01, 5.93750060e-01, 5.78125000e-01,
          5.62500000e-01, 5.46875060e-01, 5.15625000e-01, 5.15625000e-01,
          5.31250000e-01, 5.46875060e-01, 5.78125000e-01, 6.40625060e-01,
          7.03125060e-01, 7.34375060e-01, 7.96875060e-01, 8.43750060e-01,
          8.90625060e-01, 9.53125000e-01, 1., 9.68750060e-01,
          9.53125000e-01, 9.21875060e-01, 9.06250000e-01, 8.75000060e-01,
          8.43750060e-01, 7.96875060e-01, 7.34375060e-01, 7.03125060e-01,
          6.56250000e-01, 6.25000000e-01, 5.78125000e-01, 5.46875060e-01,
          5.15625000e-01, 4.84375030e-01, 4.37500030e-01, 3.90625030e-01,
          3.59375000e-01, 3.12500000e-01, 2.96875030e-01, 2.65625000e-01,
          2.34375015e-01, 2.03125000e-01, 1.71875015e-01, 1.56250000e-01,
          1.25000000e-01, 1.09375007e-01, 7.81250000e-02, 4.68750037e-02,
          3.12500000e-02, 0., 0., 0., 0., 0., 0., 0., 0., 0., 0., 0., 0.,
          0., 0., 0., 0., 0., 0., 0., 0., 0., 0., 0., 0., 0.,
          1.56250000e-02, 0., 0., 0., 0., 0., 0., 1.56250000e-02, 0., 0.,
          0., 0., 0. ]
      - [ 8.98710787e-01, 8.56783867e-01, 8.67320359e-01, 9.43180442e-01,
          9.44127202e-01, 8.79620373e-01, 5.98651588e-01, 7.63609409e-01,
          9.92437601e-01, 9.40675318e-01, 8.60270679e-01, 8.80216181e-01,
          8.85083258e-01, 8.59964550e-01, 6.71698093e-01, 9.01171684e-01,
          9.83327448e-01, 9.10743475e-01, 8.26306462e-01, 7.97521174e-01,
          7.09627092e-01, 6.71698093e-01, 5.98651588e-01, 9.11256969e-01,
          8.52282226e-01, 7.71578491e-01, 5.98651588e-01, 5.98651588e-01,
          5.98651588e-01, 5.98651588e-01, 5.98651588e-01, 8.27598691e-01,
          9.17116582e-01, 8.15147460e-01, 8.15147460e-01, 9.33016717e-01,
          9.45565164e-01, 8.71558845e-01, 5.98651588e-01, 8.08748245e-01,
          9.99047756e-01, 9.12367761e-01, 8.32415700e-01, 8.97906303e-01,
          9.03870225e-01, 8.64072502e-01, 7.34652042e-01, 9.23146248e-01,
          9.98385191e-01, 9.14895475e-01, 8.31260324e-01, 8.38774204e-01,
          7.82141030e-01, 7.82141030e-01, 7.27985322e-01, 8.97225320e-01,
          8.79620373e-01, 7.85706818e-01, 5.98651588e-01, 5.98651588e-01,
          5.98651588e-01, 5.98651588e-01, 5.98651588e-01, 7.45295703e-01,
          9.18278277e-01, 8.03506255e-01, 8.61770809e-01, 9.09910202e-01,
          9.29360569e-01, 8.97225320e-01, 7.94866204e-01, 8.49269331e-01,
          1., 9.23938334e-01, 8.31841826e-01, 8.92465651e-01,
          8.87168586e-01, 8.84004414e-01, 8.42555046e-01, 9.29570973e-01,
          9.97457922e-01, 9.05740857e-01, 7.40336299e-01, 7.97521174e-01,
          7.66444147e-01, 8.19196165e-01, 8.28230679e-01, 9.19670701e-01,
          8.78813744e-01, 7.60559440e-01, 5.98651588e-01, 5.98651588e-01,
          5.98651588e-01, 5.98651588e-01, 5.98651588e-01, 7.96214700e-01,
          9.07870948e-01, 7.27985322e-01, 8.12521338e-01, 8.76090467e-01,
          9.05280113e-01, 8.93068910e-01, 8.89972091e-01, 9.19670701e-01,
          9.91889656e-01, 8.74106228e-01, 7.60559440e-01, 8.64352107e-01,
          8.39750111e-01, 8.72734308e-01, 9.01548803e-01, 9.66955781e-01,
          9.77070093e-01, 8.89489353e-01, 5.98651588e-01, 6.71698093e-01,
          5.98651588e-01, 7.82141030e-01, 8.37268651e-01, 9.28006172e-01,
          8.51547778e-01, 7.87380576e-01, 5.98651588e-01, 5.98651588e-01,
          5.98651588e-01, 5.98651588e-01, 5.98651588e-01, 7.83962429e-01,
          0., 0., 0., 0., 0., 0., 0., 0., 0., 0., 0., 0., 0., 0., 0., 0.,
          0., 0., 0., 0., 0., 0., 0., 0., 0., 0., 0., 0., 0., 0., 0., 0.,
          0., 0., 0., 0., 0., 0., 0., 1.62500009e-01, 5.62500000e-01,
          6.37499988e-01, 6.50000036e-01, 6.62500024e-01, 6.62500024e-01,
          6.62500024e-01, 6.50000036e-01, 6.00000024e-01, 5.50000012e-01,
          5.25000036e-01, 4.87500042e-01, 4.75000024e-01, 4.62500036e-01,
          4.37500000e-01, 4.12499994e-01, 4.00000006e-01, 3.75000030e-01,
          3.62500012e-01, 3.37500006e-01, 3.25000018e-01, 3.25000018e-01,
          3.25000018e-01, 3.25000018e-01, 3.37500006e-01, 3.12500000e-01,
          3.12500000e-01, 3.12500000e-01, 3.12500000e-01, 3.12500000e-01,
          3.12500000e-01, 3.12500000e-01, 3.25000018e-01, 3.12500000e-01,
          3.25000018e-01, 3.25000018e-01, 3.12500000e-01, 3.12500000e-01,
          3.12500000e-01, 3.12500000e-01, 3.25000018e-01, 3.12500000e-01,
          3.12500000e-01, 3.25000018e-01, 3.12500000e-01, 3.12500000e-01,
          3.12500000e-01, 3.00000012e-01, 3.00000012e-01, 2.87499994e-01,
          2.75000006e-01, 2.62500018e-01, 2.62500018e-01, 2.62500018e-01,
          2.62500018e-01, 2.62500018e-01, 2.62500018e-01, 2.50000000e-01,
          2.50000000e-01, 2.50000000e-01, 2.62500018e-01, 2.62500018e-01,
          2.62500018e-01, 2.62500018e-01, 2.62500018e-01, 2.62500018e-01,
          2.75000006e-01, 2.75000006e-01, 2.75000006e-01, 2.75000006e-01,
          2.87499994e-01, 2.87499994e-01, 2.87499994e-01, 2.87499994e-01,
          2.87499994e-01, 3.00000012e-01, 3.00000012e-01, 3.00000012e-01,
          3.00000012e-01, 3.00000012e-01, 3.00000012e-01, 0.,
          1.25000002e-02, 0., 0., 0., 0., 0., 0., 0., 0., 0., 0., 0., 0.,
          0., 0., 0., 0., 0., 0., 0., 0., 0., 0., 0., 0., 0., 0., 0., 0.,
          0., 0., 0., 0., 0., 0., 0., 0., 0., 0., 0., 0., 0., 0., 0.,
          3.75000015e-02, 6.25000000e-02, 7.50000030e-02, 7.50000030e-02,
          7.50000030e-02, 7.50000030e-02, 8.75000060e-02, 1.00000001e-01,
          1.00000001e-01, 1.00000001e-01, 1.00000001e-01, 1.12500004e-01,
          1.12500004e-01, 1.12500004e-01, 1.25000000e-01, 1.25000000e-01,
          1.25000000e-01, 1.37500003e-01, 1.37500003e-01, 1.50000006e-01,
          1.50000006e-01, 1.62500009e-01, 1.62500009e-01, 1.75000012e-01,
          1.87500015e-01, 1.87500015e-01, 2.00000003e-01, 2.00000003e-01,
          2.12500006e-01, 2.12500006e-01, 2.25000009e-01, 2.25000009e-01,
          2.37500012e-01, 2.37500012e-01, 2.50000000e-01, 2.75000006e-01,
          3.00000012e-01, 3.00000012e-01, 3.62500012e-01, 4.00000006e-01,
          4.37500000e-01, 4.62500036e-01, 5.00000000e-01, 5.37500024e-01,
          5.74999988e-01, 6.62500024e-01, 7.37500072e-01, 8.00000012e-01,
          8.87500048e-01, 1., 1., 9.87500012e-01, 9.62500036e-01,
          9.37500060e-01, 9.12500024e-01, 8.87500048e-01, 8.62500012e-01,
          8.50000024e-01, 8.24999988e-01, 8.12500000e-01, 7.87500024e-01,
          7.37500072e-01, 6.87500000e-01, 6.37499988e-01, 6.12500012e-01,
          5.87499976e-01, 5.37500024e-01, 5.12499988e-01, 4.75000024e-01,
          1.12500004e-01, 0., 0., 0., 0., 0., 0., 0., 0., 0., 0., 0., 0.,
          0., 0., 0., 0., 0., 0., 0., 0., 0., 0., 0., 0., 0., 0., 0., 0.,
          0., 0., 0., 0., 1.25000002e-02, 0., 0., 0., 0., 0., 0.,
          1.25000002e-02, 0., 0., 0., 0., 0. ]
      - [ 8.97345424e-01, 8.49262178e-01, 8.31681550e-01, 8.95459950e-01,
          9.19755638e-01, 8.21713150e-01, 5.76210260e-01, 7.66367435e-01,
          9.90388691e-01, 9.29580390e-01, 8.37726057e-01, 8.49080384e-01,
          8.56610239e-01, 7.32048810e-01, 5.76210260e-01, 9.02929664e-01,
          9.87895072e-01, 8.95060241e-01, 7.17357218e-01, 7.77470589e-01,
          7.81184494e-01, 5.76210260e-01, 5.76210260e-01, 9.29023147e-01,
          8.85278106e-01, 7.52821386e-01, 5.76210260e-01, 5.76210260e-01,
          5.76210260e-01, 5.76210260e-01, 5.76210260e-01, 8.63986015e-01,
          9.10507500e-01, 8.04888070e-01, 7.65069485e-01, 8.88386846e-01,
          9.25255001e-01, 8.34555447e-01, 5.76210260e-01, 7.98374116e-01,
          9.99212801e-01, 9.09184575e-01, 7.90661156e-01, 8.09642136e-01,
          8.74984622e-01, 8.24666142e-01, 6.69318020e-01, 9.13686156e-01,
          9.99632537e-01, 8.99158359e-01, 7.42654800e-01, 7.17357218e-01,
          7.97183275e-01, 7.44909346e-01, 6.83025718e-01, 9.09972966e-01,
          8.95724595e-01, 7.87736833e-01, 5.76210260e-01, 5.76210260e-01,
          5.76210260e-01, 5.76210260e-01, 5.76210260e-01, 8.02294970e-01,
          9.10892665e-01, 7.97782898e-01, 6.83025718e-01, 8.61289382e-01,
          9.17133152e-01, 8.55676174e-01, 7.34984457e-01, 8.22387040e-01,
          1., 9.15896237e-01, 6.92921460e-01, 8.26831520e-01,
          8.63854885e-01, 8.52245450e-01, 7.90661156e-01, 9.06053603e-01,
          9.99804318e-01, 9.10119295e-01, 6.46518528e-01, 7.28870928e-01,
          7.72297084e-01, 8.25607419e-01, 8.09189975e-01, 8.96832764e-01,
          8.95592451e-01, 8.20333183e-01, 5.76210260e-01, 5.76210260e-01,
          5.76210260e-01, 6.46518528e-01, 7.07112551e-01, 7.89224744e-01,
          8.96639049e-01, 7.65069485e-01, 5.76210260e-01, 8.32218230e-01,
          9.06159580e-01, 8.61428082e-01, 8.03869843e-01, 8.77973855e-01,
          9.92374599e-01, 8.99097025e-01, 5.76210260e-01, 8.17433238e-01,
          8.31950665e-01, 8.41770709e-01, 8.12259018e-01, 9.23255742e-01,
          9.89907324e-01, 9.25361812e-01, 6.83025718e-01, 6.46518528e-01,
          6.92921460e-01, 8.17056656e-01, 8.11404467e-01, 8.90423954e-01,
          8.84109557e-01, 8.59734893e-01, 6.69318020e-01, 5.76210260e-01,
          5.76210260e-01, 7.07112551e-01, 7.49063551e-01, 7.68844426e-01,
          0., 0., 0., 0., 0., 0., 0., 0., 0., 0., 0., 0., 0., 0., 0., 0.,
          0., 0., 0., 0., 0., 0., 0., 0., 0., 0., 0., 0., 0., 0., 0., 0.,
          0., 0., 0., 0., 0., 0., 0., 0., 0., 8.69565234e-02,
          3.91304344e-01, 4.63768125e-01, 8.40579748e-01, 9.42028999e-01,
          9.71014500e-01, 9.85507309e-01, 1., 9.85507309e-01,
          9.85507309e-01, 9.85507309e-01, 9.42028999e-01, 9.27536249e-01,
          8.98550749e-01, 7.39130437e-01, 6.81159437e-01, 6.66666687e-01,
          6.37681127e-01, 5.94202936e-01, 5.36231875e-01, 5.21739125e-01,
          4.92753655e-01, 5.21739125e-01, 5.07246375e-01, 4.78260845e-01,
          4.78260845e-01, 4.78260845e-01, 4.78260845e-01, 4.78260845e-01,
          4.78260845e-01, 4.78260845e-01, 4.78260845e-01, 4.92753655e-01,
          4.92753655e-01, 5.07246375e-01, 5.07246375e-01, 5.21739125e-01,
          5.21739125e-01, 5.21739125e-01, 5.21739125e-01, 5.21739125e-01,
          5.07246375e-01, 5.21739125e-01, 5.21739125e-01, 5.07246375e-01,
          5.07246375e-01, 4.92753655e-01, 4.92753655e-01, 4.92753655e-01,
          4.78260845e-01, 4.92753655e-01, 4.78260845e-01, 4.63768125e-01,
          4.63768125e-01, 4.49275374e-01, 4.34782624e-01, 4.05797124e-01,
          3.76811594e-01, 3.76811594e-01, 3.76811594e-01, 3.76811594e-01,
          3.62318844e-01, 3.62318844e-01, 3.62318844e-01, 3.62318844e-01,
          3.62318844e-01, 3.62318844e-01, 3.62318844e-01, 3.62318844e-01,
          3.62318844e-01, 3.76811594e-01, 3.76811594e-01, 3.76811594e-01,
          3.76811594e-01, 3.76811594e-01, 3.76811594e-01, 3.91304344e-01,
          3.91304344e-01, 3.91304344e-01, 0., 1.44927539e-02, 0., 0., 0.,
          0., 0., 4.34782617e-02, 7.24637732e-02, 8.69565234e-02,
          1.01449281e-01, 1.01449281e-01, 1.01449281e-01, 1.01449281e-01,
          1.30434781e-01, 1.30434781e-01, 1.44927546e-01, 1.44927546e-01,
          1.59420282e-01, 1.59420282e-01, 1.59420282e-01, 1.59420282e-01,
          1.59420282e-01, 1.59420282e-01, 1.59420282e-01, 1.59420282e-01,
          1.59420282e-01, 1.59420282e-01, 1.59420282e-01, 1.59420282e-01,
          1.73913047e-01, 1.73913047e-01, 1.73913047e-01, 1.73913047e-01,
          1.73913047e-01, 1.88405797e-01, 2.02898562e-01, 2.17391312e-01,
          2.31884062e-01, 2.31884062e-01, 2.31884062e-01, 2.17391312e-01,
          2.17391312e-01, 2.17391312e-01, 2.46376827e-01, 2.60869563e-01,
          2.60869563e-01, 2.60869563e-01, 2.60869563e-01, 2.75362313e-01,
          2.75362313e-01, 2.89855093e-01, 2.89855093e-01, 3.04347843e-01,
          3.18840563e-01, 3.33333343e-01, 3.47826093e-01, 3.76811594e-01,
          3.91304344e-01, 4.05797124e-01, 4.20289874e-01, 4.63768125e-01,
          5.21739125e-01, 5.50724626e-01, 5.79710186e-01, 5.94202936e-01,
          6.23188376e-01, 6.37681127e-01, 6.52173936e-01, 6.52173936e-01,
          6.52173936e-01, 6.66666687e-01, 6.81159437e-01, 6.81159437e-01,
          6.95652187e-01, 6.95652187e-01, 6.81159437e-01, 6.66666687e-01,
          6.66666687e-01, 6.52173936e-01, 6.37681127e-01, 6.66666687e-01,
          9.13043559e-01, 8.98550749e-01, 8.84057939e-01, 8.69565248e-01,
          8.55072439e-01, 8.26086998e-01, 8.11594248e-01, 7.82608688e-01,
          7.53623188e-01, 7.39130437e-01, 7.24637687e-01, 7.10144937e-01,
          6.81159437e-01, 6.66666687e-01, 6.52173936e-01, 6.23188376e-01,
          6.08695686e-01, 5.94202936e-01, 5.65217435e-01, 5.36231875e-01,
          5.21739125e-01, 4.92753655e-01, 4.63768125e-01, 4.20289874e-01,
          3.04347843e-01, 1.30434781e-01, 4.34782617e-02, 0., 0., 0., 0.,
          0., 0., 0., 0., 0., 0., 0., 0., 0., 0., 0., 0., 0., 0., 0., 0.,
          0., 0., 0., 0., 0., 0., 0., 0., 0., 0., 0., 0., 0., 0., 0., 0.,
          0., 0., 1.44927539e-02, 0., 0., 0., 0., 0., 0., 1.44927539e-02,
          0., 0., 0., 0., 0. ]
      - [ 8.98708105e-01, 8.32705855e-01, 7.47335553e-01, 9.01753545e-01,
          9.38331008e-01, 8.64717543e-01, 5.93629777e-01, 7.57203877e-01,
          9.89902794e-01, 9.18914020e-01, 8.09961081e-01, 8.50885093e-01,
          8.86167943e-01, 8.49268734e-01, 7.43408978e-01, 8.86895716e-01,
          9.86575365e-01, 8.82027805e-01, 8.03876042e-01, 7.60014832e-01,
          6.66063547e-01, 7.13869274e-01, 7.21878588e-01, 9.15796697e-01,
          8.88458252e-01, 7.62641132e-01, 5.93629777e-01, 5.93629777e-01,
          6.66063547e-01, 7.39043713e-01, 7.47335553e-01, 8.59260857e-01,
          9.02173042e-01, 8.03876042e-01, 6.66063547e-01, 8.94725263e-01,
          9.34632421e-01, 9.02795434e-01, 7.47335553e-01, 7.96766043e-01,
          9.97967720e-01, 9.11614478e-01, 7.92087495e-01, 8.64010930e-01,
          9.02068496e-01, 8.66098523e-01, 7.89535582e-01, 9.21424866e-01,
          1., 9.13955569e-01, 8.09143364e-01, 8.11551034e-01,
          7.77386129e-01, 7.60014832e-01, 7.95644462e-01, 9.10487652e-01,
          9.06272352e-01, 8.10763478e-01, 6.66063547e-01, 5.93629777e-01,
          7.13869274e-01, 7.03674316e-01, 6.89552248e-01, 8.17378521e-01,
          9.02485311e-01, 7.80775607e-01, 6.89552248e-01, 8.83293390e-01,
          9.23343956e-01, 9.16883945e-01, 7.71708608e-01, 8.08309555e-01,
          9.97737050e-01, 9.19644773e-01, 7.65106082e-01, 8.57923388e-01,
          8.99927974e-01, 9.06176388e-01, 8.20020437e-01, 9.18172061e-01,
          9.99748349e-01, 9.18618619e-01, 8.26549232e-01, 7.75579989e-01,
          7.77386129e-01, 8.09143364e-01, 8.05705428e-01, 9.18470204e-01,
          9.02588904e-01, 8.50566447e-01, 7.71708608e-01, 5.93629777e-01,
          6.89552248e-01, 7.03674316e-01, 6.66063547e-01, 8.14563751e-01,
          8.92214954e-01, 7.54179478e-01, 6.89552248e-01, 8.72439444e-01,
          9.01117206e-01, 9.08058703e-01, 8.44404519e-01, 8.76588941e-01,
          9.88597333e-01, 8.90774786e-01, 7.34125972e-01, 8.55697393e-01,
          8.67218435e-01, 9.05304492e-01, 8.77658665e-01, 9.41771805e-01,
          9.86230612e-01, 9.31607187e-01, 7.99961090e-01, 7.03674316e-01,
          6.89552248e-01, 8.57651055e-01, 8.31246138e-01, 9.01542306e-01,
          8.95932019e-01, 8.88178051e-01, 8.20020437e-01, 5.93629777e-01,
          5.93629777e-01, 7.28489339e-01, 7.13869274e-01, 7.67428815e-01,
          0., 0., 0., 0., 0., 0., 0., 0., 0., 0., 0., 0., 0., 0., 0., 0.,
          0., 0., 0., 0., 0., 0., 0., 0., 0., 0., 0., 0., 0., 0., 0., 0.,
          0., 0., 0., 0., 0., 0., 0., 0., 0., 0., 0., 0., 0., 0., 0., 0.,
          0., 0., 7.69230798e-02, 4.23076928e-01, 6.34615362e-01,
          7.50000000e-01, 7.88461506e-01, 7.88461506e-01, 8.07692289e-01,
          8.07692289e-01, 7.30769277e-01, 5.96153855e-01, 5.57692349e-01,
          5.00000000e-01, 4.42307681e-01, 4.42307681e-01, 3.84615391e-01,
          3.84615391e-01, 4.03846145e-01, 3.84615391e-01, 3.84615391e-01,
          3.65384638e-01, 3.84615391e-01, 4.03846145e-01, 3.84615391e-01,
          4.03846145e-01, 4.03846145e-01, 4.03846145e-01, 4.03846145e-01,
          4.23076928e-01, 4.23076928e-01, 4.03846145e-01, 4.03846145e-01,
          4.23076928e-01, 4.03846145e-01, 3.84615391e-01, 3.84615391e-01,
          3.65384638e-01, 3.26923072e-01, 3.26923072e-01, 3.07692319e-01,
          3.26923072e-01, 3.07692319e-01, 3.26923072e-01, 3.07692319e-01,
          3.26923072e-01, 3.46153826e-01, 3.26923072e-01, 3.26923072e-01,
          3.46153826e-01, 3.65384638e-01, 3.46153826e-01, 3.65384638e-01,
          3.65384638e-01, 4.03846145e-01, 4.03846145e-01, 4.42307681e-01,
          4.61538464e-01, 5.19230783e-01, 5.38461506e-01, 5.76923072e-01,
          6.15384638e-01, 6.15384638e-01, 6.34615362e-01, 6.53846145e-01,
          6.53846145e-01, 6.73076928e-01, 6.92307651e-01, 6.92307651e-01,
          8.07692289e-01, 8.65384638e-01, 9.23076928e-01, 0., 0., 0., 0.,
          0., 0., 0., 0., 0., 0., 0., 0., 0., 0., 0., 0., 0., 0., 0., 0.,
          0., 0., 0., 0., 0., 0., 0., 0., 0., 0., 0., 0., 0., 0., 0., 0.,
          0., 0., 0., 0., 0., 0., 0., 0., 0., 0., 0., 0., 0., 0., 0., 0.,
          0., 0., 0., 0., 0., 5.76923080e-02, 9.61538479e-02,
          9.61538479e-02, 9.61538479e-02, 1.15384616e-01, 1.53846160e-01,
          1.92307696e-01, 1.92307696e-01, 1.92307696e-01, 1.92307696e-01,
          1.92307696e-01, 1.73076913e-01, 1.53846160e-01, 1.53846160e-01,
          1.53846160e-01, 1.53846160e-01, 1.92307696e-01, 1.92307696e-01,
          1.92307696e-01, 2.11538464e-01, 2.11538464e-01, 2.11538464e-01,
          2.11538464e-01, 2.30769232e-01, 2.50000000e-01, 2.50000000e-01,
          2.50000000e-01, 2.69230753e-01, 3.07692319e-01, 3.26923072e-01,
          3.46153826e-01, 4.03846145e-01, 4.80769247e-01, 5.00000000e-01,
          5.38461506e-01, 5.57692349e-01, 5.57692349e-01, 5.96153855e-01,
          5.96153855e-01, 5.96153855e-01, 5.96153855e-01, 7.88461506e-01,
          7.88461506e-01, 7.88461506e-01, 8.07692289e-01, 8.07692289e-01,
          8.46153855e-01, 8.84615362e-01, 9.80769217e-01, 1.,
          9.61538494e-01, 9.42307651e-01, 9.03846145e-01, 8.65384638e-01,
          8.46153855e-01, 8.26923132e-01, 8.07692289e-01, 7.69230783e-01,
          7.50000000e-01, 6.92307651e-01, 6.34615362e-01, 5.96153855e-01,
          5.57692349e-01, 5.19230783e-01, 5.00000000e-01, 4.42307681e-01,
          4.23076928e-01, 3.84615391e-01, 3.46153826e-01, 3.07692319e-01,
          2.69230753e-01, 2.30769232e-01, 2.11538464e-01, 1.73076913e-01,
          1.53846160e-01, 1.15384616e-01, 9.61538479e-02, 5.76923080e-02,
          3.84615399e-02, 1.92307699e-02, 0., 0., 0., 0., 0., 0., 0., 0.,
          0., 0., 0., 0., 0., 0., 0., 0., 0., 0., 0., 0., 0., 0., 0. ]
      - [ 8.94152462e-01, 8.72767687e-01, 8.15886021e-01, 9.13061440e-01,
          9.51230884e-01, 8.51110160e-01, 5.86763859e-01, 7.70104647e-01,
          9.89688635e-01, 9.24346983e-01, 8.32021475e-01, 8.62737298e-01,
          8.96355152e-01, 8.48000705e-01, 5.86763859e-01, 9.00474310e-01,
          9.86516237e-01, 8.70048642e-01, 7.58552730e-01, 7.95492291e-01,
          8.20139229e-01, 7.13529348e-01, 6.58359885e-01, 9.16370630e-01,
          8.86502385e-01, 7.20063686e-01, 5.86763859e-01, 5.86763859e-01,
          5.86763859e-01, 5.86763859e-01, 5.86763859e-01, 8.49322677e-01,
          9.11112010e-01, 8.14175963e-01, 7.34810710e-01, 9.14553285e-01,
          9.52308476e-01, 8.64816844e-01, 5.86763859e-01, 7.97262311e-01,
          9.95989382e-01, 9.05049086e-01, 8.27135921e-01, 8.68027270e-01,
          9.12331343e-01, 8.69049072e-01, 6.95535660e-01, 9.11725521e-01,
          9.99671340e-01, 8.99081886e-01, 7.98120141e-01, 8.00593138e-01,
          8.27989161e-01, 7.89682508e-01, 6.95535660e-01, 8.97464812e-01,
          8.97464812e-01, 7.88630247e-01, 5.86763859e-01, 5.86763859e-01,
          5.86763859e-01, 5.86763859e-01, 5.86763859e-01, 7.85303056e-01,
          9.10559952e-01, 7.91710377e-01, 6.58359885e-01, 8.90483320e-01,
          9.37686086e-01, 8.78457665e-01, 7.30495989e-01, 8.13590407e-01,
          9.96391892e-01, 9.16616023e-01, 7.05612659e-01, 8.58481407e-01,
          9.08140123e-01, 8.83523405e-01, 8.02164674e-01, 8.97828996e-01,
          1., 9.13389742e-01, 6.95535660e-01, 7.60723710e-01,
          8.14175963e-01, 8.50859165e-01, 8.30850363e-01, 8.92860353e-01,
          8.95979404e-01, 8.29647064e-01, 6.58359885e-01, 5.86763859e-01,
          5.86763859e-01, 6.58359885e-01, 7.05612659e-01, 7.74839997e-01,
          8.92047167e-01, 7.51224458e-01, 5.86763859e-01, 8.76780510e-01,
          9.19524848e-01, 8.86732638e-01, 8.38459074e-01, 8.91219676e-01,
          9.88155961e-01, 8.92353714e-01, 6.95535660e-01, 8.70865285e-01,
          8.80994797e-01, 8.44075859e-01, 8.32021475e-01, 9.37805057e-01,
          9.82421100e-01, 9.12464917e-01, 6.81576908e-01, 6.95535660e-01,
          7.38691926e-01, 8.15886021e-01, 8.11784089e-01, 8.95218790e-01,
          8.86270940e-01, 8.21631968e-01, 6.95535660e-01, 5.86763859e-01,
          5.86763859e-01, 7.13529348e-01, 7.30495989e-01, 7.48446047e-01,
          0., 0., 0., 0., 0., 0., 0., 0., 0., 0., 0., 0., 0., 0., 0., 0.,
          0., 0., 0., 0., 0., 0., 0., 0., 9.99999940e-02, 3.57142836e-01,
          3.71428579e-01, 4.71428573e-01, 5.99999964e-01, 7.28571415e-01,
          7.71428585e-01, 8.42857182e-01, 8.57142806e-01, 8.71428549e-01,
          8.85714233e-01, 8.85714233e-01, 8.57142806e-01, 7.85714328e-01,
          6.57142878e-01, 5.99999964e-01, 5.71428537e-01, 4.71428573e-01,
          4.42857116e-01, 4.14285719e-01, 4.14285719e-01, 3.99999976e-01,
          3.85714293e-01, 3.85714293e-01, 3.99999976e-01, 3.85714293e-01,
          3.85714293e-01, 3.85714293e-01, 3.85714293e-01, 3.99999976e-01,
          3.99999976e-01, 3.99999976e-01, 4.14285719e-01, 3.99999976e-01,
          4.14285719e-01, 4.14285719e-01, 4.14285719e-01, 4.14285719e-01,
          4.14285719e-01, 4.42857116e-01, 4.14285719e-01, 4.14285719e-01,
          3.99999976e-01, 4.14285719e-01, 3.99999976e-01, 3.99999976e-01,
          3.99999976e-01, 3.85714293e-01, 3.71428579e-01, 3.57142836e-01,
          3.14285725e-01, 3.14285725e-01, 2.99999982e-01, 2.99999982e-01,
          2.99999982e-01, 2.99999982e-01, 2.99999982e-01, 2.99999982e-01,
          3.14285725e-01, 3.14285725e-01, 2.99999982e-01, 3.14285725e-01,
          3.14285725e-01, 3.14285725e-01, 3.28571439e-01, 3.28571439e-01,
          3.28571439e-01, 3.28571439e-01, 3.28571439e-01, 3.42857122e-01,
          3.42857122e-01, 3.42857122e-01, 3.42857122e-01, 3.42857122e-01,
          3.42857122e-01, 3.57142836e-01, 3.57142836e-01, 3.57142836e-01,
          3.57142836e-01, 3.71428579e-01, 3.57142836e-01, 3.71428579e-01,
          3.71428579e-01, 3.71428579e-01, 3.85714293e-01, 3.85714293e-01,
          3.85714293e-01, 3.99999976e-01, 3.99999976e-01, 4.14285719e-01,
          4.14285719e-01, 4.14285719e-01, 4.14285719e-01, 4.28571403e-01,
          4.28571403e-01, 4.28571403e-01, 0., 5.71428537e-02,
          7.14285672e-02, 7.14285672e-02, 8.57142806e-02, 8.57142806e-02,
          9.99999940e-02, 9.99999940e-02, 1.14285707e-01, 1.14285707e-01,
          1.28571436e-01, 1.28571436e-01, 1.28571436e-01, 1.28571436e-01,
          1.28571436e-01, 1.28571436e-01, 1.28571436e-01, 1.42857134e-01,
          1.42857134e-01, 1.42857134e-01, 1.57142863e-01, 1.57142863e-01,
          1.57142863e-01, 1.57142863e-01, 1.57142863e-01, 1.85714290e-01,
          1.85714290e-01, 1.85714290e-01, 1.99999988e-01, 1.99999988e-01,
          1.99999988e-01, 2.14285702e-01, 2.28571415e-01, 2.28571415e-01,
          2.28571415e-01, 2.42857143e-01, 2.42857143e-01, 2.42857143e-01,
          2.57142872e-01, 2.57142872e-01, 2.71428585e-01, 2.85714269e-01,
          2.99999982e-01, 3.14285725e-01, 3.42857122e-01, 3.57142836e-01,
          3.85714293e-01, 4.28571403e-01, 4.57142830e-01, 5.00000000e-01,
          5.14285743e-01, 5.42857170e-01, 5.57142854e-01, 5.71428537e-01,
          5.99999964e-01, 6.28571451e-01, 6.42857134e-01, 6.28571451e-01,
          6.28571451e-01, 6.14285707e-01, 6.14285707e-01, 5.85714281e-01,
          5.71428537e-01, 5.71428537e-01, 5.57142854e-01, 5.85714281e-01,
          6.42857134e-01, 7.14285672e-01, 7.71428585e-01, 8.57142806e-01,
          8.99999976e-01, 9.71428573e-01, 1., 9.71428573e-01,
          9.57142830e-01, 9.28571403e-01, 9.14285660e-01, 8.85714233e-01,
          8.71428549e-01, 8.57142806e-01, 8.28571439e-01, 8.14285696e-01,
          7.85714328e-01, 7.57142842e-01, 7.14285672e-01, 6.42857134e-01,
          5.85714281e-01, 5.42857170e-01, 5.00000000e-01, 4.57142830e-01,
          4.28571403e-01, 3.85714293e-01, 3.42857122e-01, 2.99999982e-01,
          2.42857143e-01, 2.14285702e-01, 1.71428561e-01, 1.42857134e-01,
          1.28571436e-01, 9.99999940e-02, 5.71428537e-02, 4.28571403e-02,
          0., 0., 0., 0., 0., 0., 0., 0., 0., 0., 0., 0., 0., 0., 0., 0.,
          0., 0., 0., 0., 0., 0., 0., 0., 0., 0., 0., 0., 0., 0., 0., 0.,
          0., 0., 0., 0., 0., 0., 0., 0., 0., 0., 0., 0., 0.,
          1.42857134e-02, 0., 0., 0., 0., 0., 0., 1.42857134e-02, 0., 0.,
          0., 0., 0. ]
      - [ 8.60043049e-01, 8.93889129e-01, 9.17146444e-01, 9.20678854e-01,
          9.34180796e-01, 8.32651734e-01, 6.01394832e-01, 7.43728757e-01,
          9.85938609e-01, 9.63763356e-01, 8.91404331e-01, 8.62335622e-01,
          8.51567566e-01, 6.98571980e-01, 6.01394832e-01, 8.81598115e-01,
          9.88434076e-01, 9.23798680e-01, 7.72616982e-01, 6.01394832e-01,
          6.01394832e-01, 6.01394832e-01, 6.01394832e-01, 9.18705761e-01,
          9.00782228e-01, 7.75114119e-01, 6.01394832e-01, 6.01394832e-01,
          6.01394832e-01, 6.01394832e-01, 6.74776077e-01, 8.81387651e-01,
          8.89317155e-01, 8.56552005e-01, 8.71816576e-01, 9.16246772e-01,
          9.36432600e-01, 8.77656817e-01, 7.57111192e-01, 8.06051970e-01,
          9.95774925e-01, 9.23538983e-01, 8.68592143e-01, 8.13433588e-01,
          8.35653603e-01, 7.38018453e-01, 7.69956231e-01, 9.23190594e-01,
          1., 9.23712313e-01, 8.19727421e-01, 6.01394832e-01,
          6.01394832e-01, 6.01394832e-01, 6.98571980e-01, 9.19182837e-01,
          9.10916865e-01, 8.04884553e-01, 6.98571980e-01, 6.01394832e-01,
          6.01394832e-01, 6.01394832e-01, 6.01394832e-01, 8.30092907e-01,
          8.86000693e-01, 8.06051970e-01, 7.48710871e-01, 8.93727481e-01,
          9.36499238e-01, 9.03492153e-01, 8.83651078e-01, 8.63905191e-01,
          9.96105909e-01, 9.32258606e-01, 7.87554801e-01, 7.69956231e-01,
          8.22166622e-01, 8.39004695e-01, 8.91911924e-01, 9.24992681e-01,
          9.97949839e-01, 9.23103094e-01, 8.22950006e-01, 6.01394832e-01,
          6.01394832e-01, 7.12878823e-01, 8.30092907e-01, 9.20030057e-01,
          9.13762033e-01, 8.35653603e-01, 7.38018453e-01, 6.01394832e-01,
          6.01394832e-01, 6.01394832e-01, 6.01394832e-01, 8.07188213e-01,
          8.71816576e-01, 7.31321216e-01, 7.57111192e-01, 8.83651078e-01,
          8.99078667e-01, 8.85424256e-01, 9.08843279e-01, 9.00921464e-01,
          9.82707262e-01, 8.84840667e-01, 6.74776077e-01, 7.43728757e-01,
          7.57111192e-01, 8.46868634e-01, 9.11253929e-01, 9.51842904e-01,
          9.85737741e-01, 9.27934825e-01, 7.12878823e-01, 6.01394832e-01,
          6.01394832e-01, 7.77467191e-01, 8.63905191e-01, 9.22040522e-01,
          9.02291715e-01, 8.68031979e-01, 6.01394832e-01, 6.01394832e-01,
          6.01394832e-01, 6.01394832e-01, 7.48710871e-01, 8.16244543e-01,
          0., 0., 0., 0., 0., 0., 0., 0., 0., 0., 0., 0., 0., 0., 0., 0.,
          0., 0., 0., 0., 0., 0., 0., 0., 0., 0., 0., 0., 0., 0., 0., 0.,
          0., 0., 0., 0., 0., 0., 0., 0., 0., 0., 4.28571440e-02,
          3.57142836e-01, 4.00000006e-01, 4.28571433e-01, 4.57142860e-01,
          5.57142854e-01, 5.85714281e-01, 5.85714281e-01, 5.42857111e-01,
          5.14285684e-01, 3.71428549e-01, 3.42857152e-01, 3.28571439e-01,
          3.14285696e-01, 3.00000012e-01, 2.85714298e-01, 2.85714298e-01,
          2.85714298e-01, 2.71428555e-01, 2.85714298e-01, 2.85714298e-01,
          2.85714298e-01, 2.85714298e-01, 2.85714298e-01, 3.00000012e-01,
          3.00000012e-01, 3.00000012e-01, 2.85714298e-01, 2.85714298e-01,
          2.85714298e-01, 2.71428555e-01, 2.71428555e-01, 2.71428555e-01,
          2.71428555e-01, 2.71428555e-01, 2.71428555e-01, 2.71428555e-01,
          2.85714298e-01, 2.71428555e-01, 2.71428555e-01, 2.85714298e-01,
          2.85714298e-01, 2.71428555e-01, 2.85714298e-01, 2.71428555e-01,
          2.71428555e-01, 2.57142842e-01, 2.57142842e-01, 2.57142842e-01,
          2.57142842e-01, 2.57142842e-01, 2.57142842e-01, 2.57142842e-01,
          2.71428555e-01, 2.57142842e-01, 2.71428555e-01, 2.57142842e-01,
          2.71428555e-01, 2.71428555e-01, 2.85714298e-01, 2.85714298e-01,
          2.85714298e-01, 2.85714298e-01, 3.00000012e-01, 3.00000012e-01,
          3.00000012e-01, 3.00000012e-01, 3.14285696e-01, 3.14285696e-01,
          3.14285696e-01, 3.14285696e-01, 3.28571439e-01, 3.42857152e-01,
          3.28571439e-01, 3.42857152e-01, 3.57142836e-01, 3.57142836e-01,
          3.57142836e-01, 0., 0., 0., 0., 0., 0., 0., 0., 0., 0., 0., 0.,
          0., 0., 0., 0., 0., 0., 0., 0., 0., 0., 0., 0., 0., 0., 0., 0.,
          0., 0., 0., 7.14285746e-02, 1.00000001e-01, 1.00000001e-01,
          1.00000001e-01, 1.00000001e-01, 1.14285715e-01, 1.14285715e-01,
          1.42857149e-01, 1.42857149e-01, 1.42857149e-01, 1.28571421e-01,
          1.28571421e-01, 1.28571421e-01, 1.28571421e-01, 1.28571421e-01,
          1.28571421e-01, 1.28571421e-01, 1.42857149e-01, 1.42857149e-01,
          1.57142848e-01, 1.71428576e-01, 1.85714275e-01, 2.00000003e-01,
          3.28571439e-01, 5.28571427e-01, 5.85714281e-01, 6.00000024e-01,
          6.14285707e-01, 6.14285707e-01, 6.28571391e-01, 6.42857134e-01,
          6.57142878e-01, 6.71428561e-01, 6.99999988e-01, 7.28571415e-01,
          7.85714269e-01, 8.14285696e-01, 8.57142866e-01, 8.99999976e-01,
          9.14285719e-01, 9.57142889e-01, 9.85714316e-01, 1.,
          6.99999988e-01, 5.42857111e-01, 5.00000000e-01, 4.71428543e-01,
          4.42857146e-01, 4.14285690e-01, 4.00000006e-01, 3.71428549e-01,
          3.57142836e-01, 3.28571439e-01, 3.00000012e-01, 2.71428555e-01,
          2.57142842e-01, 2.28571430e-01, 2.14285716e-01, 1.85714275e-01,
          1.57142848e-01, 1.42857149e-01, 1.14285715e-01, 1.00000001e-01,
          8.57142881e-02, 5.71428575e-02, 4.28571440e-02, 2.85714287e-02,
          0., 0., 0., 0., 0., 0., 0., 0., 0., 0., 0., 0., 0., 0., 0., 0.,
          0., 0., 0., 0., 0., 0., 0., 0., 0., 0., 0., 0., 0., 0., 0., 0.,
          0., 0., 0., 0., 0., 0., 0., 0., 0., 0., 0., 0., 0., 0., 0., 0.,
          0., 0., 0., 0., 0., 0., 0., 0., 0., 0., 0., 0., 0., 0. ]
      - [ 8.62638652e-01, 8.21354151e-01, 7.38442183e-01, 8.73242378e-01,
          9.40894306e-01, 8.84796977e-01, 6.81346476e-01, 7.68135130e-01,
          9.80710864e-01, 9.21684146e-01, 7.05374122e-01, 8.45514536e-01,
          8.87567222e-01, 7.93375790e-01, 7.60466576e-01, 9.27066863e-01,
          9.88622487e-01, 9.03079331e-01, 6.07250690e-01, 7.82661498e-01,
          8.55567276e-01, 7.68135130e-01, 9.00084078e-01, 9.61308360e-01,
          8.96517515e-01, 7.60466576e-01, 6.07250690e-01, 6.07250690e-01,
          6.07250690e-01, 6.81346476e-01, 9.06048775e-01, 9.32793856e-01,
          8.82854283e-01, 7.60466576e-01, 6.07250690e-01, 8.76767755e-01,
          9.52340484e-01, 9.05744731e-01, 6.81346476e-01, 8.12721848e-01,
          9.95917082e-01, 8.94820273e-01, 6.07250690e-01, 8.41382444e-01,
          8.87342572e-01, 8.28545749e-01, 7.19820261e-01, 9.33314204e-01,
          1., 9.12156403e-01, 6.07250690e-01, 7.71484196e-01,
          8.36824715e-01, 7.64483273e-01, 8.17254245e-01, 9.38391030e-01,
          9.15004194e-01, 8.07651579e-01, 7.05374122e-01, 6.81346476e-01,
          6.07250690e-01, 6.07250690e-01, 8.34717214e-01, 8.59448135e-01,
          8.74149382e-01, 8.03408027e-01, 6.07250690e-01, 8.62638652e-01,
          9.45009053e-01, 9.18751001e-01, 8.13900650e-01, 7.60466576e-01,
          9.96067584e-01, 9.39009607e-01, 6.07250690e-01, 7.30249107e-01,
          8.82605553e-01, 9.07978833e-01, 8.59448135e-01, 9.01438713e-01,
          9.98010278e-01, 9.47141409e-01, 6.81346476e-01, 6.07250690e-01,
          7.77453423e-01, 8.55567276e-01, 8.55114698e-01, 9.23086703e-01,
          9.13211524e-01, 8.48247349e-01, 6.07250690e-01, 6.07250690e-01,
          6.07250690e-01, 7.05374122e-01, 7.30249107e-01, 8.23266864e-01,
          8.21354151e-01, 7.50970542e-01, 6.07250690e-01, 8.52299273e-01,
          9.15876031e-01, 9.01771367e-01, 8.41382444e-01, 7.64483273e-01,
          9.66182709e-01, 9.19672549e-01, 7.05374122e-01, 6.81346476e-01,
          8.30172181e-01, 8.92659187e-01, 8.88893008e-01, 8.93850207e-01,
          9.79104280e-01, 9.56404150e-01, 8.28545749e-01, 6.07250690e-01,
          6.07250690e-01, 8.40759397e-01, 8.66335273e-01, 8.87567222e-01,
          8.94240558e-01, 9.07097757e-01, 8.12721848e-01, 6.07250690e-01,
          6.07250690e-01, 6.07250690e-01, 7.60466576e-01, 8.12721848e-01,
          0., 0., 0., 0., 0., 0., 0., 0., 0., 0., 0., 0., 0., 0., 0., 0.,
          0., 0., 0., 0., 0., 0., 0., 0., 0., 0., 0., 0., 0., 0., 0., 0.,
          0., 0., 0., 0., 0., 0., 0., 0., 0., 0., 0., 0., 0., 0., 0.,
          4.17910457e-01, 5.82089543e-01, 6.26865625e-01, 6.41791046e-01,
          6.56716347e-01, 6.41791046e-01, 6.41791046e-01, 5.82089543e-01,
          5.67164123e-01, 4.77611929e-01, 4.32835817e-01, 4.02985066e-01,
          3.73134345e-01, 3.58208954e-01, 3.58208954e-01, 3.43283564e-01,
          3.58208954e-01, 3.43283564e-01, 3.28358173e-01, 3.28358173e-01,
          3.28358173e-01, 3.13432813e-01, 3.28358173e-01, 3.13432813e-01,
          3.28358173e-01, 3.13432813e-01, 3.28358173e-01, 3.28358173e-01,
          3.28358173e-01, 3.28358173e-01, 3.28358173e-01, 3.28358173e-01,
          3.28358173e-01, 3.28358173e-01, 3.28358173e-01, 3.28358173e-01,
          3.13432813e-01, 2.98507452e-01, 2.83582062e-01, 2.68656701e-01,
          2.53731340e-01, 2.53731340e-01, 2.53731340e-01, 2.53731340e-01,
          2.53731340e-01, 2.53731340e-01, 2.68656701e-01, 2.68656701e-01,
          2.68656701e-01, 2.83582062e-01, 2.98507452e-01, 3.13432813e-01,
          3.13432813e-01, 3.13432813e-01, 2.98507452e-01, 2.98507452e-01,
          3.13432813e-01, 3.28358173e-01, 3.43283564e-01, 3.58208954e-01,
          3.73134345e-01, 4.02985066e-01, 4.62686568e-01, 4.92537290e-01,
          5.67164123e-01, 5.97014904e-01, 5.97014904e-01, 5.97014904e-01,
          5.97014904e-01, 5.97014904e-01, 5.97014904e-01, 5.97014904e-01,
          5.97014904e-01, 0., 1.49253728e-02, 0., 0., 0., 0., 0., 0., 0.,
          0., 0., 0., 0., 0., 0., 0., 0., 0., 0., 0., 0., 0., 0., 0., 0.,
          0., 0., 0., 0., 0., 0., 0., 0., 0., 0., 0., 0., 0., 0., 0., 0.,
          0., 0., 0., 0., 0., 0., 0., 0., 0., 0., 0., 0., 0., 0., 0., 0.,
          0., 0., 0., 0., 0., 0., 0., 0., 0., 0., 0., 0., 0., 0., 0., 0.,
          0., 0., 0., 2.98507456e-02, 5.97014911e-02, 7.46268630e-02,
          8.95522386e-02, 8.95522386e-02, 8.95522386e-02, 1.04477614e-01,
          1.04477614e-01, 1.19402982e-01, 1.19402982e-01, 1.19402982e-01,
          1.19402982e-01, 1.19402982e-01, 1.34328350e-01, 1.34328350e-01,
          1.49253726e-01, 1.49253726e-01, 1.49253726e-01, 1.64179087e-01,
          1.64179087e-01, 1.64179087e-01, 1.79104477e-01, 1.79104477e-01,
          1.79104477e-01, 1.94029853e-01, 2.08955228e-01, 2.23880589e-01,
          2.38805965e-01, 2.68656701e-01, 3.13432813e-01, 3.43283564e-01,
          3.73134345e-01, 4.17910457e-01, 4.32835817e-01, 4.62686568e-01,
          4.92537290e-01, 5.22388041e-01, 5.37313402e-01, 5.52238762e-01,
          5.67164123e-01, 5.82089543e-01, 5.82089543e-01, 6.11940324e-01,
          9.10447717e-01, 1., 9.70149279e-01, 9.55223858e-01,
          9.25373137e-01, 9.10447717e-01, 8.80596995e-01, 8.20895493e-01,
          7.61193991e-01, 7.31343269e-01, 7.01492548e-01, 6.71641767e-01,
          6.56716347e-01, 6.26865625e-01, 5.97014904e-01, 5.67164123e-01,
          4.47761178e-01, 4.02985066e-01, 3.58208954e-01, 3.43283564e-01,
          2.98507452e-01, 2.38805965e-01, 2.23880589e-01, 2.08955228e-01,
          1.94029853e-01, 1.79104477e-01, 1.79104477e-01, 1.64179087e-01,
          1.79104477e-01, 1.49253726e-01, 1.34328350e-01, 1.19402982e-01,
          1.19402982e-01, 1.19402982e-01, 1.34328350e-01, 1.49253726e-01,
          1.34328350e-01, 1.34328350e-01, 1.49253726e-01, 1.64179087e-01,
          1.64179087e-01 ]
      - [ 8.91055524e-01, 8.90149176e-01, 8.58934760e-01, 8.76969814e-01,
          9.09137547e-01, 8.59261394e-01, 6.73126400e-01, 7.63733983e-01,
          9.86160278e-01, 9.47040379e-01, 8.72690499e-01, 8.54094446e-01,
          8.82481754e-01, 8.50287497e-01, 7.16638327e-01, 9.08858240e-01,
          9.83177006e-01, 9.13703799e-01, 8.08443844e-01, 7.41910458e-01,
          7.73219168e-01, 7.65233159e-01, 8.07394505e-01, 9.29286540e-01,
          8.78383815e-01, 7.62176752e-01, 5.79488933e-01, 5.79488933e-01,
          7.04682708e-01, 7.86512733e-01, 8.62252414e-01, 8.80169928e-01,
          9.08970237e-01, 8.32733631e-01, 8.30305099e-01, 8.85334074e-01,
          9.12472665e-01, 8.75511110e-01, 7.41910458e-01, 8.10467899e-01,
          9.94719565e-01, 9.20758903e-01, 8.48669291e-01, 8.76302361e-01,
          9.07436490e-01, 8.59585702e-01, 7.16638327e-01, 9.27338183e-01,
          1., 9.18975949e-01, 8.18138540e-01, 7.92973936e-01,
          8.20549130e-01, 7.79891729e-01, 7.21438944e-01, 9.14706349e-01,
          8.99950922e-01, 8.05770278e-01, 6.73126400e-01, 5.79488933e-01,
          5.79488933e-01, 5.79488933e-01, 7.16638327e-01, 8.12869906e-01,
          9.06972408e-01, 7.95864046e-01, 8.41535747e-01, 8.55707705e-01,
          9.12368536e-01, 9.08633590e-01, 8.26388657e-01, 8.44119072e-01,
          9.95559812e-01, 9.22139406e-01, 8.19360733e-01, 8.64626765e-01,
          8.96736205e-01, 8.91703725e-01, 8.50683093e-01, 9.23729360e-01,
          9.98238504e-01, 9.25069213e-01, 8.08443844e-01, 7.57104933e-01,
          7.92973936e-01, 8.36953521e-01, 8.50485802e-01, 9.10834074e-01,
          9.03965175e-01, 8.42963457e-01, 7.36214161e-01, 5.79488933e-01,
          5.79488933e-01, 5.79488933e-01, 7.21438944e-01, 8.08443844e-01,
          8.72203112e-01, 8.10959220e-01, 8.54997754e-01, 8.36141348e-01,
          8.88195574e-01, 9.03716147e-01, 8.98649454e-01, 9.03024614e-01,
          9.77670729e-01, 9.00421560e-01, 7.73219168e-01, 8.27733636e-01,
          8.69164586e-01, 8.96808445e-01, 8.96300256e-01, 9.40090239e-01,
          9.79567707e-01, 9.33168948e-01, 7.21438944e-01, 6.86912119e-01,
          7.87377536e-01, 7.97907710e-01, 8.59907746e-01, 9.08351302e-01,
          8.95192504e-01, 8.76414299e-01, 6.50197208e-01, 5.79488933e-01,
          5.79488933e-01, 5.79488933e-01, 7.60556579e-01, 8.04081440e-01,
          0., 0., 0., 0., 0., 0., 0., 0., 0., 0., 0., 0., 0., 0., 0., 0.,
          0., 0., 0., 0., 0., 0., 0., 0., 0., 0., 0., 0., 0., 0., 0., 0.,
          0., 0., 0., 0., 0., 0., 0., 0., 0., 0., 0., 6.57894686e-02,
          2.10526302e-01, 3.28947365e-01, 3.55263144e-01, 3.68421048e-01,
          3.94736826e-01, 4.07894731e-01, 4.07894731e-01, 3.15789491e-01,
          3.15789491e-01, 3.02631587e-01, 2.76315778e-01, 2.63157874e-01,
          2.50000000e-01, 2.36842111e-01, 2.36842111e-01, 2.36842111e-01,
          2.23684207e-01, 2.23684207e-01, 2.10526302e-01, 2.23684207e-01,
          2.23684207e-01, 2.23684207e-01, 2.23684207e-01, 2.23684207e-01,
          2.36842111e-01, 2.36842111e-01, 2.23684207e-01, 2.23684207e-01,
          2.36842111e-01, 2.36842111e-01, 2.36842111e-01, 2.36842111e-01,
          2.36842111e-01, 2.36842111e-01, 2.23684207e-01, 2.23684207e-01,
          2.36842111e-01, 2.50000000e-01, 2.36842111e-01, 2.50000000e-01,
          2.36842111e-01, 2.36842111e-01, 2.36842111e-01, 2.36842111e-01,
          2.23684207e-01, 2.36842111e-01, 2.36842111e-01, 2.36842111e-01,
          2.36842111e-01, 2.36842111e-01, 2.36842111e-01, 2.36842111e-01,
          2.36842111e-01, 2.50000000e-01, 2.36842111e-01, 2.50000000e-01,
          2.50000000e-01, 2.63157874e-01, 2.76315778e-01, 2.63157874e-01,
          2.76315778e-01, 2.89473683e-01, 2.89473683e-01, 2.89473683e-01,
          4.34210509e-01, 6.18421018e-01, 6.71052575e-01, 7.10526288e-01,
          7.50000000e-01, 7.76315808e-01, 8.42105210e-01, 8.68421018e-01,
          9.21052575e-01, 9.60526288e-01, 9.86842096e-01, 1., 0., 0., 0.,
          0., 0., 0., 0., 0., 0., 0., 0., 0., 2.63157878e-02,
          5.26315756e-02, 6.57894686e-02, 7.89473727e-02, 1.05263151e-01,
          1.18421055e-01, 1.31578937e-01, 1.44736841e-01, 1.57894745e-01,
          1.57894745e-01, 1.57894745e-01, 1.57894745e-01, 1.57894745e-01,
          1.57894745e-01, 1.57894745e-01, 1.57894745e-01, 1.57894745e-01,
          1.57894745e-01, 1.57894745e-01, 1.44736841e-01, 1.44736841e-01,
          1.44736841e-01, 1.71052635e-01, 1.97368413e-01, 2.10526302e-01,
          2.10526302e-01, 2.10526302e-01, 2.10526302e-01, 2.36842111e-01,
          2.10526302e-01, 1.57894745e-01, 9.21052620e-02, 9.21052620e-02,
          9.21052620e-02, 9.21052620e-02, 9.21052620e-02, 1.05263151e-01,
          1.18421055e-01, 1.31578937e-01, 1.31578937e-01, 1.57894745e-01,
          2.50000000e-01, 3.68421048e-01, 4.86842096e-01, 5.26315749e-01,
          5.52631557e-01, 5.65789461e-01, 5.92105269e-01, 6.05263174e-01,
          6.05263174e-01, 6.18421018e-01, 6.31578982e-01, 6.57894731e-01,
          6.71052575e-01, 7.10526288e-01, 7.36842096e-01, 7.63157904e-01,
          8.28947365e-01, 8.55263174e-01, 7.23684192e-01, 6.18421018e-01,
          4.86842096e-01, 4.60526288e-01, 4.34210509e-01, 4.07894731e-01,
          3.94736826e-01, 3.68421048e-01, 3.55263144e-01, 3.28947365e-01,
          3.15789491e-01, 3.02631587e-01, 2.76315778e-01, 2.63157874e-01,
          2.50000000e-01, 2.36842111e-01, 2.10526302e-01, 1.97368413e-01,
          1.84210524e-01, 1.57894745e-01, 1.44736841e-01, 1.44736841e-01,
          1.44736841e-01, 1.31578937e-01, 1.31578937e-01, 1.18421055e-01,
          1.05263151e-01, 1.05263151e-01, 9.21052620e-02, 9.21052620e-02,
          7.89473727e-02, 7.89473727e-02, 6.57894686e-02, 5.26315756e-02,
          3.94736864e-02, 2.63157878e-02, 0., 0., 0., 0., 0., 0., 0., 0.,
          0., 0., 0., 0., 0., 0., 0., 0., 0., 0., 0., 0., 0., 0., 0., 0.,
          0., 0., 0., 0., 0., 0., 0., 0., 0., 0., 0., 0., 0., 0., 0., 0.,
          0., 0., 1.31578939e-02, 2.63157878e-02, 3.94736864e-02,
          3.94736864e-02, 5.26315756e-02, 5.26315756e-02, 6.57894686e-02,
          7.89473727e-02, 9.21052620e-02, 1.05263151e-01, 1.18421055e-01 ]
      - [ 8.94469202e-01, 8.47387016e-01, 8.32650900e-01, 9.15896475e-01,
          9.46901679e-01, 8.33841324e-01, 6.00510359e-01, 7.65980363e-01,
          9.85724986e-01, 9.25691068e-01, 8.44714344e-01, 8.41870725e-01,
          8.88186514e-01, 7.30245650e-01, 6.00510359e-01, 9.09913778e-01,
          9.89766598e-01, 8.87112617e-01, 7.73974180e-01, 7.71480680e-01,
          8.43315303e-01, 6.97544634e-01, 6.73783660e-01, 9.42001760e-01,
          9.02556300e-01, 7.36933053e-01, 6.00510359e-01, 6.00510359e-01,
          6.00510359e-01, 6.00510359e-01, 6.00510359e-01, 8.62014234e-01,
          9.04096186e-01, 8.06001067e-01, 7.36933053e-01, 8.97611797e-01,
          9.40234721e-01, 8.80926073e-01, 6.00510359e-01, 7.88146377e-01,
          9.94969428e-01, 9.10136700e-01, 8.48665476e-01, 8.43786538e-01,
          9.09689546e-01, 8.52295339e-01, 6.73783660e-01, 9.02556300e-01,
          1., 9.12098825e-01, 8.08182895e-01, 7.71480680e-01,
          8.41870725e-01, 7.55997717e-01, 6.97544634e-01, 9.02294636e-01,
          9.08896863e-01, 8.01268280e-01, 6.00510359e-01, 6.00510359e-01,
          6.00510359e-01, 6.00510359e-01, 6.00510359e-01, 7.97334194e-01,
          8.97029161e-01, 7.82657862e-01, 6.73783660e-01, 8.26157928e-01,
          9.30377424e-01, 9.11669672e-01, 7.98686862e-01, 8.53063583e-01,
          9.95680809e-01, 9.11018670e-01, 6.97544634e-01, 7.82657862e-01,
          9.07974660e-01, 8.94931078e-01, 8.40377450e-01, 9.11669672e-01,
          9.99250948e-01, 9.20325637e-01, 6.97544634e-01, 7.22143471e-01,
          8.25452089e-01, 8.49908471e-01, 8.48243415e-01, 8.91925573e-01,
          9.12311912e-01, 8.46952558e-01, 6.73783660e-01, 6.00510359e-01,
          6.00510359e-01, 6.00510359e-01, 7.30245650e-01, 7.95936406e-01,
          8.76366019e-01, 7.11830437e-01, 6.00510359e-01, 7.92992651e-01,
          9.18862998e-01, 9.16093409e-01, 8.74264896e-01, 9.09010947e-01,
          9.80212510e-01, 8.65903139e-01, 6.73783660e-01, 8.42839003e-01,
          8.86382818e-01, 8.88186514e-01, 8.86198580e-01, 9.43986654e-01,
          9.85233963e-01, 9.10247862e-01, 6.00510359e-01, 7.30245650e-01,
          7.78545678e-01, 8.33250165e-01, 8.67867351e-01, 9.02294636e-01,
          9.05219316e-01, 8.35568547e-01, 6.00510359e-01, 6.00510359e-01,
          6.00510359e-01, 6.73783660e-01, 7.76323795e-01, 8.16818178e-01,
          0., 0., 0., 0., 0., 0., 0., 0., 0., 0., 0., 0., 0., 0., 0., 0.,
          0., 0., 0., 0., 0., 0., 0., 0., 0., 0., 0., 0., 0., 0., 0., 0.,
          0., 0., 0., 0., 0., 0., 0., 0., 0., 0., 0., 1.25000000e-01,
          4.37500030e-01, 5.00000000e-01, 5.83333313e-01, 7.50000000e-01,
          8.54166746e-01, 8.95833373e-01, 9.58333373e-01, 9.79166687e-01,
          1., 1., 9.79166687e-01, 7.29166687e-01, 6.25000060e-01,
          5.20833373e-01, 5.00000000e-01, 4.79166687e-01, 4.58333343e-01,
          4.58333343e-01, 4.37500030e-01, 4.37500030e-01, 4.37500030e-01,
          4.58333343e-01, 4.58333343e-01, 4.79166687e-01, 4.79166687e-01,
          4.79166687e-01, 5.00000000e-01, 4.79166687e-01, 5.00000000e-01,
          5.00000000e-01, 5.20833373e-01, 5.20833373e-01, 5.00000000e-01,
          5.00000000e-01, 4.79166687e-01, 4.79166687e-01, 4.79166687e-01,
          4.79166687e-01, 4.58333343e-01, 4.58333343e-01, 4.16666657e-01,
          3.95833343e-01, 3.75000000e-01, 3.95833343e-01, 3.75000000e-01,
          3.95833343e-01, 3.75000000e-01, 3.95833343e-01, 3.95833343e-01,
          3.95833343e-01, 4.16666657e-01, 4.16666657e-01, 4.16666657e-01,
          4.16666657e-01, 4.37500030e-01, 4.16666657e-01, 4.37500030e-01,
          4.58333343e-01, 4.58333343e-01, 4.58333343e-01, 4.58333343e-01,
          4.79166687e-01, 4.79166687e-01, 4.79166687e-01, 4.79166687e-01,
          5.00000000e-01, 4.79166687e-01, 5.00000000e-01, 5.00000000e-01,
          5.00000000e-01, 5.20833373e-01, 5.83333313e-01, 6.25000060e-01,
          6.66666687e-01, 6.66666687e-01, 6.66666687e-01, 0., 0., 0., 0.,
          0., 0., 0., 0., 0., 0., 0., 0., 0., 4.16666679e-02,
          8.33333358e-02, 1.04166664e-01, 1.25000000e-01, 1.25000000e-01,
          1.45833328e-01, 1.45833328e-01, 1.45833328e-01, 1.45833328e-01,
          1.66666672e-01, 1.66666672e-01, 1.66666672e-01, 1.66666672e-01,
          1.66666672e-01, 1.66666672e-01, 1.87500000e-01, 2.08333328e-01,
          2.08333328e-01, 2.08333328e-01, 2.08333328e-01, 2.29166672e-01,
          2.50000000e-01, 2.70833343e-01, 2.70833343e-01, 2.70833343e-01,
          2.70833343e-01, 2.91666657e-01, 2.91666657e-01, 3.12500030e-01,
          3.12500030e-01, 3.33333343e-01, 3.54166687e-01, 3.75000000e-01,
          3.95833343e-01, 5.20833373e-01, 5.62500000e-01, 6.25000060e-01,
          6.66666687e-01, 6.87500000e-01, 7.08333373e-01, 7.29166687e-01,
          7.50000000e-01, 7.50000000e-01, 7.70833373e-01, 7.50000000e-01,
          7.50000000e-01, 7.08333373e-01, 6.87500000e-01, 6.66666687e-01,
          6.45833373e-01, 6.66666687e-01, 6.66666687e-01, 6.87500000e-01,
          7.29166687e-01, 7.50000000e-01, 7.91666687e-01, 8.33333313e-01,
          8.54166746e-01, 8.75000060e-01, 9.16666687e-01, 9.79166687e-01,
          9.58333373e-01, 9.37500060e-01, 8.95833373e-01, 8.54166746e-01,
          8.33333313e-01, 7.70833373e-01, 7.29166687e-01, 6.87500000e-01,
          6.45833373e-01, 6.04166687e-01, 5.83333313e-01, 5.41666687e-01,
          5.00000000e-01, 4.58333343e-01, 4.16666657e-01, 3.95833343e-01,
          3.54166687e-01, 3.12500030e-01, 2.70833343e-01, 2.29166672e-01,
          1.87500000e-01, 1.66666672e-01, 1.25000000e-01, 1.04166664e-01,
          8.33333358e-02, 6.25000000e-02, 0., 0., 0., 0., 0., 0., 0., 0.,
          0., 0., 0., 0., 0., 0., 0., 0., 0., 0., 0., 0., 0., 0., 0., 0.,
          0., 0., 0., 0., 0., 0., 0., 0., 0., 0., 0., 0., 0., 0., 0., 0.,
          0., 0., 0., 0., 0., 0., 0., 0., 0., 0., 0., 0., 0., 0., 0.,
          6.25000000e-02, 8.33333358e-02, 8.33333358e-02, 1.04166664e-01,
          1.04166664e-01 ]
      - [ 8.94978106e-01, 8.78423154e-01, 8.52919221e-01, 8.27687681e-01,
          8.92934084e-01, 8.72612476e-01, 7.01506793e-01, 7.89026082e-01,
          9.84740317e-01, 9.40232575e-01, 8.58416915e-01, 7.99003243e-01,
          8.68958056e-01, 8.53061557e-01, 7.51856387e-01, 9.18201685e-01,
          9.83077645e-01, 9.00627077e-01, 7.84393072e-01, 7.48592496e-01,
          8.49819303e-01, 8.09051156e-01, 7.98507214e-01, 9.38431621e-01,
          8.89722943e-01, 7.75862873e-01, 5.71642280e-01, 7.51856387e-01,
          8.52919221e-01, 8.18441987e-01, 8.26407373e-01, 8.89208794e-01,
          9.14021313e-01, 8.36974084e-01, 8.35309923e-01, 8.63090396e-01,
          8.96496475e-01, 8.70532393e-01, 7.01506793e-01, 8.25355232e-01,
          9.99434710e-01, 9.25944209e-01, 8.62862051e-01, 8.47786725e-01,
          8.90104949e-01, 8.62402022e-01, 8.15534472e-01, 9.38175678e-01,
          9.98299897e-01, 9.20633554e-01, 8.30615342e-01, 8.01399827e-01,
          8.61467659e-01, 8.28438222e-01, 8.37983191e-01, 9.31726933e-01,
          8.94054711e-01, 8.38577688e-01, 6.64011896e-01, 7.93193698e-01,
          8.57266247e-01, 8.00931275e-01, 8.23727667e-01, 8.61231029e-01,
          9.12026882e-01, 8.30615342e-01, 8.23727667e-01, 8.31084847e-01,
          8.92454147e-01, 8.79945993e-01, 8.40878904e-01, 8.52344990e-01,
          1., 9.38801706e-01, 8.18128467e-01, 8.37983191e-01,
          8.91602218e-01, 8.71394873e-01, 8.47626507e-01, 9.32335019e-01,
          9.99833167e-01, 9.31886256e-01, 7.95400620e-01, 7.96461880e-01,
          8.58036578e-01, 8.38380396e-01, 8.55415881e-01, 9.17494059e-01,
          8.98234904e-01, 8.53906691e-01, 6.64011896e-01, 8.14860761e-01,
          8.59539032e-01, 7.92044878e-01, 8.13829839e-01, 8.39551151e-01,
          8.80805314e-01, 8.01863194e-01, 8.48422050e-01, 8.53061557e-01,
          8.63656163e-01, 8.88623595e-01, 9.16521847e-01, 9.12582636e-01,
          9.81725693e-01, 9.00980651e-01, 7.88395107e-01, 8.32236767e-01,
          8.62747550e-01, 8.41065407e-01, 9.01729763e-01, 9.62960958e-01,
          9.79510844e-01, 9.23234880e-01, 7.63923764e-01, 7.60291934e-01,
          8.12415600e-01, 7.96461880e-01, 8.44810247e-01, 9.30759609e-01,
          8.88030887e-01, 8.78747940e-01, 7.15873778e-01, 8.10579300e-01,
          8.41065407e-01, 7.36767232e-01, 8.13480675e-01, 8.13829839e-01,
          0., 0., 0., 0., 0., 0., 0., 0., 0., 0., 0., 0., 0., 0., 0., 0.,
          0., 0., 0., 0., 0., 0., 0., 0., 0., 0., 0., 0., 0., 0., 0., 0.,
          0., 0., 0., 0., 0., 0., 0., 0., 0., 0., 0., 0., 2.29885042e-01,
          2.75862068e-01, 3.10344815e-01, 3.44827592e-01, 4.13793117e-01,
          4.25287366e-01, 4.25287366e-01, 3.79310310e-01, 3.33333343e-01,
          2.52873570e-01, 2.41379291e-01, 2.29885042e-01, 2.18390793e-01,
          2.06896558e-01, 2.06896558e-01, 2.06896558e-01, 2.06896558e-01,
          2.06896558e-01, 2.06896558e-01, 2.06896558e-01, 2.06896558e-01,
          2.06896558e-01, 1.95402279e-01, 1.95402279e-01, 1.95402279e-01,
          1.95402279e-01, 1.95402279e-01, 1.95402279e-01, 1.95402279e-01,
          1.95402279e-01, 1.95402279e-01, 1.95402279e-01, 1.95402279e-01,
          2.06896558e-01, 2.06896558e-01, 2.06896558e-01, 2.06896558e-01,
          2.06896558e-01, 2.06896558e-01, 2.06896558e-01, 1.95402279e-01,
          2.06896558e-01, 2.06896558e-01, 2.06896558e-01, 2.64367819e-01,
          3.10344815e-01, 3.56321841e-01, 4.48275834e-01, 4.71264333e-01,
          5.05747139e-01, 5.40229857e-01, 5.63218355e-01, 5.86206853e-01,
          6.09195411e-01, 6.55172408e-01, 6.66666687e-01, 6.78160906e-01,
          6.89655185e-01, 7.01149404e-01, 7.12643683e-01, 7.24137902e-01,
          7.35632181e-01, 7.58620620e-01, 7.70114899e-01, 7.81609118e-01,
          7.81609118e-01, 7.93103397e-01, 8.04597616e-01, 8.39080453e-01,
          8.62068951e-01, 8.85057449e-01, 8.85057449e-01, 9.19540167e-01,
          9.54022944e-01, 9.88505661e-01, 1., 0., 0., 0., 0., 0., 0., 0.,
          0., 0., 0., 0., 0., 0., 0., 0., 0., 0., 0., 0., 0., 0.,
          6.89655170e-02, 1.03448279e-01, 1.26436785e-01, 1.95402279e-01,
          2.29885042e-01, 2.41379291e-01, 2.52873570e-01, 2.64367819e-01,
          2.75862068e-01, 2.75862068e-01, 2.75862068e-01, 2.87356317e-01,
          2.98850566e-01, 2.98850566e-01, 3.10344815e-01, 3.21839064e-01,
          3.33333343e-01, 3.33333343e-01, 3.33333343e-01, 3.79310310e-01,
          4.02298808e-01, 4.02298808e-01, 4.25287366e-01, 4.25287366e-01,
          4.36781585e-01, 4.48275834e-01, 4.48275834e-01, 4.59770083e-01,
          4.71264333e-01, 4.71264333e-01, 4.59770083e-01, 4.48275834e-01,
          4.36781585e-01, 4.25287366e-01, 4.13793117e-01, 2.06896558e-01,
          2.06896558e-01, 2.06896558e-01, 2.18390793e-01, 4.71264333e-01,
          4.82758582e-01, 4.82758582e-01, 4.71264333e-01, 4.71264333e-01,
          4.71264333e-01, 4.82758582e-01, 4.94252831e-01, 5.17241359e-01,
          5.63218355e-01, 5.74712634e-01, 5.86206853e-01, 6.09195411e-01,
          6.43678129e-01, 6.89655185e-01, 7.01149404e-01, 7.35632181e-01,
          6.20689631e-01, 4.25287366e-01, 4.36781585e-01, 4.25287366e-01,
          4.02298808e-01, 3.90804559e-01, 3.79310310e-01, 3.67816091e-01,
          3.67816091e-01, 3.67816091e-01, 3.56321841e-01, 3.44827592e-01,
          3.33333343e-01, 3.21839064e-01, 3.10344815e-01, 2.98850566e-01,
          2.87356317e-01, 2.64367819e-01, 2.52873570e-01, 2.52873570e-01,
          2.52873570e-01, 2.52873570e-01, 2.41379291e-01, 2.18390793e-01,
          2.06896558e-01, 1.95402279e-01, 1.83908045e-01, 1.72413796e-01,
          1.60919532e-01, 1.49425283e-01, 1.37931034e-01, 1.26436785e-01,
          1.14942521e-01, 9.19540226e-02, 8.04597661e-02, 5.74712604e-02,
          4.59770113e-02, 3.44827585e-02, 0., 0., 0., 0., 0., 0., 0., 0.,
          0., 0., 0., 0., 0., 0., 0., 0., 0., 0., 0., 0., 0., 0., 0., 0.,
          0., 0., 0., 0., 0., 0., 0., 0., 0., 0., 1.14942528e-02,
          2.29885057e-02, 3.44827585e-02, 3.44827585e-02, 4.59770113e-02,
          4.59770113e-02, 5.74712604e-02, 6.89655170e-02, 8.04597661e-02,
          9.19540226e-02, 1.03448279e-01 ]
      - [ 8.76219213e-01, 8.77263010e-01, 8.52552056e-01, 9.14840460e-01,
          9.34257507e-01, 8.33666146e-01, 5.92656136e-01, 7.61390328e-01,
          9.83781517e-01, 9.47222471e-01, 8.82309735e-01, 8.83226097e-01,
          8.98012817e-01, 8.33210707e-01, 6.88421309e-01, 9.04690206e-01,
          9.81834710e-01, 9.08730865e-01, 8.23511004e-01, 7.79495060e-01,
          8.35004807e-01, 7.37831652e-01, 7.93189049e-01, 9.19139743e-01,
          8.63531947e-01, 7.61390328e-01, 5.92656136e-01, 5.92656136e-01,
          5.92656136e-01, 5.92656136e-01, 8.35875094e-01, 8.53431404e-01,
          9.01108563e-01, 8.11750293e-01, 8.36303890e-01, 9.30754304e-01,
          9.32725310e-01, 8.83527696e-01, 6.88421309e-01, 8.06983829e-01,
          9.93009925e-01, 9.17700112e-01, 8.79773736e-01, 9.06477153e-01,
          9.23930347e-01, 8.75865936e-01, 7.42189705e-01, 9.25634861e-01,
          1., 9.28466976e-01, 8.47875834e-01, 8.33210707e-01,
          8.44105780e-01, 7.96549678e-01, 7.42189705e-01, 9.02332664e-01,
          8.94818068e-01, 8.20552766e-01, 6.64971113e-01, 5.92656136e-01,
          5.92656136e-01, 5.92656136e-01, 6.88421309e-01, 7.72421360e-01,
          9.02433276e-01, 8.15352440e-01, 8.79282296e-01, 9.15762007e-01,
          9.10967231e-01, 9.10798848e-01, 8.29882801e-01, 8.29882801e-01,
          9.93932486e-01, 9.34205472e-01, 8.49171400e-01, 8.84420574e-01,
          9.12700355e-01, 9.07752335e-01, 8.71983409e-01, 9.14373040e-01,
          9.99454141e-01, 9.27041352e-01, 8.05268407e-01, 7.88240671e-01,
          8.24079156e-01, 8.54859948e-01, 8.72748613e-01, 9.20399725e-01,
          8.97680640e-01, 8.35004807e-01, 7.02520251e-01, 5.92656136e-01,
          5.92656136e-01, 5.92656136e-01, 7.42189705e-01, 8.21760476e-01,
          8.82617235e-01, 7.77838051e-01, 8.58892083e-01, 8.62830222e-01,
          8.85006547e-01, 9.05732930e-01, 9.04208601e-01, 9.20330584e-01,
          9.79197443e-01, 9.02933121e-01, 8.01613867e-01, 8.42280388e-01,
          8.66887152e-01, 8.86439860e-01, 9.17259693e-01, 9.59388971e-01,
          9.77110445e-01, 9.20949399e-01, 7.27294564e-01, 7.02520251e-01,
          8.00648689e-01, 7.93189049e-01, 8.77776086e-01, 9.29681122e-01,
          8.77945900e-01, 8.50118995e-01, 7.61390328e-01, 5.92656136e-01,
          5.92656136e-01, 5.92656136e-01, 7.58768320e-01, 8.14655840e-01,
          0., 0., 0., 0., 0., 0., 0., 0., 0., 0., 0., 0., 0., 0., 0., 0.,
          0., 0., 0., 0., 0., 0., 0., 0., 4.49438207e-02, 7.86516815e-02,
          1.23595499e-01, 2.92134851e-01, 3.59550565e-01, 4.04494375e-01,
          4.49438214e-01, 5.28089881e-01, 5.73033690e-01, 5.73033690e-01,
          5.61797798e-01, 5.28089881e-01, 5.16853929e-01, 4.71910119e-01,
          3.59550565e-01, 3.37078631e-01, 3.25842679e-01, 3.14606726e-01,
          3.03370774e-01, 2.92134851e-01, 2.80898899e-01, 2.69662917e-01,
          2.69662917e-01, 2.80898899e-01, 2.80898899e-01, 2.69662917e-01,
          2.69662917e-01, 2.69662917e-01, 2.69662917e-01, 2.69662917e-01,
          2.80898899e-01, 2.80898899e-01, 2.80898899e-01, 2.80898899e-01,
          2.80898899e-01, 2.80898899e-01, 2.69662917e-01, 2.69662917e-01,
          2.69662917e-01, 2.69662917e-01, 2.69662917e-01, 2.69662917e-01,
          2.58426964e-01, 2.58426964e-01, 2.58426964e-01, 2.58426964e-01,
          2.58426964e-01, 2.58426964e-01, 2.58426964e-01, 2.69662917e-01,
          2.69662917e-01, 2.69662917e-01, 2.69662917e-01, 2.58426964e-01,
          2.58426964e-01, 2.58426964e-01, 2.47190997e-01, 2.58426964e-01,
          2.47190997e-01, 2.35955060e-01, 2.35955060e-01, 2.24719107e-01,
          2.24719107e-01, 2.24719107e-01, 2.24719107e-01, 2.24719107e-01,
          2.24719107e-01, 2.35955060e-01, 2.24719107e-01, 2.35955060e-01,
          2.35955060e-01, 2.35955060e-01, 2.35955060e-01, 2.47190997e-01,
          2.47190997e-01, 2.35955060e-01, 2.47190997e-01, 2.47190997e-01,
          2.47190997e-01, 2.58426964e-01, 2.47190997e-01, 2.47190997e-01,
          2.58426964e-01, 2.58426964e-01, 2.58426964e-01, 2.69662917e-01,
          2.69662917e-01, 2.69662917e-01, 2.69662917e-01, 2.80898899e-01,
          2.69662917e-01, 2.69662917e-01, 2.80898899e-01, 2.80898899e-01,
          2.92134851e-01, 2.92134851e-01, 0., 0., 0., 0., 0., 0., 0., 0.,
          0., 0., 0., 0., 0., 0., 0., 3.37078646e-02, 5.61797768e-02,
          5.61797768e-02, 6.74157292e-02, 7.86516815e-02, 7.86516815e-02,
          8.98876414e-02, 1.01123594e-01, 1.01123594e-01, 1.12359554e-01,
          1.12359554e-01, 1.23595499e-01, 1.23595499e-01, 1.23595499e-01,
          1.23595499e-01, 1.23595499e-01, 1.23595499e-01, 1.23595499e-01,
          1.23595499e-01, 1.23595499e-01, 1.23595499e-01, 1.34831458e-01,
          1.34831458e-01, 1.57303363e-01, 1.68539315e-01, 1.79775283e-01,
          2.02247187e-01, 2.24719107e-01, 2.35955060e-01, 4.15730327e-01,
          5.95505595e-01, 6.06741548e-01, 6.17977560e-01, 6.29213452e-01,
          6.29213452e-01, 6.40449464e-01, 6.51685357e-01, 6.96629226e-01,
          7.75280952e-01, 8.31460655e-01, 9.32584286e-01, 1., 1., 1., 1.,
          1., 1., 9.88763988e-01, 9.88763988e-01, 9.88763988e-01,
          9.88763988e-01, 9.77528095e-01, 9.66292143e-01, 6.74157262e-01,
          4.60674167e-01, 4.38202262e-01, 3.70786518e-01, 3.25842679e-01,
          3.03370774e-01, 2.58426964e-01, 2.24719107e-01, 1.91011235e-01,
          1.57303363e-01, 1.23595499e-01, 7.86516815e-02, 4.49438207e-02,
          2.24719103e-02, 0., 0., 0., 0., 0., 0., 0., 0., 0., 0., 0., 0.,
          0., 0., 0., 0., 0., 0., 0., 0., 0., 0., 0., 0., 0., 0., 0., 0.,
          0., 0., 0., 0., 0., 0., 0., 0., 0., 0., 0., 0., 0., 0., 0., 0.,
          0., 0., 0., 0., 0., 0., 0., 0., 0., 0., 0., 0., 0., 0., 0., 0.,
          0., 0., 0., 0., 0., 0., 0., 0., 0., 0., 0., 0., 0., 0., 0., 0.,
          0., 0. ]
      - [ 8.62179935e-01, 8.86494100e-01, 8.98563981e-01, 9.06910717e-01,
          9.33474422e-01, 8.81551147e-01, 7.04998970e-01, 7.55599201e-01,
          9.81746495e-01, 9.36923504e-01, 8.95294368e-01, 8.72266591e-01,
          9.03766632e-01, 8.52167606e-01, 6.90850317e-01, 8.89567554e-01,
          9.85582590e-01, 9.03451085e-01, 8.31808090e-01, 7.75146723e-01,
          8.17530215e-01, 7.40435004e-01, 6.90850317e-01, 9.08360779e-01,
          8.86190534e-01, 7.77040005e-01, 5.94747245e-01, 5.94747245e-01,
          5.94747245e-01, 5.94747245e-01, 7.35507965e-01, 8.72676194e-01,
          8.95544469e-01, 8.40935111e-01, 8.84484768e-01, 9.13416326e-01,
          9.43312824e-01, 9.01840985e-01, 7.29860723e-01, 8.00426841e-01,
          9.88585472e-01, 9.08265471e-01, 9.01840985e-01, 9.04598117e-01,
          9.25417542e-01, 8.75827968e-01, 7.83843637e-01, 9.14012492e-01,
          1., 9.27958012e-01, 8.70376706e-01, 8.28105211e-01,
          8.42949629e-01, 7.82245398e-01, 7.58629262e-01, 9.09210145e-01,
          9.11937177e-01, 8.26986790e-01, 6.90850317e-01, 5.94747245e-01,
          5.94747245e-01, 5.94747245e-01, 5.94747245e-01, 8.32312405e-01,
          8.92849565e-01, 8.03473651e-01, 8.55262101e-01, 8.90409827e-01,
          9.49138343e-01, 9.25216556e-01, 8.70161772e-01, 8.54049802e-01,
          9.89248574e-01, 9.29458022e-01, 8.54355991e-01, 8.86945724e-01,
          9.17362988e-01, 9.05313909e-01, 8.99029672e-01, 9.20199215e-01,
          9.98837292e-01, 9.28776205e-01, 8.37060034e-01, 7.92319834e-01,
          8.15362155e-01, 8.45994115e-01, 8.85422885e-01, 9.25014734e-01,
          9.15757656e-01, 8.56733084e-01, 7.64076829e-01, 5.94747245e-01,
          5.94747245e-01, 5.94747245e-01, 7.48742402e-01, 8.28105211e-01,
          8.75253320e-01, 7.23237514e-01, 7.55599201e-01, 8.75253320e-01,
          9.32731569e-01, 9.11937177e-01, 9.19145584e-01, 9.02706504e-01,
          9.75900769e-01, 8.71226311e-01, 7.29860723e-01, 8.53431106e-01,
          8.94663215e-01, 8.73484671e-01, 9.15347934e-01, 9.53490674e-01,
          9.79930878e-01, 9.09675598e-01, 7.35507965e-01, 7.04998970e-01,
          7.83843637e-01, 7.98265934e-01, 8.85577440e-01, 9.24335778e-01,
          9.02058780e-01, 8.50867450e-01, 6.67317390e-01, 5.94747245e-01,
          5.94747245e-01, 5.94747245e-01, 7.95987725e-01, 8.28653753e-01,
          0., 0., 0., 0., 0., 0., 0., 0., 0., 0., 0., 0., 0., 0., 0., 0.,
          0., 0., 0., 0., 0., 0., 0., 0., 0., 0., 0., 0., 0., 0., 0., 0.,
          0., 0., 0., 0., 0., 0., 0., 0., 0., 6.75675720e-02,
          2.83783793e-01, 4.32432443e-01, 4.86486495e-01, 5.54054081e-01,
          6.48648679e-01, 6.62162185e-01, 6.62162185e-01, 6.48648679e-01,
          5.81081092e-01, 5.13513505e-01, 4.32432443e-01, 3.91891897e-01,
          3.64864856e-01, 3.37837845e-01, 3.24324340e-01, 3.10810834e-01,
          2.97297299e-01, 2.83783793e-01, 2.97297299e-01, 2.97297299e-01,
          2.97297299e-01, 2.97297299e-01, 2.97297299e-01, 2.97297299e-01,
          2.97297299e-01, 2.97297299e-01, 2.97297299e-01, 2.97297299e-01,
          2.97297299e-01, 2.97297299e-01, 2.83783793e-01, 2.83783793e-01,
          2.83783793e-01, 2.83783793e-01, 2.83783793e-01, 2.83783793e-01,
          2.83783793e-01, 2.83783793e-01, 2.83783793e-01, 2.97297299e-01,
          2.97297299e-01, 2.97297299e-01, 2.97297299e-01, 2.97297299e-01,
          3.10810834e-01, 2.97297299e-01, 2.97297299e-01, 3.10810834e-01,
          2.97297299e-01, 2.83783793e-01, 2.83783793e-01, 2.70270288e-01,
          2.70270288e-01, 2.70270288e-01, 2.56756753e-01, 2.70270288e-01,
          2.56756753e-01, 2.56756753e-01, 2.70270288e-01, 2.56756753e-01,
          2.70270288e-01, 2.70270288e-01, 2.70270288e-01, 2.70270288e-01,
          2.83783793e-01, 2.83783793e-01, 2.70270288e-01, 2.83783793e-01,
          2.97297299e-01, 2.97297299e-01, 2.97297299e-01, 3.10810834e-01,
          3.10810834e-01, 3.10810834e-01, 3.24324340e-01, 3.10810834e-01,
          3.10810834e-01, 3.10810834e-01, 0., 0., 0., 0., 0., 0., 0., 0.,
          0., 0., 0., 0., 0., 0., 0., 0., 0., 0., 0., 0., 4.05405425e-02,
          6.75675720e-02, 9.45945978e-02, 9.45945978e-02, 9.45945978e-02,
          9.45945978e-02, 9.45945978e-02, 1.08108111e-01, 1.08108111e-01,
          1.08108111e-01, 1.08108111e-01, 1.21621624e-01, 1.35135144e-01,
          1.35135144e-01, 1.35135144e-01, 1.35135144e-01, 1.35135144e-01,
          1.35135144e-01, 1.48648649e-01, 1.48648649e-01, 1.48648649e-01,
          1.62162170e-01, 1.62162170e-01, 1.75675675e-01, 1.75675675e-01,
          1.89189196e-01, 2.16216221e-01, 2.29729742e-01, 2.43243247e-01,
          6.21621668e-01, 6.62162185e-01, 6.62162185e-01, 6.62162185e-01,
          6.75675690e-01, 6.89189196e-01, 7.02702701e-01, 7.29729712e-01,
          7.56756783e-01, 7.97297299e-01, 8.51351380e-01, 9.05405462e-01,
          9.59459424e-01, 1., 1., 1., 1., 1., 1., 9.86486495e-01,
          9.72972989e-01, 6.89189196e-01, 4.59459484e-01, 4.18918937e-01,
          3.78378391e-01, 3.37837845e-01, 3.10810834e-01, 2.70270288e-01,
          2.43243247e-01, 2.16216221e-01, 1.89189196e-01, 1.48648649e-01,
          1.35135144e-01, 1.08108111e-01, 9.45945978e-02, 5.40540554e-02,
          0., 0., 0., 0., 0., 0., 0., 0., 0., 0., 0., 0., 0., 0., 0., 0.,
          0., 0., 0., 0., 0., 0., 0., 0., 0., 0., 0., 0., 0., 0., 0., 0.,
          0., 0., 0., 0., 0., 0., 0., 0., 0., 0., 0., 0., 0., 0., 0., 0.,
          0., 0., 0., 0., 0., 0., 0., 0., 0., 0., 0., 0., 0., 0., 0., 0.,
          0., 0., 0., 0., 0., 0., 0., 0., 0., 0., 0. ]
      - [ 8.91410947e-01, 8.29812944e-01, 8.11342478e-01, 9.12777245e-01,
          9.41746473e-01, 8.77034068e-01, 5.94053745e-01, 7.79672325e-01,
          9.86003518e-01, 9.13784623e-01, 8.45373452e-01, 8.68497074e-01,
          8.99011433e-01, 8.52123737e-01, 6.66539192e-01, 9.32724595e-01,
          9.83660638e-01, 8.74232650e-01, 8.16576898e-01, 8.17962229e-01,
          8.46807659e-01, 7.39571512e-01, 7.67976880e-01, 9.62027788e-01,
          8.68497074e-01, 7.29009628e-01, 5.94053745e-01, 5.94053745e-01,
          5.94053745e-01, 5.94053745e-01, 8.15145493e-01, 9.32949185e-01,
          9.11050022e-01, 7.77941346e-01, 7.51441777e-01, 9.01973963e-01,
          9.43540871e-01, 8.92463446e-01, 6.66539192e-01, 8.17962229e-01,
          9.96931434e-01, 9.03233528e-01, 8.56875837e-01, 8.85761499e-01,
          9.22431529e-01, 8.80185843e-01, 7.22394168e-01, 9.35139477e-01,
          9.98941004e-01, 9.09349263e-01, 8.22487772e-01, 8.24875951e-01,
          8.46096277e-01, 7.93873727e-01, 7.29009628e-01, 9.29588616e-01,
          8.91277671e-01, 7.96212673e-01, 5.94053745e-01, 5.94053745e-01,
          5.94053745e-01, 5.94053745e-01, 5.94053745e-01, 8.45007598e-01,
          9.09892917e-01, 8.01546454e-01, 6.66539192e-01, 8.86506140e-01,
          9.28435683e-01, 8.92980933e-01, 7.04176903e-01, 7.87378609e-01,
          9.98387814e-01, 9.26494002e-01, 7.22394168e-01, 8.62438262e-01,
          9.22777474e-01, 9.00898159e-01, 8.20606053e-01, 8.96092474e-01,
          1., 9.14933801e-01, 6.90044701e-01, 7.72259712e-01,
          8.29812944e-01, 8.60917449e-01, 8.54858279e-01, 9.03646052e-01,
          8.95486474e-01, 8.23097289e-01, 5.94053745e-01, 5.94053745e-01,
          5.94053745e-01, 5.94053745e-01, 7.34650254e-01, 8.02536726e-01,
          8.95119071e-01, 7.51441777e-01, 8.15867186e-01, 8.75747919e-01,
          9.01223481e-01, 8.81684780e-01, 7.74242818e-01, 8.15145493e-01,
          9.89651263e-01, 8.88671458e-01, 7.04176903e-01, 8.77574503e-01,
          8.85761499e-01, 8.76670241e-01, 8.51173878e-01, 9.12777245e-01,
          9.85787749e-01, 8.96809697e-01, 5.94053745e-01, 7.14379072e-01,
          7.57744610e-01, 8.21869552e-01, 8.50529313e-01, 8.96928132e-01,
          8.72665763e-01, 8.41172695e-01, 7.22394168e-01, 5.94053745e-01,
          5.94053745e-01, 6.66539192e-01, 7.65652478e-01, 8.03504229e-01,
          0., 0., 0., 0., 0., 0., 0., 0., 0., 0., 0., 0., 0., 0., 0., 0.,
          0., 0., 0., 0., 0., 0., 0., 0., 0., 0., 0., 0., 0., 0., 0., 0.,
          0., 0., 0., 0., 0., 0., 0., 0., 0., 2.26666674e-01,
          3.20000023e-01, 4.40000027e-01, 5.06666660e-01, 5.46666682e-01,
          5.60000002e-01, 5.86666703e-01, 5.86666703e-01, 5.86666703e-01,
          4.80000019e-01, 4.13333356e-01, 3.73333365e-01, 3.33333343e-01,
          3.06666702e-01, 2.80000001e-01, 2.66666681e-01, 2.66666681e-01,
          2.53333330e-01, 2.40000010e-01, 2.40000010e-01, 2.53333330e-01,
          2.53333330e-01, 2.40000010e-01, 2.53333330e-01, 2.53333330e-01,
          2.53333330e-01, 2.53333330e-01, 2.53333330e-01, 2.53333330e-01,
          2.53333330e-01, 2.66666681e-01, 2.53333330e-01, 2.66666681e-01,
          2.53333330e-01, 2.66666681e-01, 2.53333330e-01, 2.53333330e-01,
          2.40000010e-01, 2.40000010e-01, 2.26666674e-01, 2.13333338e-01,
          2.13333338e-01, 2.13333338e-01, 2.13333338e-01, 2.13333338e-01,
          2.13333338e-01, 2.00000003e-01, 2.13333338e-01, 2.13333338e-01,
          2.13333338e-01, 2.13333338e-01, 2.26666674e-01, 2.26666674e-01,
          2.26666674e-01, 2.26666674e-01, 2.40000010e-01, 2.40000010e-01,
          2.40000010e-01, 2.53333330e-01, 2.53333330e-01, 2.80000001e-01,
          2.93333352e-01, 3.06666702e-01, 3.20000023e-01, 3.86666685e-01,
          4.26666677e-01, 4.93333340e-01, 5.33333361e-01, 5.73333323e-01,
          6.13333404e-01, 6.53333366e-01, 6.80000007e-01, 7.20000029e-01,
          8.26666713e-01, 8.26666713e-01, 8.26666713e-01, 8.26666713e-01,
          8.26666713e-01, 8.26666713e-01, 0., 0., 0., 0., 0., 0., 0., 0.,
          0., 0., 0., 0., 0., 0., 0., 0., 0., 0., 0., 0., 0., 0., 0., 0.,
          0., 0., 0., 0., 0., 0., 0., 0., 0., 0., 0., 0., 0., 0., 0., 0.,
          0., 0., 0., 0., 0., 0., 0., 0., 0., 0., 0., 0., 0., 0., 0., 0.,
          2.66666673e-02, 5.33333346e-02, 6.66666701e-02, 6.66666701e-02,
          8.00000057e-02, 8.00000057e-02, 8.00000057e-02, 8.00000057e-02,
          8.00000057e-02, 1.06666669e-01, 1.06666669e-01, 1.06666669e-01,
          1.06666669e-01, 1.06666669e-01, 1.06666669e-01, 1.20000005e-01,
          1.20000005e-01, 1.33333340e-01, 1.46666676e-01, 1.46666676e-01,
          1.46666676e-01, 1.46666676e-01, 1.60000011e-01, 1.73333347e-01,
          1.86666682e-01, 1.86666682e-01, 1.86666682e-01, 2.00000003e-01,
          2.26666674e-01, 2.40000010e-01, 2.93333352e-01, 3.33333343e-01,
          3.73333365e-01, 4.13333356e-01, 4.40000027e-01, 4.66666698e-01,
          4.93333340e-01, 5.06666660e-01, 5.20000041e-01, 5.33333361e-01,
          5.46666682e-01, 5.86666703e-01, 1., 9.73333359e-01,
          9.46666658e-01, 9.20000017e-01, 8.93333316e-01, 8.66666675e-01,
          7.86666691e-01, 7.46666729e-01, 7.20000029e-01, 6.80000007e-01,
