%YAML:1.0
my_svm: !!opencv-ml-svm
   svm_type: C_SVC
   kernel: { type:RBF, gamma:9.9999999999999995e-07 }
   C: 1.0000000000000001e-01
   term_criteria: { epsilon:2.2204460492503131e-16, iterations:100 }
   var_all: 240
   var_count: 240
   class_count: 10
   class_labels: !!opencv-matrix
      rows: 1
      cols: 10
      dt: i
      data: [ 1, 2, 3, 4, 5, 6, 7, 8, 9, 10 ]
   sv_total: 240
   support_vectors:
      - [ .Nan, .Nan, .Nan, .Nan, .Nan, .Nan, .Nan, .Nan, .Nan, .Nan,
          .Nan, .Nan, .Nan, .Nan, .Nan, .Nan, .Nan, .Nan, .Nan, .Nan,
          .Nan, .Nan, .Nan, .Nan, .Nan, .Nan, .Nan, .Nan, .Nan, .Nan,
          .Nan, .Nan, .Nan, .Nan, .Nan, .Nan, .Nan, .Nan, .Nan, .Nan,
          .Nan, .Nan, .Nan, .Nan, .Nan, .Nan, .Nan, .Nan, .Nan, .Nan,
          .Nan, .Nan, .Nan, .Nan, .Nan, .Nan, .Nan, .Nan, .Nan, .Nan,
          .Nan, .Nan, .Nan, .Nan, .Nan, .Nan, .Nan, .Nan, .Nan, .Nan,
          .Nan, .Nan, .Nan, .Nan, .Nan, .Nan, .Nan, .Nan, .Nan, .Nan,
          .Nan, .Nan, .Nan, .Nan, .Nan, .Nan, .Nan, .Nan, .Nan, .Nan,
          .Nan, .Nan, .Nan, .Nan, .Nan, .Nan, .Nan, .Nan, .Nan, .Nan,
          .Nan, .Nan, .Nan, .Nan, .Nan, .Nan, .Nan, .Nan, .Nan, .Nan,
          .Nan, .Nan, .Nan, .Nan, .Nan, .Nan, .Nan, .Nan, .Nan, .Nan,
          .Nan, .Nan, .Nan, .Nan, .Nan, .Nan, .Nan, .Nan, .Nan, .Nan,
          .Nan, .Nan, .Nan, .Nan, .Nan, .Nan, .Nan, .Nan, .Nan, .Nan,
          .Nan, .Nan, .Nan, .Nan, .Nan, .Nan, .Nan, .Nan, .Nan, .Nan,
          .Nan, .Nan, .Nan, .Nan, .Nan, .Nan, .Nan, .Nan, .Nan, .Nan,
          .Nan, .Nan, .Nan, .Nan, .Nan, .Nan, .Nan, .Nan, .Nan, .Nan,
          .Nan, .Nan, .Nan, .Nan, .Nan, .Nan, .Nan, .Nan, .Nan, .Nan,
          .Nan, .Nan, .Nan, .Nan, .Nan, .Nan, .Nan, .Nan, .Nan, .Nan,
          .Nan, .Nan, .Nan, .Nan, .Nan, .Nan, .Nan, .Nan, .Nan, .Nan,
          .Nan, .Nan, .Nan, .Nan, .Nan, .Nan, .Nan, .Nan, .Nan, .Nan,
          .Nan, .Nan, .Nan, .Nan, .Nan, .Nan, .Nan, .Nan, .Nan, .Nan,
          .Nan, .Nan, .Nan, .Nan, .Nan, .Nan, .Nan, .Nan, .Nan, .Nan,
          .Nan, .Nan, .Nan, .Nan, .Nan, .Nan, .Nan, .Nan, .Nan, .Nan ]
      - [ .Nan, .Nan, .Nan, .Nan, .Nan, .Nan, .Nan, .Nan, .Nan, .Nan,
          .Nan, .Nan, .Nan, .Nan, .Nan, .Nan, .Nan, .Nan, .Nan, .Nan,
          .Nan, .Nan, .Nan, .Nan, .Nan, .Nan, .Nan, .Nan, .Nan, .Nan,
          .Nan, .Nan, .Nan, .Nan, .Nan, .Nan, .Nan, .Nan, .Nan, .Nan,
          .Nan, .Nan, .Nan, .Nan, .Nan, .Nan, .Nan, .Nan, .Nan, .Nan,
          .Nan, .Nan, .Nan, .Nan, .Nan, .Nan, .Nan, .Nan, .Nan, .Nan,
          .Nan, .Nan, .Nan, .Nan, .Nan, .Nan, .Nan, .Nan, .Nan, .Nan,
          .Nan, .Nan, .Nan, .Nan, .Nan, .Nan, .Nan, .Nan, .Nan, .Nan,
          .Nan, .Nan, .Nan, .Nan, .Nan, .Nan, .Nan, .Nan, .Nan, .Nan,
          .Nan, .Nan, .Nan, .Nan, .Nan, .Nan, .Nan, .Nan, .Nan, .Nan,
          .Nan, .Nan, .Nan, .Nan, .Nan, .Nan, .Nan, .Nan, .Nan, .Nan,
          .Nan, .Nan, .Nan, .Nan, .Nan, .Nan, .Nan, .Nan, .Nan, .Nan,
          .Nan, .Nan, .Nan, .Nan, .Nan, .Nan, .Nan, .Nan, .Nan, .Nan,
          .Nan, .Nan, .Nan, .Nan, .Nan, .Nan, .Nan, .Nan, .Nan, .Nan,
          .Nan, .Nan, .Nan, .Nan, .Nan, .Nan, .Nan, .Nan, .Nan, .Nan,
          .Nan, .Nan, .Nan, .Nan, .Nan, .Nan, .Nan, .Nan, .Nan, .Nan,
          .Nan, .Nan, .Nan, .Nan, .Nan, .Nan, .Nan, .Nan, .Nan, .Nan,
          .Nan, .Nan, .Nan, .Nan, .Nan, .Nan, .Nan, .Nan, .Nan, .Nan,
          .Nan, .Nan, .Nan, .Nan, .Nan, .Nan, .Nan, .Nan, .Nan, .Nan,
          .Nan, .Nan, .Nan, .Nan, .Nan, .Nan, .Nan, .Nan, .Nan, .Nan,
          .Nan, .Nan, .Nan, .Nan, .Nan, .Nan, .Nan, .Nan, .Nan, .Nan,
          .Nan, .Nan, .Nan, .Nan, .Nan, .Nan, .Nan, .Nan, .Nan, .Nan,
          .Nan, .Nan, .Nan, .Nan, .Nan, .Nan, .Nan, .Nan, .Nan, .Nan,
          .Nan, .Nan, .Nan, .Nan, .Nan, .Nan, .Nan, .Nan, .Nan, .Nan ]
      - [ .Nan, .Nan, .Nan, .Nan, .Nan, .Nan, .Nan, .Nan, .Nan, .Nan,
          .Nan, .Nan, .Nan, .Nan, .Nan, .Nan, .Nan, .Nan, .Nan, .Nan,
          .Nan, .Nan, .Nan, .Nan, .Nan, .Nan, .Nan, .Nan, .Nan, .Nan,
          .Nan, .Nan, .Nan, .Nan, .Nan, .Nan, .Nan, .Nan, .Nan, .Nan,
          .Nan, .Nan, .Nan, .Nan, .Nan, .Nan, .Nan, .Nan, .Nan, .Nan,
          .Nan, .Nan, .Nan, .Nan, .Nan, .Nan, .Nan, .Nan, .Nan, .Nan,
          .Nan, .Nan, .Nan, .Nan, .Nan, .Nan, .Nan, .Nan, .Nan, .Nan,
          .Nan, .Nan, .Nan, .Nan, .Nan, .Nan, .Nan, .Nan, .Nan, .Nan,
          .Nan, .Nan, .Nan, .Nan, .Nan, .Nan, .Nan, .Nan, .Nan, .Nan,
          .Nan, .Nan, .Nan, .Nan, .Nan, .Nan, .Nan, .Nan, .Nan, .Nan,
          .Nan, .Nan, .Nan, .Nan, .Nan, .Nan, .Nan, .Nan, .Nan, .Nan,
          .Nan, .Nan, .Nan, .Nan, .Nan, .Nan, .Nan, .Nan, .Nan, .Nan,
          .Nan, .Nan, .Nan, .Nan, .Nan, .Nan, .Nan, .Nan, .Nan, .Nan,
          .Nan, .Nan, .Nan, .Nan, .Nan, .Nan, .Nan, .Nan, .Nan, .Nan,
          .Nan, .Nan, .Nan, .Nan, .Nan, .Nan, .Nan, .Nan, .Nan, .Nan,
          .Nan, .Nan, .Nan, .Nan, .Nan, .Nan, .Nan, .Nan, .Nan, .Nan,
          .Nan, .Nan, .Nan, .Nan, .Nan, .Nan, .Nan, .Nan, .Nan, .Nan,
          .Nan, .Nan, .Nan, .Nan, .Nan, .Nan, .Nan, .Nan, .Nan, .Nan,
          .Nan, .Nan, .Nan, .Nan, .Nan, .Nan, .Nan, .Nan, .Nan, .Nan,
          .Nan, .Nan, .Nan, .Nan, .Nan, .Nan, .Nan, .Nan, .Nan, .Nan,
          .Nan, .Nan, .Nan, .Nan, .Nan, .Nan, .Nan, .Nan, .Nan, .Nan,
          .Nan, .Nan, .Nan, .Nan, .Nan, .Nan, .Nan, .Nan, .Nan, .Nan,
          .Nan, .Nan, .Nan, .Nan, .Nan, .Nan, .Nan, .Nan, .Nan, .Nan,
          .Nan, .Nan, .Nan, .Nan, .Nan, .Nan, .Nan, .Nan, .Nan, .Nan ]
      - [ .Nan, .Nan, .Nan, .Nan, .Nan, .Nan, .Nan, .Nan, .Nan, .Nan,
          .Nan, .Nan, .Nan, .Nan, .Nan, .Nan, .Nan, .Nan, .Nan, .Nan,
          .Nan, .Nan, .Nan, .Nan, .Nan, .Nan, .Nan, .Nan, .Nan, .Nan,
          .Nan, .Nan, .Nan, .Nan, .Nan, .Nan, .Nan, .Nan, .Nan, .Nan,
          .Nan, .Nan, .Nan, .Nan, .Nan, .Nan, .Nan, .Nan, .Nan, .Nan,
          .Nan, .Nan, .Nan, .Nan, .Nan, .Nan, .Nan, .Nan, .Nan, .Nan,
          .Nan, .Nan, .Nan, .Nan, .Nan, .Nan, .Nan, .Nan, .Nan, .Nan,
          .Nan, .Nan, .Nan, .Nan, .Nan, .Nan, .Nan, .Nan, .Nan, .Nan,
          .Nan, .Nan, .Nan, .Nan, .Nan, .Nan, .Nan, .Nan, .Nan, .Nan,
          .Nan, .Nan, .Nan, .Nan, .Nan, .Nan, .Nan, .Nan, .Nan, .Nan,
          .Nan, .Nan, .Nan, .Nan, .Nan, .Nan, .Nan, .Nan, .Nan, .Nan,
          .Nan, .Nan, .Nan, .Nan, .Nan, .Nan, .Nan, .Nan, .Nan, .Nan,
          .Nan, .Nan, .Nan, .Nan, .Nan, .Nan, .Nan, .Nan, .Nan, .Nan,
          .Nan, .Nan, .Nan, .Nan, .Nan, .Nan, .Nan, .Nan, .Nan, .Nan,
          .Nan, .Nan, .Nan, .Nan, .Nan, .Nan, .Nan, .Nan, .Nan, .Nan,
          .Nan, .Nan, .Nan, .Nan, .Nan, .Nan, .Nan, .Nan, .Nan, .Nan,
          .Nan, .Nan, .Nan, .Nan, .Nan, .Nan, .Nan, .Nan, .Nan, .Nan,
          .Nan, .Nan, .Nan, .Nan, .Nan, .Nan, .Nan, .Nan, .Nan, .Nan,
          .Nan, .Nan, .Nan, .Nan, .Nan, .Nan, .Nan, .Nan, .Nan, .Nan,
          .Nan, .Nan, .Nan, .Nan, .Nan, .Nan, .Nan, .Nan, .Nan, .Nan,
          .Nan, .Nan, .Nan, .Nan, .Nan, .Nan, .Nan, .Nan, .Nan, .Nan,
          .Nan, .Nan, .Nan, .Nan, .Nan, .Nan, .Nan, .Nan, .Nan, .Nan,
          .Nan, .Nan, .Nan, .Nan, .Nan, .Nan, .Nan, .Nan, .Nan, .Nan,
          .Nan, .Nan, .Nan, .Nan, .Nan, .Nan, .Nan, .Nan, .Nan, .Nan ]
      - [ .Nan, .Nan, .Nan, .Nan, .Nan, .Nan, .Nan, .Nan, .Nan, .Nan,
          .Nan, .Nan, .Nan, .Nan, .Nan, .Nan, .Nan, .Nan, .Nan, .Nan,
          .Nan, .Nan, .Nan, .Nan, .Nan, .Nan, .Nan, .Nan, .Nan, .Nan,
          .Nan, .Nan, .Nan, .Nan, .Nan, .Nan, .Nan, .Nan, .Nan, .Nan,
          .Nan, .Nan, .Nan, .Nan, .Nan, .Nan, .Nan, .Nan, .Nan, .Nan,
          .Nan, .Nan, .Nan, .Nan, .Nan, .Nan, .Nan, .Nan, .Nan, .Nan,
          .Nan, .Nan, .Nan, .Nan, .Nan, .Nan, .Nan, .Nan, .Nan, .Nan,
          .Nan, .Nan, .Nan, .Nan, .Nan, .Nan, .Nan, .Nan, .Nan, .Nan,
          .Nan, .Nan, .Nan, .Nan, .Nan, .Nan, .Nan, .Nan, .Nan, .Nan,
          .Nan, .Nan, .Nan, .Nan, .Nan, .Nan, .Nan, .Nan, .Nan, .Nan,
          .Nan, .Nan, .Nan, .Nan, .Nan, .Nan, .Nan, .Nan, .Nan, .Nan,
          .Nan, .Nan, .Nan, .Nan, .Nan, .Nan, .Nan, .Nan, .Nan, .Nan,
          .Nan, .Nan, .Nan, .Nan, .Nan, .Nan, .Nan, .Nan, .Nan, .Nan,
          .Nan, .Nan, .Nan, .Nan, .Nan, .Nan, .Nan, .Nan, .Nan, .Nan,
          .Nan, .Nan, .Nan, .Nan, .Nan, .Nan, .Nan, .Nan, .Nan, .Nan,
          .Nan, .Nan, .Nan, .Nan, .Nan, .Nan, .Nan, .Nan, .Nan, .Nan,
          .Nan, .Nan, .Nan, .Nan, .Nan, .Nan, .Nan, .Nan, .Nan, .Nan,
          .Nan, .Nan, .Nan, .Nan, .Nan, .Nan, .Nan, .Nan, .Nan, .Nan,
          .Nan, .Nan, .Nan, .Nan, .Nan, .Nan, .Nan, .Nan, .Nan, .Nan,
          .Nan, .Nan, .Nan, .Nan, .Nan, .Nan, .Nan, .Nan, .Nan, .Nan,
          .Nan, .Nan, .Nan, .Nan, .Nan, .Nan, .Nan, .Nan, .Nan, .Nan,
          .Nan, .Nan, .Nan, .Nan, .Nan, .Nan, .Nan, .Nan, .Nan, .Nan,
          .Nan, .Nan, .Nan, .Nan, .Nan, .Nan, .Nan, .Nan, .Nan, .Nan,
          .Nan, .Nan, .Nan, .Nan, .Nan, .Nan, .Nan, .Nan, .Nan, .Nan ]
      - [ .Nan, .Nan, .Nan, .Nan, .Nan, .Nan, .Nan, .Nan, .Nan, .Nan,
          .Nan, .Nan, .Nan, .Nan, .Nan, .Nan, .Nan, .Nan, .Nan, .Nan,
          .Nan, .Nan, .Nan, .Nan, .Nan, .Nan, .Nan, .Nan, .Nan, .Nan,
          .Nan, .Nan, .Nan, .Nan, .Nan, .Nan, .Nan, .Nan, .Nan, .Nan,
          .Nan, .Nan, .Nan, .Nan, .Nan, .Nan, .Nan, .Nan, .Nan, .Nan,
          .Nan, .Nan, .Nan, .Nan, .Nan, .Nan, .Nan, .Nan, .Nan, .Nan,
          .Nan, .Nan, .Nan, .Nan, .Nan, .Nan, .Nan, .Nan, .Nan, .Nan,
          .Nan, .Nan, .Nan, .Nan, .Nan, .Nan, .Nan, .Nan, .Nan, .Nan,
          .Nan, .Nan, .Nan, .Nan, .Nan, .Nan, .Nan, .Nan, .Nan, .Nan,
          .Nan, .Nan, .Nan, .Nan, .Nan, .Nan, .Nan, .Nan, .Nan, .Nan,
          .Nan, .Nan, .Nan, .Nan, .Nan, .Nan, .Nan, .Nan, .Nan, .Nan,
          .Nan, .Nan, .Nan, .Nan, .Nan, .Nan, .Nan, .Nan, .Nan, .Nan,
          .Nan, .Nan, .Nan, .Nan, .Nan, .Nan, .Nan, .Nan, .Nan, .Nan,
          .Nan, .Nan, .Nan, .Nan, .Nan, .Nan, .Nan, .Nan, .Nan, .Nan,
          .Nan, .Nan, .Nan, .Nan, .Nan, .Nan, .Nan, .Nan, .Nan, .Nan,
          .Nan, .Nan, .Nan, .Nan, .Nan, .Nan, .Nan, .Nan, .Nan, .Nan,
          .Nan, .Nan, .Nan, .Nan, .Nan, .Nan, .Nan, .Nan, .Nan, .Nan,
          .Nan, .Nan, .Nan, .Nan, .Nan, .Nan, .Nan, .Nan, .Nan, .Nan,
          .Nan, .Nan, .Nan, .Nan, .Nan, .Nan, .Nan, .Nan, .Nan, .Nan,
          .Nan, .Nan, .Nan, .Nan, .Nan, .Nan, .Nan, .Nan, .Nan, .Nan,
          .Nan, .Nan, .Nan, .Nan, .Nan, .Nan, .Nan, .Nan, .Nan, .Nan,
          .Nan, .Nan, .Nan, .Nan, .Nan, .Nan, .Nan, .Nan, .Nan, .Nan,
          .Nan, .Nan, .Nan, .Nan, .Nan, .Nan, .Nan, .Nan, .Nan, .Nan,
          .Nan, .Nan, .Nan, .Nan, .Nan, .Nan, .Nan, .Nan, .Nan, .Nan ]
      - [ .Nan, .Nan, .Nan, .Nan, .Nan, .Nan, .Nan, .Nan, .Nan, .Nan,
          .Nan, .Nan, .Nan, .Nan, .Nan, .Nan, .Nan, .Nan, .Nan, .Nan,
          .Nan, .Nan, .Nan, .Nan, .Nan, .Nan, .Nan, .Nan, .Nan, .Nan,
          .Nan, .Nan, .Nan, .Nan, .Nan, .Nan, .Nan, .Nan, .Nan, .Nan,
          .Nan, .Nan, .Nan, .Nan, .Nan, .Nan, .Nan, .Nan, .Nan, .Nan,
          .Nan, .Nan, .Nan, .Nan, .Nan, .Nan, .Nan, .Nan, .Nan, .Nan,
          .Nan, .Nan, .Nan, .Nan, .Nan, .Nan, .Nan, .Nan, .Nan, .Nan,
          .Nan, .Nan, .Nan, .Nan, .Nan, .Nan, .Nan, .Nan, .Nan, .Nan,
          .Nan, .Nan, .Nan, .Nan, .Nan, .Nan, .Nan, .Nan, .Nan, .Nan,
          .Nan, .Nan, .Nan, .Nan, .Nan, .Nan, .Nan, .Nan, .Nan, .Nan,
          .Nan, .Nan, .Nan, .Nan, .Nan, .Nan, .Nan, .Nan, .Nan, .Nan,
          .Nan, .Nan, .Nan, .Nan, .Nan, .Nan, .Nan, .Nan, .Nan, .Nan,
          .Nan, .Nan, .Nan, .Nan, .Nan, .Nan, .Nan, .Nan, .Nan, .Nan,
          .Nan, .Nan, .Nan, .Nan, .Nan, .Nan, .Nan, .Nan, .Nan, .Nan,
          .Nan, .Nan, .Nan, .Nan, .Nan, .Nan, .Nan, .Nan, .Nan, .Nan,
          .Nan, .Nan, .Nan, .Nan, .Nan, .Nan, .Nan, .Nan, .Nan, .Nan,
          .Nan, .Nan, .Nan, .Nan, .Nan, .Nan, .Nan, .Nan, .Nan, .Nan,
          .Nan, .Nan, .Nan, .Nan, .Nan, .Nan, .Nan, .Nan, .Nan, .Nan,
          .Nan, .Nan, .Nan, .Nan, .Nan, .Nan, .Nan, .Nan, .Nan, .Nan,
          .Nan, .Nan, .Nan, .Nan, .Nan, .Nan, .Nan, .Nan, .Nan, .Nan,
          .Nan, .Nan, .Nan, .Nan, .Nan, .Nan, .Nan, .Nan, .Nan, .Nan,
          .Nan, .Nan, .Nan, .Nan, .Nan, .Nan, .Nan, .Nan, .Nan, .Nan,
          .Nan, .Nan, .Nan, .Nan, .Nan, .Nan, .Nan, .Nan, .Nan, .Nan,
          .Nan, .Nan, .Nan, .Nan, .Nan, .Nan, .Nan, .Nan, .Nan, .Nan ]
      - [ .Nan, .Nan, .Nan, .Nan, .Nan, .Nan, .Nan, .Nan, .Nan, .Nan,
          .Nan, .Nan, .Nan, .Nan, .Nan, .Nan, .Nan, .Nan, .Nan, .Nan,
          .Nan, .Nan, .Nan, .Nan, .Nan, .Nan, .Nan, .Nan, .Nan, .Nan,
          .Nan, .Nan, .Nan, .Nan, .Nan, .Nan, .Nan, .Nan, .Nan, .Nan,
          .Nan, .Nan, .Nan, .Nan, .Nan, .Nan, .Nan, .Nan, .Nan, .Nan,
          .Nan, .Nan, .Nan, .Nan, .Nan, .Nan, .Nan, .Nan, .Nan, .Nan,
          .Nan, .Nan, .Nan, .Nan, .Nan, .Nan, .Nan, .Nan, .Nan, .Nan,
          .Nan, .Nan, .Nan, .Nan, .Nan, .Nan, .Nan, .Nan, .Nan, .Nan,
          .Nan, .Nan, .Nan, .Nan, .Nan, .Nan, .Nan, .Nan, .Nan, .Nan,
          .Nan, .Nan, .Nan, .Nan, .Nan, .Nan, .Nan, .Nan, .Nan, .Nan,
          .Nan, .Nan, .Nan, .Nan, .Nan, .Nan, .Nan, .Nan, .Nan, .Nan,
          .Nan, .Nan, .Nan, .Nan, .Nan, .Nan, .Nan, .Nan, .Nan, .Nan,
          .Nan, .Nan, .Nan, .Nan, .Nan, .Nan, .Nan, .Nan, .Nan, .Nan,
          .Nan, .Nan, .Nan, .Nan, .Nan, .Nan, .Nan, .Nan, .Nan, .Nan,
          .Nan, .Nan, .Nan, .Nan, .Nan, .Nan, .Nan, .Nan, .Nan, .Nan,
          .Nan, .Nan, .Nan, .Nan, .Nan, .Nan, .Nan, .Nan, .Nan, .Nan,
          .Nan, .Nan, .Nan, .Nan, .Nan, .Nan, .Nan, .Nan, .Nan, .Nan,
          .Nan, .Nan, .Nan, .Nan, .Nan, .Nan, .Nan, .Nan, .Nan, .Nan,
          .Nan, .Nan, .Nan, .Nan, .Nan, .Nan, .Nan, .Nan, .Nan, .Nan,
          .Nan, .Nan, .Nan, .Nan, .Nan, .Nan, .Nan, .Nan, .Nan, .Nan,
          .Nan, .Nan, .Nan, .Nan, .Nan, .Nan, .Nan, .Nan, .Nan, .Nan,
          .Nan, .Nan, .Nan, .Nan, .Nan, .Nan, .Nan, .Nan, .Nan, .Nan,
          .Nan, .Nan, .Nan, .Nan, .Nan, .Nan, .Nan, .Nan, .Nan, .Nan,
          .Nan, .Nan, .Nan, .Nan, .Nan, .Nan, .Nan, .Nan, .Nan, .Nan ]
      - [ .Nan, .Nan, .Nan, .Nan, .Nan, .Nan, .Nan, .Nan, .Nan, .Nan,
          .Nan, .Nan, .Nan, .Nan, .Nan, .Nan, .Nan, .Nan, .Nan, .Nan,
          .Nan, .Nan, .Nan, .Nan, .Nan, .Nan, .Nan, .Nan, .Nan, .Nan,
          .Nan, .Nan, .Nan, .Nan, .Nan, .Nan, .Nan, .Nan, .Nan, .Nan,
          .Nan, .Nan, .Nan, .Nan, .Nan, .Nan, .Nan, .Nan, .Nan, .Nan,
          .Nan, .Nan, .Nan, .Nan, .Nan, .Nan, .Nan, .Nan, .Nan, .Nan,
          .Nan, .Nan, .Nan, .Nan, .Nan, .Nan, .Nan, .Nan, .Nan, .Nan,
          .Nan, .Nan, .Nan, .Nan, .Nan, .Nan, .Nan, .Nan, .Nan, .Nan,
          .Nan, .Nan, .Nan, .Nan, .Nan, .Nan, .Nan, .Nan, .Nan, .Nan,
          .Nan, .Nan, .Nan, .Nan, .Nan, .Nan, .Nan, .Nan, .Nan, .Nan,
          .Nan, .Nan, .Nan, .Nan, .Nan, .Nan, .Nan, .Nan, .Nan, .Nan,
          .Nan, .Nan, .Nan, .Nan, .Nan, .Nan, .Nan, .Nan, .Nan, .Nan,
          .Nan, .Nan, .Nan, .Nan, .Nan, .Nan, .Nan, .Nan, .Nan, .Nan,
          .Nan, .Nan, .Nan, .Nan, .Nan, .Nan, .Nan, .Nan, .Nan, .Nan,
          .Nan, .Nan, .Nan, .Nan, .Nan, .Nan, .Nan, .Nan, .Nan, .Nan,
          .Nan, .Nan, .Nan, .Nan, .Nan, .Nan, .Nan, .Nan, .Nan, .Nan,
          .Nan, .Nan, .Nan, .Nan, .Nan, .Nan, .Nan, .Nan, .Nan, .Nan,
          .Nan, .Nan, .Nan, .Nan, .Nan, .Nan, .Nan, .Nan, .Nan, .Nan,
          .Nan, .Nan, .Nan, .Nan, .Nan, .Nan, .Nan, .Nan, .Nan, .Nan,
          .Nan, .Nan, .Nan, .Nan, .Nan, .Nan, .Nan, .Nan, .Nan, .Nan,
          .Nan, .Nan, .Nan, .Nan, .Nan, .Nan, .Nan, .Nan, .Nan, .Nan,
          .Nan, .Nan, .Nan, .Nan, .Nan, .Nan, .Nan, .Nan, .Nan, .Nan,
          .Nan, .Nan, .Nan, .Nan, .Nan, .Nan, .Nan, .Nan, .Nan, .Nan,
          .Nan, .Nan, .Nan, .Nan, .Nan, .Nan, .Nan, .Nan, .Nan, .Nan ]
      - [ .Nan, .Nan, .Nan, .Nan, .Nan, .Nan, .Nan, .Nan, .Nan, .Nan,
          .Nan, .Nan, .Nan, .Nan, .Nan, .Nan, .Nan, .Nan, .Nan, .Nan,
          .Nan, .Nan, .Nan, .Nan, .Nan, .Nan, .Nan, .Nan, .Nan, .Nan,
          .Nan, .Nan, .Nan, .Nan, .Nan, .Nan, .Nan, .Nan, .Nan, .Nan,
          .Nan, .Nan, .Nan, .Nan, .Nan, .Nan, .Nan, .Nan, .Nan, .Nan,
          .Nan, .Nan, .Nan, .Nan, .Nan, .Nan, .Nan, .Nan, .Nan, .Nan,
          .Nan, .Nan, .Nan, .Nan, .Nan, .Nan, .Nan, .Nan, .Nan, .Nan,
          .Nan, .Nan, .Nan, .Nan, .Nan, .Nan, .Nan, .Nan, .Nan, .Nan,
          .Nan, .Nan, .Nan, .Nan, .Nan, .Nan, .Nan, .Nan, .Nan, .Nan,
          .Nan, .Nan, .Nan, .Nan, .Nan, .Nan, .Nan, .Nan, .Nan, .Nan,
          .Nan, .Nan, .Nan, .Nan, .Nan, .Nan, .Nan, .Nan, .Nan, .Nan,
          .Nan, .Nan, .Nan, .Nan, .Nan, .Nan, .Nan, .Nan, .Nan, .Nan,
          .Nan, .Nan, .Nan, .Nan, .Nan, .Nan, .Nan, .Nan, .Nan, .Nan,
          .Nan, .Nan, .Nan, .Nan, .Nan, .Nan, .Nan, .Nan, .Nan, .Nan,
          .Nan, .Nan, .Nan, .Nan, .Nan, .Nan, .Nan, .Nan, .Nan, .Nan,
          .Nan, .Nan, .Nan, .Nan, .Nan, .Nan, .Nan, .Nan, .Nan, .Nan,
          .Nan, .Nan, .Nan, .Nan, .Nan, .Nan, .Nan, .Nan, .Nan, .Nan,
          .Nan, .Nan, .Nan, .Nan, .Nan, .Nan, .Nan, .Nan, .Nan, .Nan,
          .Nan, .Nan, .Nan, .Nan, .Nan, .Nan, .Nan, .Nan, .Nan, .Nan,
          .Nan, .Nan, .Nan, .Nan, .Nan, .Nan, .Nan, .Nan, .Nan, .Nan,
          .Nan, .Nan, .Nan, .Nan, .Nan, .Nan, .Nan, .Nan, .Nan, .Nan,
          .Nan, .Nan, .Nan, .Nan, .Nan, .Nan, .Nan, .Nan, .Nan, .Nan,
          .Nan, .Nan, .Nan, .Nan, .Nan, .Nan, .Nan, .Nan, .Nan, .Nan,
          .Nan, .Nan, .Nan, .Nan, .Nan, .Nan, .Nan, .Nan, .Nan, .Nan ]
      - [ .Nan, .Nan, .Nan, .Nan, .Nan, .Nan, .Nan, .Nan, .Nan, .Nan,
          .Nan, .Nan, .Nan, .Nan, .Nan, .Nan, .Nan, .Nan, .Nan, .Nan,
          .Nan, .Nan, .Nan, .Nan, .Nan, .Nan, .Nan, .Nan, .Nan, .Nan,
          .Nan, .Nan, .Nan, .Nan, .Nan, .Nan, .Nan, .Nan, .Nan, .Nan,
          .Nan, .Nan, .Nan, .Nan, .Nan, .Nan, .Nan, .Nan, .Nan, .Nan,
          .Nan, .Nan, .Nan, .Nan, .Nan, .Nan, .Nan, .Nan, .Nan, .Nan,
          .Nan, .Nan, .Nan, .Nan, .Nan, .Nan, .Nan, .Nan, .Nan, .Nan,
          .Nan, .Nan, .Nan, .Nan, .Nan, .Nan, .Nan, .Nan, .Nan, .Nan,
          .Nan, .Nan, .Nan, .Nan, .Nan, .Nan, .Nan, .Nan, .Nan, .Nan,
          .Nan, .Nan, .Nan, .Nan, .Nan, .Nan, .Nan, .Nan, .Nan, .Nan,
          .Nan, .Nan, .Nan, .Nan, .Nan, .Nan, .Nan, .Nan, .Nan, .Nan,
          .Nan, .Nan, .Nan, .Nan, .Nan, .Nan, .Nan, .Nan, .Nan, .Nan,
          .Nan, .Nan, .Nan, .Nan, .Nan, .Nan, .Nan, .Nan, .Nan, .Nan,
          .Nan, .Nan, .Nan, .Nan, .Nan, .Nan, .Nan, .Nan, .Nan, .Nan,
          .Nan, .Nan, .Nan, .Nan, .Nan, .Nan, .Nan, .Nan, .Nan, .Nan,
          .Nan, .Nan, .Nan, .Nan, .Nan, .Nan, .Nan, .Nan, .Nan, .Nan,
          .Nan, .Nan, .Nan, .Nan, .Nan, .Nan, .Nan, .Nan, .Nan, .Nan,
          .Nan, .Nan, .Nan, .Nan, .Nan, .Nan, .Nan, .Nan, .Nan, .Nan,
          .Nan, .Nan, .Nan, .Nan, .Nan, .Nan, .Nan, .Nan, .Nan, .Nan,
          .Nan, .Nan, .Nan, .Nan, .Nan, .Nan, .Nan, .Nan, .Nan, .Nan,
          .Nan, .Nan, .Nan, .Nan, .Nan, .Nan, .Nan, .Nan, .Nan, .Nan,
          .Nan, .Nan, .Nan, .Nan, .Nan, .Nan, .Nan, .Nan, .Nan, .Nan,
          .Nan, .Nan, .Nan, .Nan, .Nan, .Nan, .Nan, .Nan, .Nan, .Nan,
          .Nan, .Nan, .Nan, .Nan, .Nan, .Nan, .Nan, .Nan, .Nan, .Nan ]
      - [ .Nan, .Nan, .Nan, .Nan, .Nan, .Nan, .Nan, .Nan, .Nan, .Nan,
          .Nan, .Nan, .Nan, .Nan, .Nan, .Nan, .Nan, .Nan, .Nan, .Nan,
          .Nan, .Nan, .Nan, .Nan, .Nan, .Nan, .Nan, .Nan, .Nan, .Nan,
          .Nan, .Nan, .Nan, .Nan, .Nan, .Nan, .Nan, .Nan, .Nan, .Nan,
          .Nan, .Nan, .Nan, .Nan, .Nan, .Nan, .Nan, .Nan, .Nan, .Nan,
          .Nan, .Nan, .Nan, .Nan, .Nan, .Nan, .Nan, .Nan, .Nan, .Nan,
          .Nan, .Nan, .Nan, .Nan, .Nan, .Nan, .Nan, .Nan, .Nan, .Nan,
          .Nan, .Nan, .Nan, .Nan, .Nan, .Nan, .Nan, .Nan, .Nan, .Nan,
          .Nan, .Nan, .Nan, .Nan, .Nan, .Nan, .Nan, .Nan, .Nan, .Nan,
          .Nan, .Nan, .Nan, .Nan, .Nan, .Nan, .Nan, .Nan, .Nan, .Nan,
          .Nan, .Nan, .Nan, .Nan, .Nan, .Nan, .Nan, .Nan, .Nan, .Nan,
          .Nan, .Nan, .Nan, .Nan, .Nan, .Nan, .Nan, .Nan, .Nan, .Nan,
          .Nan, .Nan, .Nan, .Nan, .Nan, .Nan, .Nan, .Nan, .Nan, .Nan,
          .Nan, .Nan, .Nan, .Nan, .Nan, .Nan, .Nan, .Nan, .Nan, .Nan,
          .Nan, .Nan, .Nan, .Nan, .Nan, .Nan, .Nan, .Nan, .Nan, .Nan,
          .Nan, .Nan, .Nan, .Nan, .Nan, .Nan, .Nan, .Nan, .Nan, .Nan,
          .Nan, .Nan, .Nan, .Nan, .Nan, .Nan, .Nan, .Nan, .Nan, .Nan,
          .Nan, .Nan, .Nan, .Nan, .Nan, .Nan, .Nan, .Nan, .Nan, .Nan,
          .Nan, .Nan, .Nan, .Nan, .Nan, .Nan, .Nan, .Nan, .Nan, .Nan,
          .Nan, .Nan, .Nan, .Nan, .Nan, .Nan, .Nan, .Nan, .Nan, .Nan,
          .Nan, .Nan, .Nan, .Nan, .Nan, .Nan, .Nan, .Nan, .Nan, .Nan,
          .Nan, .Nan, .Nan, .Nan, .Nan, .Nan, .Nan, .Nan, .Nan, .Nan,
          .Nan, .Nan, .Nan, .Nan, .Nan, .Nan, .Nan, .Nan, .Nan, .Nan,
          .Nan, .Nan, .Nan, .Nan, .Nan, .Nan, .Nan, .Nan, .Nan, .Nan ]
      - [ .Nan, .Nan, .Nan, .Nan, .Nan, .Nan, .Nan, .Nan, .Nan, .Nan,
          .Nan, .Nan, .Nan, .Nan, .Nan, .Nan, .Nan, .Nan, .Nan, .Nan,
          .Nan, .Nan, .Nan, .Nan, .Nan, .Nan, .Nan, .Nan, .Nan, .Nan,
          .Nan, .Nan, .Nan, .Nan, .Nan, .Nan, .Nan, .Nan, .Nan, .Nan,
          .Nan, .Nan, .Nan, .Nan, .Nan, .Nan, .Nan, .Nan, .Nan, .Nan,
          .Nan, .Nan, .Nan, .Nan, .Nan, .Nan, .Nan, .Nan, .Nan, .Nan,
          .Nan, .Nan, .Nan, .Nan, .Nan, .Nan, .Nan, .Nan, .Nan, .Nan,
          .Nan, .Nan, .Nan, .Nan, .Nan, .Nan, .Nan, .Nan, .Nan, .Nan,
          .Nan, .Nan, .Nan, .Nan, .Nan, .Nan, .Nan, .Nan, .Nan, .Nan,
          .Nan, .Nan, .Nan, .Nan, .Nan, .Nan, .Nan, .Nan, .Nan, .Nan,
          .Nan, .Nan, .Nan, .Nan, .Nan, .Nan, .Nan, .Nan, .Nan, .Nan,
          .Nan, .Nan, .Nan, .Nan, .Nan, .Nan, .Nan, .Nan, .Nan, .Nan,
          .Nan, .Nan, .Nan, .Nan, .Nan, .Nan, .Nan, .Nan, .Nan, .Nan,
          .Nan, .Nan, .Nan, .Nan, .Nan, .Nan, .Nan, .Nan, .Nan, .Nan,
          .Nan, .Nan, .Nan, .Nan, .Nan, .Nan, .Nan, .Nan, .Nan, .Nan,
          .Nan, .Nan, .Nan, .Nan, .Nan, .Nan, .Nan, .Nan, .Nan, .Nan,
          .Nan, .Nan, .Nan, .Nan, .Nan, .Nan, .Nan, .Nan, .Nan, .Nan,
          .Nan, .Nan, .Nan, .Nan, .Nan, .Nan, .Nan, .Nan, .Nan, .Nan,
          .Nan, .Nan, .Nan, .Nan, .Nan, .Nan, .Nan, .Nan, .Nan, .Nan,
          .Nan, .Nan, .Nan, .Nan, .Nan, .Nan, .Nan, .Nan, .Nan, .Nan,
          .Nan, .Nan, .Nan, .Nan, .Nan, .Nan, .Nan, .Nan, .Nan, .Nan,
          .Nan, .Nan, .Nan, .Nan, .Nan, .Nan, .Nan, .Nan, .Nan, .Nan,
          .Nan, .Nan, .Nan, .Nan, .Nan, .Nan, .Nan, .Nan, .Nan, .Nan,
          .Nan, .Nan, .Nan, .Nan, .Nan, .Nan, .Nan, .Nan, .Nan, .Nan ]
      - [ .Nan, .Nan, .Nan, .Nan, .Nan, .Nan, .Nan, .Nan, .Nan, .Nan,
          .Nan, .Nan, .Nan, .Nan, .Nan, .Nan, .Nan, .Nan, .Nan, .Nan,
          .Nan, .Nan, .Nan, .Nan, .Nan, .Nan, .Nan, .Nan, .Nan, .Nan,
          .Nan, .Nan, .Nan, .Nan, .Nan, .Nan, .Nan, .Nan, .Nan, .Nan,
          .Nan, .Nan, .Nan, .Nan, .Nan, .Nan, .Nan, .Nan, .Nan, .Nan,
          .Nan, .Nan, .Nan, .Nan, .Nan, .Nan, .Nan, .Nan, .Nan, .Nan,
          .Nan, .Nan, .Nan, .Nan, .Nan, .Nan, .Nan, .Nan, .Nan, .Nan,
          .Nan, .Nan, .Nan, .Nan, .Nan, .Nan, .Nan, .Nan, .Nan, .Nan,
          .Nan, .Nan, .Nan, .Nan, .Nan, .Nan, .Nan, .Nan, .Nan, .Nan,
          .Nan, .Nan, .Nan, .Nan, .Nan, .Nan, .Nan, .Nan, .Nan, .Nan,
          .Nan, .Nan, .Nan, .Nan, .Nan, .Nan, .Nan, .Nan, .Nan, .Nan,
          .Nan, .Nan, .Nan, .Nan, .Nan, .Nan, .Nan, .Nan, .Nan, .Nan,
          .Nan, .Nan, .Nan, .Nan, .Nan, .Nan, .Nan, .Nan, .Nan, .Nan,
          .Nan, .Nan, .Nan, .Nan, .Nan, .Nan, .Nan, .Nan, .Nan, .Nan,
          .Nan, .Nan, .Nan, .Nan, .Nan, .Nan, .Nan, .Nan, .Nan, .Nan,
          .Nan, .Nan, .Nan, .Nan, .Nan, .Nan, .Nan, .Nan, .Nan, .Nan,
          .Nan, .Nan, .Nan, .Nan, .Nan, .Nan, .Nan, .Nan, .Nan, .Nan,
          .Nan, .Nan, .Nan, .Nan, .Nan, .Nan, .Nan, .Nan, .Nan, .Nan,
          .Nan, .Nan, .Nan, .Nan, .Nan, .Nan, .Nan, .Nan, .Nan, .Nan,
          .Nan, .Nan, .Nan, .Nan, .Nan, .Nan, .Nan, .Nan, .Nan, .Nan,
          .Nan, .Nan, .Nan, .Nan, .Nan, .Nan, .Nan, .Nan, .Nan, .Nan,
          .Nan, .Nan, .Nan, .Nan, .Nan, .Nan, .Nan, .Nan, .Nan, .Nan,
          .Nan, .Nan, .Nan, .Nan, .Nan, .Nan, .Nan, .Nan, .Nan, .Nan,
          .Nan, .Nan, .Nan, .Nan, .Nan, .Nan, .Nan, .Nan, .Nan, .Nan ]
      - [ .Nan, .Nan, .Nan, .Nan, .Nan, .Nan, .Nan, .Nan, .Nan, .Nan,
          .Nan, .Nan, .Nan, .Nan, .Nan, .Nan, .Nan, .Nan, .Nan, .Nan,
          .Nan, .Nan, .Nan, .Nan, .Nan, .Nan, .Nan, .Nan, .Nan, .Nan,
          .Nan, .Nan, .Nan, .Nan, .Nan, .Nan, .Nan, .Nan, .Nan, .Nan,
          .Nan, .Nan, .Nan, .Nan, .Nan, .Nan, .Nan, .Nan, .Nan, .Nan,
          .Nan, .Nan, .Nan, .Nan, .Nan, .Nan, .Nan, .Nan, .Nan, .Nan,
          .Nan, .Nan, .Nan, .Nan, .Nan, .Nan, .Nan, .Nan, .Nan, .Nan,
          .Nan, .Nan, .Nan, .Nan, .Nan, .Nan, .Nan, .Nan, .Nan, .Nan,
          .Nan, .Nan, .Nan, .Nan, .Nan, .Nan, .Nan, .Nan, .Nan, .Nan,
          .Nan, .Nan, .Nan, .Nan, .Nan, .Nan, .Nan, .Nan, .Nan, .Nan,
          .Nan, .Nan, .Nan, .Nan, .Nan, .Nan, .Nan, .Nan, .Nan, .Nan,
          .Nan, .Nan, .Nan, .Nan, .Nan, .Nan, .Nan, .Nan, .Nan, .Nan,
          .Nan, .Nan, .Nan, .Nan, .Nan, .Nan, .Nan, .Nan, .Nan, .Nan,
          .Nan, .Nan, .Nan, .Nan, .Nan, .Nan, .Nan, .Nan, .Nan, .Nan,
          .Nan, .Nan, .Nan, .Nan, .Nan, .Nan, .Nan, .Nan, .Nan, .Nan,
          .Nan, .Nan, .Nan, .Nan, .Nan, .Nan, .Nan, .Nan, .Nan, .Nan,
          .Nan, .Nan, .Nan, .Nan, .Nan, .Nan, .Nan, .Nan, .Nan, .Nan,
          .Nan, .Nan, .Nan, .Nan, .Nan, .Nan, .Nan, .Nan, .Nan, .Nan,
          .Nan, .Nan, .Nan, .Nan, .Nan, .Nan, .Nan, .Nan, .Nan, .Nan,
          .Nan, .Nan, .Nan, .Nan, .Nan, .Nan, .Nan, .Nan, .Nan, .Nan,
          .Nan, .Nan, .Nan, .Nan, .Nan, .Nan, .Nan, .Nan, .Nan, .Nan,
          .Nan, .Nan, .Nan, .Nan, .Nan, .Nan, .Nan, .Nan, .Nan, .Nan,
          .Nan, .Nan, .Nan, .Nan, .Nan, .Nan, .Nan, .Nan, .Nan, .Nan,
          .Nan, .Nan, .Nan, .Nan, .Nan, .Nan, .Nan, .Nan, .Nan, .Nan ]
      - [ .Nan, .Nan, .Nan, .Nan, .Nan, .Nan, .Nan, .Nan, .Nan, .Nan,
          .Nan, .Nan, .Nan, .Nan, .Nan, .Nan, .Nan, .Nan, .Nan, .Nan,
          .Nan, .Nan, .Nan, .Nan, .Nan, .Nan, .Nan, .Nan, .Nan, .Nan,
          .Nan, .Nan, .Nan, .Nan, .Nan, .Nan, .Nan, .Nan, .Nan, .Nan,
          .Nan, .Nan, .Nan, .Nan, .Nan, .Nan, .Nan, .Nan, .Nan, .Nan,
          .Nan, .Nan, .Nan, .Nan, .Nan, .Nan, .Nan, .Nan, .Nan, .Nan,
          .Nan, .Nan, .Nan, .Nan, .Nan, .Nan, .Nan, .Nan, .Nan, .Nan,
          .Nan, .Nan, .Nan, .Nan, .Nan, .Nan, .Nan, .Nan, .Nan, .Nan,
          .Nan, .Nan, .Nan, .Nan, .Nan, .Nan, .Nan, .Nan, .Nan, .Nan,
          .Nan, .Nan, .Nan, .Nan, .Nan, .Nan, .Nan, .Nan, .Nan, .Nan,
          .Nan, .Nan, .Nan, .Nan, .Nan, .Nan, .Nan, .Nan, .Nan, .Nan,
          .Nan, .Nan, .Nan, .Nan, .Nan, .Nan, .Nan, .Nan, .Nan, .Nan,
          .Nan, .Nan, .Nan, .Nan, .Nan, .Nan, .Nan, .Nan, .Nan, .Nan,
          .Nan, .Nan, .Nan, .Nan, .Nan, .Nan, .Nan, .Nan, .Nan, .Nan,
          .Nan, .Nan, .Nan, .Nan, .Nan, .Nan, .Nan, .Nan, .Nan, .Nan,
          .Nan, .Nan, .Nan, .Nan, .Nan, .Nan, .Nan, .Nan, .Nan, .Nan,
          .Nan, .Nan, .Nan, .Nan, .Nan, .Nan, .Nan, .Nan, .Nan, .Nan,
          .Nan, .Nan, .Nan, .Nan, .Nan, .Nan, .Nan, .Nan, .Nan, .Nan,
          .Nan, .Nan, .Nan, .Nan, .Nan, .Nan, .Nan, .Nan, .Nan, .Nan,
          .Nan, .Nan, .Nan, .Nan, .Nan, .Nan, .Nan, .Nan, .Nan, .Nan,
          .Nan, .Nan, .Nan, .Nan, .Nan, .Nan, .Nan, .Nan, .Nan, .Nan,
          .Nan, .Nan, .Nan, .Nan, .Nan, .Nan, .Nan, .Nan, .Nan, .Nan,
          .Nan, .Nan, .Nan, .Nan, .Nan, .Nan, .Nan, .Nan, .Nan, .Nan,
          .Nan, .Nan, .Nan, .Nan, .Nan, .Nan, .Nan, .Nan, .Nan, .Nan ]
      - [ .Nan, .Nan, .Nan, .Nan, .Nan, .Nan, .Nan, .Nan, .Nan, .Nan,
          .Nan, .Nan, .Nan, .Nan, .Nan, .Nan, .Nan, .Nan, .Nan, .Nan,
          .Nan, .Nan, .Nan, .Nan, .Nan, .Nan, .Nan, .Nan, .Nan, .Nan,
          .Nan, .Nan, .Nan, .Nan, .Nan, .Nan, .Nan, .Nan, .Nan, .Nan,
          .Nan, .Nan, .Nan, .Nan, .Nan, .Nan, .Nan, .Nan, .Nan, .Nan,
          .Nan, .Nan, .Nan, .Nan, .Nan, .Nan, .Nan, .Nan, .Nan, .Nan,
          .Nan, .Nan, .Nan, .Nan, .Nan, .Nan, .Nan, .Nan, .Nan, .Nan,
          .Nan, .Nan, .Nan, .Nan, .Nan, .Nan, .Nan, .Nan, .Nan, .Nan,
          .Nan, .Nan, .Nan, .Nan, .Nan, .Nan, .Nan, .Nan, .Nan, .Nan,
          .Nan, .Nan, .Nan, .Nan, .Nan, .Nan, .Nan, .Nan, .Nan, .Nan,
          .Nan, .Nan, .Nan, .Nan, .Nan, .Nan, .Nan, .Nan, .Nan, .Nan,
          .Nan, .Nan, .Nan, .Nan, .Nan, .Nan, .Nan, .Nan, .Nan, .Nan,
          .Nan, .Nan, .Nan, .Nan, .Nan, .Nan, .Nan, .Nan, .Nan, .Nan,
          .Nan, .Nan, .Nan, .Nan, .Nan, .Nan, .Nan, .Nan, .Nan, .Nan,
          .Nan, .Nan, .Nan, .Nan, .Nan, .Nan, .Nan, .Nan, .Nan, .Nan,
          .Nan, .Nan, .Nan, .Nan, .Nan, .Nan, .Nan, .Nan, .Nan, .Nan,
          .Nan, .Nan, .Nan, .Nan, .Nan, .Nan, .Nan, .Nan, .Nan, .Nan,
          .Nan, .Nan, .Nan, .Nan, .Nan, .Nan, .Nan, .Nan, .Nan, .Nan,
          .Nan, .Nan, .Nan, .Nan, .Nan, .Nan, .Nan, .Nan, .Nan, .Nan,
          .Nan, .Nan, .Nan, .Nan, .Nan, .Nan, .Nan, .Nan, .Nan, .Nan,
          .Nan, .Nan, .Nan, .Nan, .Nan, .Nan, .Nan, .Nan, .Nan, .Nan,
          .Nan, .Nan, .Nan, .Nan, .Nan, .Nan, .Nan, .Nan, .Nan, .Nan,
          .Nan, .Nan, .Nan, .Nan, .Nan, .Nan, .Nan, .Nan, .Nan, .Nan,
          .Nan, .Nan, .Nan, .Nan, .Nan, .Nan, .Nan, .Nan, .Nan, .Nan ]
      - [ .Nan, .Nan, .Nan, .Nan, .Nan, .Nan, .Nan, .Nan, .Nan, .Nan,
          .Nan, .Nan, .Nan, .Nan, .Nan, .Nan, .Nan, .Nan, .Nan, .Nan,
          .Nan, .Nan, .Nan, .Nan, .Nan, .Nan, .Nan, .Nan, .Nan, .Nan,
          .Nan, .Nan, .Nan, .Nan, .Nan, .Nan, .Nan, .Nan, .Nan, .Nan,
          .Nan, .Nan, .Nan, .Nan, .Nan, .Nan, .Nan, .Nan, .Nan, .Nan,
          .Nan, .Nan, .Nan, .Nan, .Nan, .Nan, .Nan, .Nan, .Nan, .Nan,
          .Nan, .Nan, .Nan, .Nan, .Nan, .Nan, .Nan, .Nan, .Nan, .Nan,
          .Nan, .Nan, .Nan, .Nan, .Nan, .Nan, .Nan, .Nan, .Nan, .Nan,
          .Nan, .Nan, .Nan, .Nan, .Nan, .Nan, .Nan, .Nan, .Nan, .Nan,
          .Nan, .Nan, .Nan, .Nan, .Nan, .Nan, .Nan, .Nan, .Nan, .Nan,
          .Nan, .Nan, .Nan, .Nan, .Nan, .Nan, .Nan, .Nan, .Nan, .Nan,
          .Nan, .Nan, .Nan, .Nan, .Nan, .Nan, .Nan, .Nan, .Nan, .Nan,
          .Nan, .Nan, .Nan, .Nan, .Nan, .Nan, .Nan, .Nan, .Nan, .Nan,
          .Nan, .Nan, .Nan, .Nan, .Nan, .Nan, .Nan, .Nan, .Nan, .Nan,
          .Nan, .Nan, .Nan, .Nan, .Nan, .Nan, .Nan, .Nan, .Nan, .Nan,
          .Nan, .Nan, .Nan, .Nan, .Nan, .Nan, .Nan, .Nan, .Nan, .Nan,
          .Nan, .Nan, .Nan, .Nan, .Nan, .Nan, .Nan, .Nan, .Nan, .Nan,
          .Nan, .Nan, .Nan, .Nan, .Nan, .Nan, .Nan, .Nan, .Nan, .Nan,
          .Nan, .Nan, .Nan, .Nan, .Nan, .Nan, .Nan, .Nan, .Nan, .Nan,
          .Nan, .Nan, .Nan, .Nan, .Nan, .Nan, .Nan, .Nan, .Nan, .Nan,
          .Nan, .Nan, .Nan, .Nan, .Nan, .Nan, .Nan, .Nan, .Nan, .Nan,
          .Nan, .Nan, .Nan, .Nan, .Nan, .Nan, .Nan, .Nan, .Nan, .Nan,
          .Nan, .Nan, .Nan, .Nan, .Nan, .Nan, .Nan, .Nan, .Nan, .Nan,
          .Nan, .Nan, .Nan, .Nan, .Nan, .Nan, .Nan, .Nan, .Nan, .Nan ]
      - [ .Nan, .Nan, .Nan, .Nan, .Nan, .Nan, .Nan, .Nan, .Nan, .Nan,
          .Nan, .Nan, .Nan, .Nan, .Nan, .Nan, .Nan, .Nan, .Nan, .Nan,
          .Nan, .Nan, .Nan, .Nan, .Nan, .Nan, .Nan, .Nan, .Nan, .Nan,
          .Nan, .Nan, .Nan, .Nan, .Nan, .Nan, .Nan, .Nan, .Nan, .Nan,
          .Nan, .Nan, .Nan, .Nan, .Nan, .Nan, .Nan, .Nan, .Nan, .Nan,
          .Nan, .Nan, .Nan, .Nan, .Nan, .Nan, .Nan, .Nan, .Nan, .Nan,
          .Nan, .Nan, .Nan, .Nan, .Nan, .Nan, .Nan, .Nan, .Nan, .Nan,
          .Nan, .Nan, .Nan, .Nan, .Nan, .Nan, .Nan, .Nan, .Nan, .Nan,
          .Nan, .Nan, .Nan, .Nan, .Nan, .Nan, .Nan, .Nan, .Nan, .Nan,
          .Nan, .Nan, .Nan, .Nan, .Nan, .Nan, .Nan, .Nan, .Nan, .Nan,
          .Nan, .Nan, .Nan, .Nan, .Nan, .Nan, .Nan, .Nan, .Nan, .Nan,
          .Nan, .Nan, .Nan, .Nan, .Nan, .Nan, .Nan, .Nan, .Nan, .Nan,
          .Nan, .Nan, .Nan, .Nan, .Nan, .Nan, .Nan, .Nan, .Nan, .Nan,
          .Nan, .Nan, .Nan, .Nan, .Nan, .Nan, .Nan, .Nan, .Nan, .Nan,
          .Nan, .Nan, .Nan, .Nan, .Nan, .Nan, .Nan, .Nan, .Nan, .Nan,
          .Nan, .Nan, .Nan, .Nan, .Nan, .Nan, .Nan, .Nan, .Nan, .Nan,
          .Nan, .Nan, .Nan, .Nan, .Nan, .Nan, .Nan, .Nan, .Nan, .Nan,
          .Nan, .Nan, .Nan, .Nan, .Nan, .Nan, .Nan, .Nan, .Nan, .Nan,
          .Nan, .Nan, .Nan, .Nan, .Nan, .Nan, .Nan, .Nan, .Nan, .Nan,
          .Nan, .Nan, .Nan, .Nan, .Nan, .Nan, .Nan, .Nan, .Nan, .Nan,
          .Nan, .Nan, .Nan, .Nan, .Nan, .Nan, .Nan, .Nan, .Nan, .Nan,
          .Nan, .Nan, .Nan, .Nan, .Nan, .Nan, .Nan, .Nan, .Nan, .Nan,
          .Nan, .Nan, .Nan, .Nan, .Nan, .Nan, .Nan, .Nan, .Nan, .Nan,
          .Nan, .Nan, .Nan, .Nan, .Nan, .Nan, .Nan, .Nan, .Nan, .Nan ]
      - [ .Nan, .Nan, .Nan, .Nan, .Nan, .Nan, .Nan, .Nan, .Nan, .Nan,
          .Nan, .Nan, .Nan, .Nan, .Nan, .Nan, .Nan, .Nan, .Nan, .Nan,
          .Nan, .Nan, .Nan, .Nan, .Nan, .Nan, .Nan, .Nan, .Nan, .Nan,
          .Nan, .Nan, .Nan, .Nan, .Nan, .Nan, .Nan, .Nan, .Nan, .Nan,
          .Nan, .Nan, .Nan, .Nan, .Nan, .Nan, .Nan, .Nan, .Nan, .Nan,
          .Nan, .Nan, .Nan, .Nan, .Nan, .Nan, .Nan, .Nan, .Nan, .Nan,
          .Nan, .Nan, .Nan, .Nan, .Nan, .Nan, .Nan, .Nan, .Nan, .Nan,
          .Nan, .Nan, .Nan, .Nan, .Nan, .Nan, .Nan, .Nan, .Nan, .Nan,
          .Nan, .Nan, .Nan, .Nan, .Nan, .Nan, .Nan, .Nan, .Nan, .Nan,
          .Nan, .Nan, .Nan, .Nan, .Nan, .Nan, .Nan, .Nan, .Nan, .Nan,
          .Nan, .Nan, .Nan, .Nan, .Nan, .Nan, .Nan, .Nan, .Nan, .Nan,
          .Nan, .Nan, .Nan, .Nan, .Nan, .Nan, .Nan, .Nan, .Nan, .Nan,
          .Nan, .Nan, .Nan, .Nan, .Nan, .Nan, .Nan, .Nan, .Nan, .Nan,
          .Nan, .Nan, .Nan, .Nan, .Nan, .Nan, .Nan, .Nan, .Nan, .Nan,
          .Nan, .Nan, .Nan, .Nan, .Nan, .Nan, .Nan, .Nan, .Nan, .Nan,
          .Nan, .Nan, .Nan, .Nan, .Nan, .Nan, .Nan, .Nan, .Nan, .Nan,
          .Nan, .Nan, .Nan, .Nan, .Nan, .Nan, .Nan, .Nan, .Nan, .Nan,
          .Nan, .Nan, .Nan, .Nan, .Nan, .Nan, .Nan, .Nan, .Nan, .Nan,
          .Nan, .Nan, .Nan, .Nan, .Nan, .Nan, .Nan, .Nan, .Nan, .Nan,
          .Nan, .Nan, .Nan, .Nan, .Nan, .Nan, .Nan, .Nan, .Nan, .Nan,
          .Nan, .Nan, .Nan, .Nan, .Nan, .Nan, .Nan, .Nan, .Nan, .Nan,
          .Nan, .Nan, .Nan, .Nan, .Nan, .Nan, .Nan, .Nan, .Nan, .Nan,
          .Nan, .Nan, .Nan, .Nan, .Nan, .Nan, .Nan, .Nan, .Nan, .Nan,
          .Nan, .Nan, .Nan, .Nan, .Nan, .Nan, .Nan, .Nan, .Nan, .Nan ]
      - [ .Nan, .Nan, .Nan, .Nan, .Nan, .Nan, .Nan, .Nan, .Nan, .Nan,
          .Nan, .Nan, .Nan, .Nan, .Nan, .Nan, .Nan, .Nan, .Nan, .Nan,
          .Nan, .Nan, .Nan, .Nan, .Nan, .Nan, .Nan, .Nan, .Nan, .Nan,
          .Nan, .Nan, .Nan, .Nan, .Nan, .Nan, .Nan, .Nan, .Nan, .Nan,
          .Nan, .Nan, .Nan, .Nan, .Nan, .Nan, .Nan, .Nan, .Nan, .Nan,
          .Nan, .Nan, .Nan, .Nan, .Nan, .Nan, .Nan, .Nan, .Nan, .Nan,
          .Nan, .Nan, .Nan, .Nan, .Nan, .Nan, .Nan, .Nan, .Nan, .Nan,
          .Nan, .Nan, .Nan, .Nan, .Nan, .Nan, .Nan, .Nan, .Nan, .Nan,
          .Nan, .Nan, .Nan, .Nan, .Nan, .Nan, .Nan, .Nan, .Nan, .Nan,
          .Nan, .Nan, .Nan, .Nan, .Nan, .Nan, .Nan, .Nan, .Nan, .Nan,
          .Nan, .Nan, .Nan, .Nan, .Nan, .Nan, .Nan, .Nan, .Nan, .Nan,
          .Nan, .Nan, .Nan, .Nan, .Nan, .Nan, .Nan, .Nan, .Nan, .Nan,
          .Nan, .Nan, .Nan, .Nan, .Nan, .Nan, .Nan, .Nan, .Nan, .Nan,
          .Nan, .Nan, .Nan, .Nan, .Nan, .Nan, .Nan, .Nan, .Nan, .Nan,
          .Nan, .Nan, .Nan, .Nan, .Nan, .Nan, .Nan, .Nan, .Nan, .Nan,
          .Nan, .Nan, .Nan, .Nan, .Nan, .Nan, .Nan, .Nan, .Nan, .Nan,
          .Nan, .Nan, .Nan, .Nan, .Nan, .Nan, .Nan, .Nan, .Nan, .Nan,
          .Nan, .Nan, .Nan, .Nan, .Nan, .Nan, .Nan, .Nan, .Nan, .Nan,
          .Nan, .Nan, .Nan, .Nan, .Nan, .Nan, .Nan, .Nan, .Nan, .Nan,
          .Nan, .Nan, .Nan, .Nan, .Nan, .Nan, .Nan, .Nan, .Nan, .Nan,
          .Nan, .Nan, .Nan, .Nan, .Nan, .Nan, .Nan, .Nan, .Nan, .Nan,
          .Nan, .Nan, .Nan, .Nan, .Nan, .Nan, .Nan, .Nan, .Nan, .Nan,
          .Nan, .Nan, .Nan, .Nan, .Nan, .Nan, .Nan, .Nan, .Nan, .Nan,
          .Nan, .Nan, .Nan, .Nan, .Nan, .Nan, .Nan, .Nan, .Nan, .Nan ]
      - [ .Nan, .Nan, .Nan, .Nan, .Nan, .Nan, .Nan, .Nan, .Nan, .Nan,
          .Nan, .Nan, .Nan, .Nan, .Nan, .Nan, .Nan, .Nan, .Nan, .Nan,
          .Nan, .Nan, .Nan, .Nan, .Nan, .Nan, .Nan, .Nan, .Nan, .Nan,
          .Nan, .Nan, .Nan, .Nan, .Nan, .Nan, .Nan, .Nan, .Nan, .Nan,
          .Nan, .Nan, .Nan, .Nan, .Nan, .Nan, .Nan, .Nan, .Nan, .Nan,
          .Nan, .Nan, .Nan, .Nan, .Nan, .Nan, .Nan, .Nan, .Nan, .Nan,
          .Nan, .Nan, .Nan, .Nan, .Nan, .Nan, .Nan, .Nan, .Nan, .Nan,
          .Nan, .Nan, .Nan, .Nan, .Nan, .Nan, .Nan, .Nan, .Nan, .Nan,
          .Nan, .Nan, .Nan, .Nan, .Nan, .Nan, .Nan, .Nan, .Nan, .Nan,
          .Nan, .Nan, .Nan, .Nan, .Nan, .Nan, .Nan, .Nan, .Nan, .Nan,
          .Nan, .Nan, .Nan, .Nan, .Nan, .Nan, .Nan, .Nan, .Nan, .Nan,
          .Nan, .Nan, .Nan, .Nan, .Nan, .Nan, .Nan, .Nan, .Nan, .Nan,
          .Nan, .Nan, .Nan, .Nan, .Nan, .Nan, .Nan, .Nan, .Nan, .Nan,
          .Nan, .Nan, .Nan, .Nan, .Nan, .Nan, .Nan, .Nan, .Nan, .Nan,
          .Nan, .Nan, .Nan, .Nan, .Nan, .Nan, .Nan, .Nan, .Nan, .Nan,
          .Nan, .Nan, .Nan, .Nan, .Nan, .Nan, .Nan, .Nan, .Nan, .Nan,
          .Nan, .Nan, .Nan, .Nan, .Nan, .Nan, .Nan, .Nan, .Nan, .Nan,
          .Nan, .Nan, .Nan, .Nan, .Nan, .Nan, .Nan, .Nan, .Nan, .Nan,
          .Nan, .Nan, .Nan, .Nan, .Nan, .Nan, .Nan, .Nan, .Nan, .Nan,
          .Nan, .Nan, .Nan, .Nan, .Nan, .Nan, .Nan, .Nan, .Nan, .Nan,
          .Nan, .Nan, .Nan, .Nan, .Nan, .Nan, .Nan, .Nan, .Nan, .Nan,
          .Nan, .Nan, .Nan, .Nan, .Nan, .Nan, .Nan, .Nan, .Nan, .Nan,
          .Nan, .Nan, .Nan, .Nan, .Nan, .Nan, .Nan, .Nan, .Nan, .Nan,
          .Nan, .Nan, .Nan, .Nan, .Nan, .Nan, .Nan, .Nan, .Nan, .Nan ]
      - [ .Nan, .Nan, .Nan, .Nan, .Nan, .Nan, .Nan, .Nan, .Nan, .Nan,
          .Nan, .Nan, .Nan, .Nan, .Nan, .Nan, .Nan, .Nan, .Nan, .Nan,
          .Nan, .Nan, .Nan, .Nan, .Nan, .Nan, .Nan, .Nan, .Nan, .Nan,
          .Nan, .Nan, .Nan, .Nan, .Nan, .Nan, .Nan, .Nan, .Nan, .Nan,
          .Nan, .Nan, .Nan, .Nan, .Nan, .Nan, .Nan, .Nan, .Nan, .Nan,
          .Nan, .Nan, .Nan, .Nan, .Nan, .Nan, .Nan, .Nan, .Nan, .Nan,
          .Nan, .Nan, .Nan, .Nan, .Nan, .Nan, .Nan, .Nan, .Nan, .Nan,
          .Nan, .Nan, .Nan, .Nan, .Nan, .Nan, .Nan, .Nan, .Nan, .Nan,
          .Nan, .Nan, .Nan, .Nan, .Nan, .Nan, .Nan, .Nan, .Nan, .Nan,
          .Nan, .Nan, .Nan, .Nan, .Nan, .Nan, .Nan, .Nan, .Nan, .Nan,
          .Nan, .Nan, .Nan, .Nan, .Nan, .Nan, .Nan, .Nan, .Nan, .Nan,
          .Nan, .Nan, .Nan, .Nan, .Nan, .Nan, .Nan, .Nan, .Nan, .Nan,
          .Nan, .Nan, .Nan, .Nan, .Nan, .Nan, .Nan, .Nan, .Nan, .Nan,
          .Nan, .Nan, .Nan, .Nan, .Nan, .Nan, .Nan, .Nan, .Nan, .Nan,
          .Nan, .Nan, .Nan, .Nan, .Nan, .Nan, .Nan, .Nan, .Nan, .Nan,
          .Nan, .Nan, .Nan, .Nan, .Nan, .Nan, .Nan, .Nan, .Nan, .Nan,
          .Nan, .Nan, .Nan, .Nan, .Nan, .Nan, .Nan, .Nan, .Nan, .Nan,
          .Nan, .Nan, .Nan, .Nan, .Nan, .Nan, .Nan, .Nan, .Nan, .Nan,
          .Nan, .Nan, .Nan, .Nan, .Nan, .Nan, .Nan, .Nan, .Nan, .Nan,
          .Nan, .Nan, .Nan, .Nan, .Nan, .Nan, .Nan, .Nan, .Nan, .Nan,
          .Nan, .Nan, .Nan, .Nan, .Nan, .Nan, .Nan, .Nan, .Nan, .Nan,
          .Nan, .Nan, .Nan, .Nan, .Nan, .Nan, .Nan, .Nan, .Nan, .Nan,
          .Nan, .Nan, .Nan, .Nan, .Nan, .Nan, .Nan, .Nan, .Nan, .Nan,
          .Nan, .Nan, .Nan, .Nan, .Nan, .Nan, .Nan, .Nan, .Nan, .Nan ]
      - [ .Nan, .Nan, .Nan, .Nan, .Nan, .Nan, .Nan, .Nan, .Nan, .Nan,
          .Nan, .Nan, .Nan, .Nan, .Nan, .Nan, .Nan, .Nan, .Nan, .Nan,
          .Nan, .Nan, .Nan, .Nan, .Nan, .Nan, .Nan, .Nan, .Nan, .Nan,
          .Nan, .Nan, .Nan, .Nan, .Nan, .Nan, .Nan, .Nan, .Nan, .Nan,
          .Nan, .Nan, .Nan, .Nan, .Nan, .Nan, .Nan, .Nan, .Nan, .Nan,
          .Nan, .Nan, .Nan, .Nan, .Nan, .Nan, .Nan, .Nan, .Nan, .Nan,
          .Nan, .Nan, .Nan, .Nan, .Nan, .Nan, .Nan, .Nan, .Nan, .Nan,
          .Nan, .Nan, .Nan, .Nan, .Nan, .Nan, .Nan, .Nan, .Nan, .Nan,
          .Nan, .Nan, .Nan, .Nan, .Nan, .Nan, .Nan, .Nan, .Nan, .Nan,
          .Nan, .Nan, .Nan, .Nan, .Nan, .Nan, .Nan, .Nan, .Nan, .Nan,
          .Nan, .Nan, .Nan, .Nan, .Nan, .Nan, .Nan, .Nan, .Nan, .Nan,
          .Nan, .Nan, .Nan, .Nan, .Nan, .Nan, .Nan, .Nan, .Nan, .Nan,
          .Nan, .Nan, .Nan, .Nan, .Nan, .Nan, .Nan, .Nan, .Nan, .Nan,
          .Nan, .Nan, .Nan, .Nan, .Nan, .Nan, .Nan, .Nan, .Nan, .Nan,
          .Nan, .Nan, .Nan, .Nan, .Nan, .Nan, .Nan, .Nan, .Nan, .Nan,
          .Nan, .Nan, .Nan, .Nan, .Nan, .Nan, .Nan, .Nan, .Nan, .Nan,
          .Nan, .Nan, .Nan, .Nan, .Nan, .Nan, .Nan, .Nan, .Nan, .Nan,
          .Nan, .Nan, .Nan, .Nan, .Nan, .Nan, .Nan, .Nan, .Nan, .Nan,
          .Nan, .Nan, .Nan, .Nan, .Nan, .Nan, .Nan, .Nan, .Nan, .Nan,
          .Nan, .Nan, .Nan, .Nan, .Nan, .Nan, .Nan, .Nan, .Nan, .Nan,
          .Nan, .Nan, .Nan, .Nan, .Nan, .Nan, .Nan, .Nan, .Nan, .Nan,
          .Nan, .Nan, .Nan, .Nan, .Nan, .Nan, .Nan, .Nan, .Nan, .Nan,
          .Nan, .Nan, .Nan, .Nan, .Nan, .Nan, .Nan, .Nan, .Nan, .Nan,
          .Nan, .Nan, .Nan, .Nan, .Nan, .Nan, .Nan, .Nan, .Nan, .Nan ]
      - [ .Nan, .Nan, .Nan, .Nan, .Nan, .Nan, .Nan, .Nan, .Nan, .Nan,
          .Nan, .Nan, .Nan, .Nan, .Nan, .Nan, .Nan, .Nan, .Nan, .Nan,
          .Nan, .Nan, .Nan, .Nan, .Nan, .Nan, .Nan, .Nan, .Nan, .Nan,
          .Nan, .Nan, .Nan, .Nan, .Nan, .Nan, .Nan, .Nan, .Nan, .Nan,
          .Nan, .Nan, .Nan, .Nan, .Nan, .Nan, .Nan, .Nan, .Nan, .Nan,
          .Nan, .Nan, .Nan, .Nan, .Nan, .Nan, .Nan, .Nan, .Nan, .Nan,
          .Nan, .Nan, .Nan, .Nan, .Nan, .Nan, .Nan, .Nan, .Nan, .Nan,
          .Nan, .Nan, .Nan, .Nan, .Nan, .Nan, .Nan, .Nan, .Nan, .Nan,
          .Nan, .Nan, .Nan, .Nan, .Nan, .Nan, .Nan, .Nan, .Nan, .Nan,
          .Nan, .Nan, .Nan, .Nan, .Nan, .Nan, .Nan, .Nan, .Nan, .Nan,
          .Nan, .Nan, .Nan, .Nan, .Nan, .Nan, .Nan, .Nan, .Nan, .Nan,
          .Nan, .Nan, .Nan, .Nan, .Nan, .Nan, .Nan, .Nan, .Nan, .Nan,
          .Nan, .Nan, .Nan, .Nan, .Nan, .Nan, .Nan, .Nan, .Nan, .Nan,
          .Nan, .Nan, .Nan, .Nan, .Nan, .Nan, .Nan, .Nan, .Nan, .Nan,
          .Nan, .Nan, .Nan, .Nan, .Nan, .Nan, .Nan, .Nan, .Nan, .Nan,
          .Nan, .Nan, .Nan, .Nan, .Nan, .Nan, .Nan, .Nan, .Nan, .Nan,
          .Nan, .Nan, .Nan, .Nan, .Nan, .Nan, .Nan, .Nan, .Nan, .Nan,
          .Nan, .Nan, .Nan, .Nan, .Nan, .Nan, .Nan, .Nan, .Nan, .Nan,
          .Nan, .Nan, .Nan, .Nan, .Nan, .Nan, .Nan, .Nan, .Nan, .Nan,
          .Nan, .Nan, .Nan, .Nan, .Nan, .Nan, .Nan, .Nan, .Nan, .Nan,
          .Nan, .Nan, .Nan, .Nan, .Nan, .Nan, .Nan, .Nan, .Nan, .Nan,
          .Nan, .Nan, .Nan, .Nan, .Nan, .Nan, .Nan, .Nan, .Nan, .Nan,
          .Nan, .Nan, .Nan, .Nan, .Nan, .Nan, .Nan, .Nan, .Nan, .Nan,
          .Nan, .Nan, .Nan, .Nan, .Nan, .Nan, .Nan, .Nan, .Nan, .Nan ]
      - [ .Nan, .Nan, .Nan, .Nan, .Nan, .Nan, .Nan, .Nan, .Nan, .Nan,
          .Nan, .Nan, .Nan, .Nan, .Nan, .Nan, .Nan, .Nan, .Nan, .Nan,
          .Nan, .Nan, .Nan, .Nan, .Nan, .Nan, .Nan, .Nan, .Nan, .Nan,
          .Nan, .Nan, .Nan, .Nan, .Nan, .Nan, .Nan, .Nan, .Nan, .Nan,
          .Nan, .Nan, .Nan, .Nan, .Nan, .Nan, .Nan, .Nan, .Nan, .Nan,
          .Nan, .Nan, .Nan, .Nan, .Nan, .Nan, .Nan, .Nan, .Nan, .Nan,
          .Nan, .Nan, .Nan, .Nan, .Nan, .Nan, .Nan, .Nan, .Nan, .Nan,
          .Nan, .Nan, .Nan, .Nan, .Nan, .Nan, .Nan, .Nan, .Nan, .Nan,
          .Nan, .Nan, .Nan, .Nan, .Nan, .Nan, .Nan, .Nan, .Nan, .Nan,
          .Nan, .Nan, .Nan, .Nan, .Nan, .Nan, .Nan, .Nan, .Nan, .Nan,
          .Nan, .Nan, .Nan, .Nan, .Nan, .Nan, .Nan, .Nan, .Nan, .Nan,
          .Nan, .Nan, .Nan, .Nan, .Nan, .Nan, .Nan, .Nan, .Nan, .Nan,
          .Nan, .Nan, .Nan, .Nan, .Nan, .Nan, .Nan, .Nan, .Nan, .Nan,
          .Nan, .Nan, .Nan, .Nan, .Nan, .Nan, .Nan, .Nan, .Nan, .Nan,
          .Nan, .Nan, .Nan, .Nan, .Nan, .Nan, .Nan, .Nan, .Nan, .Nan,
          .Nan, .Nan, .Nan, .Nan, .Nan, .Nan, .Nan, .Nan, .Nan, .Nan,
          .Nan, .Nan, .Nan, .Nan, .Nan, .Nan, .Nan, .Nan, .Nan, .Nan,
          .Nan, .Nan, .Nan, .Nan, .Nan, .Nan, .Nan, .Nan, .Nan, .Nan,
          .Nan, .Nan, .Nan, .Nan, .Nan, .Nan, .Nan, .Nan, .Nan, .Nan,
          .Nan, .Nan, .Nan, .Nan, .Nan, .Nan, .Nan, .Nan, .Nan, .Nan,
          .Nan, .Nan, .Nan, .Nan, .Nan, .Nan, .Nan, .Nan, .Nan, .Nan,
          .Nan, .Nan, .Nan, .Nan, .Nan, .Nan, .Nan, .Nan, .Nan, .Nan,
          .Nan, .Nan, .Nan, .Nan, .Nan, .Nan, .Nan, .Nan, .Nan, .Nan,
          .Nan, .Nan, .Nan, .Nan, .Nan, .Nan, .Nan, .Nan, .Nan, .Nan ]
      - [ .Nan, .Nan, .Nan, .Nan, .Nan, .Nan, .Nan, .Nan, .Nan, .Nan,
          .Nan, .Nan, .Nan, .Nan, .Nan, .Nan, .Nan, .Nan, .Nan, .Nan,
          .Nan, .Nan, .Nan, .Nan, .Nan, .Nan, .Nan, .Nan, .Nan, .Nan,
          .Nan, .Nan, .Nan, .Nan, .Nan, .Nan, .Nan, .Nan, .Nan, .Nan,
          .Nan, .Nan, .Nan, .Nan, .Nan, .Nan, .Nan, .Nan, .Nan, .Nan,
          .Nan, .Nan, .Nan, .Nan, .Nan, .Nan, .Nan, .Nan, .Nan, .Nan,
          .Nan, .Nan, .Nan, .Nan, .Nan, .Nan, .Nan, .Nan, .Nan, .Nan,
          .Nan, .Nan, .Nan, .Nan, .Nan, .Nan, .Nan, .Nan, .Nan, .Nan,
          .Nan, .Nan, .Nan, .Nan, .Nan, .Nan, .Nan, .Nan, .Nan, .Nan,
          .Nan, .Nan, .Nan, .Nan, .Nan, .Nan, .Nan, .Nan, .Nan, .Nan,
          .Nan, .Nan, .Nan, .Nan, .Nan, .Nan, .Nan, .Nan, .Nan, .Nan,
          .Nan, .Nan, .Nan, .Nan, .Nan, .Nan, .Nan, .Nan, .Nan, .Nan,
          .Nan, .Nan, .Nan, .Nan, .Nan, .Nan, .Nan, .Nan, .Nan, .Nan,
          .Nan, .Nan, .Nan, .Nan, .Nan, .Nan, .Nan, .Nan, .Nan, .Nan,
          .Nan, .Nan, .Nan, .Nan, .Nan, .Nan, .Nan, .Nan, .Nan, .Nan,
          .Nan, .Nan, .Nan, .Nan, .Nan, .Nan, .Nan, .Nan, .Nan, .Nan,
          .Nan, .Nan, .Nan, .Nan, .Nan, .Nan, .Nan, .Nan, .Nan, .Nan,
          .Nan, .Nan, .Nan, .Nan, .Nan, .Nan, .Nan, .Nan, .Nan, .Nan,
          .Nan, .Nan, .Nan, .Nan, .Nan, .Nan, .Nan, .Nan, .Nan, .Nan,
          .Nan, .Nan, .Nan, .Nan, .Nan, .Nan, .Nan, .Nan, .Nan, .Nan,
          .Nan, .Nan, .Nan, .Nan, .Nan, .Nan, .Nan, .Nan, .Nan, .Nan,
          .Nan, .Nan, .Nan, .Nan, .Nan, .Nan, .Nan, .Nan, .Nan, .Nan,
          .Nan, .Nan, .Nan, .Nan, .Nan, .Nan, .Nan, .Nan, .Nan, .Nan,
          .Nan, .Nan, .Nan, .Nan, .Nan, .Nan, .Nan, .Nan, .Nan, .Nan ]
      - [ .Nan, .Nan, .Nan, .Nan, .Nan, .Nan, .Nan, .Nan, .Nan, .Nan,
          .Nan, .Nan, .Nan, .Nan, .Nan, .Nan, .Nan, .Nan, .Nan, .Nan,
          .Nan, .Nan, .Nan, .Nan, .Nan, .Nan, .Nan, .Nan, .Nan, .Nan,
          .Nan, .Nan, .Nan, .Nan, .Nan, .Nan, .Nan, .Nan, .Nan, .Nan,
          .Nan, .Nan, .Nan, .Nan, .Nan, .Nan, .Nan, .Nan, .Nan, .Nan,
          .Nan, .Nan, .Nan, .Nan, .Nan, .Nan, .Nan, .Nan, .Nan, .Nan,
          .Nan, .Nan, .Nan, .Nan, .Nan, .Nan, .Nan, .Nan, .Nan, .Nan,
          .Nan, .Nan, .Nan, .Nan, .Nan, .Nan, .Nan, .Nan, .Nan, .Nan,
          .Nan, .Nan, .Nan, .Nan, .Nan, .Nan, .Nan, .Nan, .Nan, .Nan,
          .Nan, .Nan, .Nan, .Nan, .Nan, .Nan, .Nan, .Nan, .Nan, .Nan,
          .Nan, .Nan, .Nan, .Nan, .Nan, .Nan, .Nan, .Nan, .Nan, .Nan,
          .Nan, .Nan, .Nan, .Nan, .Nan, .Nan, .Nan, .Nan, .Nan, .Nan,
          .Nan, .Nan, .Nan, .Nan, .Nan, .Nan, .Nan, .Nan, .Nan, .Nan,
          .Nan, .Nan, .Nan, .Nan, .Nan, .Nan, .Nan, .Nan, .Nan, .Nan,
          .Nan, .Nan, .Nan, .Nan, .Nan, .Nan, .Nan, .Nan, .Nan, .Nan,
          .Nan, .Nan, .Nan, .Nan, .Nan, .Nan, .Nan, .Nan, .Nan, .Nan,
          .Nan, .Nan, .Nan, .Nan, .Nan, .Nan, .Nan, .Nan, .Nan, .Nan,
          .Nan, .Nan, .Nan, .Nan, .Nan, .Nan, .Nan, .Nan, .Nan, .Nan,
          .Nan, .Nan, .Nan, .Nan, .Nan, .Nan, .Nan, .Nan, .Nan, .Nan,
          .Nan, .Nan, .Nan, .Nan, .Nan, .Nan, .Nan, .Nan, .Nan, .Nan,
          .Nan, .Nan, .Nan, .Nan, .Nan, .Nan, .Nan, .Nan, .Nan, .Nan,
          .Nan, .Nan, .Nan, .Nan, .Nan, .Nan, .Nan, .Nan, .Nan, .Nan,
          .Nan, .Nan, .Nan, .Nan, .Nan, .Nan, .Nan, .Nan, .Nan, .Nan,
          .Nan, .Nan, .Nan, .Nan, .Nan, .Nan, .Nan, .Nan, .Nan, .Nan ]
      - [ .Nan, .Nan, .Nan, .Nan, .Nan, .Nan, .Nan, .Nan, .Nan, .Nan,
          .Nan, .Nan, .Nan, .Nan, .Nan, .Nan, .Nan, .Nan, .Nan, .Nan,
          .Nan, .Nan, .Nan, .Nan, .Nan, .Nan, .Nan, .Nan, .Nan, .Nan,
          .Nan, .Nan, .Nan, .Nan, .Nan, .Nan, .Nan, .Nan, .Nan, .Nan,
          .Nan, .Nan, .Nan, .Nan, .Nan, .Nan, .Nan, .Nan, .Nan, .Nan,
          .Nan, .Nan, .Nan, .Nan, .Nan, .Nan, .Nan, .Nan, .Nan, .Nan,
          .Nan, .Nan, .Nan, .Nan, .Nan, .Nan, .Nan, .Nan, .Nan, .Nan,
          .Nan, .Nan, .Nan, .Nan, .Nan, .Nan, .Nan, .Nan, .Nan, .Nan,
          .Nan, .Nan, .Nan, .Nan, .Nan, .Nan, .Nan, .Nan, .Nan, .Nan,
          .Nan, .Nan, .Nan, .Nan, .Nan, .Nan, .Nan, .Nan, .Nan, .Nan,
          .Nan, .Nan, .Nan, .Nan, .Nan, .Nan, .Nan, .Nan, .Nan, .Nan,
          .Nan, .Nan, .Nan, .Nan, .Nan, .Nan, .Nan, .Nan, .Nan, .Nan,
          .Nan, .Nan, .Nan, .Nan, .Nan, .Nan, .Nan, .Nan, .Nan, .Nan,
          .Nan, .Nan, .Nan, .Nan, .Nan, .Nan, .Nan, .Nan, .Nan, .Nan,
          .Nan, .Nan, .Nan, .Nan, .Nan, .Nan, .Nan, .Nan, .Nan, .Nan,
          .Nan, .Nan, .Nan, .Nan, .Nan, .Nan, .Nan, .Nan, .Nan, .Nan,
          .Nan, .Nan, .Nan, .Nan, .Nan, .Nan, .Nan, .Nan, .Nan, .Nan,
          .Nan, .Nan, .Nan, .Nan, .Nan, .Nan, .Nan, .Nan, .Nan, .Nan,
          .Nan, .Nan, .Nan, .Nan, .Nan, .Nan, .Nan, .Nan, .Nan, .Nan,
          .Nan, .Nan, .Nan, .Nan, .Nan, .Nan, .Nan, .Nan, .Nan, .Nan,
          .Nan, .Nan, .Nan, .Nan, .Nan, .Nan, .Nan, .Nan, .Nan, .Nan,
          .Nan, .Nan, .Nan, .Nan, .Nan, .Nan, .Nan, .Nan, .Nan, .Nan,
          .Nan, .Nan, .Nan, .Nan, .Nan, .Nan, .Nan, .Nan, .Nan, .Nan,
          .Nan, .Nan, .Nan, .Nan, .Nan, .Nan, .Nan, .Nan, .Nan, .Nan ]
      - [ .Nan, .Nan, .Nan, .Nan, .Nan, .Nan, .Nan, .Nan, .Nan, .Nan,
          .Nan, .Nan, .Nan, .Nan, .Nan, .Nan, .Nan, .Nan, .Nan, .Nan,
          .Nan, .Nan, .Nan, .Nan, .Nan, .Nan, .Nan, .Nan, .Nan, .Nan,
          .Nan, .Nan, .Nan, .Nan, .Nan, .Nan, .Nan, .Nan, .Nan, .Nan,
          .Nan, .Nan, .Nan, .Nan, .Nan, .Nan, .Nan, .Nan, .Nan, .Nan,
          .Nan, .Nan, .Nan, .Nan, .Nan, .Nan, .Nan, .Nan, .Nan, .Nan,
          .Nan, .Nan, .Nan, .Nan, .Nan, .Nan, .Nan, .Nan, .Nan, .Nan,
          .Nan, .Nan, .Nan, .Nan, .Nan, .Nan, .Nan, .Nan, .Nan, .Nan,
          .Nan, .Nan, .Nan, .Nan, .Nan, .Nan, .Nan, .Nan, .Nan, .Nan,
          .Nan, .Nan, .Nan, .Nan, .Nan, .Nan, .Nan, .Nan, .Nan, .Nan,
          .Nan, .Nan, .Nan, .Nan, .Nan, .Nan, .Nan, .Nan, .Nan, .Nan,
          .Nan, .Nan, .Nan, .Nan, .Nan, .Nan, .Nan, .Nan, .Nan, .Nan,
          .Nan, .Nan, .Nan, .Nan, .Nan, .Nan, .Nan, .Nan, .Nan, .Nan,
          .Nan, .Nan, .Nan, .Nan, .Nan, .Nan, .Nan, .Nan, .Nan, .Nan,
          .Nan, .Nan, .Nan, .Nan, .Nan, .Nan, .Nan, .Nan, .Nan, .Nan,
          .Nan, .Nan, .Nan, .Nan, .Nan, .Nan, .Nan, .Nan, .Nan, .Nan,
          .Nan, .Nan, .Nan, .Nan, .Nan, .Nan, .Nan, .Nan, .Nan, .Nan,
          .Nan, .Nan, .Nan, .Nan, .Nan, .Nan, .Nan, .Nan, .Nan, .Nan,
          .Nan, .Nan, .Nan, .Nan, .Nan, .Nan, .Nan, .Nan, .Nan, .Nan,
          .Nan, .Nan, .Nan, .Nan, .Nan, .Nan, .Nan, .Nan, .Nan, .Nan,
          .Nan, .Nan, .Nan, .Nan, .Nan, .Nan, .Nan, .Nan, .Nan, .Nan,
          .Nan, .Nan, .Nan, .Nan, .Nan, .Nan, .Nan, .Nan, .Nan, .Nan,
          .Nan, .Nan, .Nan, .Nan, .Nan, .Nan, .Nan, .Nan, .Nan, .Nan,
          .Nan, .Nan, .Nan, .Nan, .Nan, .Nan, .Nan, .Nan, .Nan, .Nan ]
      - [ .Nan, .Nan, .Nan, .Nan, .Nan, .Nan, .Nan, .Nan, .Nan, .Nan,
          .Nan, .Nan, .Nan, .Nan, .Nan, .Nan, .Nan, .Nan, .Nan, .Nan,
          .Nan, .Nan, .Nan, .Nan, .Nan, .Nan, .Nan, .Nan, .Nan, .Nan,
          .Nan, .Nan, .Nan, .Nan, .Nan, .Nan, .Nan, .Nan, .Nan, .Nan,
          .Nan, .Nan, .Nan, .Nan, .Nan, .Nan, .Nan, .Nan, .Nan, .Nan,
          .Nan, .Nan, .Nan, .Nan, .Nan, .Nan, .Nan, .Nan, .Nan, .Nan,
          .Nan, .Nan, .Nan, .Nan, .Nan, .Nan, .Nan, .Nan, .Nan, .Nan,
          .Nan, .Nan, .Nan, .Nan, .Nan, .Nan, .Nan, .Nan, .Nan, .Nan,
          .Nan, .Nan, .Nan, .Nan, .Nan, .Nan, .Nan, .Nan, .Nan, .Nan,
          .Nan, .Nan, .Nan, .Nan, .Nan, .Nan, .Nan, .Nan, .Nan, .Nan,
          .Nan, .Nan, .Nan, .Nan, .Nan, .Nan, .Nan, .Nan, .Nan, .Nan,
          .Nan, .Nan, .Nan, .Nan, .Nan, .Nan, .Nan, .Nan, .Nan, .Nan,
          .Nan, .Nan, .Nan, .Nan, .Nan, .Nan, .Nan, .Nan, .Nan, .Nan,
          .Nan, .Nan, .Nan, .Nan, .Nan, .Nan, .Nan, .Nan, .Nan, .Nan,
          .Nan, .Nan, .Nan, .Nan, .Nan, .Nan, .Nan, .Nan, .Nan, .Nan,
          .Nan, .Nan, .Nan, .Nan, .Nan, .Nan, .Nan, .Nan, .Nan, .Nan,
          .Nan, .Nan, .Nan, .Nan, .Nan, .Nan, .Nan, .Nan, .Nan, .Nan,
          .Nan, .Nan, .Nan, .Nan, .Nan, .Nan, .Nan, .Nan, .Nan, .Nan,
          .Nan, .Nan, .Nan, .Nan, .Nan, .Nan, .Nan, .Nan, .Nan, .Nan,
          .Nan, .Nan, .Nan, .Nan, .Nan, .Nan, .Nan, .Nan, .Nan, .Nan,
          .Nan, .Nan, .Nan, .Nan, .Nan, .Nan, .Nan, .Nan, .Nan, .Nan,
          .Nan, .Nan, .Nan, .Nan, .Nan, .Nan, .Nan, .Nan, .Nan, .Nan,
          .Nan, .Nan, .Nan, .Nan, .Nan, .Nan, .Nan, .Nan, .Nan, .Nan,
          .Nan, .Nan, .Nan, .Nan, .Nan, .Nan, .Nan, .Nan, .Nan, .Nan ]
      - [ .Nan, .Nan, .Nan, .Nan, .Nan, .Nan, .Nan, .Nan, .Nan, .Nan,
          .Nan, .Nan, .Nan, .Nan, .Nan, .Nan, .Nan, .Nan, .Nan, .Nan,
          .Nan, .Nan, .Nan, .Nan, .Nan, .Nan, .Nan, .Nan, .Nan, .Nan,
          .Nan, .Nan, .Nan, .Nan, .Nan, .Nan, .Nan, .Nan, .Nan, .Nan,
          .Nan, .Nan, .Nan, .Nan, .Nan, .Nan, .Nan, .Nan, .Nan, .Nan,
          .Nan, .Nan, .Nan, .Nan, .Nan, .Nan, .Nan, .Nan, .Nan, .Nan,
          .Nan, .Nan, .Nan, .Nan, .Nan, .Nan, .Nan, .Nan, .Nan, .Nan,
          .Nan, .Nan, .Nan, .Nan, .Nan, .Nan, .Nan, .Nan, .Nan, .Nan,
          .Nan, .Nan, .Nan, .Nan, .Nan, .Nan, .Nan, .Nan, .Nan, .Nan,
          .Nan, .Nan, .Nan, .Nan, .Nan, .Nan, .Nan, .Nan, .Nan, .Nan,
          .Nan, .Nan, .Nan, .Nan, .Nan, .Nan, .Nan, .Nan, .Nan, .Nan,
          .Nan, .Nan, .Nan, .Nan, .Nan, .Nan, .Nan, .Nan, .Nan, .Nan,
          .Nan, .Nan, .Nan, .Nan, .Nan, .Nan, .Nan, .Nan, .Nan, .Nan,
          .Nan, .Nan, .Nan, .Nan, .Nan, .Nan, .Nan, .Nan, .Nan, .Nan,
          .Nan, .Nan, .Nan, .Nan, .Nan, .Nan, .Nan, .Nan, .Nan, .Nan,
          .Nan, .Nan, .Nan, .Nan, .Nan, .Nan, .Nan, .Nan, .Nan, .Nan,
          .Nan, .Nan, .Nan, .Nan, .Nan, .Nan, .Nan, .Nan, .Nan, .Nan,
          .Nan, .Nan, .Nan, .Nan, .Nan, .Nan, .Nan, .Nan, .Nan, .Nan,
          .Nan, .Nan, .Nan, .Nan, .Nan, .Nan, .Nan, .Nan, .Nan, .Nan,
          .Nan, .Nan, .Nan, .Nan, .Nan, .Nan, .Nan, .Nan, .Nan, .Nan,
          .Nan, .Nan, .Nan, .Nan, .Nan, .Nan, .Nan, .Nan, .Nan, .Nan,
          .Nan, .Nan, .Nan, .Nan, .Nan, .Nan, .Nan, .Nan, .Nan, .Nan,
          .Nan, .Nan, .Nan, .Nan, .Nan, .Nan, .Nan, .Nan, .Nan, .Nan,
          .Nan, .Nan, .Nan, .Nan, .Nan, .Nan, .Nan, .Nan, .Nan, .Nan ]
      - [ .Nan, .Nan, .Nan, .Nan, .Nan, .Nan, .Nan, .Nan, .Nan, .Nan,
          .Nan, .Nan, .Nan, .Nan, .Nan, .Nan, .Nan, .Nan, .Nan, .Nan,
          .Nan, .Nan, .Nan, .Nan, .Nan, .Nan, .Nan, .Nan, .Nan, .Nan,
          .Nan, .Nan, .Nan, .Nan, .Nan, .Nan, .Nan, .Nan, .Nan, .Nan,
          .Nan, .Nan, .Nan, .Nan, .Nan, .Nan, .Nan, .Nan, .Nan, .Nan,
          .Nan, .Nan, .Nan, .Nan, .Nan, .Nan, .Nan, .Nan, .Nan, .Nan,
          .Nan, .Nan, .Nan, .Nan, .Nan, .Nan, .Nan, .Nan, .Nan, .Nan,
          .Nan, .Nan, .Nan, .Nan, .Nan, .Nan, .Nan, .Nan, .Nan, .Nan,
          .Nan, .Nan, .Nan, .Nan, .Nan, .Nan, .Nan, .Nan, .Nan, .Nan,
          .Nan, .Nan, .Nan, .Nan, .Nan, .Nan, .Nan, .Nan, .Nan, .Nan,
          .Nan, .Nan, .Nan, .Nan, .Nan, .Nan, .Nan, .Nan, .Nan, .Nan,
          .Nan, .Nan, .Nan, .Nan, .Nan, .Nan, .Nan, .Nan, .Nan, .Nan,
          .Nan, .Nan, .Nan, .Nan, .Nan, .Nan, .Nan, .Nan, .Nan, .Nan,
          .Nan, .Nan, .Nan, .Nan, .Nan, .Nan, .Nan, .Nan, .Nan, .Nan,
          .Nan, .Nan, .Nan, .Nan, .Nan, .Nan, .Nan, .Nan, .Nan, .Nan,
          .Nan, .Nan, .Nan, .Nan, .Nan, .Nan, .Nan, .Nan, .Nan, .Nan,
          .Nan, .Nan, .Nan, .Nan, .Nan, .Nan, .Nan, .Nan, .Nan, .Nan,
          .Nan, .Nan, .Nan, .Nan, .Nan, .Nan, .Nan, .Nan, .Nan, .Nan,
          .Nan, .Nan, .Nan, .Nan, .Nan, .Nan, .Nan, .Nan, .Nan, .Nan,
          .Nan, .Nan, .Nan, .Nan, .Nan, .Nan, .Nan, .Nan, .Nan, .Nan,
          .Nan, .Nan, .Nan, .Nan, .Nan, .Nan, .Nan, .Nan, .Nan, .Nan,
          .Nan, .Nan, .Nan, .Nan, .Nan, .Nan, .Nan, .Nan, .Nan, .Nan,
          .Nan, .Nan, .Nan, .Nan, .Nan, .Nan, .Nan, .Nan, .Nan, .Nan,
          .Nan, .Nan, .Nan, .Nan, .Nan, .Nan, .Nan, .Nan, .Nan, .Nan ]
      - [ .Nan, .Nan, .Nan, .Nan, .Nan, .Nan, .Nan, .Nan, .Nan, .Nan,
          .Nan, .Nan, .Nan, .Nan, .Nan, .Nan, .Nan, .Nan, .Nan, .Nan,
          .Nan, .Nan, .Nan, .Nan, .Nan, .Nan, .Nan, .Nan, .Nan, .Nan,
          .Nan, .Nan, .Nan, .Nan, .Nan, .Nan, .Nan, .Nan, .Nan, .Nan,
          .Nan, .Nan, .Nan, .Nan, .Nan, .Nan, .Nan, .Nan, .Nan, .Nan,
          .Nan, .Nan, .Nan, .Nan, .Nan, .Nan, .Nan, .Nan, .Nan, .Nan,
          .Nan, .Nan, .Nan, .Nan, .Nan, .Nan, .Nan, .Nan, .Nan, .Nan,
          .Nan, .Nan, .Nan, .Nan, .Nan, .Nan, .Nan, .Nan, .Nan, .Nan,
          .Nan, .Nan, .Nan, .Nan, .Nan, .Nan, .Nan, .Nan, .Nan, .Nan,
          .Nan, .Nan, .Nan, .Nan, .Nan, .Nan, .Nan, .Nan, .Nan, .Nan,
          .Nan, .Nan, .Nan, .Nan, .Nan, .Nan, .Nan, .Nan, .Nan, .Nan,
          .Nan, .Nan, .Nan, .Nan, .Nan, .Nan, .Nan, .Nan, .Nan, .Nan,
          .Nan, .Nan, .Nan, .Nan, .Nan, .Nan, .Nan, .Nan, .Nan, .Nan,
          .Nan, .Nan, .Nan, .Nan, .Nan, .Nan, .Nan, .Nan, .Nan, .Nan,
          .Nan, .Nan, .Nan, .Nan, .Nan, .Nan, .Nan, .Nan, .Nan, .Nan,
          .Nan, .Nan, .Nan, .Nan, .Nan, .Nan, .Nan, .Nan, .Nan, .Nan,
          .Nan, .Nan, .Nan, .Nan, .Nan, .Nan, .Nan, .Nan, .Nan, .Nan,
          .Nan, .Nan, .Nan, .Nan, .Nan, .Nan, .Nan, .Nan, .Nan, .Nan,
          .Nan, .Nan, .Nan, .Nan, .Nan, .Nan, .Nan, .Nan, .Nan, .Nan,
          .Nan, .Nan, .Nan, .Nan, .Nan, .Nan, .Nan, .Nan, .Nan, .Nan,
          .Nan, .Nan, .Nan, .Nan, .Nan, .Nan, .Nan, .Nan, .Nan, .Nan,
          .Nan, .Nan, .Nan, .Nan, .Nan, .Nan, .Nan, .Nan, .Nan, .Nan,
          .Nan, .Nan, .Nan, .Nan, .Nan, .Nan, .Nan, .Nan, .Nan, .Nan,
          .Nan, .Nan, .Nan, .Nan, .Nan, .Nan, .Nan, .Nan, .Nan, .Nan ]
      - [ .Nan, .Nan, .Nan, .Nan, .Nan, .Nan, .Nan, .Nan, .Nan, .Nan,
          .Nan, .Nan, .Nan, .Nan, .Nan, .Nan, .Nan, .Nan, .Nan, .Nan,
          .Nan, .Nan, .Nan, .Nan, .Nan, .Nan, .Nan, .Nan, .Nan, .Nan,
          .Nan, .Nan, .Nan, .Nan, .Nan, .Nan, .Nan, .Nan, .Nan, .Nan,
          .Nan, .Nan, .Nan, .Nan, .Nan, .Nan, .Nan, .Nan, .Nan, .Nan,
          .Nan, .Nan, .Nan, .Nan, .Nan, .Nan, .Nan, .Nan, .Nan, .Nan,
          .Nan, .Nan, .Nan, .Nan, .Nan, .Nan, .Nan, .Nan, .Nan, .Nan,
          .Nan, .Nan, .Nan, .Nan, .Nan, .Nan, .Nan, .Nan, .Nan, .Nan,
          .Nan, .Nan, .Nan, .Nan, .Nan, .Nan, .Nan, .Nan, .Nan, .Nan,
          .Nan, .Nan, .Nan, .Nan, .Nan, .Nan, .Nan, .Nan, .Nan, .Nan,
          .Nan, .Nan, .Nan, .Nan, .Nan, .Nan, .Nan, .Nan, .Nan, .Nan,
          .Nan, .Nan, .Nan, .Nan, .Nan, .Nan, .Nan, .Nan, .Nan, .Nan,
          .Nan, .Nan, .Nan, .Nan, .Nan, .Nan, .Nan, .Nan, .Nan, .Nan,
          .Nan, .Nan, .Nan, .Nan, .Nan, .Nan, .Nan, .Nan, .Nan, .Nan,
          .Nan, .Nan, .Nan, .Nan, .Nan, .Nan, .Nan, .Nan, .Nan, .Nan,
          .Nan, .Nan, .Nan, .Nan, .Nan, .Nan, .Nan, .Nan, .Nan, .Nan,
          .Nan, .Nan, .Nan, .Nan, .Nan, .Nan, .Nan, .Nan, .Nan, .Nan,
          .Nan, .Nan, .Nan, .Nan, .Nan, .Nan, .Nan, .Nan, .Nan, .Nan,
          .Nan, .Nan, .Nan, .Nan, .Nan, .Nan, .Nan, .Nan, .Nan, .Nan,
          .Nan, .Nan, .Nan, .Nan, .Nan, .Nan, .Nan, .Nan, .Nan, .Nan,
          .Nan, .Nan, .Nan, .Nan, .Nan, .Nan, .Nan, .Nan, .Nan, .Nan,
          .Nan, .Nan, .Nan, .Nan, .Nan, .Nan, .Nan, .Nan, .Nan, .Nan,
          .Nan, .Nan, .Nan, .Nan, .Nan, .Nan, .Nan, .Nan, .Nan, .Nan,
          .Nan, .Nan, .Nan, .Nan, .Nan, .Nan, .Nan, .Nan, .Nan, .Nan ]
      - [ .Nan, .Nan, .Nan, .Nan, .Nan, .Nan, .Nan, .Nan, .Nan, .Nan,
          .Nan, .Nan, .Nan, .Nan, .Nan, .Nan, .Nan, .Nan, .Nan, .Nan,
          .Nan, .Nan, .Nan, .Nan, .Nan, .Nan, .Nan, .Nan, .Nan, .Nan,
          .Nan, .Nan, .Nan, .Nan, .Nan, .Nan, .Nan, .Nan, .Nan, .Nan,
          .Nan, .Nan, .Nan, .Nan, .Nan, .Nan, .Nan, .Nan, .Nan, .Nan,
          .Nan, .Nan, .Nan, .Nan, .Nan, .Nan, .Nan, .Nan, .Nan, .Nan,
          .Nan, .Nan, .Nan, .Nan, .Nan, .Nan, .Nan, .Nan, .Nan, .Nan,
          .Nan, .Nan, .Nan, .Nan, .Nan, .Nan, .Nan, .Nan, .Nan, .Nan,
          .Nan, .Nan, .Nan, .Nan, .Nan, .Nan, .Nan, .Nan, .Nan, .Nan,
          .Nan, .Nan, .Nan, .Nan, .Nan, .Nan, .Nan, .Nan, .Nan, .Nan,
          .Nan, .Nan, .Nan, .Nan, .Nan, .Nan, .Nan, .Nan, .Nan, .Nan,
          .Nan, .Nan, .Nan, .Nan, .Nan, .Nan, .Nan, .Nan, .Nan, .Nan,
          .Nan, .Nan, .Nan, .Nan, .Nan, .Nan, .Nan, .Nan, .Nan, .Nan,
          .Nan, .Nan, .Nan, .Nan, .Nan, .Nan, .Nan, .Nan, .Nan, .Nan,
          .Nan, .Nan, .Nan, .Nan, .Nan, .Nan, .Nan, .Nan, .Nan, .Nan,
          .Nan, .Nan, .Nan, .Nan, .Nan, .Nan, .Nan, .Nan, .Nan, .Nan,
          .Nan, .Nan, .Nan, .Nan, .Nan, .Nan, .Nan, .Nan, .Nan, .Nan,
          .Nan, .Nan, .Nan, .Nan, .Nan, .Nan, .Nan, .Nan, .Nan, .Nan,
          .Nan, .Nan, .Nan, .Nan, .Nan, .Nan, .Nan, .Nan, .Nan, .Nan,
          .Nan, .Nan, .Nan, .Nan, .Nan, .Nan, .Nan, .Nan, .Nan, .Nan,
          .Nan, .Nan, .Nan, .Nan, .Nan, .Nan, .Nan, .Nan, .Nan, .Nan,
          .Nan, .Nan, .Nan, .Nan, .Nan, .Nan, .Nan, .Nan, .Nan, .Nan,
          .Nan, .Nan, .Nan, .Nan, .Nan, .Nan, .Nan, .Nan, .Nan, .Nan,
          .Nan, .Nan, .Nan, .Nan, .Nan, .Nan, .Nan, .Nan, .Nan, .Nan ]
      - [ .Nan, .Nan, .Nan, .Nan, .Nan, .Nan, .Nan, .Nan, .Nan, .Nan,
          .Nan, .Nan, .Nan, .Nan, .Nan, .Nan, .Nan, .Nan, .Nan, .Nan,
          .Nan, .Nan, .Nan, .Nan, .Nan, .Nan, .Nan, .Nan, .Nan, .Nan,
          .Nan, .Nan, .Nan, .Nan, .Nan, .Nan, .Nan, .Nan, .Nan, .Nan,
          .Nan, .Nan, .Nan, .Nan, .Nan, .Nan, .Nan, .Nan, .Nan, .Nan,
          .Nan, .Nan, .Nan, .Nan, .Nan, .Nan, .Nan, .Nan, .Nan, .Nan,
          .Nan, .Nan, .Nan, .Nan, .Nan, .Nan, .Nan, .Nan, .Nan, .Nan,
          .Nan, .Nan, .Nan, .Nan, .Nan, .Nan, .Nan, .Nan, .Nan, .Nan,
          .Nan, .Nan, .Nan, .Nan, .Nan, .Nan, .Nan, .Nan, .Nan, .Nan,
          .Nan, .Nan, .Nan, .Nan, .Nan, .Nan, .Nan, .Nan, .Nan, .Nan,
          .Nan, .Nan, .Nan, .Nan, .Nan, .Nan, .Nan, .Nan, .Nan, .Nan,
          .Nan, .Nan, .Nan, .Nan, .Nan, .Nan, .Nan, .Nan, .Nan, .Nan,
          .Nan, .Nan, .Nan, .Nan, .Nan, .Nan, .Nan, .Nan, .Nan, .Nan,
          .Nan, .Nan, .Nan, .Nan, .Nan, .Nan, .Nan, .Nan, .Nan, .Nan,
          .Nan, .Nan, .Nan, .Nan, .Nan, .Nan, .Nan, .Nan, .Nan, .Nan,
          .Nan, .Nan, .Nan, .Nan, .Nan, .Nan, .Nan, .Nan, .Nan, .Nan,
          .Nan, .Nan, .Nan, .Nan, .Nan, .Nan, .Nan, .Nan, .Nan, .Nan,
          .Nan, .Nan, .Nan, .Nan, .Nan, .Nan, .Nan, .Nan, .Nan, .Nan,
          .Nan, .Nan, .Nan, .Nan, .Nan, .Nan, .Nan, .Nan, .Nan, .Nan,
          .Nan, .Nan, .Nan, .Nan, .Nan, .Nan, .Nan, .Nan, .Nan, .Nan,
          .Nan, .Nan, .Nan, .Nan, .Nan, .Nan, .Nan, .Nan, .Nan, .Nan,
          .Nan, .Nan, .Nan, .Nan, .Nan, .Nan, .Nan, .Nan, .Nan, .Nan,
          .Nan, .Nan, .Nan, .Nan, .Nan, .Nan, .Nan, .Nan, .Nan, .Nan,
          .Nan, .Nan, .Nan, .Nan, .Nan, .Nan, .Nan, .Nan, .Nan, .Nan ]
      - [ .Nan, .Nan, .Nan, .Nan, .Nan, .Nan, .Nan, .Nan, .Nan, .Nan,
          .Nan, .Nan, .Nan, .Nan, .Nan, .Nan, .Nan, .Nan, .Nan, .Nan,
          .Nan, .Nan, .Nan, .Nan, .Nan, .Nan, .Nan, .Nan, .Nan, .Nan,
          .Nan, .Nan, .Nan, .Nan, .Nan, .Nan, .Nan, .Nan, .Nan, .Nan,
          .Nan, .Nan, .Nan, .Nan, .Nan, .Nan, .Nan, .Nan, .Nan, .Nan,
          .Nan, .Nan, .Nan, .Nan, .Nan, .Nan, .Nan, .Nan, .Nan, .Nan,
          .Nan, .Nan, .Nan, .Nan, .Nan, .Nan, .Nan, .Nan, .Nan, .Nan,
          .Nan, .Nan, .Nan, .Nan, .Nan, .Nan, .Nan, .Nan, .Nan, .Nan,
          .Nan, .Nan, .Nan, .Nan, .Nan, .Nan, .Nan, .Nan, .Nan, .Nan,
          .Nan, .Nan, .Nan, .Nan, .Nan, .Nan, .Nan, .Nan, .Nan, .Nan,
          .Nan, .Nan, .Nan, .Nan, .Nan, .Nan, .Nan, .Nan, .Nan, .Nan,
          .Nan, .Nan, .Nan, .Nan, .Nan, .Nan, .Nan, .Nan, .Nan, .Nan,
          .Nan, .Nan, .Nan, .Nan, .Nan, .Nan, .Nan, .Nan, .Nan, .Nan,
          .Nan, .Nan, .Nan, .Nan, .Nan, .Nan, .Nan, .Nan, .Nan, .Nan,
          .Nan, .Nan, .Nan, .Nan, .Nan, .Nan, .Nan, .Nan, .Nan, .Nan,
          .Nan, .Nan, .Nan, .Nan, .Nan, .Nan, .Nan, .Nan, .Nan, .Nan,
          .Nan, .Nan, .Nan, .Nan, .Nan, .Nan, .Nan, .Nan, .Nan, .Nan,
          .Nan, .Nan, .Nan, .Nan, .Nan, .Nan, .Nan, .Nan, .Nan, .Nan,
          .Nan, .Nan, .Nan, .Nan, .Nan, .Nan, .Nan, .Nan, .Nan, .Nan,
          .Nan, .Nan, .Nan, .Nan, .Nan, .Nan, .Nan, .Nan, .Nan, .Nan,
          .Nan, .Nan, .Nan, .Nan, .Nan, .Nan, .Nan, .Nan, .Nan, .Nan,
          .Nan, .Nan, .Nan, .Nan, .Nan, .Nan, .Nan, .Nan, .Nan, .Nan,
          .Nan, .Nan, .Nan, .Nan, .Nan, .Nan, .Nan, .Nan, .Nan, .Nan,
          .Nan, .Nan, .Nan, .Nan, .Nan, .Nan, .Nan, .Nan, .Nan, .Nan ]
      - [ .Nan, .Nan, .Nan, .Nan, .Nan, .Nan, .Nan, .Nan, .Nan, .Nan,
          .Nan, .Nan, .Nan, .Nan, .Nan, .Nan, .Nan, .Nan, .Nan, .Nan,
          .Nan, .Nan, .Nan, .Nan, .Nan, .Nan, .Nan, .Nan, .Nan, .Nan,
          .Nan, .Nan, .Nan, .Nan, .Nan, .Nan, .Nan, .Nan, .Nan, .Nan,
          .Nan, .Nan, .Nan, .Nan, .Nan, .Nan, .Nan, .Nan, .Nan, .Nan,
          .Nan, .Nan, .Nan, .Nan, .Nan, .Nan, .Nan, .Nan, .Nan, .Nan,
          .Nan, .Nan, .Nan, .Nan, .Nan, .Nan, .Nan, .Nan, .Nan, .Nan,
          .Nan, .Nan, .Nan, .Nan, .Nan, .Nan, .Nan, .Nan, .Nan, .Nan,
          .Nan, .Nan, .Nan, .Nan, .Nan, .Nan, .Nan, .Nan, .Nan, .Nan,
          .Nan, .Nan, .Nan, .Nan, .Nan, .Nan, .Nan, .Nan, .Nan, .Nan,
          .Nan, .Nan, .Nan, .Nan, .Nan, .Nan, .Nan, .Nan, .Nan, .Nan,
          .Nan, .Nan, .Nan, .Nan, .Nan, .Nan, .Nan, .Nan, .Nan, .Nan,
          .Nan, .Nan, .Nan, .Nan, .Nan, .Nan, .Nan, .Nan, .Nan, .Nan,
          .Nan, .Nan, .Nan, .Nan, .Nan, .Nan, .Nan, .Nan, .Nan, .Nan,
          .Nan, .Nan, .Nan, .Nan, .Nan, .Nan, .Nan, .Nan, .Nan, .Nan,
          .Nan, .Nan, .Nan, .Nan, .Nan, .Nan, .Nan, .Nan, .Nan, .Nan,
          .Nan, .Nan, .Nan, .Nan, .Nan, .Nan, .Nan, .Nan, .Nan, .Nan,
          .Nan, .Nan, .Nan, .Nan, .Nan, .Nan, .Nan, .Nan, .Nan, .Nan,
          .Nan, .Nan, .Nan, .Nan, .Nan, .Nan, .Nan, .Nan, .Nan, .Nan,
          .Nan, .Nan, .Nan, .Nan, .Nan, .Nan, .Nan, .Nan, .Nan, .Nan,
          .Nan, .Nan, .Nan, .Nan, .Nan, .Nan, .Nan, .Nan, .Nan, .Nan,
          .Nan, .Nan, .Nan, .Nan, .Nan, .Nan, .Nan, .Nan, .Nan, .Nan,
          .Nan, .Nan, .Nan, .Nan, .Nan, .Nan, .Nan, .Nan, .Nan, .Nan,
          .Nan, .Nan, .Nan, .Nan, .Nan, .Nan, .Nan, .Nan, .Nan, .Nan ]
      - [ .Nan, .Nan, .Nan, .Nan, .Nan, .Nan, .Nan, .Nan, .Nan, .Nan,
          .Nan, .Nan, .Nan, .Nan, .Nan, .Nan, .Nan, .Nan, .Nan, .Nan,
          .Nan, .Nan, .Nan, .Nan, .Nan, .Nan, .Nan, .Nan, .Nan, .Nan,
          .Nan, .Nan, .Nan, .Nan, .Nan, .Nan, .Nan, .Nan, .Nan, .Nan,
          .Nan, .Nan, .Nan, .Nan, .Nan, .Nan, .Nan, .Nan, .Nan, .Nan,
          .Nan, .Nan, .Nan, .Nan, .Nan, .Nan, .Nan, .Nan, .Nan, .Nan,
          .Nan, .Nan, .Nan, .Nan, .Nan, .Nan, .Nan, .Nan, .Nan, .Nan,
          .Nan, .Nan, .Nan, .Nan, .Nan, .Nan, .Nan, .Nan, .Nan, .Nan,
          .Nan, .Nan, .Nan, .Nan, .Nan, .Nan, .Nan, .Nan, .Nan, .Nan,
          .Nan, .Nan, .Nan, .Nan, .Nan, .Nan, .Nan, .Nan, .Nan, .Nan,
          .Nan, .Nan, .Nan, .Nan, .Nan, .Nan, .Nan, .Nan, .Nan, .Nan,
          .Nan, .Nan, .Nan, .Nan, .Nan, .Nan, .Nan, .Nan, .Nan, .Nan,
          .Nan, .Nan, .Nan, .Nan, .Nan, .Nan, .Nan, .Nan, .Nan, .Nan,
          .Nan, .Nan, .Nan, .Nan, .Nan, .Nan, .Nan, .Nan, .Nan, .Nan,
          .Nan, .Nan, .Nan, .Nan, .Nan, .Nan, .Nan, .Nan, .Nan, .Nan,
          .Nan, .Nan, .Nan, .Nan, .Nan, .Nan, .Nan, .Nan, .Nan, .Nan,
          .Nan, .Nan, .Nan, .Nan, .Nan, .Nan, .Nan, .Nan, .Nan, .Nan,
          .Nan, .Nan, .Nan, .Nan, .Nan, .Nan, .Nan, .Nan, .Nan, .Nan,
          .Nan, .Nan, .Nan, .Nan, .Nan, .Nan, .Nan, .Nan, .Nan, .Nan,
          .Nan, .Nan, .Nan, .Nan, .Nan, .Nan, .Nan, .Nan, .Nan, .Nan,
          .Nan, .Nan, .Nan, .Nan, .Nan, .Nan, .Nan, .Nan, .Nan, .Nan,
          .Nan, .Nan, .Nan, .Nan, .Nan, .Nan, .Nan, .Nan, .Nan, .Nan,
          .Nan, .Nan, .Nan, .Nan, .Nan, .Nan, .Nan, .Nan, .Nan, .Nan,
          .Nan, .Nan, .Nan, .Nan, .Nan, .Nan, .Nan, .Nan, .Nan, .Nan ]
      - [ .Nan, .Nan, .Nan, .Nan, .Nan, .Nan, .Nan, .Nan, .Nan, .Nan,
          .Nan, .Nan, .Nan, .Nan, .Nan, .Nan, .Nan, .Nan, .Nan, .Nan,
          .Nan, .Nan, .Nan, .Nan, .Nan, .Nan, .Nan, .Nan, .Nan, .Nan,
          .Nan, .Nan, .Nan, .Nan, .Nan, .Nan, .Nan, .Nan, .Nan, .Nan,
          .Nan, .Nan, .Nan, .Nan, .Nan, .Nan, .Nan, .Nan, .Nan, .Nan,
          .Nan, .Nan, .Nan, .Nan, .Nan, .Nan, .Nan, .Nan, .Nan, .Nan,
          .Nan, .Nan, .Nan, .Nan, .Nan, .Nan, .Nan, .Nan, .Nan, .Nan,
          .Nan, .Nan, .Nan, .Nan, .Nan, .Nan, .Nan, .Nan, .Nan, .Nan,
          .Nan, .Nan, .Nan, .Nan, .Nan, .Nan, .Nan, .Nan, .Nan, .Nan,
          .Nan, .Nan, .Nan, .Nan, .Nan, .Nan, .Nan, .Nan, .Nan, .Nan,
          .Nan, .Nan, .Nan, .Nan, .Nan, .Nan, .Nan, .Nan, .Nan, .Nan,
          .Nan, .Nan, .Nan, .Nan, .Nan, .Nan, .Nan, .Nan, .Nan, .Nan,
          .Nan, .Nan, .Nan, .Nan, .Nan, .Nan, .Nan, .Nan, .Nan, .Nan,
          .Nan, .Nan, .Nan, .Nan, .Nan, .Nan, .Nan, .Nan, .Nan, .Nan,
          .Nan, .Nan, .Nan, .Nan, .Nan, .Nan, .Nan, .Nan, .Nan, .Nan,
          .Nan, .Nan, .Nan, .Nan, .Nan, .Nan, .Nan, .Nan, .Nan, .Nan,
          .Nan, .Nan, .Nan, .Nan, .Nan, .Nan, .Nan, .Nan, .Nan, .Nan,
          .Nan, .Nan, .Nan, .Nan, .Nan, .Nan, .Nan, .Nan, .Nan, .Nan,
          .Nan, .Nan, .Nan, .Nan, .Nan, .Nan, .Nan, .Nan, .Nan, .Nan,
          .Nan, .Nan, .Nan, .Nan, .Nan, .Nan, .Nan, .Nan, .Nan, .Nan,
          .Nan, .Nan, .Nan, .Nan, .Nan, .Nan, .Nan, .Nan, .Nan, .Nan,
          .Nan, .Nan, .Nan, .Nan, .Nan, .Nan, .Nan, .Nan, .Nan, .Nan,
          .Nan, .Nan, .Nan, .Nan, .Nan, .Nan, .Nan, .Nan, .Nan, .Nan,
          .Nan, .Nan, .Nan, .Nan, .Nan, .Nan, .Nan, .Nan, .Nan, .Nan ]
      - [ .Nan, .Nan, .Nan, .Nan, .Nan, .Nan, .Nan, .Nan, .Nan, .Nan,
          .Nan, .Nan, .Nan, .Nan, .Nan, .Nan, .Nan, .Nan, .Nan, .Nan,
          .Nan, .Nan, .Nan, .Nan, .Nan, .Nan, .Nan, .Nan, .Nan, .Nan,
          .Nan, .Nan, .Nan, .Nan, .Nan, .Nan, .Nan, .Nan, .Nan, .Nan,
          .Nan, .Nan, .Nan, .Nan, .Nan, .Nan, .Nan, .Nan, .Nan, .Nan,
          .Nan, .Nan, .Nan, .Nan, .Nan, .Nan, .Nan, .Nan, .Nan, .Nan,
          .Nan, .Nan, .Nan, .Nan, .Nan, .Nan, .Nan, .Nan, .Nan, .Nan,
          .Nan, .Nan, .Nan, .Nan, .Nan, .Nan, .Nan, .Nan, .Nan, .Nan,
          .Nan, .Nan, .Nan, .Nan, .Nan, .Nan, .Nan, .Nan, .Nan, .Nan,
          .Nan, .Nan, .Nan, .Nan, .Nan, .Nan, .Nan, .Nan, .Nan, .Nan,
          .Nan, .Nan, .Nan, .Nan, .Nan, .Nan, .Nan, .Nan, .Nan, .Nan,
          .Nan, .Nan, .Nan, .Nan, .Nan, .Nan, .Nan, .Nan, .Nan, .Nan,
          .Nan, .Nan, .Nan, .Nan, .Nan, .Nan, .Nan, .Nan, .Nan, .Nan,
          .Nan, .Nan, .Nan, .Nan, .Nan, .Nan, .Nan, .Nan, .Nan, .Nan,
          .Nan, .Nan, .Nan, .Nan, .Nan, .Nan, .Nan, .Nan, .Nan, .Nan,
          .Nan, .Nan, .Nan, .Nan, .Nan, .Nan, .Nan, .Nan, .Nan, .Nan,
          .Nan, .Nan, .Nan, .Nan, .Nan, .Nan, .Nan, .Nan, .Nan, .Nan,
          .Nan, .Nan, .Nan, .Nan, .Nan, .Nan, .Nan, .Nan, .Nan, .Nan,
          .Nan, .Nan, .Nan, .Nan, .Nan, .Nan, .Nan, .Nan, .Nan, .Nan,
          .Nan, .Nan, .Nan, .Nan, .Nan, .Nan, .Nan, .Nan, .Nan, .Nan,
          .Nan, .Nan, .Nan, .Nan, .Nan, .Nan, .Nan, .Nan, .Nan, .Nan,
          .Nan, .Nan, .Nan, .Nan, .Nan, .Nan, .Nan, .Nan, .Nan, .Nan,
          .Nan, .Nan, .Nan, .Nan, .Nan, .Nan, .Nan, .Nan, .Nan, .Nan,
          .Nan, .Nan, .Nan, .Nan, .Nan, .Nan, .Nan, .Nan, .Nan, .Nan ]
      - [ .Nan, .Nan, .Nan, .Nan, .Nan, .Nan, .Nan, .Nan, .Nan, .Nan,
          .Nan, .Nan, .Nan, .Nan, .Nan, .Nan, .Nan, .Nan, .Nan, .Nan,
          .Nan, .Nan, .Nan, .Nan, .Nan, .Nan, .Nan, .Nan, .Nan, .Nan,
          .Nan, .Nan, .Nan, .Nan, .Nan, .Nan, .Nan, .Nan, .Nan, .Nan,
          .Nan, .Nan, .Nan, .Nan, .Nan, .Nan, .Nan, .Nan, .Nan, .Nan,
          .Nan, .Nan, .Nan, .Nan, .Nan, .Nan, .Nan, .Nan, .Nan, .Nan,
          .Nan, .Nan, .Nan, .Nan, .Nan, .Nan, .Nan, .Nan, .Nan, .Nan,
          .Nan, .Nan, .Nan, .Nan, .Nan, .Nan, .Nan, .Nan, .Nan, .Nan,
          .Nan, .Nan, .Nan, .Nan, .Nan, .Nan, .Nan, .Nan, .Nan, .Nan,
          .Nan, .Nan, .Nan, .Nan, .Nan, .Nan, .Nan, .Nan, .Nan, .Nan,
          .Nan, .Nan, .Nan, .Nan, .Nan, .Nan, .Nan, .Nan, .Nan, .Nan,
          .Nan, .Nan, .Nan, .Nan, .Nan, .Nan, .Nan, .Nan, .Nan, .Nan,
          .Nan, .Nan, .Nan, .Nan, .Nan, .Nan, .Nan, .Nan, .Nan, .Nan,
          .Nan, .Nan, .Nan, .Nan, .Nan, .Nan, .Nan, .Nan, .Nan, .Nan,
          .Nan, .Nan, .Nan, .Nan, .Nan, .Nan, .Nan, .Nan, .Nan, .Nan,
          .Nan, .Nan, .Nan, .Nan, .Nan, .Nan, .Nan, .Nan, .Nan, .Nan,
          .Nan, .Nan, .Nan, .Nan, .Nan, .Nan, .Nan, .Nan, .Nan, .Nan,
          .Nan, .Nan, .Nan, .Nan, .Nan, .Nan, .Nan, .Nan, .Nan, .Nan,
          .Nan, .Nan, .Nan, .Nan, .Nan, .Nan, .Nan, .Nan, .Nan, .Nan,
          .Nan, .Nan, .Nan, .Nan, .Nan, .Nan, .Nan, .Nan, .Nan, .Nan,
          .Nan, .Nan, .Nan, .Nan, .Nan, .Nan, .Nan, .Nan, .Nan, .Nan,
          .Nan, .Nan, .Nan, .Nan, .Nan, .Nan, .Nan, .Nan, .Nan, .Nan,
          .Nan, .Nan, .Nan, .Nan, .Nan, .Nan, .Nan, .Nan, .Nan, .Nan,
          .Nan, .Nan, .Nan, .Nan, .Nan, .Nan, .Nan, .Nan, .Nan, .Nan ]
      - [ .Nan, .Nan, .Nan, .Nan, .Nan, .Nan, .Nan, .Nan, .Nan, .Nan,
          .Nan, .Nan, .Nan, .Nan, .Nan, .Nan, .Nan, .Nan, .Nan, .Nan,
          .Nan, .Nan, .Nan, .Nan, .Nan, .Nan, .Nan, .Nan, .Nan, .Nan,
          .Nan, .Nan, .Nan, .Nan, .Nan, .Nan, .Nan, .Nan, .Nan, .Nan,
          .Nan, .Nan, .Nan, .Nan, .Nan, .Nan, .Nan, .Nan, .Nan, .Nan,
          .Nan, .Nan, .Nan, .Nan, .Nan, .Nan, .Nan, .Nan, .Nan, .Nan,
          .Nan, .Nan, .Nan, .Nan, .Nan, .Nan, .Nan, .Nan, .Nan, .Nan,
          .Nan, .Nan, .Nan, .Nan, .Nan, .Nan, .Nan, .Nan, .Nan, .Nan,
          .Nan, .Nan, .Nan, .Nan, .Nan, .Nan, .Nan, .Nan, .Nan, .Nan,
          .Nan, .Nan, .Nan, .Nan, .Nan, .Nan, .Nan, .Nan, .Nan, .Nan,
          .Nan, .Nan, .Nan, .Nan, .Nan, .Nan, .Nan, .Nan, .Nan, .Nan,
          .Nan, .Nan, .Nan, .Nan, .Nan, .Nan, .Nan, .Nan, .Nan, .Nan,
          .Nan, .Nan, .Nan, .Nan, .Nan, .Nan, .Nan, .Nan, .Nan, .Nan,
          .Nan, .Nan, .Nan, .Nan, .Nan, .Nan, .Nan, .Nan, .Nan, .Nan,
          .Nan, .Nan, .Nan, .Nan, .Nan, .Nan, .Nan, .Nan, .Nan, .Nan,
          .Nan, .Nan, .Nan, .Nan, .Nan, .Nan, .Nan, .Nan, .Nan, .Nan,
          .Nan, .Nan, .Nan, .Nan, .Nan, .Nan, .Nan, .Nan, .Nan, .Nan,
          .Nan, .Nan, .Nan, .Nan, .Nan, .Nan, .Nan, .Nan, .Nan, .Nan,
          .Nan, .Nan, .Nan, .Nan, .Nan, .Nan, .Nan, .Nan, .Nan, .Nan,
          .Nan, .Nan, .Nan, .Nan, .Nan, .Nan, .Nan, .Nan, .Nan, .Nan,
          .Nan, .Nan, .Nan, .Nan, .Nan, .Nan, .Nan, .Nan, .Nan, .Nan,
          .Nan, .Nan, .Nan, .Nan, .Nan, .Nan, .Nan, .Nan, .Nan, .Nan,
          .Nan, .Nan, .Nan, .Nan, .Nan, .Nan, .Nan, .Nan, .Nan, .Nan,
          .Nan, .Nan, .Nan, .Nan, .Nan, .Nan, .Nan, .Nan, .Nan, .Nan ]
      - [ .Nan, .Nan, .Nan, .Nan, .Nan, .Nan, .Nan, .Nan, .Nan, .Nan,
          .Nan, .Nan, .Nan, .Nan, .Nan, .Nan, .Nan, .Nan, .Nan, .Nan,
          .Nan, .Nan, .Nan, .Nan, .Nan, .Nan, .Nan, .Nan, .Nan, .Nan,
          .Nan, .Nan, .Nan, .Nan, .Nan, .Nan, .Nan, .Nan, .Nan, .Nan,
          .Nan, .Nan, .Nan, .Nan, .Nan, .Nan, .Nan, .Nan, .Nan, .Nan,
          .Nan, .Nan, .Nan, .Nan, .Nan, .Nan, .Nan, .Nan, .Nan, .Nan,
          .Nan, .Nan, .Nan, .Nan, .Nan, .Nan, .Nan, .Nan, .Nan, .Nan,
          .Nan, .Nan, .Nan, .Nan, .Nan, .Nan, .Nan, .Nan, .Nan, .Nan,
          .Nan, .Nan, .Nan, .Nan, .Nan, .Nan, .Nan, .Nan, .Nan, .Nan,
          .Nan, .Nan, .Nan, .Nan, .Nan, .Nan, .Nan, .Nan, .Nan, .Nan,
          .Nan, .Nan, .Nan, .Nan, .Nan, .Nan, .Nan, .Nan, .Nan, .Nan,
          .Nan, .Nan, .Nan, .Nan, .Nan, .Nan, .Nan, .Nan, .Nan, .Nan,
          .Nan, .Nan, .Nan, .Nan, .Nan, .Nan, .Nan, .Nan, .Nan, .Nan,
          .Nan, .Nan, .Nan, .Nan, .Nan, .Nan, .Nan, .Nan, .Nan, .Nan,
          .Nan, .Nan, .Nan, .Nan, .Nan, .Nan, .Nan, .Nan, .Nan, .Nan,
          .Nan, .Nan, .Nan, .Nan, .Nan, .Nan, .Nan, .Nan, .Nan, .Nan,
          .Nan, .Nan, .Nan, .Nan, .Nan, .Nan, .Nan, .Nan, .Nan, .Nan,
          .Nan, .Nan, .Nan, .Nan, .Nan, .Nan, .Nan, .Nan, .Nan, .Nan,
          .Nan, .Nan, .Nan, .Nan, .Nan, .Nan, .Nan, .Nan, .Nan, .Nan,
          .Nan, .Nan, .Nan, .Nan, .Nan, .Nan, .Nan, .Nan, .Nan, .Nan,
          .Nan, .Nan, .Nan, .Nan, .Nan, .Nan, .Nan, .Nan, .Nan, .Nan,
          .Nan, .Nan, .Nan, .Nan, .Nan, .Nan, .Nan, .Nan, .Nan, .Nan,
          .Nan, .Nan, .Nan, .Nan, .Nan, .Nan, .Nan, .Nan, .Nan, .Nan,
          .Nan, .Nan, .Nan, .Nan, .Nan, .Nan, .Nan, .Nan, .Nan, .Nan ]
      - [ .Nan, .Nan, .Nan, .Nan, .Nan, .Nan, .Nan, .Nan, .Nan, .Nan,
          .Nan, .Nan, .Nan, .Nan, .Nan, .Nan, .Nan, .Nan, .Nan, .Nan,
          .Nan, .Nan, .Nan, .Nan, .Nan, .Nan, .Nan, .Nan, .Nan, .Nan,
          .Nan, .Nan, .Nan, .Nan, .Nan, .Nan, .Nan, .Nan, .Nan, .Nan,
          .Nan, .Nan, .Nan, .Nan, .Nan, .Nan, .Nan, .Nan, .Nan, .Nan,
          .Nan, .Nan, .Nan, .Nan, .Nan, .Nan, .Nan, .Nan, .Nan, .Nan,
          .Nan, .Nan, .Nan, .Nan, .Nan, .Nan, .Nan, .Nan, .Nan, .Nan,
          .Nan, .Nan, .Nan, .Nan, .Nan, .Nan, .Nan, .Nan, .Nan, .Nan,
          .Nan, .Nan, .Nan, .Nan, .Nan, .Nan, .Nan, .Nan, .Nan, .Nan,
          .Nan, .Nan, .Nan, .Nan, .Nan, .Nan, .Nan, .Nan, .Nan, .Nan,
          .Nan, .Nan, .Nan, .Nan, .Nan, .Nan, .Nan, .Nan, .Nan, .Nan,
          .Nan, .Nan, .Nan, .Nan, .Nan, .Nan, .Nan, .Nan, .Nan, .Nan,
          .Nan, .Nan, .Nan, .Nan, .Nan, .Nan, .Nan, .Nan, .Nan, .Nan,
          .Nan, .Nan, .Nan, .Nan, .Nan, .Nan, .Nan, .Nan, .Nan, .Nan,
          .Nan, .Nan, .Nan, .Nan, .Nan, .Nan, .Nan, .Nan, .Nan, .Nan,
          .Nan, .Nan, .Nan, .Nan, .Nan, .Nan, .Nan, .Nan, .Nan, .Nan,
          .Nan, .Nan, .Nan, .Nan, .Nan, .Nan, .Nan, .Nan, .Nan, .Nan,
          .Nan, .Nan, .Nan, .Nan, .Nan, .Nan, .Nan, .Nan, .Nan, .Nan,
          .Nan, .Nan, .Nan, .Nan, .Nan, .Nan, .Nan, .Nan, .Nan, .Nan,
          .Nan, .Nan, .Nan, .Nan, .Nan, .Nan, .Nan, .Nan, .Nan, .Nan,
          .Nan, .Nan, .Nan, .Nan, .Nan, .Nan, .Nan, .Nan, .Nan, .Nan,
          .Nan, .Nan, .Nan, .Nan, .Nan, .Nan, .Nan, .Nan, .Nan, .Nan,
          .Nan, .Nan, .Nan, .Nan, .Nan, .Nan, .Nan, .Nan, .Nan, .Nan,
          .Nan, .Nan, .Nan, .Nan, .Nan, .Nan, .Nan, .Nan, .Nan, .Nan ]
      - [ .Nan, .Nan, .Nan, .Nan, .Nan, .Nan, .Nan, .Nan, .Nan, .Nan,
          .Nan, .Nan, .Nan, .Nan, .Nan, .Nan, .Nan, .Nan, .Nan, .Nan,
          .Nan, .Nan, .Nan, .Nan, .Nan, .Nan, .Nan, .Nan, .Nan, .Nan,
          .Nan, .Nan, .Nan, .Nan, .Nan, .Nan, .Nan, .Nan, .Nan, .Nan,
          .Nan, .Nan, .Nan, .Nan, .Nan, .Nan, .Nan, .Nan, .Nan, .Nan,
          .Nan, .Nan, .Nan, .Nan, .Nan, .Nan, .Nan, .Nan, .Nan, .Nan,
          .Nan, .Nan, .Nan, .Nan, .Nan, .Nan, .Nan, .Nan, .Nan, .Nan,
          .Nan, .Nan, .Nan, .Nan, .Nan, .Nan, .Nan, .Nan, .Nan, .Nan,
          .Nan, .Nan, .Nan, .Nan, .Nan, .Nan, .Nan, .Nan, .Nan, .Nan,
          .Nan, .Nan, .Nan, .Nan, .Nan, .Nan, .Nan, .Nan, .Nan, .Nan,
          .Nan, .Nan, .Nan, .Nan, .Nan, .Nan, .Nan, .Nan, .Nan, .Nan,
          .Nan, .Nan, .Nan, .Nan, .Nan, .Nan, .Nan, .Nan, .Nan, .Nan,
          .Nan, .Nan, .Nan, .Nan, .Nan, .Nan, .Nan, .Nan, .Nan, .Nan,
          .Nan, .Nan, .Nan, .Nan, .Nan, .Nan, .Nan, .Nan, .Nan, .Nan,
          .Nan, .Nan, .Nan, .Nan, .Nan, .Nan, .Nan, .Nan, .Nan, .Nan,
          .Nan, .Nan, .Nan, .Nan, .Nan, .Nan, .Nan, .Nan, .Nan, .Nan,
          .Nan, .Nan, .Nan, .Nan, .Nan, .Nan, .Nan, .Nan, .Nan, .Nan,
          .Nan, .Nan, .Nan, .Nan, .Nan, .Nan, .Nan, .Nan, .Nan, .Nan,
          .Nan, .Nan, .Nan, .Nan, .Nan, .Nan, .Nan, .Nan, .Nan, .Nan,
          .Nan, .Nan, .Nan, .Nan, .Nan, .Nan, .Nan, .Nan, .Nan, .Nan,
          .Nan, .Nan, .Nan, .Nan, .Nan, .Nan, .Nan, .Nan, .Nan, .Nan,
          .Nan, .Nan, .Nan, .Nan, .Nan, .Nan, .Nan, .Nan, .Nan, .Nan,
          .Nan, .Nan, .Nan, .Nan, .Nan, .Nan, .Nan, .Nan, .Nan, .Nan,
          .Nan, .Nan, .Nan, .Nan, .Nan, .Nan, .Nan, .Nan, .Nan, .Nan ]
      - [ .Nan, .Nan, .Nan, .Nan, .Nan, .Nan, .Nan, .Nan, .Nan, .Nan,
          .Nan, .Nan, .Nan, .Nan, .Nan, .Nan, .Nan, .Nan, .Nan, .Nan,
          .Nan, .Nan, .Nan, .Nan, .Nan, .Nan, .Nan, .Nan, .Nan, .Nan,
          .Nan, .Nan, .Nan, .Nan, .Nan, .Nan, .Nan, .Nan, .Nan, .Nan,
          .Nan, .Nan, .Nan, .Nan, .Nan, .Nan, .Nan, .Nan, .Nan, .Nan,
          .Nan, .Nan, .Nan, .Nan, .Nan, .Nan, .Nan, .Nan, .Nan, .Nan,
          .Nan, .Nan, .Nan, .Nan, .Nan, .Nan, .Nan, .Nan, .Nan, .Nan,
          .Nan, .Nan, .Nan, .Nan, .Nan, .Nan, .Nan, .Nan, .Nan, .Nan,
          .Nan, .Nan, .Nan, .Nan, .Nan, .Nan, .Nan, .Nan, .Nan, .Nan,
          .Nan, .Nan, .Nan, .Nan, .Nan, .Nan, .Nan, .Nan, .Nan, .Nan,
          .Nan, .Nan, .Nan, .Nan, .Nan, .Nan, .Nan, .Nan, .Nan, .Nan,
          .Nan, .Nan, .Nan, .Nan, .Nan, .Nan, .Nan, .Nan, .Nan, .Nan,
          .Nan, .Nan, .Nan, .Nan, .Nan, .Nan, .Nan, .Nan, .Nan, .Nan,
          .Nan, .Nan, .Nan, .Nan, .Nan, .Nan, .Nan, .Nan, .Nan, .Nan,
          .Nan, .Nan, .Nan, .Nan, .Nan, .Nan, .Nan, .Nan, .Nan, .Nan,
          .Nan, .Nan, .Nan, .Nan, .Nan, .Nan, .Nan, .Nan, .Nan, .Nan,
          .Nan, .Nan, .Nan, .Nan, .Nan, .Nan, .Nan, .Nan, .Nan, .Nan,
          .Nan, .Nan, .Nan, .Nan, .Nan, .Nan, .Nan, .Nan, .Nan, .Nan,
          .Nan, .Nan, .Nan, .Nan, .Nan, .Nan, .Nan, .Nan, .Nan, .Nan,
          .Nan, .Nan, .Nan, .Nan, .Nan, .Nan, .Nan, .Nan, .Nan, .Nan,
          .Nan, .Nan, .Nan, .Nan, .Nan, .Nan, .Nan, .Nan, .Nan, .Nan,
          .Nan, .Nan, .Nan, .Nan, .Nan, .Nan, .Nan, .Nan, .Nan, .Nan,
          .Nan, .Nan, .Nan, .Nan, .Nan, .Nan, .Nan, .Nan, .Nan, .Nan,
          .Nan, .Nan, .Nan, .Nan, .Nan, .Nan, .Nan, .Nan, .Nan, .Nan ]
      - [ .Nan, .Nan, .Nan, .Nan, .Nan, .Nan, .Nan, .Nan, .Nan, .Nan,
          .Nan, .Nan, .Nan, .Nan, .Nan, .Nan, .Nan, .Nan, .Nan, .Nan,
          .Nan, .Nan, .Nan, .Nan, .Nan, .Nan, .Nan, .Nan, .Nan, .Nan,
          .Nan, .Nan, .Nan, .Nan, .Nan, .Nan, .Nan, .Nan, .Nan, .Nan,
          .Nan, .Nan, .Nan, .Nan, .Nan, .Nan, .Nan, .Nan, .Nan, .Nan,
          .Nan, .Nan, .Nan, .Nan, .Nan, .Nan, .Nan, .Nan, .Nan, .Nan,
          .Nan, .Nan, .Nan, .Nan, .Nan, .Nan, .Nan, .Nan, .Nan, .Nan,
          .Nan, .Nan, .Nan, .Nan, .Nan, .Nan, .Nan, .Nan, .Nan, .Nan,
          .Nan, .Nan, .Nan, .Nan, .Nan, .Nan, .Nan, .Nan, .Nan, .Nan,
          .Nan, .Nan, .Nan, .Nan, .Nan, .Nan, .Nan, .Nan, .Nan, .Nan,
          .Nan, .Nan, .Nan, .Nan, .Nan, .Nan, .Nan, .Nan, .Nan, .Nan,
          .Nan, .Nan, .Nan, .Nan, .Nan, .Nan, .Nan, .Nan, .Nan, .Nan,
          .Nan, .Nan, .Nan, .Nan, .Nan, .Nan, .Nan, .Nan, .Nan, .Nan,
          .Nan, .Nan, .Nan, .Nan, .Nan, .Nan, .Nan, .Nan, .Nan, .Nan,
          .Nan, .Nan, .Nan, .Nan, .Nan, .Nan, .Nan, .Nan, .Nan, .Nan,
          .Nan, .Nan, .Nan, .Nan, .Nan, .Nan, .Nan, .Nan, .Nan, .Nan,
          .Nan, .Nan, .Nan, .Nan, .Nan, .Nan, .Nan, .Nan, .Nan, .Nan,
          .Nan, .Nan, .Nan, .Nan, .Nan, .Nan, .Nan, .Nan, .Nan, .Nan,
          .Nan, .Nan, .Nan, .Nan, .Nan, .Nan, .Nan, .Nan, .Nan, .Nan,
          .Nan, .Nan, .Nan, .Nan, .Nan, .Nan, .Nan, .Nan, .Nan, .Nan,
          .Nan, .Nan, .Nan, .Nan, .Nan, .Nan, .Nan, .Nan, .Nan, .Nan,
          .Nan, .Nan, .Nan, .Nan, .Nan, .Nan, .Nan, .Nan, .Nan, .Nan,
          .Nan, .Nan, .Nan, .Nan, .Nan, .Nan, .Nan, .Nan, .Nan, .Nan,
          .Nan, .Nan, .Nan, .Nan, .Nan, .Nan, .Nan, .Nan, .Nan, .Nan ]
      - [ .Nan, .Nan, .Nan, .Nan, .Nan, .Nan, .Nan, .Nan, .Nan, .Nan,
          .Nan, .Nan, .Nan, .Nan, .Nan, .Nan, .Nan, .Nan, .Nan, .Nan,
          .Nan, .Nan, .Nan, .Nan, .Nan, .Nan, .Nan, .Nan, .Nan, .Nan,
          .Nan, .Nan, .Nan, .Nan, .Nan, .Nan, .Nan, .Nan, .Nan, .Nan,
          .Nan, .Nan, .Nan, .Nan, .Nan, .Nan, .Nan, .Nan, .Nan, .Nan,
          .Nan, .Nan, .Nan, .Nan, .Nan, .Nan, .Nan, .Nan, .Nan, .Nan,
          .Nan, .Nan, .Nan, .Nan, .Nan, .Nan, .Nan, .Nan, .Nan, .Nan,
          .Nan, .Nan, .Nan, .Nan, .Nan, .Nan, .Nan, .Nan, .Nan, .Nan,
          .Nan, .Nan, .Nan, .Nan, .Nan, .Nan, .Nan, .Nan, .Nan, .Nan,
          .Nan, .Nan, .Nan, .Nan, .Nan, .Nan, .Nan, .Nan, .Nan, .Nan,
          .Nan, .Nan, .Nan, .Nan, .Nan, .Nan, .Nan, .Nan, .Nan, .Nan,
          .Nan, .Nan, .Nan, .Nan, .Nan, .Nan, .Nan, .Nan, .Nan, .Nan,
          .Nan, .Nan, .Nan, .Nan, .Nan, .Nan, .Nan, .Nan, .Nan, .Nan,
          .Nan, .Nan, .Nan, .Nan, .Nan, .Nan, .Nan, .Nan, .Nan, .Nan,
          .Nan, .Nan, .Nan, .Nan, .Nan, .Nan, .Nan, .Nan, .Nan, .Nan,
          .Nan, .Nan, .Nan, .Nan, .Nan, .Nan, .Nan, .Nan, .Nan, .Nan,
          .Nan, .Nan, .Nan, .Nan, .Nan, .Nan, .Nan, .Nan, .Nan, .Nan,
          .Nan, .Nan, .Nan, .Nan, .Nan, .Nan, .Nan, .Nan, .Nan, .Nan,
          .Nan, .Nan, .Nan, .Nan, .Nan, .Nan, .Nan, .Nan, .Nan, .Nan,
          .Nan, .Nan, .Nan, .Nan, .Nan, .Nan, .Nan, .Nan, .Nan, .Nan,
          .Nan, .Nan, .Nan, .Nan, .Nan, .Nan, .Nan, .Nan, .Nan, .Nan,
          .Nan, .Nan, .Nan, .Nan, .Nan, .Nan, .Nan, .Nan, .Nan, .Nan,
          .Nan, .Nan, .Nan, .Nan, .Nan, .Nan, .Nan, .Nan, .Nan, .Nan,
          .Nan, .Nan, .Nan, .Nan, .Nan, .Nan, .Nan, .Nan, .Nan, .Nan ]
      - [ .Nan, .Nan, .Nan, .Nan, .Nan, .Nan, .Nan, .Nan, .Nan, .Nan,
          .Nan, .Nan, .Nan, .Nan, .Nan, .Nan, .Nan, .Nan, .Nan, .Nan,
          .Nan, .Nan, .Nan, .Nan, .Nan, .Nan, .Nan, .Nan, .Nan, .Nan,
          .Nan, .Nan, .Nan, .Nan, .Nan, .Nan, .Nan, .Nan, .Nan, .Nan,
          .Nan, .Nan, .Nan, .Nan, .Nan, .Nan, .Nan, .Nan, .Nan, .Nan,
          .Nan, .Nan, .Nan, .Nan, .Nan, .Nan, .Nan, .Nan, .Nan, .Nan,
          .Nan, .Nan, .Nan, .Nan, .Nan, .Nan, .Nan, .Nan, .Nan, .Nan,
          .Nan, .Nan, .Nan, .Nan, .Nan, .Nan, .Nan, .Nan, .Nan, .Nan,
          .Nan, .Nan, .Nan, .Nan, .Nan, .Nan, .Nan, .Nan, .Nan, .Nan,
          .Nan, .Nan, .Nan, .Nan, .Nan, .Nan, .Nan, .Nan, .Nan, .Nan,
          .Nan, .Nan, .Nan, .Nan, .Nan, .Nan, .Nan, .Nan, .Nan, .Nan,
          .Nan, .Nan, .Nan, .Nan, .Nan, .Nan, .Nan, .Nan, .Nan, .Nan,
          .Nan, .Nan, .Nan, .Nan, .Nan, .Nan, .Nan, .Nan, .Nan, .Nan,
          .Nan, .Nan, .Nan, .Nan, .Nan, .Nan, .Nan, .Nan, .Nan, .Nan,
          .Nan, .Nan, .Nan, .Nan, .Nan, .Nan, .Nan, .Nan, .Nan, .Nan,
          .Nan, .Nan, .Nan, .Nan, .Nan, .Nan, .Nan, .Nan, .Nan, .Nan,
          .Nan, .Nan, .Nan, .Nan, .Nan, .Nan, .Nan, .Nan, .Nan, .Nan,
          .Nan, .Nan, .Nan, .Nan, .Nan, .Nan, .Nan, .Nan, .Nan, .Nan,
          .Nan, .Nan, .Nan, .Nan, .Nan, .Nan, .Nan, .Nan, .Nan, .Nan,
          .Nan, .Nan, .Nan, .Nan, .Nan, .Nan, .Nan, .Nan, .Nan, .Nan,
          .Nan, .Nan, .Nan, .Nan, .Nan, .Nan, .Nan, .Nan, .Nan, .Nan,
          .Nan, .Nan, .Nan, .Nan, .Nan, .Nan, .Nan, .Nan, .Nan, .Nan,
          .Nan, .Nan, .Nan, .Nan, .Nan, .Nan, .Nan, .Nan, .Nan, .Nan,
          .Nan, .Nan, .Nan, .Nan, .Nan, .Nan, .Nan, .Nan, .Nan, .Nan ]
      - [ .Nan, .Nan, .Nan, .Nan, .Nan, .Nan, .Nan, .Nan, .Nan, .Nan,
          .Nan, .Nan, .Nan, .Nan, .Nan, .Nan, .Nan, .Nan, .Nan, .Nan,
          .Nan, .Nan, .Nan, .Nan, .Nan, .Nan, .Nan, .Nan, .Nan, .Nan,
          .Nan, .Nan, .Nan, .Nan, .Nan, .Nan, .Nan, .Nan, .Nan, .Nan,
          .Nan, .Nan, .Nan, .Nan, .Nan, .Nan, .Nan, .Nan, .Nan, .Nan,
          .Nan, .Nan, .Nan, .Nan, .Nan, .Nan, .Nan, .Nan, .Nan, .Nan,
          .Nan, .Nan, .Nan, .Nan, .Nan, .Nan, .Nan, .Nan, .Nan, .Nan,
          .Nan, .Nan, .Nan, .Nan, .Nan, .Nan, .Nan, .Nan, .Nan, .Nan,
          .Nan, .Nan, .Nan, .Nan, .Nan, .Nan, .Nan, .Nan, .Nan, .Nan,
          .Nan, .Nan, .Nan, .Nan, .Nan, .Nan, .Nan, .Nan, .Nan, .Nan,
          .Nan, .Nan, .Nan, .Nan, .Nan, .Nan, .Nan, .Nan, .Nan, .Nan,
          .Nan, .Nan, .Nan, .Nan, .Nan, .Nan, .Nan, .Nan, .Nan, .Nan,
          .Nan, .Nan, .Nan, .Nan, .Nan, .Nan, .Nan, .Nan, .Nan, .Nan,
          .Nan, .Nan, .Nan, .Nan, .Nan, .Nan, .Nan, .Nan, .Nan, .Nan,
          .Nan, .Nan, .Nan, .Nan, .Nan, .Nan, .Nan, .Nan, .Nan, .Nan,
          .Nan, .Nan, .Nan, .Nan, .Nan, .Nan, .Nan, .Nan, .Nan, .Nan,
          .Nan, .Nan, .Nan, .Nan, .Nan, .Nan, .Nan, .Nan, .Nan, .Nan,
          .Nan, .Nan, .Nan, .Nan, .Nan, .Nan, .Nan, .Nan, .Nan, .Nan,
          .Nan, .Nan, .Nan, .Nan, .Nan, .Nan, .Nan, .Nan, .Nan, .Nan,
          .Nan, .Nan, .Nan, .Nan, .Nan, .Nan, .Nan, .Nan, .Nan, .Nan,
          .Nan, .Nan, .Nan, .Nan, .Nan, .Nan, .Nan, .Nan, .Nan, .Nan,
          .Nan, .Nan, .Nan, .Nan, .Nan, .Nan, .Nan, .Nan, .Nan, .Nan,
          .Nan, .Nan, .Nan, .Nan, .Nan, .Nan, .Nan, .Nan, .Nan, .Nan,
          .Nan, .Nan, .Nan, .Nan, .Nan, .Nan, .Nan, .Nan, .Nan, .Nan ]
      - [ .Nan, .Nan, .Nan, .Nan, .Nan, .Nan, .Nan, .Nan, .Nan, .Nan,
          .Nan, .Nan, .Nan, .Nan, .Nan, .Nan, .Nan, .Nan, .Nan, .Nan,
          .Nan, .Nan, .Nan, .Nan, .Nan, .Nan, .Nan, .Nan, .Nan, .Nan,
          .Nan, .Nan, .Nan, .Nan, .Nan, .Nan, .Nan, .Nan, .Nan, .Nan,
          .Nan, .Nan, .Nan, .Nan, .Nan, .Nan, .Nan, .Nan, .Nan, .Nan,
          .Nan, .Nan, .Nan, .Nan, .Nan, .Nan, .Nan, .Nan, .Nan, .Nan,
          .Nan, .Nan, .Nan, .Nan, .Nan, .Nan, .Nan, .Nan, .Nan, .Nan,
          .Nan, .Nan, .Nan, .Nan, .Nan, .Nan, .Nan, .Nan, .Nan, .Nan,
          .Nan, .Nan, .Nan, .Nan, .Nan, .Nan, .Nan, .Nan, .Nan, .Nan,
          .Nan, .Nan, .Nan, .Nan, .Nan, .Nan, .Nan, .Nan, .Nan, .Nan,
          .Nan, .Nan, .Nan, .Nan, .Nan, .Nan, .Nan, .Nan, .Nan, .Nan,
          .Nan, .Nan, .Nan, .Nan, .Nan, .Nan, .Nan, .Nan, .Nan, .Nan,
          .Nan, .Nan, .Nan, .Nan, .Nan, .Nan, .Nan, .Nan, .Nan, .Nan,
          .Nan, .Nan, .Nan, .Nan, .Nan, .Nan, .Nan, .Nan, .Nan, .Nan,
          .Nan, .Nan, .Nan, .Nan, .Nan, .Nan, .Nan, .Nan, .Nan, .Nan,
          .Nan, .Nan, .Nan, .Nan, .Nan, .Nan, .Nan, .Nan, .Nan, .Nan,
          .Nan, .Nan, .Nan, .Nan, .Nan, .Nan, .Nan, .Nan, .Nan, .Nan,
          .Nan, .Nan, .Nan, .Nan, .Nan, .Nan, .Nan, .Nan, .Nan, .Nan,
          .Nan, .Nan, .Nan, .Nan, .Nan, .Nan, .Nan, .Nan, .Nan, .Nan,
          .Nan, .Nan, .Nan, .Nan, .Nan, .Nan, .Nan, .Nan, .Nan, .Nan,
          .Nan, .Nan, .Nan, .Nan, .Nan, .Nan, .Nan, .Nan, .Nan, .Nan,
          .Nan, .Nan, .Nan, .Nan, .Nan, .Nan, .Nan, .Nan, .Nan, .Nan,
          .Nan, .Nan, .Nan, .Nan, .Nan, .Nan, .Nan, .Nan, .Nan, .Nan,
          .Nan, .Nan, .Nan, .Nan, .Nan, .Nan, .Nan, .Nan, .Nan, .Nan ]
      - [ .Nan, .Nan, .Nan, .Nan, .Nan, .Nan, .Nan, .Nan, .Nan, .Nan,
          .Nan, .Nan, .Nan, .Nan, .Nan, .Nan, .Nan, .Nan, .Nan, .Nan,
          .Nan, .Nan, .Nan, .Nan, .Nan, .Nan, .Nan, .Nan, .Nan, .Nan,
          .Nan, .Nan, .Nan, .Nan, .Nan, .Nan, .Nan, .Nan, .Nan, .Nan,
          .Nan, .Nan, .Nan, .Nan, .Nan, .Nan, .Nan, .Nan, .Nan, .Nan,
          .Nan, .Nan, .Nan, .Nan, .Nan, .Nan, .Nan, .Nan, .Nan, .Nan,
          .Nan, .Nan, .Nan, .Nan, .Nan, .Nan, .Nan, .Nan, .Nan, .Nan,
          .Nan, .Nan, .Nan, .Nan, .Nan, .Nan, .Nan, .Nan, .Nan, .Nan,
          .Nan, .Nan, .Nan, .Nan, .Nan, .Nan, .Nan, .Nan, .Nan, .Nan,
          .Nan, .Nan, .Nan, .Nan, .Nan, .Nan, .Nan, .Nan, .Nan, .Nan,
          .Nan, .Nan, .Nan, .Nan, .Nan, .Nan, .Nan, .Nan, .Nan, .Nan,
          .Nan, .Nan, .Nan, .Nan, .Nan, .Nan, .Nan, .Nan, .Nan, .Nan,
          .Nan, .Nan, .Nan, .Nan, .Nan, .Nan, .Nan, .Nan, .Nan, .Nan,
          .Nan, .Nan, .Nan, .Nan, .Nan, .Nan, .Nan, .Nan, .Nan, .Nan,
          .Nan, .Nan, .Nan, .Nan, .Nan, .Nan, .Nan, .Nan, .Nan, .Nan,
          .Nan, .Nan, .Nan, .Nan, .Nan, .Nan, .Nan, .Nan, .Nan, .Nan,
          .Nan, .Nan, .Nan, .Nan, .Nan, .Nan, .Nan, .Nan, .Nan, .Nan,
          .Nan, .Nan, .Nan, .Nan, .Nan, .Nan, .Nan, .Nan, .Nan, .Nan,
          .Nan, .Nan, .Nan, .Nan, .Nan, .Nan, .Nan, .Nan, .Nan, .Nan,
          .Nan, .Nan, .Nan, .Nan, .Nan, .Nan, .Nan, .Nan, .Nan, .Nan,
          .Nan, .Nan, .Nan, .Nan, .Nan, .Nan, .Nan, .Nan, .Nan, .Nan,
          .Nan, .Nan, .Nan, .Nan, .Nan, .Nan, .Nan, .Nan, .Nan, .Nan,
          .Nan, .Nan, .Nan, .Nan, .Nan, .Nan, .Nan, .Nan, .Nan, .Nan,
          .Nan, .Nan, .Nan, .Nan, .Nan, .Nan, .Nan, .Nan, .Nan, .Nan ]
      - [ .Nan, .Nan, .Nan, .Nan, .Nan, .Nan, .Nan, .Nan, .Nan, .Nan,
          .Nan, .Nan, .Nan, .Nan, .Nan, .Nan, .Nan, .Nan, .Nan, .Nan,
          .Nan, .Nan, .Nan, .Nan, .Nan, .Nan, .Nan, .Nan, .Nan, .Nan,
          .Nan, .Nan, .Nan, .Nan, .Nan, .Nan, .Nan, .Nan, .Nan, .Nan,
          .Nan, .Nan, .Nan, .Nan, .Nan, .Nan, .Nan, .Nan, .Nan, .Nan,
          .Nan, .Nan, .Nan, .Nan, .Nan, .Nan, .Nan, .Nan, .Nan, .Nan,
          .Nan, .Nan, .Nan, .Nan, .Nan, .Nan, .Nan, .Nan, .Nan, .Nan,
          .Nan, .Nan, .Nan, .Nan, .Nan, .Nan, .Nan, .Nan, .Nan, .Nan,
          .Nan, .Nan, .Nan, .Nan, .Nan, .Nan, .Nan, .Nan, .Nan, .Nan,
          .Nan, .Nan, .Nan, .Nan, .Nan, .Nan, .Nan, .Nan, .Nan, .Nan,
          .Nan, .Nan, .Nan, .Nan, .Nan, .Nan, .Nan, .Nan, .Nan, .Nan,
          .Nan, .Nan, .Nan, .Nan, .Nan, .Nan, .Nan, .Nan, .Nan, .Nan,
          .Nan, .Nan, .Nan, .Nan, .Nan, .Nan, .Nan, .Nan, .Nan, .Nan,
          .Nan, .Nan, .Nan, .Nan, .Nan, .Nan, .Nan, .Nan, .Nan, .Nan,
          .Nan, .Nan, .Nan, .Nan, .Nan, .Nan, .Nan, .Nan, .Nan, .Nan,
          .Nan, .Nan, .Nan, .Nan, .Nan, .Nan, .Nan, .Nan, .Nan, .Nan,
          .Nan, .Nan, .Nan, .Nan, .Nan, .Nan, .Nan, .Nan, .Nan, .Nan,
          .Nan, .Nan, .Nan, .Nan, .Nan, .Nan, .Nan, .Nan, .Nan, .Nan,
          .Nan, .Nan, .Nan, .Nan, .Nan, .Nan, .Nan, .Nan, .Nan, .Nan,
          .Nan, .Nan, .Nan, .Nan, .Nan, .Nan, .Nan, .Nan, .Nan, .Nan,
          .Nan, .Nan, .Nan, .Nan, .Nan, .Nan, .Nan, .Nan, .Nan, .Nan,
          .Nan, .Nan, .Nan, .Nan, .Nan, .Nan, .Nan, .Nan, .Nan, .Nan,
          .Nan, .Nan, .Nan, .Nan, .Nan, .Nan, .Nan, .Nan, .Nan, .Nan,
          .Nan, .Nan, .Nan, .Nan, .Nan, .Nan, .Nan, .Nan, .Nan, .Nan ]
      - [ .Nan, .Nan, .Nan, .Nan, .Nan, .Nan, .Nan, .Nan, .Nan, .Nan,
          .Nan, .Nan, .Nan, .Nan, .Nan, .Nan, .Nan, .Nan, .Nan, .Nan,
          .Nan, .Nan, .Nan, .Nan, .Nan, .Nan, .Nan, .Nan, .Nan, .Nan,
          .Nan, .Nan, .Nan, .Nan, .Nan, .Nan, .Nan, .Nan, .Nan, .Nan,
          .Nan, .Nan, .Nan, .Nan, .Nan, .Nan, .Nan, .Nan, .Nan, .Nan,
          .Nan, .Nan, .Nan, .Nan, .Nan, .Nan, .Nan, .Nan, .Nan, .Nan,
          .Nan, .Nan, .Nan, .Nan, .Nan, .Nan, .Nan, .Nan, .Nan, .Nan,
          .Nan, .Nan, .Nan, .Nan, .Nan, .Nan, .Nan, .Nan, .Nan, .Nan,
          .Nan, .Nan, .Nan, .Nan, .Nan, .Nan, .Nan, .Nan, .Nan, .Nan,
          .Nan, .Nan, .Nan, .Nan, .Nan, .Nan, .Nan, .Nan, .Nan, .Nan,
          .Nan, .Nan, .Nan, .Nan, .Nan, .Nan, .Nan, .Nan, .Nan, .Nan,
          .Nan, .Nan, .Nan, .Nan, .Nan, .Nan, .Nan, .Nan, .Nan, .Nan,
          .Nan, .Nan, .Nan, .Nan, .Nan, .Nan, .Nan, .Nan, .Nan, .Nan,
          .Nan, .Nan, .Nan, .Nan, .Nan, .Nan, .Nan, .Nan, .Nan, .Nan,
          .Nan, .Nan, .Nan, .Nan, .Nan, .Nan, .Nan, .Nan, .Nan, .Nan,
          .Nan, .Nan, .Nan, .Nan, .Nan, .Nan, .Nan, .Nan, .Nan, .Nan,
          .Nan, .Nan, .Nan, .Nan, .Nan, .Nan, .Nan, .Nan, .Nan, .Nan,
          .Nan, .Nan, .Nan, .Nan, .Nan, .Nan, .Nan, .Nan, .Nan, .Nan,
          .Nan, .Nan, .Nan, .Nan, .Nan, .Nan, .Nan, .Nan, .Nan, .Nan,
          .Nan, .Nan, .Nan, .Nan, .Nan, .Nan, .Nan, .Nan, .Nan, .Nan,
          .Nan, .Nan, .Nan, .Nan, .Nan, .Nan, .Nan, .Nan, .Nan, .Nan,
          .Nan, .Nan, .Nan, .Nan, .Nan, .Nan, .Nan, .Nan, .Nan, .Nan,
          .Nan, .Nan, .Nan, .Nan, .Nan, .Nan, .Nan, .Nan, .Nan, .Nan,
          .Nan, .Nan, .Nan, .Nan, .Nan, .Nan, .Nan, .Nan, .Nan, .Nan ]
      - [ .Nan, .Nan, .Nan, .Nan, .Nan, .Nan, .Nan, .Nan, .Nan, .Nan,
          .Nan, .Nan, .Nan, .Nan, .Nan, .Nan, .Nan, .Nan, .Nan, .Nan,
          .Nan, .Nan, .Nan, .Nan, .Nan, .Nan, .Nan, .Nan, .Nan, .Nan,
          .Nan, .Nan, .Nan, .Nan, .Nan, .Nan, .Nan, .Nan, .Nan, .Nan,
          .Nan, .Nan, .Nan, .Nan, .Nan, .Nan, .Nan, .Nan, .Nan, .Nan,
          .Nan, .Nan, .Nan, .Nan, .Nan, .Nan, .Nan, .Nan, .Nan, .Nan,
          .Nan, .Nan, .Nan, .Nan, .Nan, .Nan, .Nan, .Nan, .Nan, .Nan,
          .Nan, .Nan, .Nan, .Nan, .Nan, .Nan, .Nan, .Nan, .Nan, .Nan,
          .Nan, .Nan, .Nan, .Nan, .Nan, .Nan, .Nan, .Nan, .Nan, .Nan,
          .Nan, .Nan, .Nan, .Nan, .Nan, .Nan, .Nan, .Nan, .Nan, .Nan,
          .Nan, .Nan, .Nan, .Nan, .Nan, .Nan, .Nan, .Nan, .Nan, .Nan,
          .Nan, .Nan, .Nan, .Nan, .Nan, .Nan, .Nan, .Nan, .Nan, .Nan,
          .Nan, .Nan, .Nan, .Nan, .Nan, .Nan, .Nan, .Nan, .Nan, .Nan,
          .Nan, .Nan, .Nan, .Nan, .Nan, .Nan, .Nan, .Nan, .Nan, .Nan,
          .Nan, .Nan, .Nan, .Nan, .Nan, .Nan, .Nan, .Nan, .Nan, .Nan,
          .Nan, .Nan, .Nan, .Nan, .Nan, .Nan, .Nan, .Nan, .Nan, .Nan,
          .Nan, .Nan, .Nan, .Nan, .Nan, .Nan, .Nan, .Nan, .Nan, .Nan,
          .Nan, .Nan, .Nan, .Nan, .Nan, .Nan, .Nan, .Nan, .Nan, .Nan,
          .Nan, .Nan, .Nan, .Nan, .Nan, .Nan, .Nan, .Nan, .Nan, .Nan,
          .Nan, .Nan, .Nan, .Nan, .Nan, .Nan, .Nan, .Nan, .Nan, .Nan,
          .Nan, .Nan, .Nan, .Nan, .Nan, .Nan, .Nan, .Nan, .Nan, .Nan,
          .Nan, .Nan, .Nan, .Nan, .Nan, .Nan, .Nan, .Nan, .Nan, .Nan,
          .Nan, .Nan, .Nan, .Nan, .Nan, .Nan, .Nan, .Nan, .Nan, .Nan,
          .Nan, .Nan, .Nan, .Nan, .Nan, .Nan, .Nan, .Nan, .Nan, .Nan ]
      - [ .Nan, .Nan, .Nan, .Nan, .Nan, .Nan, .Nan, .Nan, .Nan, .Nan,
          .Nan, .Nan, .Nan, .Nan, .Nan, .Nan, .Nan, .Nan, .Nan, .Nan,
          .Nan, .Nan, .Nan, .Nan, .Nan, .Nan, .Nan, .Nan, .Nan, .Nan,
          .Nan, .Nan, .Nan, .Nan, .Nan, .Nan, .Nan, .Nan, .Nan, .Nan,
          .Nan, .Nan, .Nan, .Nan, .Nan, .Nan, .Nan, .Nan, .Nan, .Nan,
          .Nan, .Nan, .Nan, .Nan, .Nan, .Nan, .Nan, .Nan, .Nan, .Nan,
          .Nan, .Nan, .Nan, .Nan, .Nan, .Nan, .Nan, .Nan, .Nan, .Nan,
          .Nan, .Nan, .Nan, .Nan, .Nan, .Nan, .Nan, .Nan, .Nan, .Nan,
          .Nan, .Nan, .Nan, .Nan, .Nan, .Nan, .Nan, .Nan, .Nan, .Nan,
          .Nan, .Nan, .Nan, .Nan, .Nan, .Nan, .Nan, .Nan, .Nan, .Nan,
          .Nan, .Nan, .Nan, .Nan, .Nan, .Nan, .Nan, .Nan, .Nan, .Nan,
          .Nan, .Nan, .Nan, .Nan, .Nan, .Nan, .Nan, .Nan, .Nan, .Nan,
          .Nan, .Nan, .Nan, .Nan, .Nan, .Nan, .Nan, .Nan, .Nan, .Nan,
          .Nan, .Nan, .Nan, .Nan, .Nan, .Nan, .Nan, .Nan, .Nan, .Nan,
          .Nan, .Nan, .Nan, .Nan, .Nan, .Nan, .Nan, .Nan, .Nan, .Nan,
          .Nan, .Nan, .Nan, .Nan, .Nan, .Nan, .Nan, .Nan, .Nan, .Nan,
          .Nan, .Nan, .Nan, .Nan, .Nan, .Nan, .Nan, .Nan, .Nan, .Nan,
          .Nan, .Nan, .Nan, .Nan, .Nan, .Nan, .Nan, .Nan, .Nan, .Nan,
          .Nan, .Nan, .Nan, .Nan, .Nan, .Nan, .Nan, .Nan, .Nan, .Nan,
          .Nan, .Nan, .Nan, .Nan, .Nan, .Nan, .Nan, .Nan, .Nan, .Nan,
          .Nan, .Nan, .Nan, .Nan, .Nan, .Nan, .Nan, .Nan, .Nan, .Nan,
          .Nan, .Nan, .Nan, .Nan, .Nan, .Nan, .Nan, .Nan, .Nan, .Nan,
          .Nan, .Nan, .Nan, .Nan, .Nan, .Nan, .Nan, .Nan, .Nan, .Nan,
          .Nan, .Nan, .Nan, .Nan, .Nan, .Nan, .Nan, .Nan, .Nan, .Nan ]
      - [ .Nan, .Nan, .Nan, .Nan, .Nan, .Nan, .Nan, .Nan, .Nan, .Nan,
          .Nan, .Nan, .Nan, .Nan, .Nan, .Nan, .Nan, .Nan, .Nan, .Nan,
          .Nan, .Nan, .Nan, .Nan, .Nan, .Nan, .Nan, .Nan, .Nan, .Nan,
          .Nan, .Nan, .Nan, .Nan, .Nan, .Nan, .Nan, .Nan, .Nan, .Nan,
          .Nan, .Nan, .Nan, .Nan, .Nan, .Nan, .Nan, .Nan, .Nan, .Nan,
          .Nan, .Nan, .Nan, .Nan, .Nan, .Nan, .Nan, .Nan, .Nan, .Nan,
          .Nan, .Nan, .Nan, .Nan, .Nan, .Nan, .Nan, .Nan, .Nan, .Nan,
          .Nan, .Nan, .Nan, .Nan, .Nan, .Nan, .Nan, .Nan, .Nan, .Nan,
          .Nan, .Nan, .Nan, .Nan, .Nan, .Nan, .Nan, .Nan, .Nan, .Nan,
          .Nan, .Nan, .Nan, .Nan, .Nan, .Nan, .Nan, .Nan, .Nan, .Nan,
          .Nan, .Nan, .Nan, .Nan, .Nan, .Nan, .Nan, .Nan, .Nan, .Nan,
          .Nan, .Nan, .Nan, .Nan, .Nan, .Nan, .Nan, .Nan, .Nan, .Nan,
          .Nan, .Nan, .Nan, .Nan, .Nan, .Nan, .Nan, .Nan, .Nan, .Nan,
          .Nan, .Nan, .Nan, .Nan, .Nan, .Nan, .Nan, .Nan, .Nan, .Nan,
          .Nan, .Nan, .Nan, .Nan, .Nan, .Nan, .Nan, .Nan, .Nan, .Nan,
          .Nan, .Nan, .Nan, .Nan, .Nan, .Nan, .Nan, .Nan, .Nan, .Nan,
          .Nan, .Nan, .Nan, .Nan, .Nan, .Nan, .Nan, .Nan, .Nan, .Nan,
          .Nan, .Nan, .Nan, .Nan, .Nan, .Nan, .Nan, .Nan, .Nan, .Nan,
          .Nan, .Nan, .Nan, .Nan, .Nan, .Nan, .Nan, .Nan, .Nan, .Nan,
          .Nan, .Nan, .Nan, .Nan, .Nan, .Nan, .Nan, .Nan, .Nan, .Nan,
          .Nan, .Nan, .Nan, .Nan, .Nan, .Nan, .Nan, .Nan, .Nan, .Nan,
          .Nan, .Nan, .Nan, .Nan, .Nan, .Nan, .Nan, .Nan, .Nan, .Nan,
          .Nan, .Nan, .Nan, .Nan, .Nan, .Nan, .Nan, .Nan, .Nan, .Nan,
          .Nan, .Nan, .Nan, .Nan, .Nan, .Nan, .Nan, .Nan, .Nan, .Nan ]
      - [ .Nan, .Nan, .Nan, .Nan, .Nan, .Nan, .Nan, .Nan, .Nan, .Nan,
          .Nan, .Nan, .Nan, .Nan, .Nan, .Nan, .Nan, .Nan, .Nan, .Nan,
          .Nan, .Nan, .Nan, .Nan, .Nan, .Nan, .Nan, .Nan, .Nan, .Nan,
          .Nan, .Nan, .Nan, .Nan, .Nan, .Nan, .Nan, .Nan, .Nan, .Nan,
          .Nan, .Nan, .Nan, .Nan, .Nan, .Nan, .Nan, .Nan, .Nan, .Nan,
