%YAML:1.0
my_svm: !!opencv-ml-svm
   svm_type: C_SVC
   kernel: { type:RBF, gamma:1.0000000000000001e-05 }
   C: 3.1250000000000000e+02
   term_criteria: { epsilon:2.2204460492503131e-16, iterations:100 }
   var_all: 128
   var_count: 128
   class_count: 10
   class_labels: !!opencv-matrix
      rows: 1
      cols: 10
      dt: i
      data: [ 1, 2, 3, 4, 5, 6, 7, 8, 9, 10 ]
   sv_total: 240
   support_vectors:
      - [ 0., 3.50000000e+00, 0., 3.50000000e+00, 2.04225294e+36,
          3.31595731e+00, 2.42836649e-08, 3.09354305e+00, 0.,
          3.50000000e+00, 2.55072096e+19, 3.39055133e+00,
          -1.93252825e+28, 3.20330477e+00, 0., 3.50000000e+00, 0.,
          3.50000000e+00, -7.17085271e-27, 3.18161130e+00, 0., 0., 0.,
          3.50000000e+00, 1.10869414e+04, 3.07073021e+00, 0., 0., 0., 0.,
          0., 3.50000000e+00, -4.70573235e+00, 3.25153565e+00, 0.,
          3.50000000e+00, 0., 3.50000000e+00, -1.58375881e-15,
          3.15927291e+00, 2.45376410e+10, 3.44111419e+00, 0.,
          3.50000000e+00, 0., 3.50000000e+00, 0., 3.50000000e+00, 0.,
          3.50000000e+00, -2.53536281e-35, 3.37139106e+00,
          -3.72682267e-21, 3.08235145e+00, 0., 3.50000000e+00,
          -5.86506750e+05, 3.18788695e+00, 0., 0., 0., 0.,
          1.06848816e+30, 3.18786383e+00, -1.47497605e+10,
          3.12178349e+00, 0., 3.50000000e+00, 0., 3.50000000e+00,
          1.13714393e-21, 3.25827384e+00, 0., 3.50000000e+00, 0.,
          3.50000000e+00, 0., 3.50000000e+00, 0., 3.50000000e+00, 0.,
          3.50000000e+00, 6.08867021e-19, 3.21929646e+00, 1.25769887e-03,
          3.34130239e+00, 0., 3.50000000e+00, 166940448., 3.35057664e+00,
          0., 0., 0., 0., 3.43883913e-26, 3.14546514e+00,
          -8.54164271e+29, 2.93787956e+00, -2.80363697e-38,
          3.40722632e+00, 0., 3.50000000e+00, 6.02699188e-34,
          3.46790171e+00, -4.32170095e-23, 3.40322375e+00,
          -5.57643863e-26, 3.30912519e+00, -4.62250921e+30,
          3.37574244e+00, 0., 3.50000000e+00, 0., 3.50000000e+00,
          -3.40017090e+02, 2.77904177e+00, -6.61940967e+03,
          3.11819816e+00, 0., 3.50000000e+00, 0., 3.50000000e+00, 0., 0.,
          0., 0., -3.60311316e-33, 3.09466577e+00 ]
      - [ 0., 3.50000000e+00, 3.16806416e-26, 3.48260856e+00,
          -3.40017090e+02, 2.77904177e+00, -8.66335956e+21,
          3.02926493e+00, 0., 3.50000000e+00, -5.55972510e-05,
          3.18205905e+00, 0., 0., -4.51089145e+17, 3.44606972e+00,
          -5.05236883e-37, 3.48979878e+00, 2.79933570e-21,
          2.92423248e+00, 0., 0., 0., 3.50000000e+00, 5.14283283e-10,
          3.05025268e+00, 0., 0., 0., 0., -1.66639398e+28,
          3.42861342e+00, 0., 3.50000000e+00, -2.28434251e+36,
          3.40432215e+00, -1.25512158e+03, 3.27904177e+00,
          4.98799864e-06, 3.22903919e+00, 0., 3.50000000e+00, 0.,
          3.50000000e+00, -5.01422363e+03, 3.28699183e+00, 0.,
          3.50000000e+00, 0., 3.50000000e+00, -9.16324359e+18,
          3.26609635e+00, 2.23845368e+37, 3.04906964e+00, 0.,
          3.50000000e+00, 349960160., 3.12081456e+00, 0., 0., 0., 0.,
          3.19670819e+32, 3.22489882e+00, 9.18687580e+10, 3.15258527e+00,
          0., 3.50000000e+00, 5.81613456e+29, 3.35930657e+00, 0.,
          3.50000000e+00, 0., 3.50000000e+00, 0., 3.50000000e+00, 0.,
          3.50000000e+00, 0., 3.50000000e+00, 0., 3.50000000e+00,
          -4.18043163e+30, 3.02909613e+00, -5.67818375e-29,
          3.32963037e+00, 0., 3.50000000e+00, 1.03572720e-10,
          3.25110054e+00, 0., 0., 0., 0., -6.14556542e-26,
          3.15935659e+00, -8.28274507e-19, 3.09355998e+00,
          -6.88057850e-18, 3.42544651e+00, -2.60749153e-23,
          3.49016333e+00, 0., 3.50000000e+00, 4.39254536e+21,
          3.46569657e+00, -1.25147795e+31, 3.30755591e+00,
          3.81743923e+28, 3.32053494e+00, 0., 3.50000000e+00, 0.,
          3.50000000e+00, 0., 0., 3.54091906e+05, 3.08183861e+00,
          80636320., 3.49769092e+00, 4.69371246e-14, 3.48954606e+00, 0.,
          0., 0., 0., -2.52656288e+28, 3.07098365e+00 ]
      - [ -1.22084628e+37, 3.39146709e+00, 0., 3.50000000e+00,
          -1.04631363e+19, 3.32568812e+00, -1.48123865e+19,
          3.17294836e+00, 0., 3.50000000e+00, 7.51870550e+06,
          3.38057923e+00, 8.95719768e+11, 3.47682285e+00, 5.83452969e-36,
          3.48269558e+00, -1.29597687e-38, 3.49520588e+00,
          -2.33155047e+05, 3.08863735e+00, 5.76404432e-18,
          3.26568747e+00, 0., 3.50000000e+00, 2.35757921e-06,
          3.07078815e+00, 2.19870042e+37, 3.04906964e+00, 1.82618073e-19,
          3.34354091e+00, -1.96014649e-10, 3.40854144e+00, 0.,
          3.50000000e+00, 2.93303608e+36, 3.49122453e+00, 2.51870028e+24,
          3.49564481e+00, -2.72726094e+35, 3.12151241e+00, 0.,
          3.50000000e+00, 0., 3.50000000e+00, 5.10136395e-08,
          3.49680328e+00, 0., 3.50000000e+00, 0., 3.50000000e+00,
          -1.28204012e+10, 3.49249411e+00, 2.25455014e-14,
          3.49484539e+00, -1.06597589e+11, 3.48315811e+00,
          2.54974599e-32, 3.38730073e+00, -5.62501669e+00,
          3.39199877e+00, -1.26213659e+23, 3.49692702e+00,
          2.22494405e+13, 3.15978217e+00, 0., 3.50000000e+00, 0.,
          3.50000000e+00, -6.58322770e-28, 3.39639735e+00,
          -3.67656376e-08, 3.31596756e+00, 0., 3.50000000e+00, 0.,
          3.50000000e+00, 1.08387821e+12, 3.49682283e+00, 0.,
          3.50000000e+00, 0., 3.50000000e+00, -3.00194375e-12,
          3.49003267e+00, 2.17300945e-37, 3.49474692e+00, 0.,
          3.50000000e+00, -1.05542631e-03, 3.26075840e+00,
          7.55222969e+35, 3.26575637e+00, 153495008., 3.49572563e+00,
          -3.04397402e+04, 3.49249101e+00, 9.41844987e-15,
          3.22890186e+00, 2.18701445e-16, 3.33556175e+00, 0.,
          3.50000000e+00, 3.88755358e+13, 3.32309079e+00, 9.16835205e+11,
          3.41693974e+00, 4.05161646e+03, 3.27936530e+00, 6.45528450e+06,
          3.30247307e+00, 0., 3.50000000e+00, 0., 3.50000000e+00,
          1.78101888e+06, 3.08183861e+00, -3.77426206e-29,
          3.18161130e+00, 0., 3.50000000e+00, -4.21458497e+14,
          3.30961633e+00, 0., 3.50000000e+00, 1.99784242e+12,
          3.47682285e+00, -6.40193397e+12, 3.49249101e+00 ]
      - [ 0., 3.50000000e+00, 0., 3.50000000e+00, 0., 0.,
          -1.16669384e+26, 2.86855412e+00, 0., 3.50000000e+00,
          1.62137185e-24, 3.18168068e+00, 0., 0., 1.84616295e-06,
          3.36926675e+00, 0., 3.50000000e+00, 0., 0., 0., 0.,
          8.60995862e-15, 3.49592900e+00, 1.80103269e+16, 3.09007549e+00,
          0., 0., 0., 0., 8.42497513e-29, 3.08209825e+00, 0.,
          3.50000000e+00, -9.96896007e-35, 3.48871374e+00,
          5.45771951e-21, 3.17359972e+00, 1.57298393e+01, 3.23585224e+00,
          0., 3.50000000e+00, -4.55827459e-10, 3.11819792e+00,
          -2.01412045e-24, 3.11819792e+00, 0., 3.50000000e+00, 0.,
          3.50000000e+00, -5.81672266e+04, 2.77904177e+00, 0., 0., 0.,
          3.50000000e+00, -1.21045252e+35, 3.14807105e+00, 0., 0., 0.,
          0., 1.16506522e-32, 3.13124061e+00, 1.74672164e+34,
          3.08303046e+00, -1.19748545e+00, 3.39054894e+00,
          -2.35126250e+06, 3.48263741e+00, -5.01238753e+35,
          3.43455815e+00, 0., 3.50000000e+00, -1.79546317e-21,
          2.86819792e+00, -1.70473022e+01, 3.32413125e+00, 0.,
          3.50000000e+00, 0., 3.50000000e+00, 0., 0., -2.62894599e-22,
          2.92294836e+00, 0., 3.50000000e+00, -6.15042957e+35,
          3.11848783e+00, 0., 0., 0., 0., 4.51068848e-22, 3.13420153e+00,
          -9.20883093e+28, 2.86855412e+00, -1.32957984e-21,
          2.86819792e+00, 0., 3.50000000e+00, 0., 3.50000000e+00,
          3.14281090e-09, 3.33842969e+00, 0., 0., 2.53016323e-01,
          3.32372141e+00, 0., 3.50000000e+00, 2.99074386e-32,
          3.42375994e+00, 0., 0., 0., 0., 0., 3.50000000e+00,
          -2.96419201e+01, 3.08199978e+00, 0., 0., 0., 0.,
          -3.94285218e+32, 3.02636981e+00 ]
      - [ 5.02377765e-21, 3.46621990e+00, 0., 3.50000000e+00,
          2.35402345e+24, 3.30519962e+00, -2.68550108e-17,
          2.89913011e+00, 0., 3.50000000e+00, 2.08166412e-18,
          3.28696513e+00, 1.13785188e+24, 3.24579024e+00,
          -1.40351416e+03, 3.42268085e+00, 0., 3.50000000e+00,
          3.04294625e-21, 2.92423248e+00, 0., 0., -5.78269077e-09,
          3.47526956e+00, 5.08475617e-09, 3.03299546e+00, 0., 0., 0., 0.,
          -3.88100426e+14, 3.20400286e+00, 8.54007070e+21,
          3.37410760e+00, -1.85261655e-07, 3.43010664e+00, 0.,
          3.50000000e+00, -1.55181690e-24, 3.19696665e+00, 0.,
          3.50000000e+00, 0., 3.50000000e+00, 0., 3.50000000e+00, 0.,
          3.50000000e+00, 0., 3.50000000e+00, -1.17534868e+34,
          3.29906964e+00, 9.84090698e+02, 3.08183861e+00, 0.,
          3.50000000e+00, 1.09686610e+23, 3.17889190e+00, 0., 0., 0., 0.,
          -3.54204773e-16, 2.98767328e+00, 1.06040027e+23,
          3.17352557e+00, -3.70205874e+17, 3.48260784e+00, 0.,
          3.50000000e+00, 2.64158991e+17, 3.44044995e+00, 0.,
          3.50000000e+00, 0., 3.50000000e+00, 0., 3.50000000e+00, 0.,
          3.50000000e+00, 0., 3.50000000e+00, -5.38517914e+10,
          3.21258855e+00, -199119488., 3.21258855e+00, 0.,
          3.50000000e+00, -3.24034615e+01, 3.01043153e+00, 0., 0., 0.,
          0., -1.53771555e-02, 3.19716239e+00, -5.70071182e+01,
          2.94730091e+00, -9.15329563e-29, 3.35964608e+00, 0.,
          3.50000000e+00, .Nan, 3.47232771e+00, 4.18510350e+06,
          3.48356295e+00, 3.65238208e-07, 3.33863473e+00, 6317895.,
          3.19698524e+00, 0., 3.50000000e+00, 0., 3.50000000e+00,
          -3.40017090e+02, 2.77904177e+00, -2.01412045e-24,
          2.86819792e+00, 0., 3.50000000e+00, 1.51896568e-22,
          3.05962491e+00, 0., 0., 0., 0., 1.89376639e-08, 3.05046797e+00 ]
      - [ -7.13688229e+34, 3.33744955e+00, 3.57601750e-32,
          3.49364352e+00, 0., 0., -2.82051980e+28, 2.98584151e+00, 0.,
          3.50000000e+00, -1.85867456e+03, 3.30759025e+00, 0., 0.,
          -1.74024217e-12, 3.40776968e+00, -7.44600111e-18,
          3.48751545e+00, -4.05405238e-02, 2.98584008e+00, 0., 0.,
          1.45669387e-27, 3.49890637e+00, 4.96088580e+11, 2.95867896e+00,
          0., 0., 0., 0., 7.48448043e+22, 3.22890186e+00, 3.06775254e+22,
          2.98871112e+00, 1.28870656e-08, 3.48261905e+00, 3.88887719e+05,
          3.08183861e+00, -6.21075230e-07, 3.08863616e+00, .Nan,
          3.49660802e+00, 0., 3.50000000e+00, 0., 0., 0., 3.50000000e+00,
          0., 3.50000000e+00, 1.89253501e+20, 3.28888226e+00, 0., 0., 0.,
          3.50000000e+00, .Nan, 3.08775473e+00, 0., 0., 0., 0.,
          1.33018664e-13, 3.02905560e+00, 3.21032189e-07, 3.11821604e+00,
          -7.94419977e-13, 3.49003267e+00, 1.03840480e-26,
          3.43645310e+00, -1.50278397e+38, 3.26568723e+00, 0.,
          3.50000000e+00, 0., 3.50000000e+00, -4.46281123e-10,
          3.18786359e+00, 0., 3.50000000e+00, 0., 3.50000000e+00,
          -1.48551773e-21, 3.11819792e+00, 0., 0., 0., 3.50000000e+00,
          -1.46894521e+31, 3.04909873e+00, 0., 0., 0., 0.,
          -1.68507070e+28, 3.09165144e+00, 1.27015429e+19,
          2.78888226e+00, 9.51943308e+34, 3.29906964e+00,
          -1.24874828e+05, 3.48922420e+00, 0., 3.50000000e+00,
          -3.33780834e+18, 3.37735844e+00, 3.03737167e+16,
          3.29479861e+00, 1.01820374e+03, 3.33183861e+00, 0.,
          3.50000000e+00, 0., 3.50000000e+00, 0., 0., 0., 0., 0.,
          3.50000000e+00, 2.11617710e+11, 3.39335346e+00, 0., 0., 0., 0.,
          -2.74636966e-19, 3.01118159e+00 ]
      - [ -5.34518012e-37, 3.45335031e+00, 0., 3.50000000e+00, 0.,
          3.50000000e+00, -5.56438852e+17, 3.26609635e+00, 0.,
          3.50000000e+00, 4.07475531e-36, 3.34551001e+00, 1.17255347e-14,
          3.28696799e+00, 0., 3.50000000e+00, 0., 3.50000000e+00,
          1.64442776e-12, 3.14462495e+00, -5.09666055e+04,
          2.77904177e+00, 0., 3.50000000e+00, -4.22384786e+18,
          3.01079321e+00, -5.27953359e+04, 2.77904177e+00, 0., 0., 0.,
          3.50000000e+00, 1.71967475e-12, 3.30649209e+00,
          -1.00969821e-19, 3.49579334e+00, 0., 3.50000000e+00,
          -9.30395143e+14, 3.17365122e+00, 0., 3.50000000e+00, 0.,
          3.50000000e+00, 0., 3.50000000e+00, 0., 3.50000000e+00, 0.,
          3.50000000e+00, 0., 3.50000000e+00, 4.24556532e-08,
          3.14695573e+00, 0., 3.50000000e+00, 6.44567344e-10,
          3.29908705e+00, 4.74436667e+29, 3.30961633e+00, 0., 0., 0.,
          3.50000000e+00, -2.40687950e-05, 3.14207792e+00,
          8.74889393e-35, 3.49871874e+00, 2.58616717e+28, 3.34739780e+00,
          -6.67656015e-04, 3.20332694e+00, 0., 3.50000000e+00, 0.,
          3.50000000e+00, 0., 3.50000000e+00, 0., 3.50000000e+00, 0.,
          3.50000000e+00, 0., 3.50000000e+00, 5.07426227e+15,
          3.30279875e+00, 0., 3.50000000e+00, 2.19429855e+01,
          3.49872589e+00, -1.74770916e-26, 3.34380722e+00, 0., 0.,
          -9.16705267e-06, 3.20348930e+00, -1.55954395e+36,
          2.92660689e+00, 1.65037637e+37, 3.37232900e+00, 1.18638807e-10,
          3.10565639e+00, 6.33971068e+32, 3.45841932e+00,
          -1.24872273e+14, 3.30753565e+00, 1.26177192e+00,
          3.35058093e+00, 2.32807731e+33, 3.31840253e+00, 0.,
          3.50000000e+00, 0., 3.50000000e+00, 3.72619626e+27,
          3.31840205e+00, 287922144., 3.04907060e+00, -1.38799127e-25,
          3.47999859e+00, 2.16855973e+34, 3.45372176e+00, 3.16026409e-30,
          3.38548183e+00, -5.45097695e+04, 2.77904177e+00,
          -2.22132065e-29, 3.03534293e+00 ]
      - [ -9.77321842e-20, 3.26572299e+00, 0., 3.50000000e+00,
          -2.01412045e-24, 2.86819792e+00, -1.41576599e+23,
          3.02910972e+00, 0., 3.50000000e+00, -1.60657615e+18,
          3.14464998e+00, 0., 0., -1.07817409e-19, 3.45654178e+00, 0.,
          3.50000000e+00, 1.82776656e+05, 2.92295361e+00, 0., 0., 0.,
          3.50000000e+00, 7.07454456e-04, 3.02142000e+00, 0., 0., 0., 0.,
          -8.73316688e+05, 3.44278502e+00, -3.00759573e+35,
          3.05021095e+00, 0., 3.50000000e+00, 111374464., 3.31840229e+00,
          -4.04540156e+05, 3.10830021e+00, 5.95763753e-32,
          3.49978590e+00, 0., 3.50000000e+00, -2.01412045e-24,
          2.86819792e+00, 0., 3.50000000e+00, 0., 3.50000000e+00,
          2.19841911e-38, 3.26568747e+00, 0., 0., 0., 3.50000000e+00,
          6.24037057e+34, 3.21268725e+00, 0., 0., 0., 0., 1.33185254e+38,
          3.32053494e+00, -3.31795724e-34, 3.10577750e+00, 0.,
          3.50000000e+00, 1.69192250e-37, 3.49882674e+00, 9.82280700e+11,
          3.39054918e+00, 0., 3.50000000e+00, 0., 3.50000000e+00,
          1.61769910e-15, 3.18172264e+00, 0., 3.50000000e+00, 0.,
          3.50000000e+00, -1.54009600e-21, 3.11819792e+00,
          -2.62894599e-22, 2.92294836e+00, 0., 3.50000000e+00,
          -1.08664527e-26, 3.14523482e+00, 0., 0., 0., 0.,
          -1.12620160e-29, 3.17423940e+00, 2.28988481e-29,
          2.86869502e+00, -2.01412085e-24, 3.36819792e+00, 0.,
          3.50000000e+00, 2.88605881e+00, 3.46838641e+00, 1.31401514e-35,
          3.45217180e+00, 1113011968., 3.32709956e+00, -2.94283271e-38,
          3.37232900e+00, 0., 3.50000000e+00, 0., 3.50000000e+00, 0., 0.,
          -3.40017090e+02, 2.77904177e+00, 0., 3.50000000e+00,
          1.96741709e+22, 3.25703430e+00, 0., 0., 0., 0., 4.55940204e+27,
          3.09384370e+00 ]
      - [ -2.51312943e-10, 3.32010365e+00, -5.35145693e-20,
          3.42544699e+00, -5.87958516e+04, 3.02904177e+00,
          2.60034808e-20, 3.09364343e+00, 0., 3.50000000e+00,
          8.20895004e+01, 3.11848354e+00, 0., 0., 1.39428286e-27,
          3.49671721e+00, 0., 3.50000000e+00, -1.58297893e-21,
          2.86819792e+00, 0., 0., 0., 3.50000000e+00, -2.89382802e+29,
          3.01410484e+00, 0., 0., 0., 0., 0., 3.50000000e+00,
          8.30283718e-15, 3.25382304e+00, 0., 3.50000000e+00,
          -2.53388534e-32, 3.29221439e+00, 1.71137300e+10,
          3.14238095e+00, 0., 3.50000000e+00, 0., 3.50000000e+00,
          -5.05094219e+04, 2.77904177e+00, 0., 3.50000000e+00, 0.,
          3.50000000e+00, -1.13590956e+38, 3.26568723e+00, 0., 0., 0.,
          3.50000000e+00, -7.22983472e-22, 3.16967869e+00, 0., 0., 0.,
          0., -4.02369277e-10, 3.48722529e+00, -1.31891107e+24,
          3.08770990e+00, 0., 3.50000000e+00, 4.55156513e+23,
          3.47456288e+00, 2.57746960e+35, 3.30792141e+00, 0.,
          3.50000000e+00, 0., 3.50000000e+00, -4.46281095e-10,
          2.93786359e+00, 0., 3.50000000e+00, 0., 3.50000000e+00,
          -2.90253609e+24, 3.10565567e+00, 0., 0., 0., 3.50000000e+00,
          -3.51312751e+27, 3.20348668e+00, 0., 0., 0., 0.,
          -1.74680442e+28, 3.21122146e+00, 6.91714014e+03,
          2.92425680e+00, 6.89302382e+20, 3.41690826e+00, 3.77064315e-03,
          3.45295238e+00, 0., 3.50000000e+00, 2.06095169e+20,
          3.39298153e+00, 5.41323919e+10, 3.32709956e+00,
          -8.80144364e-36, 3.15854120e+00, 0., 3.50000000e+00, 0.,
          3.50000000e+00, 0., 0., 0., 0., 0., 3.50000000e+00,
          -1.21496929e+32, 3.27905536e+00, 0., 0., 0., 0.,
          4.43210159e-14, 3.11942196e+00 ]
      - [ 0., 3.50000000e+00, 3.47861120e+22, 3.39347601e+00,
          1.37089331e-16, 3.09354091e+00, -3.93998703e+25,
          3.04997921e+00, 0., 3.50000000e+00, 1.26847852e+21,
          3.32054472e+00, 0., 0., -2.28620161e+25, 3.48826265e+00, 0.,
          3.50000000e+00, 1.25794009e-26, 3.01964164e+00, 0., 0., 0.,
          3.50000000e+00, 5.14330234e-18, 3.08190989e+00, 0., 0., 0., 0.,
          0., 3.50000000e+00, -9.18827625e-10, 3.40322471e+00, 0.,
          3.50000000e+00, -3.65775288e-14, 3.43334126e+00,
          1.49963888e+06, 3.16184974e+00, 0., 3.50000000e+00, 0.,
          3.50000000e+00, -4.97782457e-06, 3.27548027e+00, 0.,
          3.50000000e+00, 0., 3.50000000e+00, -3.39564544e+22,
          3.34357738e+00, -8.49935915e-21, 3.04997754e+00, 0.,
          3.50000000e+00, 8.00000887e+25, 3.17503667e+00, 0., 0., 0., 0.,
          -1.15176737e+00, 3.24067450e+00, -2.04361304e-38,
          3.12895274e+00, 0., 3.50000000e+00, 0., 3.50000000e+00,
          6.16420055e-13, 3.37864685e+00, 0., 3.50000000e+00, 0.,
          3.50000000e+00, 0., 3.50000000e+00, 0., 3.50000000e+00, 0.,
          3.50000000e+00, 8.39743005e-18, 3.05962396e+00, 5.52779157e-34,
          3.37447619e+00, 0., 3.50000000e+00, 1.59356435e-32,
          3.26845694e+00, 0., 0., 0., 0., 4.94189726e+31, 3.16129947e+00,
          -1.59870590e+02, 3.18786359e+00, 1531716096., 3.38730049e+00,
          0., 3.50000000e+00, 9.03163724e-11, 3.49243164e+00,
          -7.99697781e+00, 3.49661255e+00, 1.85265779e+37,
          3.29906964e+00, 6.96523398e-28, 3.31599593e+00, 0.,
          3.50000000e+00, 0., 3.50000000e+00, 0., 0., 3.90956757e-06,
          3.13118482e+00, 0., 3.50000000e+00, -8.23439559e-20,
          3.48345590e+00, 0., 0., 0., 0., -1.14906579e-01,
          3.04358768e+00 ]
      - [ 0., 3.50000000e+00, 0., 3.50000000e+00, 8.91336417e+26,
          3.07053542e+00, -3.08426395e+36, 3.03218079e+00, 0.,
          3.50000000e+00, 1.01913214e+36, 3.37839174e+00, 0., 0., 0.,
          3.50000000e+00, -2.38274513e+22, 3.47693515e+00,
          4.25237390e+28, 3.09360886e+00, 0., 0., 0., 3.50000000e+00,
          8.09361865e+03, 3.01380134e+00, 0., 0., 0., 0.,
          -1.90710907e+23, 3.48260713e+00, 0., 3.50000000e+00, 0.,
          3.50000000e+00, -4.67142174e+26, 3.41492343e+00,
          -5.63242126e-26, 3.15994692e+00, 0., 3.50000000e+00, 0.,
          3.50000000e+00, 1.53330065e+34, 3.22682285e+00, 0.,
          3.50000000e+00, 0., 3.50000000e+00, 7.14253444e+28,
          3.30961633e+00, -1.51850211e-19, 3.00148654e+00, 0.,
          3.50000000e+00, 2.26274933e-20, 3.17429090e+00, 0., 0., 0., 0.,
          -1.12013653e+15, 3.21929073e+00, -9.50629630e+33,
          3.13603258e+00, 0., 3.50000000e+00, 0., 3.50000000e+00, 0.,
          3.50000000e+00, 0., 3.50000000e+00, 0., 3.50000000e+00, 0.,
          3.50000000e+00, 0., 3.50000000e+00, 0., 3.50000000e+00,
          -6.44920089e-20, 3.08190322e+00, 5.83315658e+17,
          3.32053494e+00, 0., 3.50000000e+00, 9.65776976e+15,
          3.22890234e+00, -4.30292815e-19, 2.92294836e+00, 0., 0.,
          -4.04282957e+09, 3.15919995e+00, 1.17868375e-07,
          2.88903975e+00, 4.08100921e+17, 3.37410760e+00, 0.,
          3.50000000e+00, 0., 3.50000000e+00, -3.82502714e+23,
          3.45148659e+00, 73703360., 3.30242515e+00, 1.64041841e+00,
          3.40875959e+00, 0., 3.50000000e+00, 0., 3.50000000e+00, 0., 0.,
          8.61102735e+33, 3.09355760e+00, 0., 3.50000000e+00,
          -1.75402018e+13, 3.28888392e+00, 0., 0., 0., 0.,
          3.22502997e-27, 3.02152920e+00 ]
      - [ 6.92304770e+19, 3.30649233e+00, -1.84932963e+18,
          3.39462471e+00, 0., 0., 1.12838112e-14, 3.07078791e+00, 0.,
          3.50000000e+00, -2.26282763e+00, 3.19686198e+00, 0., 0.,
          -4.11134122e+30, 3.43076611e+00, -7.67586966e+27,
          3.49863553e+00, -4.05405238e-02, 2.98584008e+00, 0., 0., 0.,
          3.50000000e+00, -1.41151205e-14, 3.05041599e+00, 0., 0., 0.,
          0., 3.33818982e+09, 3.29219460e+00, 1.67744780e-20,
          3.24973774e+00, 5.88952280e-05, 3.49474478e+00,
          -3.17945072e-34, 3.15854120e+00, 2.67376472e-20,
          3.18807936e+00, 0., 3.50000000e+00, 0., 3.50000000e+00, 0., 0.,
          0., 3.50000000e+00, 0., 3.50000000e+00, 9.81866101e+34,
          3.28475666e+00, 0., 0., 0., 3.50000000e+00, 2.95584111e-15,
          3.12042522e+00, 0., 0., 0., 0., -1.99397064e-39,
          3.28889632e+00, -2.71095375e+34, 3.09415102e+00,
          1.36838049e-21, 3.48446345e+00, -1.12492220e+15,
          3.38296342e+00, 1.01215399e-11, 3.40095878e+00, 0.,
          3.50000000e+00, 0., 3.50000000e+00, 2.03155042e+03,
          3.08183861e+00, 0., 3.50000000e+00, 2.11558457e+20,
          3.49266195e+00, 9.44765857e+31, 3.13118243e+00, 0., 0., 0.,
          3.50000000e+00, -2.38228291e-20, 3.01347041e+00, 0., 0., 0.,
          0., 1.20180998e-09, 3.12091231e+00, -3.34691900e-17,
          2.86834121e+00, 3.00168595e-24, 3.28217268e+00, 0.,
          3.50000000e+00, -6.40994614e+12, 3.32537317e+00,
          -1.15121000e-01, 3.29655266e+00, 1.24093277e+16,
          3.29707956e+00, 7.42711426e+02, 3.26066947e+00, 0.,
          3.50000000e+00, -2.70824653e+10, 3.30700636e+00, 0., 0., 0.,
          0., 0., 3.50000000e+00, -3.74491519e+34, 2.98731565e+00, 0.,
          0., 0., 0., -4.88915590e-37, 3.13127065e+00 ]
      - [ 1.08591523e-39, 3.37864876e+00, 1.53954161e-20, 3.18919301e+00,
          3.32949644e-14, 3.33556175e+00, 1.73886160e-28, 3.11819839e+00,
          0., 3.50000000e+00, 6.39701101e-14, 3.11821628e+00,
          -1.12837545e+38, 3.26568723e+00, 0., 3.50000000e+00, 0.,
          3.50000000e+00, -5.82815743e-19, 2.92294836e+00, 0., 0., 0.,
          3.50000000e+00, -1.47599902e+38, 2.99292755e+00, 0., 0., 0.,
          0., 0., 3.50000000e+00, -1.04543677e-32, 3.01377153e+00, 0.,
          3.50000000e+00, 0., 3.50000000e+00, -3.77568000e+21,
          3.08461952e+00, 0., 3.50000000e+00, 0., 3.50000000e+00, 0.,
          3.50000000e+00, 0., 3.50000000e+00, 0., 3.50000000e+00,
          4.60177235e+29, 3.30961633e+00, 1.82618008e-19, 3.09354091e+00,
          0., 3.50000000e+00, -1.97733770e-13, 3.13917685e+00, 0., 0.,
          0., 0., -4.06106509e-23, 3.28796649e+00, -1.30580554e-19,
          3.08615613e+00, -3.97711836e-22, 3.48427486e+00, 0.,
          3.50000000e+00, 4.00315939e+34, 3.13249063e+00, 0.,
          3.50000000e+00, 0., 3.50000000e+00, 0., 3.50000000e+00, 0.,
          3.50000000e+00, 0., 3.50000000e+00, 1.38366479e-24,
          3.21929073e+00, -5.77402716e-06, 3.23584008e+00, 0.,
          3.50000000e+00, -2.41218998e-18, 3.26035523e+00, 0., 0., 0.,
          0., 6.50911963e-12, 3.08582520e+00, -1.97790051e+01,
          2.98612428e+00, 1.82632561e-19, 3.34354091e+00, 2.03728672e+04,
          3.49757576e+00, -2.49547675e-23, 3.46973920e+00, 0.,
          3.50000000e+00, 9.84090698e+02, 3.33183861e+00,
          -7.46042058e+12, 3.33697343e+00, 0., 3.50000000e+00, 0.,
          3.50000000e+00, 0., 0., -2.01412045e-24, 2.86819792e+00, 0.,
          3.50000000e+00, 1.04490977e-16, 3.42973971e+00, 0., 0., 0., 0.,
          1.72488456e-12, 3.15905452e+00 ]
      - [ 1.01674502e-10, 3.38139081e+00, 0., 3.50000000e+00,
          -4.63947852e+04, 2.77904177e+00, 5.67567565e+10,
          2.88147807e+00, 0., 3.50000000e+00, 4.42015188e+05,
          3.40179634e+00, 0., 0., -92452496., 3.39884114e+00, 0.,
          3.50000000e+00, 2.28580973e+21, 3.02505684e+00, 0., 0., 0.,
          3.50000000e+00, 2.64609894e-13, 3.11820817e+00, 0., 0., 0., 0.,
          -5.24186875e+05, 3.41702318e+00, -4.93678542e-24,
          3.05262613e+00, 0., 3.50000000e+00, 1.03380799e-03,
          3.28746390e+00, 4.41176346e+31, 3.19690108e+00, 0.,
          3.50000000e+00, 0., 3.50000000e+00, 2.01007558e+33,
          3.01035523e+00, 0., 3.50000000e+00, 0., 3.50000000e+00,
          3.00407193e+15, 3.35057664e+00, 0., 0., 0., 3.50000000e+00,
          -2.55904137e+15, 3.20359945e+00, 0., 0., 0., 0.,
          9.77286918e+25, 3.29907155e+00, -3.95856675e+11,
          3.11868691e+00, -5.17964944e+31, 3.47924232e+00, 0.,
          3.50000000e+00, 1.08784062e+05, 3.39055419e+00, 0.,
          3.50000000e+00, 0., 3.50000000e+00, 3.06279615e+16,
          3.32053494e+00, 0., 3.50000000e+00, 0., 3.50000000e+00,
          -5.41545221e-19, 3.17294836e+00, 9.85788053e+28,
          3.13118243e+00, 0., 3.50000000e+00, -1.06707839e-31,
          3.40854120e+00, 0., 0., 0., 0., 2.83767120e-20, 3.14161539e+00,
          2.65419006e+00, 3.04907155e+00, -1.30711896e+11,
          3.27904177e+00, -3.46437356e-14, 3.42544651e+00, 0.,
          3.50000000e+00, 0., 3.50000000e+00, 3.89666361e+34,
          3.31595731e+00, -1.22995499e+28, 3.11828780e+00, 0.,
          3.50000000e+00, 0., 3.50000000e+00, 0., 0., -5.77402716e-06,
          2.98584008e+00, 0., 3.50000000e+00, 0., 3.50000000e+00, 0., 0.,
          0., 0., 2.48955246e-18, 3.09759879e+00 ]
      - [ -4.01886739e-28, 3.31309295e+00, 0., 3.50000000e+00, 0., 0.,
          -3.03822070e+17, 2.98879504e+00, 0., 3.50000000e+00,
          -4.37774435e-02, 3.31595874e+00, 0., 0., 5.49122091e+15,
          3.48128867e+00, 0., 3.50000000e+00, 1.71001375e+05,
          2.92295361e+00, 0., 0., 0., 3.50000000e+00, 6.45812086e+13,
          3.18166709e+00, 0., 0., 0., 0., -3.72054793e+12,
          3.32413197e+00, 5.38568032e+12, 2.98767233e+00,
          -1.99945354e-36, 3.43675780e+00, -1.32957984e-21,
          2.86819792e+00, 2.63380676e+02, 3.18167496e+00,
          -5.44140259e+02, 3.49988604e+00, 0., 3.50000000e+00, 0., 0.,
          0., 3.50000000e+00, 0., 3.50000000e+00, 8.48976803e-15,
          3.22890186e+00, 0., 0., 0., 3.50000000e+00, -7.91679571e+17,
          3.13370681e+00, 0., 0., 0., 0., -6.46126337e+19,
          3.23584199e+00, 9.39712992e+21, 3.12259269e+00, 0.,
          3.50000000e+00, 1.08781505e+32, 3.25331879e+00, 40643080.,
          3.23584032e+00, 0., 3.50000000e+00, 0., 3.50000000e+00,
          9.84090698e+02, 3.08183861e+00, 0., 3.50000000e+00, 0.,
          3.50000000e+00, 2.32133513e+18, 3.07053494e+00, 0., 0., 0.,
          3.50000000e+00, -1.46744269e+14, 3.31055617e+00, 0., 0., 0.,
          0., -8.32417841e+30, 3.11649370e+00, 24340148., 2.98593712e+00,
          -4.67991555e+19, 3.39695597e+00, -1.06237474e+12,
          3.48941064e+00, 0., 3.50000000e+00, 7.72133149e-07,
          3.36391163e+00, 1.02392706e+06, 3.30242515e+00,
          -1.99460021e+30, 3.40722489e+00, 0., 3.50000000e+00, 0.,
          3.50000000e+00, 0., 0., -2.01412045e-24, 2.86819792e+00, 0.,
          3.50000000e+00, 5.51634002e-03, 3.32054329e+00, 0., 0., 0., 0.,
          -1.90474951e+34, 3.13118744e+00 ]
      - [ 2.10536617e+17, 3.35020924e+00, 0., 3.50000000e+00,
          -1.78539273e-29, 3.31309009e+00, 7.29735984e-39,
          2.99027443e+00, 0., 3.50000000e+00, -4.57171351e-03,
          3.31311774e+00, 2.45579079e+35, 3.26035523e+00,
          -2.59132625e+06, 3.45186496e+00, 0., 3.50000000e+00,
          1.64070266e+05, 2.92295361e+00, 0., 0., 0., 3.50000000e+00,
          -1.14688759e+02, 3.03312254e+00, 0., 0., 0., 0.,
          -8.98470810e-17, 3.48546672e+00, 5.69946408e-01,
          3.21258974e+00, -4.58347907e-27, 3.42660809e+00, 0.,
          3.50000000e+00, 1.07614305e+19, 3.19736099e+00, 1.03327368e+16,
          3.49745440e+00, 0., 3.50000000e+00, 0., 3.50000000e+00, 0.,
          3.50000000e+00, 0., 3.50000000e+00, 9041983., 3.30519748e+00,
          -4.77990035e+33, 3.11821580e+00, 0., 3.50000000e+00,
          1.24166448e+36, 3.17317986e+00, 0., 0., 0., 0.,
          -2.71561441e-12, 3.30961657e+00, 8.43597488e-33,
          3.12296653e+00, -4.34420065e-31, 3.48376536e+00,
          1.73643453e-03, 3.38061619e+00, 4.88717918e-35, 3.36761403e+00,
          0., 3.50000000e+00, 0., 3.50000000e+00, 0., 3.50000000e+00, 0.,
          3.50000000e+00, 0., 3.50000000e+00, -8.47545590e+31,
          3.20330477e+00, -7.86695487e-10, 3.32992220e+00, 0.,
          3.50000000e+00, -4.03147034e+02, 3.38118243e+00, 0., 0., 0.,
          0., -3.54722325e-22, 3.15159154e+00, -2.26328011e-33,
          2.98749638e+00, -9.22592606e-29, 3.35964608e+00, 0.,
          3.50000000e+00, 994021824., 3.44855571e+00, -2.03041045e-33,
          3.42529583e+00, 3.65238208e-07, 3.33863473e+00, 9.39823035e-03,
          3.38898921e+00, 0., 3.50000000e+00, 0., 3.50000000e+00, 0., 0.,
          6.39188162e-29, 3.13118267e+00, 0., 3.50000000e+00, 0.,
          3.50000000e+00, 0., 0., 0., 0., -3.96682170e-36,
          3.07521725e+00 ]
      - [ 2.30707911e-19, 3.43456388e+00, 0., 3.50000000e+00, 202156848.,
          3.35057664e+00, 2.07727906e+05, 3.01076889e+00, 0.,
          3.50000000e+00, -3.73777850e+14, 3.13901591e+00,
          3.31126170e-22, 3.26953673e+00, 6.11853827e+27, 3.49018979e+00,
          0., 3.50000000e+00, -8.81086037e-11, 2.86826968e+00, 0., 0.,
          0., 3.50000000e+00, -2.88326197e+32, 3.03487659e+00, 0., 0.,
          0., 0., 0., 3.50000000e+00, 851998464., 3.36823392e+00,
          -8.79633640e+23, 3.40283751e+00, 0., 3.50000000e+00,
          2.26657240e+30, 3.19056344e+00, 0., 3.50000000e+00, 0.,
          3.50000000e+00, 0., 3.50000000e+00, 0., 3.50000000e+00, 0.,
          3.50000000e+00, -1.37841223e+38, 3.26568723e+00,
          -2.01412045e-24, 3.11819792e+00, 0., 3.50000000e+00,
          5.48953408e+32, 3.17797804e+00, 0., 0., 0., 0., 1.90461258e-25,
          3.33916020e+00, 3.18308664e-20, 3.20359969e+00,
          -6.89811096e-14, 3.49962735e+00, 0., 3.50000000e+00,
          1.41488704e-06, 3.35057783e+00, 0., 3.50000000e+00, 0.,
          3.50000000e+00, 0., 3.50000000e+00, 0., 3.50000000e+00, 0.,
          3.50000000e+00, -3.63775441e+16, 3.14462471e+00,
          2.57586167e+21, 3.24579024e+00, 0., 3.50000000e+00,
          1.15100833e-29, 3.36439657e+00, 0., 0., 0., 0., 5.08974077e+25,
          3.18942046e+00, -8.63352138e-15, 2.89913011e+00,
          -9.15329683e-29, 3.35964608e+00, 0., 3.50000000e+00, 0.,
          3.50000000e+00, -6.13595537e+14, 3.41538525e+00,
          3.89666361e+34, 3.31595731e+00, -2.87629076e-09,
          3.38359976e+00, 0., 3.50000000e+00, 0., 3.50000000e+00, 0., 0.,
          -2.01412045e-24, 2.86819792e+00, 0., 3.50000000e+00, 0.,
          3.50000000e+00, 0., 0., 0., 0., -3.57894107e-23,
          3.05474377e+00 ]
      - [ 0., 3.50000000e+00, 7.24933354e+33, 3.30521512e+00, 0., 0.,
          1.11588313e-04, 3.01967430e+00, 0., 3.50000000e+00,
          -3.31950940e-19, 3.32053494e+00, 0., 0., -7.48774856e-22,
          3.43862820e+00, -6.09810230e+30, 3.44356441e+00,
          -8.25613271e+10, 3.21258855e+00, 0., 0., 0., 3.50000000e+00,
          7.63890855e+24, 3.02911329e+00, 0., 0., 0., 0.,
          -8.77431394e+27, 3.27516818e+00, 0., 3.50000000e+00,
          9.79454306e-17, 3.42974162e+00, 0., 0., -9.00706593e+28,
          3.13578033e+00, 0., 3.50000000e+00, 0., 3.50000000e+00,
          -5.97387891e+04, 2.77904177e+00, 0., 3.50000000e+00, 0.,
          3.50000000e+00, 2.52470446e+13, 3.38118362e+00, 0., 0., 0.,
          3.50000000e+00, -2.27520073e+12, 3.14240623e+00, 0., 0., 0.,
          0., 2.65065722e+27, 3.00194573e+00, 1.03659194e-35,
          3.11725020e+00, 2.54669001e-25, 3.46929502e+00,
          -3.53264710e-04, 3.09355760e+00, 0., 3.50000000e+00, 0.,
          3.50000000e+00, 0., 3.50000000e+00, -5.97387891e+04,
          2.77904177e+00, 0., 3.50000000e+00, 0., 3.50000000e+00,
          -8.32994260e-07, 3.09739518e+00, 0., 0., 0., 3.50000000e+00,
          -1.51371872e+27, 3.09392357e+00, 6.75903408e-15,
          3.22890186e+00, 0., 0., -2.00680027e+12, 3.14805174e+00,
          1.79973297e+01, 3.01039362e+00, -1.61662303e-14,
          3.37724543e+00, 1.08012583e-15, 3.42160916e+00, 0.,
          3.50000000e+00, -1.65413212e-27, 3.42282748e+00,
          4.62794814e-18, 3.31840205e+00, 9.85788053e+28, 2.88118243e+00,
          0., 3.50000000e+00, -2.62170999e-31, 3.49782801e+00, 0., 0.,
          0., 0., 6.43815967e+03, 3.47687912e+00, 2.12754862e+19,
          3.11974382e+00, -3.04864943e-02, 3.23584008e+00, 0., 0.,
          7.34527260e-02, 3.08272719e+00 ]
      - [ -5.22659063e-01, 3.44604754e+00, -1.38601858e-13,
          3.44883800e+00, 5.46237527e-18, 3.31840205e+00,
          -5.31535798e+20, 2.98731637e+00, 0., 3.50000000e+00,
          -9.55534051e-05, 3.14905620e+00, -5.66813867e+04,
          3.27904177e+00, 3.07632071e+28, 3.40616560e+00, 0.,
          3.50000000e+00, -4.01609614e-02, 2.98584008e+00, 0., 0., 0.,
          3.50000000e+00, -3.02624048e-05, 3.05552340e+00, 0., 0., 0.,
          0., -2.42244873e+30, 3.27743125e+00, 5.19170686e-26,
          3.25664139e+00, 0., 3.50000000e+00, 0., 3.50000000e+00,
          -6.82963422e+28, 3.18163228e+00, 0., 3.50000000e+00, 0.,
          3.50000000e+00, 0., 3.50000000e+00, 0., 3.50000000e+00, 0.,
          3.50000000e+00, 2.00113003e+36, 3.31595731e+00,
          -5.72001063e+21, 3.10565567e+00, 0., 3.50000000e+00,
          6.56126475e+25, 3.17072034e+00, 0., 0., 0., 0.,
          -7.09410004e+19, 3.28217387e+00, 34258716., 3.11830139e+00, 0.,
          3.50000000e+00, 2.24123393e-15, 3.39130974e+00, 1.03734396e-25,
          3.40273118e+00, 0., 3.50000000e+00, 0., 3.50000000e+00, 0.,
          3.50000000e+00, 0., 3.50000000e+00, 0., 3.50000000e+00,
          -3.88324931e-02, 3.23584008e+00, -1.30922304e-15,
          3.24579024e+00, 0., 3.50000000e+00, 5.53966830e+11,
          3.37864661e+00, 0., 0., 0., 0., 4.09031957e-02, 3.12548041e+00,
          1.38540033e-08, 2.93854570e+00, 2.80755853e-19, 3.31840205e+00,
          -5.28269799e-18, 3.49539995e+00, 0., 3.50000000e+00,
          -1.23445284e-06, 3.39141202e+00, -9.15329563e-29,
          3.35964608e+00, 2.20654690e-24, 3.20028901e+00, 0.,
          3.50000000e+00, 0., 3.50000000e+00, -3.40017090e+02,
          2.77904177e+00, -1.05495162e-13, 2.86826968e+00, 0.,
          3.50000000e+00, 0., 3.50000000e+00, 0., 0., 0., 0.,
          -3.44892493e+09, 3.10344815e+00 ]
      - [ 0., 3.50000000e+00, 0., 3.50000000e+00, 0., 0.,
          -2.03171686e-38, 3.02989221e+00, 0., 3.50000000e+00,
          6.94448794e+23, 3.26065779e+00, 0., 0., 1701305728.,
          3.40056658e+00, 0., 3.50000000e+00, -3.99711803e-02,
          2.98584008e+00, 0., 0., 0., 3.50000000e+00, -8.55675861e-02,
          3.26568747e+00, 0., 0., 0., 0., 0., 3.50000000e+00,
          1.98295111e-38, 3.28899479e+00, 9.51884620e-26, 3.40595889e+00,
          -1.32943379e-11, 3.11819792e+00, -4.46456414e-12,
          3.22071934e+00, 0., 3.50000000e+00, 0., 3.50000000e+00,
          -2.01412045e-24, 3.11819792e+00, 0., 3.50000000e+00, 0.,
          3.50000000e+00, 1.11033625e+18, 3.29479861e+00,
          -3.40017090e+02, 2.77904177e+00, 0., 3.50000000e+00,
          -3.01157389e+15, 3.10364056e+00, 0., 0., 0., 0.,
          4.10201618e+21, 3.31058836e+00, 7.68271913e-22, 3.05370784e+00,
          3.46425520e-31, 3.49363804e+00, -7.89602119e-24,
          3.45189071e+00, 4.62712005e+31, 3.44683480e+00, 0.,
          3.50000000e+00, 0., 3.50000000e+00, 5.70068450e-20,
          3.38730311e+00, 0., 3.50000000e+00, 0., 3.50000000e+00,
          -3.49591075e+16, 3.14462471e+00, 7.42539448e+15,
          3.07053494e+00, 0., 3.50000000e+00, 1.62824332e-20,
          3.39338422e+00, 0., 0., 0., 0., -8.49382499e-26,
          3.09620643e+00, -2.46208053e+11, 3.08183861e+00,
          1.82618021e-19, 3.34354091e+00, 0., 3.50000000e+00, 0.,
          3.50000000e+00, -19206582., 3.36936784e+00, -5.60965532e+29,
          3.30755591e+00, 1.45089997e+16, 3.36893010e+00, 0.,
          3.50000000e+00, 0., 3.50000000e+00, 0., 0., -1.05495162e-13,
          2.86826968e+00, 0., 3.50000000e+00, 0., 3.50000000e+00, 0., 0.,
          0., 0., 4.36753938e-14, 3.08235979e+00 ]
      - [ 4.94404145e+18, 3.25279737e+00, 0., 3.50000000e+00, 654118912.,
          3.44489145e+00, 2.61983244e+31, 3.02999473e+00, 0.,
          3.50000000e+00, 5.35965573e+10, 3.38009310e+00, 1.09688270e+18,
          3.29479861e+00, -6.25378591e+10, 3.44604754e+00, 0.,
          3.50000000e+00, -3.98233830e+37, 2.92424202e+00, 0., 0., 0.,
          3.50000000e+00, -7.73322268e+29, 3.02623844e+00, 0., 0.,
          9.51943308e+34, 3.04906964e+00, 0., 3.50000000e+00,
          -4.55147219e+00, 3.30531335e+00, 8.62502607e+25,
          3.47457910e+00, 0., 3.50000000e+00, -5.09662636e-17,
          3.13356876e+00, 0., 3.50000000e+00, 0., 3.50000000e+00, 0.,
          3.50000000e+00, 0., 3.50000000e+00, 0., 3.50000000e+00,
          -28362086., 3.27904177e+00, -4.51760824e+10, 3.21258855e+00,
          0., 3.50000000e+00, -6.06761787e-36, 3.18195295e+00,
          -3.40017090e+02, 2.77904177e+00, 0., 0., 4.62419763e+10,
          3.33183861e+00, 1.79121353e+17, 3.11075163e+00, 0.,
          3.50000000e+00, 2.02068267e-23, 3.35146785e+00,
          -2.42491552e-12, 3.35568285e+00, 0., 3.50000000e+00, 0.,
          3.50000000e+00, 0., 3.50000000e+00, 0., 3.50000000e+00, 0.,
          3.50000000e+00, -3.52598041e+24, 3.10565567e+00,
          -1.25259621e+31, 3.30755591e+00, 0., 3.50000000e+00,
          -3.29447536e-14, 3.27505732e+00, 8.04430442e-07,
          3.31840205e+00, 0., 0., -1.58414029e+11, 3.12712336e+00,
          1.13706025e+04, 2.92425680e+00, -1.84302694e-30,
          3.32963037e+00, -3.69650555e+34, 3.49473619e+00,
          1.11889090e+21, 3.44279695e+00, 3.28574467e+00, 3.41608906e+00,
          -2.64708343e-27, 3.28695989e+00, -3.57844572e-38,
          3.13898921e+00, 0., 3.50000000e+00, 0., 3.50000000e+00,
          -1.45537015e-32, 3.09354186e+00, 8.30223694e+01,
          2.92295361e+00, 0., 3.50000000e+00, -1.56425219e+25,
          3.49009299e+00, 0., 3.50000000e+00, 0., 0., 4.22450186e-19,
          3.08190775e+00 ]
      - [ -1.40340390e-31, 3.45108771e+00, 0., 3.50000000e+00,
          -1.93745261e-30, 3.23588753e+00, -1.37522036e-12,
          2.92426157e+00, 0., 3.50000000e+00, -1.00370875e-04,
          3.18931365e+00, 1.59838139e-24, 3.21929073e+00, .Nan,
          3.47403216e+00, 0., 3.50000000e+00, -5.82815743e-19,
          2.92294836e+00, 0., 0., 0., 3.50000000e+00, 6.89881006e+19,
          3.03227425e+00, 0., 0., 0., 0., 5.41445752e-19, 3.37573957e+00,
          -1.33942177e-10, 3.08253741e+00, 8.73867570e-26,
          3.33131647e+00, 0., 3.50000000e+00, -1.95875132e+00,
          3.21272588e+00, -3.53462156e+24, 3.39453101e+00, 0.,
          3.50000000e+00, 0., 3.50000000e+00, 0., 3.50000000e+00,
          -1.12965694e+32, 3.49458051e+00, -2.49308703e+05,
          3.29212332e+00, -4.30292841e-19, 3.17294836e+00, 0.,
          3.50000000e+00, -6.50061906e+10, 3.11351061e+00, 0., 0., 0.,
          0., 2.92076865e-16, 3.18183446e+00, 1.12662990e+14,
          3.14804459e+00, -20889340., 3.44862294e+00, 0., 3.50000000e+00,
          37124052., 3.49680328e+00, 0., 3.50000000e+00, 0.,
          3.50000000e+00, 0., 3.50000000e+00, 0., 3.50000000e+00, 0.,
          3.50000000e+00, -5.50716431e-19, 3.17294836e+00,
          -4.66189894e-26, 3.28695989e+00, 0., 3.50000000e+00,
          -3.47065185e-29, 3.15917087e+00, 0., 0., 0., 0.,
          2.74623730e+03, 3.16143775e+00, -1.51230518e-37,
          2.88136768e+00, 3.03738885e+16, 3.29479861e+00, 0.,
          3.50000000e+00, 1.38610148e+27, 3.46331954e+00, 2.03815005e+14,
          3.39582968e+00, -2.64708343e-27, 3.28695989e+00,
          -2.84603183e-21, 3.48261642e+00, 0., 3.50000000e+00, 0.,
          3.50000000e+00, 0., 0., -2.62894599e-22, 2.92294836e+00, 0.,
          3.50000000e+00, 0., 3.50000000e+00, 0., 0., 0., 0.,
          -5.54927078e+31, 3.03075981e+00 ]
      - [ -6.91481223e+21, 3.40583968e+00, 0., 3.50000000e+00,
          6.48446157e+10, 3.32709956e+00, 3.43630461e-22, 3.02905560e+00,
          0., 3.50000000e+00, 3.58337492e-01, 3.32992244e+00,
          9.19662690e+11, 3.25663710e+00, 0., 3.50000000e+00, 0.,
          3.50000000e+00, -3.99711803e-02, 2.98584008e+00, 0., 0., 0.,
          3.50000000e+00, 2.26051062e-29, 3.03230715e+00, 0., 0., 0., 0.,
          1.39939869e-25, 3.49363804e+00, 3.22565540e+18, 3.08394670e+00,
          0., 3.50000000e+00, 0., 3.50000000e+00, -1.36116944e+35,
          3.14564466e+00, 0., 3.50000000e+00, 0., 3.50000000e+00, 0.,
          3.50000000e+00, 0., 3.50000000e+00, 0., 3.50000000e+00,
          6.38729052e+10, 3.32709956e+00, 1.82618008e-19, 3.09354091e+00,
          0., 3.50000000e+00, 2.50726284e-09, 3.14296722e+00, 0., 0., 0.,
          0., 5.78728913e+20, 3.11821175e+00, 4.54115717e+14,
          3.11345267e+00, 2.41073033e-24, 3.44729304e+00, 3.22782487e-37,
          3.42087293e+00, -1.96329808e+19, 3.33187842e+00, 0.,
          3.50000000e+00, 0., 3.50000000e+00, 0., 3.50000000e+00, 0.,
          3.50000000e+00, 0., 3.50000000e+00, -3.84529307e-02,
          3.23584008e+00, 2.57464232e+21, 3.24579024e+00, 0.,
          3.50000000e+00, -6.54858455e-28, 3.17311430e+00, 0., 0., 0.,
          0., 8.29889364e-38, 3.14672637e+00, -8.16592248e-04,
          2.92546034e+00, 1.85735497e-19, 3.31840205e+00,
          -4.86983244e+19, 3.41827846e+00, 0., 3.50000000e+00,
          -1.46243542e+13, 3.43927550e+00, -3.71331354e+09,
          3.34125471e+00, -1.68018433e+25, 3.18803477e+00, 0.,
          3.50000000e+00, 0., 3.50000000e+00, -3.40017090e+02,
          2.77904177e+00, -2.01412045e-24, 2.86819792e+00, 0.,
          3.50000000e+00, 1.64774014e-04, 3.29483938e+00, 0., 0., 0., 0.,
          3.49435117e-37, 3.07175040e+00 ]
      - [ 0., 3.50000000e+00, -2.10425198e+22, 3.43645287e+00,
          6.25256852e-38, 3.42013407e+00, 1.03669064e-16, 3.02989554e+00,
          0., 3.50000000e+00, -2.93537526e+23, 3.39462471e+00,
          -4.28178981e-02, 3.23584008e+00, 0., 3.50000000e+00, 0.,
          3.50000000e+00, 4.95466611e-06, 3.13118482e+00, 0., 0., 0.,
          3.50000000e+00, -1.03637072e+35, 3.04715180e+00, 0., 0., 0.,
          0., 0., 3.50000000e+00, 5.36720839e-33, 3.35057688e+00,
          5.02814202e+31, 3.40723038e+00, 0., 3.50000000e+00,
          3.61885526e-08, 3.26964450e+00, 0., 3.50000000e+00, 0.,
          3.50000000e+00, 0., 3.50000000e+00, 0., 3.50000000e+00, 0.,
          3.50000000e+00, -8.70890424e-16, 3.31691647e+00,
          1.54960159e+28, 3.10569048e+00, 0., 3.50000000e+00,
          -3.71461086e+22, 3.27911425e+00, 0., 0., 0., 0.,
          4.63353582e+27, 3.30521703e+00, -1.19601050e-19,
          3.24593568e+00, 1.21695894e-06, 3.40352964e+00, 0.,
          3.50000000e+00, 4.91581973e+21, 3.40095949e+00, 0.,
          3.50000000e+00, 0., 3.50000000e+00, 0., 3.50000000e+00, 0.,
          3.50000000e+00, 0., 3.50000000e+00, -4.66136909e+28,
          3.20330477e+00, 1.30499238e+06, 3.28217268e+00, 0.,
          3.50000000e+00, -37398524., 3.26066470e+00, -3.40017090e+02,
          2.77904177e+00, 0., 0., -8.76053686e+12, 3.19782043e+00,
          -1.47235949e-17, 2.98621798e+00, 2.34802062e-24,
          3.26953673e+00, 0., 3.50000000e+00, 0., 3.50000000e+00, 0.,
          3.50000000e+00, 1.02392706e+06, 3.30242515e+00, 3.20589108e-18,
          3.37724733e+00, 0., 3.50000000e+00, 0., 3.50000000e+00, 0., 0.,
          -1.52850651e-33, 2.92423725e+00, 0., 3.50000000e+00,
          -6.96780890e+20, 3.47682405e+00, 0., 0., 0., 0.,
          -2.01349252e-07, 3.09752059e+00 ]
      - [ 0., 3.50000000e+00, 0., 3.50000000e+00, -6.73023026e-10,
          3.27718592e+00, -1.24826272e-20, 3.04976940e+00, 0.,
          3.50000000e+00, -1.80012289e-34, 3.33571887e+00,
          -1.40643408e-36, 3.28475666e+00, -1.05614478e-38,
          3.39928627e+00, 1.55351735e-31, 3.44150615e+00, 8.90300634e+32,
          3.24579048e+00, 1.69257797e+05, 2.92295361e+00, 0.,
          3.50000000e+00, 9.60369324e+02, 3.03290653e+00, 0., 0.,
          -3.40017090e+02, 2.77904177e+00, 7.32063424e-19,
          3.44286275e+00, 3.46578099e-31, 3.49363804e+00, 0.,
          3.50000000e+00, -4.81615388e+32, 3.48260713e+00,
          3.77118856e-01, 3.10648131e+00, 0., 3.50000000e+00, 0.,
          3.50000000e+00, 9.95013754e-15, 3.47890186e+00,
          -1.45140038e-17, 3.47963667e+00, 0., 3.50000000e+00,
          8.41346497e-16, 3.33556175e+00, 4.65813775e-14, 3.13233972e+00,
          -1.38108403e-24, 3.46246481e+00, -1.42793877e+04,
          3.15858793e+00, 0., 0., 0., 0., -16252498., 3.48260713e+00,
          -6.77713266e+17, 3.07591581e+00, 1.20440205e+20,
          3.42673826e+00, 0., 3.50000000e+00, -8.86909039e-38,
          3.34460354e+00, -60444600., 3.44077802e+00, -1.63888831e+03,
          3.48731518e+00, 0., 3.50000000e+00, 0., 3.50000000e+00,
          -2.57183309e-03, 3.44280362e+00, -1.20499955e-22,
          3.21259236e+00, 3.26485609e+24, 3.26984906e+00, 0.,
          3.50000000e+00, 2.14310811e+21, 3.20330524e+00,
          -4.63947852e+04, 2.77904177e+00, 0., 0., 5.13917389e+09,
          3.16357517e+00, -3.63883098e+18, 3.19774413e+00,
          4.61452682e+27, 3.40100837e+00, 0., 3.50000000e+00,
          -8.50013832e-34, 3.49894857e+00, -1.32007639e+24,
          3.48285627e+00, 0., 3.50000000e+00, 1.30169024e-03,
          3.34136891e+00, 0., 3.50000000e+00, -1.24763080e+20,
          3.49030876e+00, -1.62074024e-25, 3.09380722e+00,
          6.90135727e-37, 2.98731518e+00, -5.36640946e+26,
          3.49147296e+00, -6.41891671e-21, 3.28695989e+00,
          3.81954346e+01, 3.26774311e+00, 0., 0., -6.00023706e-14,
          3.10328984e+00 ]
      - [ 0., 3.50000000e+00, 2.45406432e+18, 3.49329042e+00,
          3.17554517e+03, 3.36576319e+00, -2.77935261e-22,
          3.30967665e+00, 0., 3.50000000e+00, 8.09314386e+27,
          3.46782136e+00, 1.26185486e-11, 3.41509843e+00, 0.,
          3.50000000e+00, -3.01770371e+30, 3.44284368e+00,
          1.16484391e+20, 3.29707956e+00, -5.05094258e+04,
          3.02904177e+00, 0., 3.50000000e+00, 1.41956406e+02,
          3.14462614e+00, 0., 0., 0., 0., 0., 3.50000000e+00,
          1.20180395e-23, 3.38736534e+00, 0., 3.50000000e+00,
          7.99757885e-25, 3.46882820e+00, 2.22090408e+02, 3.08423162e+00,
          0., 3.50000000e+00, 0., 3.50000000e+00, 1.36241614e-08,
          3.44683123e+00, 0., 3.50000000e+00, 0., 3.50000000e+00,
          1.23611156e-11, 3.41509843e+00, -3.89682223e+24,
          3.10565567e+00, 0., 3.50000000e+00, 139316832., 3.14525819e+00,
          4.62556938e+05, 3.08183861e+00, 0., 0., -2.40245063e+36,
          3.48083043e+00, -6.12527542e+35, 3.09900498e+00,
          2.43239109e+11, 3.36057878e+00, -9.56650454e+25,
          3.43645287e+00, 0., 3.50000000e+00, 0., 3.50000000e+00,
          -7.65711117e+00, 3.39199877e+00, 8.14516210e-31,
          3.45598555e+00, 0., 3.50000000e+00, 0., 3.50000000e+00,
          -1.47281655e-12, 3.19683123e+00, 8.86803946e-08,
          3.14695573e+00, 0., 3.50000000e+00, 8.25703629e+10,
          3.22915006e+00, -6.02095616e+10, 3.21258855e+00, 0., 0.,
          -1.62285620e+34, 3.21472740e+00, 3.81068234e-22,
          3.26953673e+00, 9.84090698e+02, 3.08183861e+00, 1.02183926e+29,
          3.44926143e+00, 0., 3.50000000e+00, 0., 3.50000000e+00,
          7.54690855e-15, 3.22890186e+00, -1.49390207e-27,
          3.30083609e+00, 0., 3.50000000e+00, 1.10376623e-05,
          3.41949177e+00, 2.13805204e+18, 3.07053494e+00,
          -5.42811758e+04, 2.77904177e+00, 1.67998276e-03,
          3.43126392e+00, -2.17762763e+32, 3.23584151e+00,
          1.51418039e+20, 2.78888226e+00, 0., 0., 5.75746287e+24,
          3.28888226e+00 ]
      - [ 0., 3.50000000e+00, 0., 3.50000000e+00, -3.11096614e+24,
          3.39462590e+00, 1.12839849e-09, 3.01572204e+00, 0.,
          3.50000000e+00, -1.02336165e+20, 3.29718065e+00,
          2.63190663e-12, 3.22890186e+00, -5.27204719e+13,
          3.46811795e+00, 0., 3.50000000e+00, 8.05395726e-25,
          3.36574793e+00, 2.91609055e-12, 3.10565591e+00, 0.,
          3.50000000e+00, -1.00121613e+34, 3.21259046e+00, 0.,
          3.50000000e+00, 0., 0., 0., 3.50000000e+00, 572439360.,
          3.43502283e+00, 0., 3.50000000e+00, 9.70176251e+19,
          3.47890377e+00, -1.67431251e+33, 3.12014294e+00, 0.,
          3.50000000e+00, 0., 3.50000000e+00, 1.02698012e+33,
          3.49579024e+00, 0., 3.50000000e+00, 0., 3.50000000e+00,
          6.84639896e+24, 3.32372117e+00, 5.57827695e-09, 3.44683123e+00,
          0., 3.50000000e+00, -4.05462768e-38, 3.18316460e+00, 0.,
          3.50000000e+00, -1.05495162e-13, 2.86826968e+00, 0.,
          3.50000000e+00, 5.83039797e-11, 3.18819785e+00, 1.34785366e-25,
          3.30535293e+00, 7.88963702e-29, 3.44045091e+00,
          -3.22519950e-15, 3.46780968e+00, 0., 3.50000000e+00, 0.,
          3.50000000e+00, 0., 3.50000000e+00, 0., 3.50000000e+00, 0.,
          3.50000000e+00, -6.87861596e+10, 3.21258855e+00,
          3.48290580e-12, 3.33872271e+00, 0., 3.50000000e+00,
          -8.28896969e+11, 3.26277494e+00, 929441600., 3.07413125e+00,
          -4.30130571e+25, 3.41312480e+00, -2.90919524e+34,
          3.46262622e+00, -6.07548456e-09, 3.32968545e+00,
          -1.21657083e-28, 3.37995434e+00, 0., 3.50000000e+00, 0.,
          3.50000000e+00, 0., 3.50000000e+00, 0., 3.50000000e+00,
          1.25208929e+29, 3.29221725e+00, 0., 3.50000000e+00, 0.,
          3.50000000e+00, -5.77402716e-06, 2.98584008e+00,
          -5.61313627e+29, 3.30755591e+00, 0., 3.50000000e+00, 0.,
          3.50000000e+00, -5.32525156e+04, 2.77904177e+00,
          -1.99104446e+30, 3.40722489e+00, -1.22458831e-14,
          3.41095424e+00 ]
      - [ 6.47754638e+28, 3.47682309e+00, 3.47942660e-31, 3.40095901e+00,
          1.48115704e+20, 3.38545918e+00, -1.55554843e+30,
          3.01055717e+00, 2.59597008e+26, 3.49335599e+00, 1.32201797e-36,
          3.33188725e+00, 2.50083422e-23, 3.01953673e+00, 1.74263780e-26,
          3.43349123e+00, -7.90172441e-11, 3.46262074e+00,
          -3.42908922e-18, 3.17294836e+00, -1.82728807e+28,
          3.11931562e+00, 0., 3.50000000e+00, -8.07156934e+03,
          3.01036787e+00, -1.42314253e-21, 2.86819792e+00, 0., 0.,
          -9.29395567e+34, 3.49251842e+00, 1.34355183e+12,
          3.25663710e+00, 6.75211677e-13, 3.33185887e+00,
          -6.05116894e+13, 3.45839071e+00, 3.26501369e-01,
          3.17297721e+00, -1.83885843e+19, 3.41858268e+00, 0.,
          3.50000000e+00, 3.68732387e-08, 3.22890234e+00, 0.,
          3.50000000e+00, -4.45317196e-15, 3.44686246e+00,
          3.25775562e-09, 3.32833219e+00, 1531479936., 3.38730049e+00,
          -1.55710729e-29, 3.49998784e+00, -1.10775717e+38,
          2.99003291e+00, -1.22752774e+00, 3.39054894e+00,
          -5.77402716e-06, 2.98584008e+00, -9.43899841e+01,
          3.49249101e+00, -4.30976221e-19, 3.11966109e+00, -129668664.,
          3.34406972e+00, -6.09096652e-03, 3.34739518e+00, -72669992.,
          3.43494987e+00, 0., 3.50000000e+00, 0., 3.50000000e+00,
          -8.39809205e-20, 3.37232900e+00, 0., 3.50000000e+00,
          1.56033247e-33, 3.36785865e+00, -1.92560870e-33,
          3.37232900e+00, 4.50824493e+33, 3.20400286e+00, 0.,
          3.50000000e+00, -1.00210176e-31, 3.01055717e+00,
          -1.22699062e-12, 3.37724543e+00, -3.40017090e+02,
          2.77904177e+00, 9.03978689e-36, 3.31055641e+00, 3.97671377e-26,
          3.21929073e+00, 1.97565853e+33, 3.36820245e+00,
          -3.98583786e+24, 3.29714561e+00, 0., 3.50000000e+00, 0.,
          3.50000000e+00, 9.77001614e+20, 3.42025089e+00,
          -2.14374649e+26, 3.18786621e+00, 0., 3.50000000e+00, 0.,
          3.50000000e+00, 1.26217329e+17, 3.07053494e+00,
          -1.61416653e-21, 2.86819792e+00, 5.42431692e+18,
          3.46924949e+00, -3.94373117e-19, 3.17297029e+00,
          9.75691050e+31, 3.13118243e+00, 0., 0., -4.53303680e+15,
          3.34125471e+00 ]
      - [ 0., 3.50000000e+00, -1.85488824e-37, 3.43033910e+00,
          3.44503509e-22, 3.26953673e+00, -7.13357754e-16,
          3.31309009e+00, 0., 3.50000000e+00, 1.02031074e-04,
          3.36294270e+00, 2.73034052e+11, 3.38730049e+00,
          -5.10908865e+17, 3.49312425e+00, 9.20848467e-13,
          3.37147331e+00, -6.11389141e+04, 3.27904177e+00,
          -5.18617118e-19, 2.92294836e+00, 7.96170710e-20,
          3.49978232e+00, -1.08930876e-03, 3.14462972e+00, 0., 0., 0.,
          0., -2.63305361e+13, 3.03068995e+00, 1.57213996e+36,
          3.48838425e+00, 0., 3.50000000e+00, 1.97380123e+20,
          3.28888226e+00, 8.46339017e-02, 3.13269281e+00, 0.,
          3.50000000e+00, 0., 3.50000000e+00, 0., 3.50000000e+00, 0.,
          3.50000000e+00, 0., 3.50000000e+00, -5.16176931e-14,
          3.37038875e+00, -7.30246758e+10, 3.21258855e+00,
          -8.01184886e-37, 3.46447563e+00, 2.11878854e+31,
          3.11585474e+00, -4.36719134e-02, 2.98584008e+00, 0., 0.,
          -6.40479112e+32, 3.01097655e+00, 1.12882999e-40,
          3.27507043e+00, 1.49301777e+04, 3.30762458e+00, 3.03908960e+22,
          3.18375421e+00, 1.52753934e-08, 3.21318531e+00, 0.,
          3.50000000e+00, 0., 3.50000000e+00, 0., 3.50000000e+00, 0.,
          3.50000000e+00, -5.25708985e-30, 3.45516586e+00,
          -2.86438214e+15, 3.14470172e+00, -1.28613877e-33,
          3.29017949e+00, 0., 3.50000000e+00, -1.43393629e-23,
          3.18786430e+00, 3.33119700e-32, 3.17294979e+00, 0., 0.,
          -1.09023197e+25, 3.16110086e+00, 3.43154625e+06,
          3.08900714e+00, 1.25091332e+20, 3.38545918e+00, 2.61366433e+21,
          3.49579024e+00, -1.31386820e-37, 3.44609427e+00, 0.,
          3.50000000e+00, -2.62967170e+20, 3.43161035e+00,
          -1.61845464e+31, 3.22485065e+00, 0., 3.50000000e+00, 0.,
          3.50000000e+00, -1.05495162e-13, 2.86826968e+00,
          1.89514750e+05, 3.02994037e+00, -6.70434370e+29,
          3.37012863e+00, 345654048., 3.28888249e+00, -1.83879026e+19,
          3.18161058e+00, -1.05495162e-13, 2.86826968e+00,
          5.05345109e+37, 3.29906964e+00 ]
      - [ 0., 3.50000000e+00, -1.60786267e-02, 3.40393043e+00,
          4.42169062e+05, 3.33183861e+00, -5.80006201e-29,
          3.32963037e+00, 0., 3.50000000e+00, 2.20352986e-10,
          3.36439586e+00, -1.32957984e-21, 2.86819792e+00,
          -1.16033032e-08, 3.39026570e+00, 9.80113792e+00,
          3.49579358e+00, -3.18476288e+09, 3.21258855e+00,
          -2.01412045e-24, 2.86819792e+00, 0., 3.50000000e+00,
          -3.37503552e-02, 3.36293960e+00, 0., 0., 0., 0., 0.,
          3.50000000e+00, 0., 3.50000000e+00, 0., 3.50000000e+00,
          6.09357096e-02, 3.47455621e+00, 4.18867393e-37, 3.48731518e+00,
          0., 3.50000000e+00, 0., 3.50000000e+00, 8.24805781e+04,
          3.19044995e+00, 0., 3.50000000e+00, 0., 3.50000000e+00,
          2.98500137e-37, 3.36331415e+00, 3.11160735e+34, 3.08196783e+00,
          0., 3.50000000e+00, -8.41657776e-33, 3.11298800e+00,
          -5.29042294e-26, 3.28695989e+00, 0., 0., 0., 3.50000000e+00,
          -1.16764029e-17, 3.10897589e+00, -2.80410919e+01,
          3.41464400e+00, 1.68383963e+30, 3.47455883e+00, 0.,
          3.50000000e+00, 1.21743853e-30, 3.48697186e+00, 1.00615463e-04,
          3.28219485e+00, -2.96992272e-01, 3.43335748e+00, 0.,
          3.50000000e+00, -7.05318607e-19, 3.45076346e+00,
          7.59750397e-26, 3.25663924e+00, 1.49881626e-13, 3.22890186e+00,
          0., 3.50000000e+00, -9.51605834e-05, 3.28697586e+00,
          -3.06388122e-16, 3.35058832e+00, -3.40017090e+02,
          2.77904177e+00, 0., 3.50000000e+00, 0., 3.50000000e+00,
          3.21372675e-18, 3.24604726e+00, 0., 3.50000000e+00, 0.,
          3.50000000e+00, 0., 3.50000000e+00, 9.05360723e+23,
          3.09354091e+00, 2.54981175e+06, 3.31598830e+00, 0.,
          3.50000000e+00, 0., 3.50000000e+00, -4.10194706e+11,
          2.98584080e+00, -8.77937376e-11, 2.86826968e+00,
          5.43895403e-05, 3.40048361e+00, 0., 3.50000000e+00,
          1.39706073e+11, 3.31032634e+00, -3.40017090e+02,
          2.77904177e+00, 5.45076620e-17, 3.26035690e+00 ]
      - [ 0., 3.50000000e+00, 2.63832945e+10, 3.46303630e+00,
          1.60444684e-24, 3.21929073e+00, -7.63979464e-19,
          3.01038074e+00, 0., 3.50000000e+00, -2.00409446e-38,
          3.32434511e+00, 5.83973655e-35, 3.38898921e+00, 1.58095656e-38,
          3.34912992e+00, -3.59798062e+36, 3.42114830e+00,
          -1.75385796e+31, 3.30755591e+00, 9770014., 2.98584056e+00,
          -5.76341354e-31, 3.45895910e+00, 1.83398160e-21,
          3.11820316e+00, 0., 0., 0., 0., 1.68048175e+21, 3.24729538e+00,
          0., 3.50000000e+00, -1.39234234e-17, 3.29494190e+00,
          -5.11682779e-02, 3.23584008e+00, -1.06270904e+30,
          3.07097960e+00, 0., 3.50000000e+00, 0., 3.50000000e+00, 0.,
          3.50000000e+00, 2.27456244e-39, 3.36216378e+00, 0.,
          3.50000000e+00, 27912406., 3.42013550e+00, -3.14681060e+15,
          3.21258855e+00, 7.77366924e+35, 3.32391715e+00, 3.86213485e+25,
          3.14726472e+00, 0., 0., 0., 0., -9.03095085e+33,
          3.00201631e+00, 0., 3.50000000e+00, 1.39061263e-09,
          3.41510582e+00, -2.51561362e+15, 3.30083847e+00,
          7.22358272e+37, 3.46082258e+00, 0., 3.50000000e+00, 0.,
          3.50000000e+00, 0., 3.50000000e+00, 0., 3.50000000e+00, 0.,
          3.50000000e+00, -2.48066385e-06, 3.13344216e+00,
          -2.32305629e-20, 3.30519462e+00, 0., 3.50000000e+00,
          8.26095928e+25, 3.22890472e+00, 1.85552453e+05, 2.92295361e+00,
          0., 0., 2.70106252e-02, 3.15099692e+00, 0., 3.50000000e+00,
          5.16617659e-28, 3.39268732e+00, 0., 3.50000000e+00, 0.,
          3.50000000e+00, 0., 3.50000000e+00, -3.38097122e+34,
          3.44277620e+00, 2.93676567e-16, 3.26512265e+00, 0.,
          3.50000000e+00, 0., 3.50000000e+00, -1.90175709e-21,
          3.36819792e+00, -6.46391875e+04, 3.08184052e+00, 0.,
          3.50000000e+00, -2.33791510e-29, 3.47206378e+00,
          1.27113701e-14, 3.22890186e+00, 0., 0., -8.35031033e+18,
          3.07163739e+00 ]
      - [ -3.78104924e+33, 3.42955279e+00, 1.04124242e-36,
          3.35198259e+00, -4.78331553e-23, 3.34128332e+00,
          6.45221055e+04, 3.00192165e+00, 0., 3.50000000e+00,
          -3.12897447e+22, 3.39695597e+00, 2.56275534e+35,
          3.26035523e+00, -2.21206986e-09, 3.41945505e+00,
          -1.91513813e+00, 3.40523982e+00, -4.75960986e+09,
          3.34125471e+00, -5.69058851e-19, 2.92294836e+00,
          -1.03278378e-15, 3.49055529e+00, 7.10307343e-21,
          3.11819863e+00, 0., 0., 0., 0., -9.81940224e-13,
          3.49003267e+00, 0., 3.50000000e+00, -5.30266322e+23,
          3.42158580e+00, -1.05948680e-10, 3.49003267e+00,
          -1.53808817e-14, 3.13347960e+00, 0., 3.50000000e+00, 0.,
          3.50000000e+00, -4.21510593e+28, 3.41312480e+00,
          2.62218962e+27, 3.49021006e+00, 0., 3.50000000e+00,
          -1.27530227e-33, 3.46778631e+00, -3.76245903e+24,
          3.10565567e+00, 6.53205996e+28, 3.49034834e+00,
          -1.27145527e+14, 3.15966940e+00, 0., 0., 0., 0.,
          -1.74713717e+20, 3.37864590e+00, 1.02520801e+17,
          3.09486771e+00, 9.49598160e+01, 3.34905553e+00,
          -7.13391404e-04, 3.49003267e+00, 0., 3.50000000e+00,
          -4.27767055e+33, 3.49555087e+00, -5.63707083e+37,
          3.46634912e+00, 0., 3.50000000e+00, 0., 3.50000000e+00,
          1.30950381e-28, 3.49478817e+00, -2.44347316e+14,
          3.20839071e+00, -2.63592853e-34, 3.26035523e+00, 0.,
          3.50000000e+00, 1.63893760e-13, 3.40270686e+00, 0., 0., 0., 0.,
          3.43387188e+04, 3.11221123e+00, 6.66109161e+01, 2.86848354e+00,
          3.37819715e-15, 3.31660295e+00, 5.04239260e-24, 3.39675260e+00,
          0., 3.50000000e+00, -1.50452247e-33, 3.34201241e+00,
          -1.75421014e-02, 3.49249101e+00, 6.28362859e-28,
          3.38136029e+00, 0., 3.50000000e+00, 6.01083698e-36,
          3.49368596e+00, 7.42539448e+15, 3.07053494e+00, 8.12801269e-37,
          3.38898921e+00, 9.66352300e+36, 3.46655726e+00, 1.56680157e-18,
          3.47894859e+00, 0., 0., 2.57464232e+21, 3.24579024e+00,
          -2.60348409e-01, 3.13180542e+00 ]
      - [ 0., 3.50000000e+00, 1.33332959e+11, 3.38734174e+00,
          -7.96847738e+29, 3.37233162e+00, 5.08594056e-23,
          2.93786907e+00, 0., 3.50000000e+00, 8.56483508e+27,
          3.36574817e+00, 8.84874667e-35, 3.40582275e+00, 1.34513673e+35,
          3.46472383e+00, 0., 3.50000000e+00, -1.58070325e-19,
          3.25148654e+00, 2.07527561e+37, 3.04906964e+00, 8.21819448e+12,
          3.44407868e+00, 7.33212275e+22, 3.09362459e+00, 0., 0., 0., 0.,
          1.66809189e-09, 3.47206259e+00, 8.27863680e+25, 3.37112951e+00,
          -1.75136563e+20, 3.42158628e+00, 1.06074927e+20,
          3.47682285e+00, -1.15021831e-30, 3.07444191e+00, 0.,
          3.50000000e+00, 0., 3.50000000e+00, 0., 3.50000000e+00,
          -1.77022227e-29, 3.49642920e+00, 0., 3.50000000e+00,
          -8.50834672e+26, 3.34359097e+00, 1.46251548e-24,
          3.21929073e+00, -1.61516405e+11, 3.48346901e+00,
          6.21195145e-27, 3.11296964e+00, -5.76528984e+04,
          3.02904177e+00, 0., 0., 9.30274673e+11, 3.47682285e+00,
          -6.97971273e+35, 3.07097578e+00, -6.12905211e-08,
          3.39057827e+00, 1.51298555e+04, 3.47455597e+00,
          -1.16216716e-08, 3.42545462e+00, 0., 3.50000000e+00, 0.,
          3.50000000e+00, 0., 3.50000000e+00, 0., 3.50000000e+00,
          5.81453150e+06, 3.43286729e+00, -1.69861243e-27,
          3.15885806e+00, 6.14086900e-07, 3.29215765e+00, 0.,
          3.50000000e+00, 1.81691754e-32, 3.15854144e+00, 1.38575107e-18,
          3.15270686e+00, 0., 0., 2.06858109e-04, 3.19998741e+00,
          -1.01177693e+20, 3.10566497e+00, .Nan, 3.37452817e+00, 0.,
          3.50000000e+00, 0., 3.50000000e+00, 0., 3.50000000e+00,
          8.65024090e-01, 3.47455597e+00, 9.60146236e+00, 3.36294031e+00,
          0., 3.50000000e+00, 0., 3.50000000e+00, -1.03365360e-33,
          2.92423725e+00, -6.27085140e-34, 2.93853784e+00,
          1.42362363e-11, 3.34383583e+00, 7.69865027e-15, 3.26985073e+00,
          -6.18258054e-21, 3.23584604e+00, 9.12951236e+17,
          2.78888226e+00, -1.81504242e-29, 3.31309009e+00 ]
      - [ 0., 3.50000000e+00, 1.52138912e-03, 3.43767047e+00,
          1.73462974e-03, 3.34063673e+00, -2.17811753e-29,
          3.31309009e+00, 0., 3.50000000e+00, 2.53648690e-18,
          3.38858008e+00, -6.73588789e-12, 3.42544651e+00,
          -5.93176169e+23, 3.43711996e+00, -1.16260352e+14,
          3.49585295e+00, 5.78814075e-17, 3.26065707e+00, 1.81943434e-26,
          3.21929073e+00, -2.33282750e+27, 3.43712711e+00,
          5.11779579e+13, 3.07079148e+00, 0., 0., 0., 0.,
          -3.69333330e+35, 3.41116714e+00, 3.69319716e+18,
          3.36362433e+00, 0., 3.50000000e+00, 7.86374511e+30,
          3.48082542e+00, -4.83494209e-20, 3.07283688e+00, 0.,
          3.50000000e+00, 0., 3.50000000e+00, 0., 3.50000000e+00,
          3.20829677e-05, 3.48158288e+00, 0., 3.50000000e+00,
          1.08711840e-20, 3.37411928e+00, -4.19564448e-13,
          3.22890186e+00, -4.11102286e-04, 3.48170185e+00,
          2.06315848e+10, 3.11351037e+00, -1.72918957e-21,
          3.11819792e+00, 0., 0., 3.45786022e-09, 3.48082232e+00,
          -1.07007180e+35, 3.44277620e+00, 1.47526959e+15,
          3.40380836e+00, 1.04299553e-26, 3.48113823e+00,
          -1.11522837e+01, 3.21947646e+00, 0., 3.50000000e+00, 0.,
          3.50000000e+00, 0., 3.50000000e+00, 1.39506534e-04,
          3.49701810e+00, -3.05510267e-26, 3.46391988e+00,
          4.22658295e+19, 3.15920901e+00, 5.95899904e-21, 3.29018283e+00,
          0., 3.50000000e+00, -5.74598707e-31, 3.15854120e+00,
          -2.13324465e-19, 3.28475666e+00, 0., 0., -1.03630386e+26,
          3.20400620e+00, 5.95386856e-35, 3.38898921e+00,
          -1.38697392e+15, 3.39750814e+00, 6.52256433e+37,
          3.49596715e+00, -1.43021025e+04, 3.39808750e+00,
          4.07528707e+18, 3.48477483e+00, -2.79790437e+20,
          3.43645287e+00, 7.42339172e+02, 3.39462590e+00, 0.,
          3.50000000e+00, -2.22764123e-17, 3.49186254e+00,
          9.85788053e+28, 2.88118243e+00, -3.84671140e+00,
          3.01055717e+00, 1.35593081e+24, 3.37972164e+00, 1.52077307e+34,
          3.24579024e+00, -1.38070185e+31, 3.30755591e+00,
          -3.40017090e+02, 2.77904177e+00, 3.05130476e+24,
          3.32413125e+00 ]
      - [ 0., 3.50000000e+00, 1.32550960e-02, 3.33866811e+00,
          -3.93730469e+01, 3.39199877e+00, -1.44710835e+38,
          3.03286433e+00, 0., 3.50000000e+00, -4.72161843e+09,
          3.32963276e+00, 1.75037721e-22, 3.26725674e+00, -44303.,
          3.45003915e+00, 0., 3.50000000e+00, -5.67385312e+04,
          3.27904177e+00, -8.67137225e+11, 3.48260713e+00, 0.,
          3.50000000e+00, 5.92070859e+22, 3.29212379e+00, 0., 0.,
          8.41272660e-17, 3.34354091e+00, 2.25671658e-25, 3.49204779e+00,
          0., 3.50000000e+00, 0., 3.50000000e+00, 2.41509568e-09,
          3.47206259e+00, -1.37781234e+05, 3.10576129e+00, 0.,
          3.50000000e+00, 0., 3.50000000e+00, -1.28332260e-07,
          3.37232924e+00, 0., 3.50000000e+00, 0., 3.50000000e+00,
          2.28713998e+21, 3.38545918e+00, 2.35819776e+28, 3.32053494e+00,
          0., 3.50000000e+00, -1.51865110e-01, 3.14640689e+00, 0., 0.,
          -3.40017090e+02, 3.02904177e+00, -1.89868319e+10,
          3.49063015e+00, -6.36839582e-26, 3.18175268e+00,
          -7.02202830e-36, 3.40589046e+00, 4.69197374e-07,
          3.39695573e+00, 0., 3.50000000e+00, -3.42633860e+23,
          3.49394250e+00, -4.27491325e-31, 3.30519485e+00,
          -7.32834952e+34, 3.43475485e+00, 0., 3.50000000e+00,
          1.42793955e+04, 3.38918090e+00, 9.37034631e+31, 3.13118243e+00,
          -1.02124547e+21, 3.20348120e+00, 0., 3.50000000e+00,
          -3.73333329e-14, 3.07197452e+00, -5.94244766e+04,
          2.77904177e+00, 0., 0., -1.47136304e-22, 3.18468213e+00,
          -4.82822625e-26, 3.33183861e+00, 1.31633403e+17,
          3.25149274e+00, -1.72322305e+28, 3.46954131e+00, 0.,
          3.50000000e+00, 0., 3.50000000e+00, 6.30233564e-39,
          3.42769384e+00, 1.51970319e+19, 3.29318166e+00, 0.,
          3.50000000e+00, 0., 3.50000000e+00, 1.24779898e-24,
          3.21929073e+00, -1.65120174e-21, 2.86819792e+00,
          1.77642379e-35, 3.36793375e+00, -1.80331677e+03,
          3.26152825e+00, 2.01167049e+37, 3.04906964e+00, 0., 0.,
          -733630., 3.27904177e+00 ]
      - [ -3.62262141e+25, 3.42979074e+00, 8.36247481e-20,
          3.41097665e+00, 3.45752055e-22, 3.26953673e+00,
          -1.05495162e-13, 2.86826968e+00, 0., 3.50000000e+00,
          -6.79149380e+33, 3.38343430e+00, -5.65441656e+00,
          3.39199877e+00, -6.92501421e+30, 3.27743077e+00,
          4.45308690e-38, 3.49694228e+00, 1.92297505e-22, 3.28217268e+00,
          -5.09445857e-19, 2.92294836e+00, -1.42019512e+10,
          3.47690725e+00, 3.52511321e+37, 3.13134003e+00, 0., 0., 0., 0.,
          3.56420145e+33, 3.20400286e+00, 3.15567318e+37, 3.26570463e+00,
          5.25456999e-05, 3.36440611e+00, -1.47092108e+31,
          3.30755591e+00, 4.66873870e+27, 3.05262542e+00, 0.,
          3.50000000e+00, 0., 3.50000000e+00, 0., 3.50000000e+00,
          1.51209701e-06, 3.40479112e+00, 0., 3.50000000e+00,
          -1.50253464e+02, 3.35965657e+00, 1.14034926e+24,
          3.24579024e+00, 1.36061202e-17, 3.33471990e+00, 4.10423505e-39,
          3.10623932e+00, 0., 0., 0., 0., -4.21927863e-04,
          3.04909968e+00, 3.44082131e-04, 3.02256083e+00,
          -9.44269103e+22, 3.44493866e+00, -1.36840159e+19,
          3.19774413e+00, 2.43823372e-25, 3.19684625e+00, 2.53717740e-08,
          3.49787879e+00, 0., 3.50000000e+00, 0., 3.50000000e+00, 0.,
          3.50000000e+00, -5.91506136e-17, 3.47877693e+00,
          -9.48728358e-34, 3.14470172e+00, 4.27200484e-13,
          3.30525422e+00, 0., 3.50000000e+00, 3.22477844e-09,
          3.35329103e+00, -3.40017090e+02, 2.77904177e+00, 0., 0.,
          3.79787563e+33, 3.16101050e+00, 1.57484297e-38, 2.98593497e+00,
          -7.32479841e-11, 3.39639688e+00, 0., 3.50000000e+00,
          -1.58283478e-06, 3.43786359e+00, -16188712., 3.48082256e+00,
          -2.32220898e+36, 3.42769361e+00, -5.34248907e+18,
          3.21532083e+00, 0., 3.50000000e+00, 0., 3.50000000e+00,
          -1.05495162e-13, 2.86826968e+00, 1212524416., 3.32709956e+00,
          1.00569611e+03, 3.41841626e+00, -2.13964567e-01,
          3.34354234e+00, -2.89682429e-02, 2.98584008e+00,
          -7.22850342e+01, 3.01036787e+00, 6.56031620e-37,
          3.18183470e+00 ]
      - [ 0., 3.50000000e+00, -1.51263678e-33, 3.45330763e+00,
          1.99168347e-34, 3.32963395e+00, -1108375552., 3.01345015e+00,
          0., 3.50000000e+00, 5.29166920e-34, 3.38898921e+00,
          5.54228257e-18, 3.31840205e+00, -4.75202870e+16,
          3.47403431e+00, -1.22596003e-01, 3.45507312e+00,
          6.47114342e+29, 3.35328913e+00, -7.89857416e-11,
          2.86826968e+00, 0., 3.50000000e+00, 3.14545713e+38,
          3.20332718e+00, 0., 0., 4.91200858e-18, 3.31840205e+00,
          -2.19018635e+27, 3.48427558e+00, 0., 3.50000000e+00,
          -1.31922696e+28, 3.23626351e+00, -1.10825901e+33,
          3.48427510e+00, 2.90013289e+12, 3.27505946e+00, 0.,
          3.50000000e+00, 0., 3.50000000e+00, 0., 3.50000000e+00, 0.,
          3.50000000e+00, 0., 3.50000000e+00, 4.17682312e+02,
          3.47890306e+00, -2.31109500e-01, 3.18794894e+00, 0.,
          3.50000000e+00, -1.62795468e+37, 3.23746204e+00, 0., 0.,
          -3.40017090e+02, 2.77904177e+00, 3.12085312e+17,
          3.42158580e+00, -2.14780697e-35, 3.13397169e+00,
          -5.70937221e+10, 3.28217268e+00, 1.59262369e-37,
          3.48427582e+00, 0., 3.50000000e+00, 0., 3.50000000e+00, 0.,
          3.50000000e+00, 0., 3.50000000e+00, 0., 3.50000000e+00, 0.,
          3.50000000e+00, 1.40496232e-30, 3.28932714e+00, 3.05542049e+18,
          3.26453400e+00, 0., 3.50000000e+00, -2.56149264e-15,
          3.27386332e+00, 1.65336451e-12, 3.14462495e+00, 0., 0.,
          -2.29371711e-21, 3.22007346e+00, -4.53342606e+12,
          2.99011374e+00, -435453664., 3.37573862e+00, 0.,
          3.50000000e+00, 0., 3.50000000e+00, -1.81040715e-21,
          3.49163222e+00, -198860800., 3.46258855e+00, 1.11817685e+33,
          3.38121963e+00, 0., 3.50000000e+00, 0., 3.50000000e+00,
          -7.53825781e+03, 3.01036787e+00, 1.20524798e+27,
          2.88121963e+00, 0., 3.50000000e+00, -1.08537816e-28,
          3.41690946e+00, -7.59152930e+03, 3.01036787e+00,
          -2.62894599e-22, 2.92294836e+00, -3.46086552e-21,
          3.05000854e+00 ]
      - [ -5.31296491e-12, 3.49070883e+00, 2.85897851e+11,
          3.48428440e+00, -1.76427547e-21, 3.11819792e+00,
          5.33604658e-30, 3.00192189e+00, 0., 3.50000000e+00,
          2.51044599e+26, 3.38730407e+00, 3.09594100e-15, 3.33556175e+00,
          -1.88689264e-09, 3.44281030e+00, 0., 3.50000000e+00,
          4.02978964e+14, 3.25663710e+00, -3.84529270e-02,
          2.98584008e+00, 0., 3.50000000e+00, 5.39654154e+17,
          3.09361005e+00, 0., 0., 0., 0., -1.69555562e-31,
          3.31309009e+00, -5.02617701e-29, 3.40096211e+00,
          2.20282353e-16, 3.39462924e+00, -1.49931634e-06,
          3.18786359e+00, -26423470., 3.08740830e+00, -8.71064503e-23,
          3.49579501e+00, 0., 3.50000000e+00, 9.88481812e+02,
          3.47455597e+00, 0., 3.50000000e+00, 0., 3.50000000e+00,
          7.87580703e-29, 3.34155703e+00, 6.48684750e-09, 3.19683123e+00,
          4.10800241e-27, 3.39191079e+00, 8.29015450e+06, 3.14641929e+00,
          -5.25068530e-26, 3.28695989e+00, 0., 0., -8.54227161e+27,
          3.01058221e+00, -4.30328952e-20, 3.10406327e+00,
          8.73036241e+13, 3.39335442e+00, -4.50868189e-01,
          3.29212546e+00, 1.22122223e+26, 3.40112877e+00, 0.,
          3.50000000e+00, -4.40223806e+17, 3.46616936e+00, 0.,
          3.50000000e+00, 0., 3.50000000e+00, -3.50771724e+14,
          3.49902916e+00, -6471361., 3.15275908e+00, -8.34866309e+16,
          3.29709601e+00, 0., 3.50000000e+00, -1.78484770e-04,
          3.19683838e+00, 1.30477195e-29, 3.34740043e+00, 0., 0.,
          1.21203108e+01, 3.20470238e+00, 1.94068119e+38, 3.13133121e+00,
          1.05080964e+19, 3.31896114e+00, 0., 3.50000000e+00, 0.,
          3.50000000e+00, 0., 3.50000000e+00, -9.67524127e-32,
          3.41858006e+00, -4.09922624e+25, 3.25314641e+00, 0.,
          3.50000000e+00, 0., 3.50000000e+00, 8.31989594e+01,
          2.92295361e+00, 2.07066869e+28, 3.01327634e+00,
          -1.00283395e-28, 3.41729212e+00, 1.48253039e+31,
          3.30755711e+00, 1.61136025e+22, 3.21282840e+00, 0., 0.,
          -1.75130833e-02, 3.34126425e+00 ]
      - [ 0., 3.50000000e+00, -4.77677650e+10, 3.24132967e+00,
          5.75214326e-05, 3.33864093e+00, -5.50219284e+10,
          2.98731709e+00, 0., 3.50000000e+00, 2.70215076e+34,
          3.40152144e+00, -1.15967767e-25, 3.43323684e+00,
          5.00172710e+00, 3.39599514e+00, -859166528., 3.48156404e+00,
          3.50503523e+14, 3.22988033e+00, -961158016., 3.18162441e+00,
          -1.85096749e-32, 3.48122692e+00, 3.16075052e-28,
          3.01346040e+00, 0., 0., -3.40017090e+02, 2.77904177e+00,
          -8.43699562e+36, 3.49473619e+00, 1.19980386e+35,
          3.46444368e+00, 3.74689978e+36, 3.37650704e+00, 3.97775408e-28,
          3.48731518e+00, 7.45337407e+22, 3.10350490e+00, 0.,
          3.50000000e+00, 0., 3.50000000e+00, 1.55760068e-21,
          3.49363995e+00, -3.86727883e+23, 3.49880075e+00, 0.,
          3.50000000e+00, -2.67544452e+32, 3.35970211e+00,
          3.94410704e-30, 3.21261883e+00, 1.99148120e-26, 3.47893643e+00,
          2.93336206e+33, 3.08388901e+00, 4.64459844e+05, 3.08183861e+00,
          0., 0., 3.53921751e-05, 3.48731518e+00, -1.52326327e+18,
          3.09294510e+00, -369313472., 3.40697694e+00, -236134768.,
          3.43494987e+00, -7.43671064e+15, 3.30249619e+00, 0.,
          3.50000000e+00, 0., 3.50000000e+00, 0., 3.50000000e+00,
          3.65410239e+25, 3.46348333e+00, -6.13847625e+05,
          3.39288330e+00, 1.65813181e-37, 3.13194942e+00, 5.70525041e+10,
          3.30460787e+00, 0., 3.50000000e+00, 1.86500367e+32,
          3.02909970e+00, 5.69106982e+03, 3.22455597e+00, 0., 0.,
          2.78727926e-11, 3.19947147e+00, 37336008., 3.21258879e+00,
          1.34398046e-27, 3.37769389e+00, -2.13788509e+00,
          3.36293960e+00, 0., 3.50000000e+00, 1.38946294e-18,
          3.35200882e+00, -824726784., 3.46258855e+00, 4.75818657e-13,
          3.41098166e+00, 0., 3.50000000e+00, -1.48841287e-11,
          3.45891643e+00, -5.61565197e-34, 2.93853784e+00, 380120000.,
          3.32413125e+00, 6.83831869e+10, 3.37683678e+00, 2.83102099e+21,
          3.11303401e+00, 2.37677250e+18, 3.32053494e+00, 0., 0.,
          -2.86093704e+15, 3.30242538e+00 ]
      - [ 1.28188960e-24, 3.45534062e+00, 8.53391575e+25, 3.37495303e+00,
          1.07378590e-17, 3.17359972e+00, 7980821., 3.01348066e+00, 0.,
          3.50000000e+00, 5.45775183e-05, 3.31841993e+00,
          -4.63947162e+10, 3.37573862e+00, -3.42725031e+19,
          3.45268726e+00, -3.29394654e+26, 3.49784017e+00,
          -1.11660354e+38, 3.26568723e+00, -5.38239961e+04,
          3.02904177e+00, 0., 3.50000000e+00, 1.79190917e+19,
          3.03221941e+00, 0., 0., 0., 0., 1.01845501e+32, 3.38118243e+00,
          -4.76145604e+21, 3.20337152e+00, -9.24663477e+03,
          3.49003458e+00, 2.94296198e-15, 3.17973685e+00, 3.47674278e-10,
          3.07955933e+00, -2.25166043e+22, 3.49089694e+00, 0.,
          3.50000000e+00, 9.36622046e-36, 3.46058059e+00,
          -1.95454546e+28, 3.47814727e+00, 0., 3.50000000e+00,
          2.36020297e-01, 3.37233996e+00, 1.25836923e-08, 3.19683123e+00,
          6.23714716e-31, 3.37526202e+00, 3.35945724e-12, 3.09494638e+00,
          0., 0., 0., 0., 6.50933499e+13, 3.08183885e+00,
          -5.21381519e-34, 3.06855726e+00, 9.09019280e+29,
          3.37995815e+00, -1.93157310e-10, 3.49777842e+00,
          7.14205387e+16, 3.16861153e+00, 0., 3.50000000e+00,
          1.67574074e-19, 3.47455716e+00, 0., 3.50000000e+00,
          3.35160272e-23, 3.49779296e+00, 0., 3.50000000e+00,
          8.40314315e-04, 3.13176942e+00, -3.29348022e+11,
          3.29598069e+00, 0., 3.50000000e+00, -1.30745106e+11,
          3.30997515e+00, -1.32957984e-21, 2.86819792e+00, 0., 0.,
          -3.86865884e-02, 3.14497471e+00, -6.77666016e+01,
          2.92548800e+00, 510918912., 3.38447189e+00, -3.58833102e-12,
          3.49791265e+00, 0., 3.50000000e+00, 3.06167964e+35,
          3.44739580e+00, -7.76722803e+03, 3.48260713e+00,
          -1.50078016e-24, 3.39055228e+00, 0., 3.50000000e+00, 0.,
          3.50000000e+00, -2.56202228e+35, 2.98593473e+00,
          1.13050591e-08, 3.09382486e+00, 1.68746008e+03, 3.38371134e+00,
          3.94373830e-27, 3.35181260e+00, -4.81932175e-19,
          3.17294836e+00, 9.12951236e+17, 2.78888226e+00,
          -2.04993515e+02, 3.19683123e+00 ]
      - [ 0., 3.50000000e+00, 1.10215272e-30, 3.46632361e+00,
          3.76170469e+26, 3.25663733e+00, -1.80404507e+34,
          2.92424202e+00, 0., 3.50000000e+00, -2.01274026e+19,
          3.39200425e+00, 1.98944952e-22, 3.28217268e+00, 1.51922874e+35,
          3.42161894e+00, 1.28076284e-03, 3.45124292e+00,
          -4.44030106e+09, 3.34125471e+00, -1.57128359e-21,
          2.86819792e+00, 0., 3.50000000e+00, 7.46784821e+14,
          3.14906907e+00, 0., 0., 0., 0., 3.25151779e+19, 3.42160106e+00,
          0., 3.50000000e+00, 1.01577406e+06, 3.47559977e+00,
          -1.77765638e+06, 3.48260713e+00, 1.25701401e+17,
          3.07276464e+00, 0., 3.50000000e+00, 0., 3.50000000e+00,
          -2.02209939e-20, 3.41690826e+00, -2.00153513e+20,
          3.48646021e+00, 0., 3.50000000e+00, -3.02995369e-03,
          3.44047379e+00, -2.30905425e-06, 3.10567307e+00,
          3.09346224e+22, 3.49191880e+00, 1.12599441e+21, 3.13641381e+00,
          0., 0., 0., 0., 8.13518732e-18, 3.42294860e+00, 9.07207523e-13,
          3.07530880e+00, -3.28889415e-21, 3.36820579e+00,
          3.60231754e-19, 3.48356080e+00, -8.69530610e-24,
          3.38118243e+00, 0., 3.50000000e+00, -2.59173417e-33,
          3.49962664e+00, 0., 3.50000000e+00, 0., 3.50000000e+00, 0.,
          3.50000000e+00, -4.19475363e+14, 3.21270871e+00,
          9.59655178e+18, 3.27507472e+00, 0., 3.50000000e+00, 491769920.,
          3.27505684e+00, 0., 0., 0., 0., -1.68572272e-34,
          3.16335368e+00, -5.44695601e-16, 2.98593593e+00, 1119231488.,
          3.32709956e+00, 0., 3.50000000e+00, 0., 3.50000000e+00, 0.,
          3.50000000e+00, -7.76612500e+03, 3.48260713e+00,
          -6.60870639e+22, 3.37629366e+00, 0., 3.50000000e+00, 0.,
          3.50000000e+00, 2.01007558e+33, 3.01035523e+00, 1.32810429e-12,
          3.14462495e+00, 1.01165777e-17, 3.48788548e+00, 3.91765725e+24,
          3.42484784e+00, 0., 0., -1.00225703e-08, 3.04908419e+00,
          4.05296977e-12, 3.05243921e+00 ]
      - [ 1.25510024e-03, 3.46270895e+00, -1.93445874e-16,
          3.42176342e+00, -2.23553167e+10, 3.37410760e+00,
          -8.63373047e+12, 2.93920040e+00, 0., 3.50000000e+00,
          1.60311265e+37, 3.35057664e+00, 2.92070173e+18, 3.32053494e+00,
          0., 3.50000000e+00, 0., 3.50000000e+00, 4.53953428e-22,
          3.28217268e+00, -1.50111148e-21, 2.86819792e+00, 0.,
          3.50000000e+00, 2.69221001e-08, 3.20332742e+00, 0., 0., 0., 0.,
          9.94982472e-20, 3.42742491e+00, -5.53774259e-16,
          3.31596112e+00, 2.49650133e-26, 3.49882698e+00,
          -2.53300656e+23, 3.47957850e+00, -4.55174275e+23,
          3.08443022e+00, 0., 3.50000000e+00, 0., 3.50000000e+00,
          -6.56929393e-37, 3.46444368e+00, 0., 3.50000000e+00, 0.,
          3.50000000e+00, -3.84595258e-28, 3.38935304e+00,
          2.13619038e-31, 3.10565591e+00, 0., 3.50000000e+00,
          1.52095005e-19, 3.11451054e+00, 0., 0., 0., 0.,
          -1.25522604e-06, 3.46469355e+00, -9.41744817e-36,
          3.10131645e+00, 6.01833188e-17, 3.49968219e+00, 0.,
          3.50000000e+00, -3.59886261e+02, 3.27534080e+00, 0.,
          3.50000000e+00, 0., 3.50000000e+00, 0., 3.50000000e+00, 0.,
          3.50000000e+00, 1.87520265e-22, 3.47097731e+00,
          -2.66992350e-20, 3.21259236e+00, -2.54867995e-18,
          3.28352046e+00, 0., 3.50000000e+00, 7.17107184e-07,
          3.29376769e+00, -5.94530508e+04, 2.77904177e+00, 0., 0.,
          -1.68725486e+12, 3.14816189e+00, 2.52790473e+26,
          2.98740625e+00, -2.16524083e-36, 3.35566878e+00, 0.,
          3.50000000e+00, -4.47443261e-26, 3.44864321e+00,
          -5.07915833e+02, 3.47753263e+00, 8.98103658e+23,
          3.49579024e+00, -9.45205938e+05, 3.45038152e+00, 0.,
          3.50000000e+00, 0., 3.50000000e+00, 287922144., 3.04907060e+00,
          3.34846651e-15, 3.18254638e+00, -55507188., 3.39326239e+00,
          5.23394460e+29, 3.40353274e+00, -2.01412045e-24,
          2.86819792e+00, -8.68135968e+33, 3.01036787e+00,
          -4.67628947e+26, 3.14470291e+00 ]
      - [ 0., 3.50000000e+00, -1.07308083e-13, 3.38899064e+00,
          1.72090085e+37, 3.37410760e+00, 9.95842904e+26, 2.98896503e+00,
          0., 3.50000000e+00, -6.64777605e+10, 3.34445667e+00,
          -2.04571451e-29, 3.31309009e+00, 5.98707511e-20,
          3.39753604e+00, 2.12477685e+27, 3.48039389e+00,
          -1.57729500e-19, 3.25148654e+00, -1.51670533e-21,
          2.86819792e+00, 0., 3.50000000e+00, 3.20201006e-16,
          3.08902884e+00, 0., 0., 0., 0., 2.68115444e-22, 3.49871874e+00,
          0., 3.50000000e+00, -1.20893408e-11, 3.21463823e+00,
          2.64473386e+26, 3.48431921e+00, -1.36784061e-27,
          3.13143444e+00, 0., 3.50000000e+00, 0., 3.50000000e+00, 0.,
          3.50000000e+00, 0., 3.50000000e+00, 0., 3.50000000e+00,
          3.34509415e+37, 3.33697200e+00, -1.42482905e-32,
          3.15854120e+00, -2.88212314e-38, 3.48740530e+00,
          -3.45765269e+20, 3.20497227e+00, -6.47587552e-19,
          2.92294836e+00, 0., 0., 9.07166931e+02, 3.47455597e+00,
          1.43450433e-02, 3.19720697e+00, -3.59302476e+25,
          3.40274596e+00, 1.24290737e+21, 3.41509867e+00, 0.,
          3.50000000e+00, 0., 3.50000000e+00, 0., 3.50000000e+00, 0.,
          3.50000000e+00, 0., 3.50000000e+00, 0., 3.50000000e+00,
          6.34585959e-18, 3.21933651e+00, -6.49653335e-22,
          3.23584604e+00, 0., 3.50000000e+00, -3.51118430e-22,
          3.19698381e+00, 2.87450767e+18, 3.07053494e+00, 0., 0.,
          5.15992069e-26, 3.16390181e+00, -1.47442684e+01,
          3.39199877e+00, -2.54518401e+38, 3.42018652e+00, 0.,
          3.50000000e+00, -2.97101212e+01, 3.48807764e+00, 0.,
          3.50000000e+00, 0., 3.50000000e+00, 6.69629904e-25,
          3.28416109e+00, 0., 3.50000000e+00, 0., 3.50000000e+00,
          6.39188162e-29, 3.13118267e+00, 1.28181132e+19, 2.78888226e+00,
          -5.55060495e-08, 3.45967078e+00, 0., 3.50000000e+00,
          -3.12456191e-02, 2.98584008e+00, 0., 0., -450985664.,
          3.26035523e+00 ]
      - [ 0., 3.50000000e+00, 7.89316275e-35, 3.40582275e+00,
          1.70469596e+12, 3.27505684e+00, 1.40310545e+01, 3.01056981e+00,
          0., 3.50000000e+00, -1.49183133e-24, 3.35976076e+00,
          9.76109299e+32, 3.24579048e+00, -2.12041667e-29,
          3.40531850e+00, -1.19020575e+30, 3.38479447e+00,
          3.38015523e-21, 3.26953673e+00, -5.85108533e-19,
          2.92294836e+00, -6.49881382e+34, 3.34491372e+00,
          7.65380306e+30, 3.07053566e+00, -4.63947852e+04,
          2.77904177e+00, 0., 0., -3.35072126e-31, 2.92296386e+00,
          1664613632., 3.45839763e+00, 0., 3.50000000e+00,
          -5.15978789e+11, 3.12573862e+00, -4.98958656e-23,
          3.05085158e+00, 0., 3.50000000e+00, 0., 3.50000000e+00,
          -4.32547380e-27, 3.40432167e+00, 4.54675405e+09,
          3.47701335e+00, 0., 3.50000000e+00, -1.50031523e+04,
          3.36317444e+00, -1.81495543e-21, 3.11819792e+00,
          -4.89375375e+10, 3.37539530e+00, -3.68347908e-10,
          3.10788941e+00, 3.03782353e-15, 3.33556175e+00, 0., 0.,
          1.85267746e-30, 2.88140464e+00, -9.43508160e-10,
          3.09561491e+00, 3.17369881e+18, 3.40095949e+00, 2.77137868e-09,
          3.29212952e+00, 1.46642111e-13, 3.43047714e+00,
          -2.11254605e+20, 3.49510193e+00, -2.82835026e+01,
          3.49249172e+00, 0., 3.50000000e+00, 0., 3.50000000e+00,
          -4.65955088e+12, 3.36527872e+00, 5.33396951e-29,
          3.25716352e+00, -7.87087930e-12, 3.28702378e+00, 0.,
          3.50000000e+00, -2.55267193e-30, 2.92423725e+00,
          -4.10939464e-16, 3.41095424e+00, 0., 0., 2.08821516e-22,
          3.13224506e+00, 1.48593338e+36, 3.05261302e+00,
          -5.06400491e+27, 3.32640409e+00, 0., 3.50000000e+00, 0.,
          3.50000000e+00, 0., 3.50000000e+00, 6.87247466e-15,
          3.47890186e+00, 1.82604510e-03, 3.27937198e+00, 0.,
          3.50000000e+00, -1.50517213e+14, 3.45335150e+00,
          9.57790434e-08, 3.01953673e+00, -2.64500051e+35,
          2.98593473e+00, 2.92563057e+01, 3.49172068e+00,
          -1.76947913e-03, 3.01328659e+00, 2.44633799e-21,
          2.92423248e+00, 0., 0., 6.35476423e+19, 3.37410760e+00 ]
      - [ 6.05916202e+14, 3.44500971e+00, 2.20279878e-23, 3.45028853e+00,
          4.68864664e+11, 3.41095543e+00, -1.60688750e-21,
          3.36819792e+00, 0., 3.50000000e+00, -2.61375178e+19,
          3.37869906e+00, -1.33025134e-12, 3.37724543e+00,
          7.22180084e+19, 3.39337397e+00, 4.12108426e-39, 3.43146586e+00,
          6.62903257e+18, 3.29479861e+00, -5.18617118e-19,
          2.92294836e+00, 1.23056534e-34, 3.49515319e+00,
          -1.42363725e-12, 3.18172383e+00, 0., 0., 0., 0.,
          -1.39208412e+25, 3.48260713e+00, 120667048., 3.28230500e+00,
          9.41205881e+11, 3.38343549e+00, -7.87050538e+37,
          3.48260760e+00, -2.20202242e+37, 3.18804789e+00, 0.,
          3.50000000e+00, 0., 3.50000000e+00, 0., 3.50000000e+00,
          -3.09584973e+29, 3.49003458e+00, 0., 3.50000000e+00,
          1.47518749e-12, 3.39696455e+00, 19441268., 3.20330501e+00,
          7.76437431e-25, 3.48316455e+00, -7.89621591e-31,
          3.14803648e+00, 0., 0., 0., 0., -3.94144325e+06,
          3.48260713e+00, -3.62181075e-12, 3.07157087e+00,
          -1.28848052e+00, 3.31309009e+00, 1.10111084e-20,
          3.40095878e+00, 8.09405849e-36, 3.33184576e+00, 0.,
          3.50000000e+00, 0., 3.50000000e+00, 0., 3.50000000e+00, 0.,
          3.50000000e+00, 7.09633601e+18, 3.44776058e+00, 8.35514694e+17,
          3.17327642e+00, -5.41545814e-15, 3.28922391e+00, 0.,
          3.50000000e+00, 2.53093468e+13, 3.27534056e+00, 2.22914765e+09,
          3.27505684e+00, 0., 0., -3.63142513e+10, 3.19109273e+00,
          8.42926151e-04, 3.01038074e+00, 1.91793529e+11, 3.39335346e+00,
          -1.00319094e+31, 3.45885181e+00, 2.32869002e-06,
          3.49874258e+00, 0., 3.50000000e+00, -4.46281123e-10,
          3.43786359e+00, -1.59366426e-20, 3.32641387e+00, 0.,
          3.50000000e+00, 0., 3.50000000e+00, -2.01412045e-24,
          2.86819792e+00, 5.90106706e+10, 3.25663710e+00, 2.04597338e+22,
          3.45384121e+00, -9.53494782e-06, 3.28696036e+00,
          1.08185884e+20, 3.29707956e+00, 9.12951236e+17, 2.78888226e+00,
          -1.46553906e+03, 3.25168157e+00 ]
      - [ 0., 3.50000000e+00, -1.89898623e+26, 3.41312480e+00,
          -6.56229453e-29, 3.32963037e+00, 9.12951236e+17,
          2.78888226e+00, 0., 3.50000000e+00, 1.60432359e+25,
          3.42158580e+00, 9.07107997e-15, 3.22890186e+00,
          -1.01017606e-29, 3.30045366e+00, 7.43022556e+22,
          3.49300814e+00, -3.00034401e-07, 3.34739518e+00,
          -1.60247119e-21, 2.86819792e+00, -8.05468115e-36,
          3.48938394e+00, 1.88293853e-17, 3.09355879e+00, 0., 0., 0., 0.,
          4.13826575e-37, 3.48731518e+00, 0., 3.50000000e+00,
          8.62703057e-19, 3.49962640e+00, -9.10386575e-08,
          3.48082852e+00, -2.23947033e-18, 3.08203602e+00, 0.,
          3.50000000e+00, 0., 3.50000000e+00, -4.43306183e+31,
          3.43161035e+00, -4.13440947e+36, 3.48732471e+00, 0.,
          3.50000000e+00, 5.04329163e+02, 3.44045234e+00, 1.56143035e-12,
          3.14462495e+00, -2.75965720e-36, 3.48748326e+00,
          1.89263964e+33, 3.10897493e+00, 0., 0., 0., 0.,
          -9.56996317e+31, 3.40722489e+00, 2.53290325e-26,
          3.09458590e+00, -1.46507080e-06, 3.28497744e+00,
          -2.18715181e+38, 3.46634912e+00, 0., 3.50000000e+00,
          7.30166260e-34, 3.49777889e+00, 8.61727634e-10, 3.48427773e+00,
          0., 3.50000000e+00, 0., 3.50000000e+00, -1.97371889e-26,
          3.49872351e+00, 8.29508474e+17, 3.17327642e+00, 1.71878466e+11,
          3.28218365e+00, 0., 3.50000000e+00, 9.79256543e+03,
          3.37574792e+00, -4.30292815e-19, 2.92294836e+00, 0., 0.,
          2.14466740e-34, 3.10117197e+00, 1.06750026e+32, 2.88118243e+00,
          -7.53408997e-34, 3.37864590e+00, .Nan, 3.40140939e+00, 0.,
          3.50000000e+00, -2.82604942e-36, 3.37671852e+00, 0.,
          3.50000000e+00, 3.25636826e-32, 3.32372308e+00, 0.,
          3.50000000e+00, 0., 3.50000000e+00, 2.01007558e+33,
          3.01035523e+00, -3.43103636e-07, 3.34739518e+00,
          -4.76272144e+36, 3.43370366e+00, 2.18370056e+38,
          3.48731542e+00, 0., 0., -1.22741495e-09, 3.18786359e+00,
          -7.63979464e-19, 3.01038074e+00 ]
      - [ 0., 3.50000000e+00, 8.69988270e+10, 3.49984932e+00, 195748192.,
          3.35057664e+00, 5.27764034e-38, 3.14582300e+00, 0.,
          3.50000000e+00, 2.63169637e+17, 3.44046426e+00,
          -1.39195494e-21, 2.86819792e+00, 1.05019649e+37,
          3.45948529e+00, 0., 3.50000000e+00, 9.63552608e+11,
          3.24579430e+00, 0., 0., 0., 3.50000000e+00, 3.70586179e-22,
          3.24582267e+00, 0., 0., 0., 0., 0., 3.50000000e+00,
          -3.35077515e+13, 3.35121584e+00, 3.46148688e+05,
          3.47890186e+00, -6.05369055e+13, 3.45839071e+00,
          -2.82278394e-24, 3.12614465e+00, 0., 3.50000000e+00, 0.,
          3.50000000e+00, 9.06826988e-17, 3.09354091e+00, 0.,
          3.50000000e+00, 0., 3.50000000e+00, 197500448., 3.35057664e+00,
          -3.40017090e+02, 2.77904177e+00, 0., 3.50000000e+00,
          5.20944513e-25, 3.22412443e+00, 0., 0., 0., 0., 0.,
          3.50000000e+00, 7.67759956e-33, 3.13234854e+00,
          -5.66883262e+29, 3.30755591e+00, 1.93672548e-16,
          3.42016387e+00, -4.04449195e-01, 3.42018795e+00, 0.,
          3.50000000e+00, 0., 3.50000000e+00, -6.67172526e-06,
          3.17294836e+00, 0., 3.50000000e+00, 0., 3.50000000e+00,
          -4.66336257e+22, 3.18161035e+00, -3.40017090e+02,
          2.77904177e+00, 0., 3.50000000e+00, -6.24284590e+10,
          3.44818759e+00, 0., 0., -3.40017090e+02, 2.77904177e+00,
          -2.18236293e-33, 3.22500134e+00, -8.83183820e-25,
          3.08863473e+00, 8.45738066e+10, 3.25663710e+00, 0.,
          3.50000000e+00, 0., 3.50000000e+00, 0., 3.50000000e+00,
          -35226620., 3.43494987e+00, 1.22808042e-09, 3.28911328e+00, 0.,
          3.50000000e+00, 0., 3.50000000e+00, -4.63947852e+04,
          3.02904177e+00, 2.01007558e+33, 3.01035523e+00, 0.,
          3.50000000e+00, 0., 3.50000000e+00, 0., 0., -59166756.,
          3.08183861e+00, -576971520., 3.37573862e+00 ]
      - [ 0., 3.50000000e+00, -1.54518352e-18, 3.29479885e+00,
          -5.01407916e-03, 3.20330620e+00, -2.88702055e-34,
          3.26035523e+00, 0., 3.50000000e+00, 1.74407410e-06,
          3.38605309e+00, 1.01242272e+35, 3.28475666e+00, 9.88431460e-20,
          3.40274549e+00, -8.05170709e+30, 3.46933222e+00,
          6.33743254e+24, 3.26956296e+00, -5.82815743e-19,
          2.92294836e+00, -8.14922803e+09, 3.35184240e+00,
          2.89832538e+32, 3.05261302e+00, 0., 0., 0., 0.,
          -6.53009697e-21, 3.36819792e+00, -9.05459249e-37,
          3.43334126e+00, -8.96611193e-04, 3.34125614e+00,
          3.00560167e-33, 3.48731518e+00, 1577325184., 3.08440042e+00,
          0., 3.50000000e+00, 0., 3.50000000e+00, 3.22242216e-31,
          3.46058059e+00, -4.93845703e+03, 3.48791552e+00, 0.,
          3.50000000e+00, 4.58838730e-14, 3.38350081e+00,
          -2.48223311e-26, 3.18161130e+00, -2.90236270e-28,
          3.48734713e+00, 1.85823538e-07, 3.10628819e+00, 1.57290650e-24,
          3.21929073e+00, 0., 0., 1.83981745e-33, 3.48731518e+00,
          -6.59956681e-12, 3.05407476e+00, 4.75064343e-24,
          3.35566020e+00, 2.48223063e-33, 3.48731518e+00, 2.03741080e-10,
          3.37037683e+00, -9.48373071e+13, 3.48947287e+00,
          -3.03795297e+31, 3.49003386e+00, 0., 3.50000000e+00, 0.,
          3.50000000e+00, -5.21652065e-02, 3.40731430e+00,
          7.72422803e+03, 3.15993166e+00, -2.43022539e+04,
          3.30973768e+00, 0., 3.50000000e+00, -1.25523244e-22,
          3.01036811e+00, 277994400., 3.32413125e+00, 0., 0.,
          1.04532738e+11, 3.20081854e+00, 4.96969193e-22, 3.25149012e+00,
          -6.93254151e-06, 3.38762784e+00, -7.92676095e-27,
          3.48545790e+00, -3.93785112e+34, 3.46633220e+00,
          3.02405691e+29, 3.47745919e+00, 5.24988284e-31, 3.49363804e+00,
          -7.08661938e+05, 3.38898993e+00, 0., 3.50000000e+00, 0.,
          3.50000000e+00, -4.46281095e-10, 2.93786359e+00,
          -1.43406930e-20, 3.00148654e+00, -1.15935128e-21,
          3.45386815e+00, 5.65437839e+17, 3.29707956e+00, 8.61537436e+11,
          3.25663710e+00, 0., 0., 3.46663247e-15, 3.33556175e+00 ]
      - [ 0., 3.50000000e+00, 7.94390188e-15, 3.47890186e+00,
          -1.00296199e+00, 3.39054894e+00, -1.05495162e-13,
          2.86826968e+00, 0., 3.50000000e+00, 5.00007233e+28,
          3.26974893e+00, -2.62894599e-22, 2.92294836e+00,
          1.33635332e-19, 3.39534450e+00, -2.79180130e+13,
          3.37681031e+00, -2.44524706e-10, 3.01035523e+00, 0., 0., 0.,
          3.50000000e+00, 2.81312953e+19, 2.92545581e+00, 0., 0., 0., 0.,
          0., 3.50000000e+00, -4.99282962e-08, 3.49962664e+00,
          2.46125446e-11, 3.16509843e+00, 0., 3.50000000e+00,
          3.61983447e-31, 3.08244586e+00, -1.03065515e+00,
          3.42638683e+00, 0., 3.50000000e+00, -2.84194518e+20,
          3.43161035e+00, 0., 3.50000000e+00, 0., 3.50000000e+00,
          -9.76410660e-27, 3.33863473e+00, -1.07619080e-13,
          2.86826968e+00, 0., 3.50000000e+00, -1.41724328e+27,
          3.16099215e+00, 0., 0., 0., 0., -2.97724395e-26,
          3.32712078e+00, 2.96615336e+22, 3.38545918e+00, 2.61002559e+22,
          3.07053518e+00, 0., 3.50000000e+00, 4.59643976e-36,
          3.04907250e+00, 0., 3.50000000e+00, -3.49283580e+27,
          3.37161803e+00, 0., 3.50000000e+00, 1.88595580e+25,
          3.43260169e+00, 0., 3.50000000e+00, 4.23675874e-06,
          3.13118482e+00, 417371904., 3.28888249e+00, 0., 3.50000000e+00,
          1.07928776e-04, 3.18205571e+00, 0., 0., 0., 0.,
          -8.85539115e+33, 3.13134480e+00, -5.98539844e-16,
          2.98593593e+00, 0., 0., -2.59829714e-32, 3.46965456e+00,
          4.81000720e-21, 3.33870077e+00, -191962448., 3.44786453e+00,
          0., 0., 4.42287999e+34, 3.39936566e+00, 0., 3.50000000e+00,
          -1.87221758e-06, 3.46494865e+00, 0., 0., 9.29142014e+11,
          3.25663710e+00, 0., 3.50000000e+00, -1.57559708e+02,
          3.18172359e+00, 0., 0., 0., 0., -3.58596982e+37,
          3.14464402e+00 ]
      - [ 2.72258124e+13, 3.46258879e+00, 0., 3.50000000e+00,
          -5.65099414e+04, 2.77904177e+00, -2.64928270e-13,
          3.04931593e+00, 0., 3.50000000e+00, 5.26826814e-30,
          3.39249611e+00, 0., 0., 9.26957782e-08, 3.41446376e+00,
          -4.64659386e-25, 3.45607543e+00, -6.28041992e+04,
          3.08184052e+00, 0., 0., 0., 3.50000000e+00, 2.40988951e+15,
          3.04907060e+00, 0., 0., 0., 0., -1.88754917e+36,
          3.38548255e+00, -2.42051266e+17, 3.21262240e+00, 0.,
          3.50000000e+00, 9.86044156e-17, 3.42973685e+00, 3.25452486e-26,
          3.14497375e+00, 0., 3.50000000e+00, 0., 3.50000000e+00,
          -7.85767901e-15, 3.22071528e+00, 0., 3.50000000e+00, 0.,
          3.50000000e+00, -5.59045017e+31, 3.38344002e+00,
          2.57814237e+14, 3.01055717e+00, 5.51895958e+22, 3.49938440e+00,
          6.15468581e-15, 3.25148678e+00, 0., 0., 0., 0., 2.63948915e-37,
          3.21283221e+00, -1.70271344e-31, 3.05245018e+00,
          -1.15677418e-30, 3.21271253e+00, 1.75257986e-25,
          3.49914813e+00, 4.20442618e+25, 3.18339515e+00, 0.,
          3.50000000e+00, 3.16135475e+06, 3.30242515e+00, 0.,
          3.50000000e+00, 960960512., 3.46773171e+00, 0., 3.50000000e+00,
          8.92254939e+33, 3.09355760e+00, -4.71440524e-37,
          3.36293983e+00, 0., 3.50000000e+00, -29153022., 3.16095424e+00,
          0., 0., 0., 0., 4.60671870e+17, 3.14462852e+00,
          -8.81557267e-37, 2.99011350e+00, 0., 0., 3.06289972e-16,
          3.38289857e+00, 7.20928346e-25, 3.47892427e+00, 5.77181250e+04,
          3.35588026e+00, 0., 0., 5.55735823e-24, 3.32739520e+00, 0.,
          3.50000000e+00, 3.55697273e+32, 3.35337138e+00, 0., 0.,
          -5.05741898e+22, 3.18161035e+00, 0., 3.50000000e+00,
          1.63388058e+10, 2.93854308e+00, 0., 0., 0., 0., 2.64108000e-17,
          3.11931586e+00 ]
      - [ 0., 3.50000000e+00, 0., 3.50000000e+00, -5.92041588e+00,
          3.39199877e+00, 3.96562963e-28, 2.99011517e+00, 0.,
          3.50000000e+00, -1.10532449e+23, 3.27244306e+00,
          -5.77402716e-06, 2.98584008e+00, 2.93217051e-09,
          3.45636630e+00, -1.32072732e+22, 3.47329497e+00,
          -5.11188441e-33, 3.01343989e+00, 0., 0., 0., 3.50000000e+00,
          2.02056037e-13, 3.05106950e+00, 0., 0., 0., 0., 0.,
          3.50000000e+00, -2.21447830e+38, 3.47334027e+00, 0.,
          3.50000000e+00, 0., 3.50000000e+00, 6.02147606e-33,
          3.11308765e+00, 0., 3.50000000e+00, 0., 3.50000000e+00,
          -4.07675343e+37, 3.44277620e+00, 0., 3.50000000e+00, 0.,
          3.50000000e+00, 2.70868773e-37, 3.33891368e+00, -128883336.,
          2.98602915e+00, 0., 3.50000000e+00, -5.40426825e+24,
          3.22206903e+00, 0., 0., 0., 0., -1.64983849e-08,
          3.32986784e+00, -1.64642185e-01, 3.39199877e+00,
          -8.59558373e-26, 3.13234401e+00, 0., 3.50000000e+00,
          -1.19233346e-06, 3.49129105e+00, 0., 3.50000000e+00,
          -1.06822788e-29, 3.40856051e+00, 0., 3.50000000e+00, 0.,
          3.50000000e+00, 0., 3.50000000e+00, -8.59280814e-22,
          3.08382750e+00, -2.30996704e-17, 3.28705764e+00, 0.,
          3.50000000e+00, -2.06128517e-15, 3.35057878e+00, 0., 0., 0.,
          0., 3.17221616e-27, 3.19887328e+00, -8.41242180e-32,
          2.92770624e+00, 0., 0., -7.37201301e-19, 3.45147681e+00, 0.,
          3.50000000e+00, -2.09547223e+10, 3.42285728e+00,
          -5.00522422e+04, 2.77904177e+00, 3.87151471e+37,
          3.35523677e+00, 0., 3.50000000e+00, 0., 3.50000000e+00, 0., 0.,
