%YAML:1.0
my_svm: !!opencv-ml-svm
   svm_type: C_SVC
   kernel: { type:RBF, gamma:1.0000000000000001e-05 }
   C: 2.5000000000000000e+00
   term_criteria: { epsilon:2.2204460492503131e-16, iterations:100 }
   var_all: 128
   var_count: 128
   class_count: 10
   class_labels: !!opencv-matrix
      rows: 1
      cols: 10
      dt: i
      data: [ 1, 2, 3, 4, 5, 6, 7, 8, 9, 10 ]
   sv_total: 140
   support_vectors:
      - [ 0., 0., 1.54142831e-43, 1.66754517e-43, 0., 0., 3.04994270e-37,
          4.59163468e-41, 0., 3.50000000e+00, -2.68779572e+12,
          3.21938276e+00, 1.73761010e-43, 0., -1.90300311e-16,
          3.44576740e+00, 2.60218903e-13, 3.48980904e+00, 1.42403804e-38,
          2.98593497e+00, 0., 0., 0., 3.50000000e+00, 5.14280341e-10,
          3.05025268e+00, .Nan, 4.58855182e-41, 1.47416598e-42, 0.,
          3.05009359e-37, 4.59163468e-41, 1.43492963e-42, 0.,
          2.28759438e-38, 4.58869195e-41, 8.94540735e-39, 0., .Nan,
          4.58855182e-41, 0., 3.50000000e+00, 2.27855348e-38,
          4.58869195e-41, 2.80259693e-45, 0., 2.41968820e-38,
          4.58869195e-41, 0., 3.50000000e+00, 9.04487467e-23,
          3.26953673e+00, -5.58813164e+04, 3.02904177e+00, 0.,
          3.50000000e+00, -2.13429594e-04, 3.12082624e+00, 0., 0., 0.,
          0., 3.19670819e+32, 3.22489882e+00, 6.34176338e+37,
          3.15258193e+00, 0., 3.50000000e+00, 1.46368553e+13,
          3.35933518e+00, 0., 3.50000000e+00, 0., 3.50000000e+00, 0.,
          3.50000000e+00, 0., 3.50000000e+00, 3.05008642e-37,
          4.59163468e-41, 8.94539614e-39, 0., 1.40129846e-45, 0.,
          3.05003978e-37, 4.59163468e-41, 7.00649232e-45, 0.,
          3.05008642e-37, 4.59163468e-41, 2.32781375e-38, 4.58869195e-41,
          0., 0., 4.63940804e-34, 3.15935493e+00, .Nan, .Nan,
          -435453696., 3.37573862e+00, 6.51436640e-22, 3.49260998e+00,
          3.05004337e-37, 4.59163468e-41, 3.05003978e-37, 4.59163468e-41,
          3.05003575e-37, 4.59163468e-41, 3.05003597e-37, 4.59163468e-41,
          2.80259693e-45, 7.00649232e-45, 0., 3.50000000e+00,
          5.60519386e-45, 0., 3.54091906e+05, 3.08183861e+00, 0.,
          3.50000000e+00, 3.41952145e-05, 3.49082780e+00, 0., 0.,
          1.27875038e+02, 2.80259693e-45, 0., 1.79366203e-43 ]
      - [ 0., 0., 1.55544130e-43, 1.66754517e-43, 0., 0., 3.04994270e-37,
          4.59163468e-41, 0., 3.50000000e+00, 6.94448794e+23,
          3.26065779e+00, 1.73761010e-43, 0., 1701305728.,
          3.40056658e+00, 0., 3.50000000e+00, -3.99711803e-02,
          2.98584008e+00, 0., 0., 0., 3.50000000e+00, -8.55675861e-02,
          3.26568747e+00, .Nan, 4.58855182e-41, 5.77895487e-42, 0.,
          3.05009359e-37, 4.59163468e-41, 5.73971851e-42, 0.,
          2.28759438e-38, 4.58869195e-41, 8.94540735e-39, 0., .Nan,
          4.58855182e-41, 0., 3.50000000e+00, 2.27855348e-38,
          4.58869195e-41, 1.12103877e-44, 0., 2.41968820e-38,
          4.58869195e-41, 0., 3.50000000e+00, 1.11033625e+18,
          3.29479861e+00, -3.40017090e+02, 2.77904177e+00, 0.,
          3.50000000e+00, -3.01157389e+15, 3.10364056e+00, 0., 0., 0.,
          0., 4.10201618e+21, 3.31058836e+00, 7.68271913e-22,
          3.05370784e+00, 3.46425520e-31, 3.49363804e+00,
          -7.89602119e-24, 3.45189071e+00, 4.62712005e+31,
          3.44683480e+00, 0., 3.50000000e+00, 0., 3.50000000e+00,
          5.70068450e-20, 3.38730311e+00, 3.05008642e-37, 4.59163468e-41,
          8.94539614e-39, 0., 7.00649232e-45, 0., 3.05003978e-37,
          4.59163468e-41, 7.00649232e-45, 0., 3.05008642e-37,
          4.59163468e-41, 2.32781375e-38, 4.58869195e-41, 0., 0.,
          -8.49382499e-26, 3.09620643e+00, .Nan, .Nan, 1.82618021e-19,
          3.34354091e+00, 0., 3.50000000e+00, 3.05004337e-37,
          4.59163468e-41, 3.05003978e-37, 4.59163468e-41, 3.05003575e-37,
          4.59163468e-41, 3.05003597e-37, 4.59163468e-41, 2.80259693e-45,
          7.00649232e-45, 0., 3.50000000e+00, 5.60519386e-45, 0.,
          -1.05495162e-13, 2.86826968e+00, 0., 3.50000000e+00, 0.,
          3.50000000e+00, 0., 0., 1.27875038e+02, 2.80259693e-45, 0.,
          1.79366203e-43 ]
      - [ 7.57600503e-07, 3.46933651e+00, 0., 3.50000000e+00,
          -2.61108130e-06, 3.29908419e+00, -2.68550108e-17,
          2.89913011e+00, 0., 3.50000000e+00, -1.25603424e-14,
          3.28696513e+00, -1.55258492e-19, 3.25148654e+00,
          3.69535005e+32, 3.42302895e+00, 0., 3.50000000e+00,
          3.04294625e-21, 2.92423248e+00, 0., 0., -2.90418122e+32,
          3.47534132e+00, 5.07481035e-09, 3.03299546e+00, 0., 0., 0., 0.,
          -3.88100426e+14, 3.20400286e+00, 8.54007070e+21,
          3.37410760e+00, -1.85261655e-07, 3.43010664e+00, 0.,
          3.50000000e+00, -2.90040558e-33, 3.19698834e+00, 0.,
          3.50000000e+00, 0., 3.50000000e+00, 0., 3.50000000e+00, 0.,
          3.50000000e+00, 0., 3.50000000e+00, -1.17437826e+34,
          3.29906964e+00, 1.82618008e-19, 3.09354091e+00, 0.,
          3.50000000e+00, 2.25491484e+05, 3.17889118e+00, 0., 0., 0., 0.,
          -3.54204773e-16, 2.98767328e+00, 1.06040478e+23,
          3.17352557e+00, 3.73352968e+37, 3.48082304e+00, 0.,
          3.50000000e+00, 1.00049950e-26, 3.44277644e+00, 0.,
          3.50000000e+00, 0., 3.50000000e+00, 0., 3.50000000e+00, 0.,
          3.50000000e+00, 0., 3.50000000e+00, -5.38517914e+10,
          3.21258855e+00, -199119488., 3.21258855e+00, 0.,
          3.50000000e+00, -3.24033852e+01, 3.01043153e+00, 0., 0., 0.,
          0., 1.29440879e-29, 3.19721985e+00, 2.29138276e-32,
          2.98879623e+00, -4.54937365e+21, 3.35565567e+00, 0.,
          3.50000000e+00, 1.57759263e-34, 3.47234821e+00, 1.06242741e-03,
          3.48507357e+00, 3.65238208e-07, 3.33863473e+00,
          -1.53257861e-29, 3.19697976e+00, 0., 3.50000000e+00, 0.,
          3.50000000e+00, -3.40017090e+02, 2.77904177e+00,
          -2.01412045e-24, 2.86819792e+00, 0., 3.50000000e+00,
          2.36431564e-21, 3.05962491e+00, 0., 0., 0., 0., 1.89376639e-08,
          3.05046797e+00 ]
      - [ 1.40129846e-45, 0., 2.41968820e-38, 4.58869195e-41,
          -4.63947852e+04, 2.77904177e+00, -3.50681450e-24,
          2.88919067e+00, 0., 3.50000000e+00, 4.42244781e+05,
          3.40179634e+00, 0., 0., 1.84008561e-17, 3.39896297e+00, 0.,
          3.50000000e+00, 2.28580973e+21, 3.02505684e+00, 0., 0., 0.,
          3.50000000e+00, 4.17587116e+36, 3.13118768e+00, 0., 0., 0., 0.,
          -5.24186875e+05, 3.41702318e+00, -4.05016046e-15,
          3.05262685e+00, 0., 3.50000000e+00, 7.17464814e-43, 0.,
          1.40129846e-45, 0., 3.05017251e-37, 4.59163468e-41,
          2.26365432e-38, 4.58869195e-41, 7.17464814e-43, 0.,
          2.29023961e-38, 4.58869195e-41, 0., 3.50000000e+00,
          3.00407193e+15, 3.35057664e+00, .Nan, .Nan, 0., 3.50000000e+00,
          3.58992973e-13, 3.20360065e+00, 3.05000391e-37, 4.59163468e-41,
          3.05000032e-37, 4.59163468e-41, 3.04999628e-37, 4.59163468e-41,
          3.04999651e-37, 4.59163468e-41, 2.80259693e-45, 7.00649232e-45,
          0., 3.50000000e+00, 5.60519386e-45, 0., 0., 3.50000000e+00, 0.,
          3.50000000e+00, 3.06279615e+16, 3.32053494e+00, 0.,
          3.50000000e+00, 0., 3.50000000e+00, -5.41545221e-19,
          3.17294836e+00, 9.85788053e+28, 3.13118243e+00, 0.,
          3.50000000e+00, 5.03787914e-11, 3.41509843e+00, 0., 0., 0., 0.,
          2.83767120e-20, 3.14161539e+00, 2.65419006e+00, 3.04907155e+00,
          -1.30711896e+11, 3.27904177e+00, -4.96701384e-03,
          3.47268963e+00, 0., 3.50000000e+00, 0., 3.50000000e+00,
          3.05016534e-37, 4.59163468e-41, 1.79366203e-43, 0.,
          7.00649232e-45, 0., 1.40129846e-45, 0., 0., 0., .Nan, 0.,
          2.28759438e-38, 4.58869195e-41, 0., 3.50000000e+00, 0., 0., 0.,
          0., 2.27855348e-38, 4.58869195e-41 ]
      - [ 0., 3.50000000e+00, -2.10425198e+22, 3.43645287e+00,
          6.29489951e-38, 3.42013407e+00, 7.87770650e-25, 3.02989554e+00,
          0., 3.50000000e+00, -2.93537526e+23, 3.39462471e+00,
          -4.29127887e-02, 3.23584008e+00, 0., 3.50000000e+00, 0.,
          3.50000000e+00, 4.95466611e-06, 3.13118482e+00, 0., 0., 0.,
          3.50000000e+00, -1.03637072e+35, 3.04715180e+00, 0., 0., 0.,
          0., 0., 3.50000000e+00, 5.36720839e-33, 3.35057688e+00,
          5.02814202e+31, 3.40723038e+00, 0., 3.50000000e+00,
          3.61885526e-08, 3.26964450e+00, 0., 3.50000000e+00, 0.,
          3.50000000e+00, 0., 3.50000000e+00, 0., 3.50000000e+00, 0.,
          3.50000000e+00, -8.70855908e-16, 3.31691647e+00,
          1.54960159e+28, 3.10569048e+00, 0., 3.50000000e+00,
          -3.71461086e+22, 3.27911425e+00, 0., 0., 0., 0.,
          4.63353582e+27, 3.30521703e+00, -2.95889175e+11,
          3.24593568e+00, 1.21695894e-06, 3.40352964e+00, 0.,
          3.50000000e+00, 3.71748196e+21, 3.40095949e+00, 0.,
          3.50000000e+00, 0., 3.50000000e+00, 0., 3.50000000e+00, 0.,
          3.50000000e+00, 0., 3.50000000e+00, -4.66136909e+28,
          3.20330477e+00, 1.30499238e+06, 3.28217268e+00, 0.,
          3.50000000e+00, -37398524., 3.26066470e+00, -3.40017090e+02,
          2.77904177e+00, 0., 0., -8.76053686e+12, 3.19782043e+00,
          -1.47235949e-17, 2.98621798e+00, 2.34802062e-24,
          3.26953673e+00, 0., 3.50000000e+00, 0., 3.50000000e+00, 0.,
          3.50000000e+00, 1.02392706e+06, 3.30242515e+00, 3.20589108e-18,
          3.37724733e+00, 0., 3.50000000e+00, 0., 3.50000000e+00, 0., 0.,
          -1.52850651e-33, 2.92423725e+00, 0., 3.50000000e+00,
          -6.96780890e+20, 3.47682405e+00, 0., 0., 0., 0.,
          -2.01349252e-07, 3.09752059e+00 ]
      - [ 3.81274579e-27, 3.43456388e+00, 0., 3.50000000e+00, 202156848.,
          3.35057664e+00, -12186870., 3.01078105e+00, 0., 3.50000000e+00,
          6.24020249e-05, 3.13122201e+00, 2.38912358e+09, 3.27505684e+00,
          1.45869215e+26, 3.48760056e+00, 0., 3.50000000e+00,
          -8.81086037e-11, 2.86826968e+00, 0., 0., 0., 3.50000000e+00,
          1.70610317e+16, 3.03487444e+00, 0., 0., 0., 0., 0.,
          3.50000000e+00, 851998464., 3.36823392e+00, 1.31705201e+11,
          3.40110064e+00, 0., 3.50000000e+00, -2.87403659e+23,
          3.19064641e+00, 0., 3.50000000e+00, 0., 3.50000000e+00, 0.,
          3.50000000e+00, 0., 3.50000000e+00, 0., 3.50000000e+00,
          -1.37841223e+38, 3.26568723e+00, -2.01412045e-24,
          3.11819792e+00, 0., 3.50000000e+00, 1.48922692e-18,
          3.17824054e+00, 0., 0., 0., 0., 1.90461320e-25, 3.33916020e+00,
          -2.79119134e+32, 3.20632410e+00, -1.88318518e-06,
          3.49871969e+00, 0., 3.50000000e+00, 1.41488704e-06,
          3.35057783e+00, 0., 3.50000000e+00, 0., 3.50000000e+00, 0.,
          3.50000000e+00, 0., 3.50000000e+00, 0., 3.50000000e+00,
          -3.63775441e+16, 3.14462471e+00, 2.57586167e+21,
          3.24579024e+00, 0., 3.50000000e+00, 3.22167211e-27,
          3.36136580e+00, 0., 0., 0., 0., -6.17643184e+16,
          3.18363190e+00, -8.63352138e-15, 2.89913011e+00,
          -9.15329683e-29, 3.35964608e+00, 0., 3.50000000e+00, 0.,
          3.50000000e+00, -4.54508102e-38, 3.41641545e+00,
          3.89666361e+34, 3.31595731e+00, -2.87629076e-09,
          3.38359976e+00, 0., 3.50000000e+00, 0., 3.50000000e+00, 0., 0.,
          -2.01412045e-24, 2.86819792e+00, 0., 3.50000000e+00, 0.,
          3.50000000e+00, 0., 0., 0., 0., -3.57894107e-23,
          3.05474377e+00 ]
      - [ 0., 0., 1.56945428e-43, 1.66754517e-43, 0., 0., 3.04994270e-37,
          4.59163468e-41, 0., 3.50000000e+00, 4.07475531e-36,
          3.34551001e+00, 1.73761010e-43, 3.28696799e+00, 0.,
          3.50000000e+00, 0., 3.50000000e+00, 1.64442776e-12,
          3.14462495e+00, -5.09666055e+04, 2.77904177e+00, 0.,
          3.50000000e+00, -4.22384786e+18, 3.01079321e+00, .Nan,
          4.58855182e-41, 1.29536030e-41, 0., 3.05009359e-37,
          4.59163468e-41, 1.29143666e-41, 0., 2.28759438e-38,
          4.58869195e-41, 8.94540735e-39, 0., .Nan, 4.58855182e-41, 0.,
          3.50000000e+00, 2.27855348e-38, 4.58869195e-41, 2.52233724e-44,
          0., 2.41968820e-38, 4.58869195e-41, 0., 3.50000000e+00, 0.,
          3.50000000e+00, 4.24556532e-08, 3.14695573e+00, 0.,
          3.50000000e+00, 6.44567344e-10, 3.29908705e+00, 4.74436667e+29,
          3.30961633e+00, 0., 0., 0., 3.50000000e+00, -2.40687950e-05,
          3.14207792e+00, 8.74889393e-35, 3.49871874e+00, 2.58616717e+28,
          3.34739780e+00, -6.67656015e-04, 3.20332694e+00, 0.,
          3.50000000e+00, 0., 3.50000000e+00, 0., 3.50000000e+00,
          3.05008642e-37, 4.59163468e-41, 8.94539614e-39, 0.,
          1.68155816e-44, 0., 3.05003978e-37, 4.59163468e-41,
          7.00649232e-45, 0., 3.05008642e-37, 4.59163468e-41,
          2.32781375e-38, 4.58869195e-41, 0., 0., -9.16705267e-06,
          3.20348930e+00, .Nan, .Nan, 1.65037637e+37, 3.37232900e+00,
          1.18638807e-10, 3.10565639e+00, 3.05004337e-37, 4.59163468e-41,
          3.05003978e-37, 4.59163468e-41, 3.05003575e-37, 4.59163468e-41,
          3.05003597e-37, 4.59163468e-41, 2.80259693e-45, 7.00649232e-45,
          0., 3.50000000e+00, 5.60519386e-45, 0., 287922144.,
          3.04907060e+00, -1.38799127e-25, 3.47999859e+00,
          2.16855973e+34, 3.45372176e+00, 3.16026409e-30, 3.38548183e+00,
          1.27875038e+02, 2.80259693e-45, 0., 1.79366203e-43 ]
      - [ -1.85324168e-07, 3.40583968e+00, 0., 3.50000000e+00,
          6.48446157e+10, 3.32709956e+00, -3.48695309e+14,
          3.02910638e+00, 0., 3.50000000e+00, 3.00173925e-25,
          3.33020949e+00, 9.20250548e+11, 3.25663710e+00, 0.,
          3.50000000e+00, 0., 3.50000000e+00, -3.99711803e-02,
          2.98584008e+00, 0., 0., 0., 3.50000000e+00, 5.61887193e-31,
          3.03235078e+00, 0., 0., 0., 0., 6.22756073e-26, 3.49363804e+00,
          -5.21231988e+13, 3.08394670e+00, 0., 3.50000000e+00, 0.,
          3.50000000e+00, 4.19527762e+15, 3.14622378e+00, 0.,
          3.50000000e+00, 0., 3.50000000e+00, 0., 3.50000000e+00, 0.,
          3.50000000e+00, 0., 3.50000000e+00, 6.38729052e+10,
          3.32709956e+00, 1.82618008e-19, 3.09354091e+00, 0.,
          3.50000000e+00, 9.71969672e+35, 3.14362454e+00, 0., 0., 0., 0.,
          6.54038563e+20, 3.11821175e+00, 4.54944478e+14, 3.11345267e+00,
          3.92583632e+00, 3.44539261e+00, -314401248., 3.42078185e+00,
          -1.96377703e+19, 3.33187842e+00, 0., 3.50000000e+00, 0.,
          3.50000000e+00, 0., 3.50000000e+00, 0., 3.50000000e+00, 0.,
          3.50000000e+00, -3.84529307e-02, 3.23584008e+00,
          2.57464232e+21, 3.24579024e+00, 0., 3.50000000e+00,
          -6.59097427e-28, 3.17311430e+00, 0., 0., 0., 0.,
          5.01985453e-10, 3.14707184e+00, 1.45765107e-08, 2.93854570e+00,
          3.89803599e+34, 3.31595731e+00, -5.89509869e-39,
          3.41832948e+00, 0., 3.50000000e+00, -3.75763294e+18,
          3.44068003e+00, -3.71331354e+09, 3.34125471e+00,
          -1.68018433e+25, 3.18803477e+00, 0., 3.50000000e+00, 0.,
          3.50000000e+00, -3.40017090e+02, 2.77904177e+00,
          -2.01412045e-24, 2.86819792e+00, 0., 3.50000000e+00,
          1.64774014e-04, 3.29483938e+00, 0., 0., 0., 0., -401851200.,
          3.07198167e+00 ]
      - [ 0., 0., 1.55544130e-43, 1.66754517e-43, 0., 0., 3.04994270e-37,
          4.59163468e-41, 0., 3.50000000e+00, 5.35965573e+10,
          3.38009310e+00, 1.73761010e-43, 3.29479861e+00,
          -6.25378591e+10, 3.44604754e+00, 0., 3.50000000e+00,
          -3.98233830e+37, 2.92424202e+00, 0., 0., 0., 3.50000000e+00,
          -7.73322268e+29, 3.02623844e+00, .Nan, 4.58855182e-41,
          8.64881412e-42, 0., 3.05009359e-37, 4.59163468e-41,
          8.60957776e-42, 0., 2.28759438e-38, 4.58869195e-41,
          8.94540735e-39, 0., .Nan, 4.58855182e-41, 0., 3.50000000e+00,
          2.27855348e-38, 4.58869195e-41, 1.68155816e-44, 0.,
          2.41968820e-38, 4.58869195e-41, 0., 3.50000000e+00, -28362086.,
          3.27904177e+00, -4.51760824e+10, 3.21258855e+00, 0.,
          3.50000000e+00, -6.06761787e-36, 3.18195295e+00,
          -3.40017090e+02, 2.77904177e+00, 0., 0., 4.62419763e+10,
          3.33183861e+00, 1.79121353e+17, 3.11075163e+00, 0.,
          3.50000000e+00, 2.02068267e-23, 3.35146785e+00,
          -2.42491552e-12, 3.35568285e+00, 0., 3.50000000e+00, 0.,
          3.50000000e+00, 0., 3.50000000e+00, 3.05008642e-37,
          4.59163468e-41, 8.94539614e-39, 0., 1.12103877e-44, 0.,
          3.05003978e-37, 4.59163468e-41, 7.00649232e-45, 0.,
          3.05008642e-37, 4.59163468e-41, 2.32781375e-38, 4.58869195e-41,
          0., 0., -1.58414029e+11, 3.12712336e+00, .Nan, .Nan,
          -1.84302694e-30, 3.32963037e+00, -3.69650555e+34,
          3.49473619e+00, 3.05004337e-37, 4.59163468e-41, 3.05003978e-37,
          4.59163468e-41, 3.05003575e-37, 4.59163468e-41, 3.05003597e-37,
          4.59163468e-41, 2.80259693e-45, 7.00649232e-45, 0.,
          3.50000000e+00, 5.60519386e-45, 0., 8.30223694e+01,
          2.92295361e+00, 0., 3.50000000e+00, -1.56425219e+25,
          3.49009299e+00, 0., 3.50000000e+00, 1.27875038e+02,
          2.80259693e-45, 0., 1.79366203e-43 ]
      - [ -1.40340390e-31, 3.45108771e+00, 0., 3.50000000e+00,
          -1.93745261e-30, 3.23588753e+00, -1.37522036e-12,
          2.92426157e+00, 0., 3.50000000e+00, -1.00370875e-04,
          3.18931365e+00, 1.59838139e-24, 3.21929073e+00, .Nan,
          3.47403216e+00, 0., 3.50000000e+00, -5.82815743e-19,
          2.92294836e+00, 0., 0., 0., 3.50000000e+00, 6.89881006e+19,
          3.03227425e+00, 0., 0., 0., 0., 5.41445752e-19, 3.37573957e+00,
          -1.33942177e-10, 3.08253741e+00, 8.73867570e-26,
          3.33131647e+00, 0., 3.50000000e+00, -1.95875132e+00,
          3.21272588e+00, -3.53462156e+24, 3.39453101e+00, 0.,
          3.50000000e+00, 0., 3.50000000e+00, 0., 3.50000000e+00,
          -1.12965694e+32, 3.49458051e+00, -2.49308703e+05,
          3.29212332e+00, -4.30292841e-19, 3.17294836e+00, 0.,
          3.50000000e+00, -6.50061906e+10, 3.11351061e+00, 0., 0., 0.,
          0., 2.92076865e-16, 3.18183446e+00, 1.12662990e+14,
          3.14804459e+00, -20889340., 3.44862294e+00, 0., 3.50000000e+00,
          37124052., 3.49680328e+00, 0., 3.50000000e+00, 0.,
          3.50000000e+00, 0., 3.50000000e+00, 0., 3.50000000e+00, 0.,
          3.50000000e+00, -5.50716431e-19, 3.17294836e+00,
          -4.66189894e-26, 3.28695989e+00, 0., 3.50000000e+00,
          -3.47065185e-29, 3.15917087e+00, 0., 0., 0., 0.,
          2.74623730e+03, 3.16143775e+00, -1.51230518e-37,
          2.88136768e+00, 3.03738885e+16, 3.29479861e+00, 0.,
          3.50000000e+00, 1.38610148e+27, 3.46331954e+00, 2.03815005e+14,
          3.39582968e+00, -2.64708343e-27, 3.28695989e+00,
          -2.84603183e-21, 3.48261642e+00, 0., 3.50000000e+00, 0.,
          3.50000000e+00, 0., 0., -2.62894599e-22, 2.92294836e+00, 0.,
          3.50000000e+00, 0., 3.50000000e+00, 0., 0., 0., 0.,
          -5.54927078e+31, 3.03075981e+00 ]
      - [ 0., 0., 1.54142831e-43, 1.66754517e-43, 0., 0., 3.04994270e-37,
          4.59163468e-41, 0., 3.50000000e+00, 6.39701101e-14,
          3.11821628e+00, 1.73761010e-43, 3.26035523e+00, 0.,
          3.50000000e+00, 0., 3.50000000e+00, -5.82815743e-19,
          2.92294836e+00, 0., 0., 0., 3.50000000e+00, -1.46668057e+38,
          2.99292755e+00, .Nan, 4.58855182e-41, 2.19163080e-42, 0.,
          3.05009359e-37, 4.59163468e-41, 2.15239444e-42, 0.,
          2.28759438e-38, 4.58869195e-41, 8.94540735e-39, 0., .Nan,
          4.58855182e-41, 0., 3.50000000e+00, 2.27855348e-38,
          4.58869195e-41, 4.20389539e-45, 0., 2.41968820e-38,
          4.58869195e-41, 0., 3.50000000e+00, 4.60177235e+29,
          3.30961633e+00, 1.82618008e-19, 3.09354091e+00, 0.,
          3.50000000e+00, -7.63133538e+27, 3.13917208e+00,
          -3.40017090e+02, 2.77904177e+00, 0., 0., -4.06106509e-23,
          3.28796649e+00, -3.93820763e-08, 3.08623052e+00,
          -3.97711836e-22, 3.48427486e+00, 0., 3.50000000e+00,
          4.00315939e+34, 3.13249063e+00, 0., 3.50000000e+00, 0.,
          3.50000000e+00, 0., 3.50000000e+00, 3.05008642e-37,
          4.59163468e-41, 8.94539614e-39, 0., 2.80259693e-45, 0.,
          3.05003978e-37, 4.59163468e-41, 7.00649232e-45, 0.,
          3.05008642e-37, 4.59163468e-41, 2.32781375e-38, 4.58869195e-41,
          0., 2.86819792e+00, 6.50911963e-12, 3.08582520e+00, .Nan, .Nan,
          1.82632561e-19, 3.34354091e+00, 6.64540395e+35, 3.49759078e+00,
          3.05004337e-37, 4.59163468e-41, 3.05003978e-37, 4.59163468e-41,
          3.05003575e-37, 4.59163468e-41, 3.05003597e-37, 4.59163468e-41,
          2.80259693e-45, 7.00649232e-45, 0., 3.50000000e+00,
          5.60519386e-45, 0., -2.01412045e-24, 2.86819792e+00, 0.,
          3.50000000e+00, -5.99453524e+33, 3.42544961e+00, 0., 0.,
          1.27875038e+02, 2.80259693e-45, 0., 1.79366203e-43 ]
      - [ -5.40968607e-27, 3.32060981e+00, -5.35145693e-20,
          3.42544699e+00, -5.87958516e+04, 3.02904177e+00,
          4.29653996e+37, 3.09364438e+00, 0., 3.50000000e+00,
          8.20895004e+01, 3.11848354e+00, 0., 0., -1.10690199e-16,
          3.49674726e+00, 0., 3.50000000e+00, -1.58297893e-21,
          2.86819792e+00, 0., 0., 0., 3.50000000e+00, -2.89352107e+29,
          3.01410484e+00, 0., 0., 0., 0., 0., 3.50000000e+00,
          8.30283718e-15, 3.25382304e+00, 0., 3.50000000e+00,
          -2.53388534e-32, 3.29221439e+00, -3.73012917e+15,
          3.14698362e+00, 0., 3.50000000e+00, 0., 3.50000000e+00,
          -5.05094219e+04, 2.77904177e+00, 0., 3.50000000e+00, 0.,
          3.50000000e+00, -1.13590956e+38, 3.26568723e+00, 0., 0., 0.,
          3.50000000e+00, -7.22983472e-22, 3.16967869e+00, 0., 0., 0.,
          0., 2.10560612e-35, 3.48574519e+00, -9.41002976e-30,
          3.08909583e+00, 0., 3.50000000e+00, 5.74823036e+01,
          3.47456408e+00, 2.60434656e+35, 3.30792141e+00, 0.,
          3.50000000e+00, 0., 3.50000000e+00, -4.46281095e-10,
          2.93786359e+00, 0., 3.50000000e+00, 0., 3.50000000e+00,
          -2.90253609e+24, 3.10565567e+00, 0., 0., 0., 3.50000000e+00,
          -3.51312751e+27, 3.20348668e+00, 0., 0., 0., 0.,
          -1.74882371e+28, 3.21122146e+00, 6.91715479e+03,
          2.92425680e+00, 6.89302382e+20, 3.41690826e+00, 1.42705091e-03,
          3.45434809e+00, 0., 3.50000000e+00, -1.63458779e-01,
          3.39298153e+00, 5.41323919e+10, 3.32709956e+00,
          -8.80144364e-36, 3.15854120e+00, 0., 3.50000000e+00, 0.,
          3.50000000e+00, 0., 0., 0., 0., 0., 3.50000000e+00,
          -1.21496929e+32, 3.27905536e+00, 0., 0., 0., 0.,
          4.43210159e-14, 3.11942196e+00 ]
      - [ 0., 0., 1.54142831e-43, 1.66754517e-43, 0., 0., 3.04994270e-37,
          4.59163468e-41, 0., 3.50000000e+00, 1.26847852e+21,
          3.32054472e+00, 1.73761010e-43, 0., 3.84184634e-14,
          3.48826265e+00, 0., 3.50000000e+00, 1.26010137e-26,
          3.01964164e+00, 0., 0., 0., 3.50000000e+00, 2.15825994e-20,
          3.08191204e+00, .Nan, 4.58855182e-41, 3.62656043e-42, 0.,
          3.05009359e-37, 4.59163468e-41, 3.58732407e-42, 0.,
          2.28759438e-38, 4.58869195e-41, 8.94540735e-39, 0., .Nan,
          4.58855182e-41, 0., 3.50000000e+00, 2.27855348e-38,
          4.58869195e-41, 7.00649232e-45, 0., 2.41968820e-38,
          4.58869195e-41, 0., 3.50000000e+00, -3.39564544e+22,
          3.34357738e+00, -8.49935915e-21, 3.04997754e+00, 0.,
          3.50000000e+00, 8.03805067e+25, 3.17503667e+00, 0., 0., 0., 0.,
          1.13253794e-22, 3.24003792e+00, -2.04360071e-38,
          3.12895274e+00, 0., 3.50000000e+00, 0., 3.50000000e+00,
          -3.19287242e+34, 3.37995505e+00, 0., 3.50000000e+00, 0.,
          3.50000000e+00, 0., 3.50000000e+00, 3.05008642e-37,
          4.59163468e-41, 8.94539614e-39, 0., 4.20389539e-45, 0.,
          3.05003978e-37, 4.59163468e-41, 7.00649232e-45, 0.,
          3.05008642e-37, 4.59163468e-41, 2.32781375e-38, 4.58869195e-41,
          0., 0., -4.70677956e+24, 3.16158438e+00, .Nan, .Nan,
          4.70406343e-37, 3.38898921e+00, 0., 3.50000000e+00,
          3.05004337e-37, 4.59163468e-41, 3.05003978e-37, 4.59163468e-41,
          3.05003575e-37, 4.59163468e-41, 3.05003597e-37, 4.59163468e-41,
          2.80259693e-45, 7.00649232e-45, 0., 3.50000000e+00,
          5.60519386e-45, 0., -2.37081922e+24, 3.14462590e+00, 0.,
          3.50000000e+00, -8.23100673e-20, 3.48345590e+00, 0., 0.,
          1.27875038e+02, 2.80259693e-45, 0., 1.79366203e-43 ]
      - [ -1.22084628e+37, 3.39146709e+00, 0., 3.50000000e+00,
          -1.04631363e+19, 3.32568812e+00, -1.48123865e+19,
          3.17294836e+00, 0., 3.50000000e+00, 7.51870550e+06,
          3.38057923e+00, 8.95719768e+11, 3.47682285e+00, 5.83452969e-36,
          3.48269558e+00, -1.29597687e-38, 3.49520588e+00,
          -2.33155047e+05, 3.08863735e+00, 5.76404432e-18,
          3.26568747e+00, 0., 3.50000000e+00, 2.35757921e-06,
          3.07078815e+00, 2.19870042e+37, 3.04906964e+00, 1.82618073e-19,
          3.34354091e+00, -1.96014649e-10, 3.40854144e+00, 0.,
          3.50000000e+00, 2.93303608e+36, 3.49122453e+00, 2.51870028e+24,
          3.49564481e+00, -2.72726094e+35, 3.12151241e+00, 0.,
          3.50000000e+00, 0., 3.50000000e+00, 5.10136395e-08,
          3.49680328e+00, 0., 3.50000000e+00, 0., 3.50000000e+00,
          -1.28204012e+10, 3.49249411e+00, 2.25455014e-14,
          3.49484539e+00, -1.06597589e+11, 3.48315811e+00,
          2.54974599e-32, 3.38730073e+00, -5.62501669e+00,
          3.39199877e+00, -1.26213659e+23, 3.49692702e+00,
          2.22494405e+13, 3.15978217e+00, 0., 3.50000000e+00, 0.,
          3.50000000e+00, -6.58322770e-28, 3.39639735e+00,
          -3.67656376e-08, 3.31596756e+00, 0., 3.50000000e+00, 0.,
          3.50000000e+00, 1.08387821e+12, 3.49682283e+00, 0.,
          3.50000000e+00, 0., 3.50000000e+00, -3.00194375e-12,
          3.49003267e+00, 2.17300945e-37, 3.49474692e+00, 0.,
          3.50000000e+00, -1.05542631e-03, 3.26075840e+00,
          7.55222969e+35, 3.26575637e+00, 153495008., 3.49572563e+00,
          -3.04397402e+04, 3.49249101e+00, 9.41844987e-15,
          3.22890186e+00, 2.18701445e-16, 3.33556175e+00, 0.,
          3.50000000e+00, 3.88755358e+13, 3.32309079e+00, 9.16835205e+11,
          3.41693974e+00, 4.05161646e+03, 3.27936530e+00, 6.45528450e+06,
          3.30247307e+00, 0., 3.50000000e+00, 0., 3.50000000e+00,
          1.78101888e+06, 3.08183861e+00, -3.77426206e-29,
          3.18161130e+00, 0., 3.50000000e+00, -4.21458497e+14,
          3.30961633e+00, 0., 3.50000000e+00, 1.99784242e+12,
          3.47682285e+00, -6.40193397e+12, 3.49249101e+00 ]
      - [ 0., 3.50000000e+00, 1.10215272e-30, 3.46632361e+00,
          3.76170469e+26, 3.25663733e+00, -1.80404507e+34,
          2.92424202e+00, 0., 3.50000000e+00, -2.01274026e+19,
          3.39200425e+00, 1.98944952e-22, 3.28217268e+00,
          -2.89600623e+25, 3.42161918e+00, 1.19717726e-17,
          3.45121884e+00, -4.44030106e+09, 3.34125471e+00,
          -1.56348667e-21, 2.86819792e+00, 0., 3.50000000e+00,
          7.46784821e+14, 3.14906907e+00, 0., 0., 0., 0., 9.53246750e-16,
          3.42159820e+00, 0., 3.50000000e+00, 3.70193876e-28,
          3.47321367e+00, -1.77765638e+06, 3.48260713e+00,
          5.41920781e-06, 3.07209301e+00, 0., 3.50000000e+00, 0.,
          3.50000000e+00, -2.02209939e-20, 3.41690826e+00,
          -9.04258097e+23, 3.48646021e+00, 0., 3.50000000e+00,
          -3.02995369e-03, 3.44047379e+00, -2.30905425e-06,
          3.10567307e+00, -4.16883675e+06, 3.49251127e+00,
          1.12599441e+21, 3.13641381e+00, 0., 0., 0., 0., 8.13491849e-18,
          3.42294860e+00, 9.07186164e-13, 3.07530880e+00,
          -2.80739874e-30, 3.36575675e+00, 1.25326438e+30,
          3.48366427e+00, 7.84169693e+01, 3.38233972e+00, 0.,
          3.50000000e+00, 0., 3.50000000e+00, 0., 3.50000000e+00, 0.,
          3.50000000e+00, 0., 3.50000000e+00, -4.19475363e+14,
          3.21270871e+00, 9.59655178e+18, 3.27507472e+00, 0.,
          3.50000000e+00, 491769920., 3.27505684e+00, 0., 0., 0., 0.,
          5.76157993e+34, 3.16230845e+00, -5.44695601e-16,
          2.98593593e+00, 1119231488., 3.32709956e+00, 0.,
          3.50000000e+00, 0., 3.50000000e+00, 0., 3.50000000e+00,
          -1.22624704e-22, 3.48427486e+00, -6.60870639e+22,
          3.37629366e+00, 0., 3.50000000e+00, 0., 3.50000000e+00,
          2.01007558e+33, 3.01035523e+00, 1.32810429e-12, 3.14462495e+00,
          -4.75776010e+33, 3.48812509e+00, -1.98499245e-25,
          3.42423248e+00, 0., 0., -1.00225703e-08, 3.04908419e+00,
          4.05296977e-12, 3.05243921e+00 ]
      - [ 0., 0., 1.58346726e-43, 1.66754517e-43, 0., 0., 3.04994270e-37,
          4.59163468e-41, 0., 3.50000000e+00, -4.72161843e+09,
          3.32963276e+00, 1.73761010e-43, 3.26675272e+00,
          -4.88323909e+28, 3.45003915e+00, 0., 3.50000000e+00,
          -5.67385312e+04, 3.27904177e+00, -2.49087541e+11,
          3.48260713e+00, 0., 3.50000000e+00, 5.92070859e+22,
          3.29212379e+00, .Nan, 4.58855182e-41, 1.94107863e-41, 0.,
          3.05009359e-37, 4.59163468e-41, 1.93715500e-41, 0.,
          2.28759438e-38, 4.58869195e-41, 8.94540735e-39, 0., .Nan,
          4.58855182e-41, 0., 3.50000000e+00, 2.27855348e-38,
          4.58869195e-41, 3.78350585e-44, 0., 2.41968820e-38,
          4.58869195e-41, 0., 3.50000000e+00, 2.28713998e+21,
          3.38545918e+00, 2.35819776e+28, 3.32053494e+00, 0.,
          3.50000000e+00, -1.51865110e-01, 3.14640689e+00, 0., 0.,
          -3.40017090e+02, 3.02904177e+00, -1.89868319e+10,
          3.49063015e+00, -4.20304200e-17, 3.18175268e+00,
          -7.02202830e-36, 3.40589046e+00, 4.69197374e-07,
          3.39695573e+00, 0., 3.50000000e+00, -1.03795561e+28,
          3.49393058e+00, -4.27491325e-31, 3.30519485e+00,
          -7.32834952e+34, 3.43475485e+00, 3.05008642e-37,
          4.59163468e-41, 8.94539614e-39, 0., 2.52233724e-44, 0.,
          3.05003978e-37, 4.59163468e-41, 7.00649232e-45, 0.,
          3.05008642e-37, 4.59163468e-41, 2.32781375e-38, 4.58869195e-41,
          0., 0., -1.47136304e-22, 3.18468213e+00, .Nan, .Nan,
          1.49264287e-24, 3.25149894e+00, -1.72322305e+28,
          3.46954131e+00, 3.05004337e-37, 4.59163468e-41, 3.05003978e-37,
          4.59163468e-41, 3.05003575e-37, 4.59163468e-41, 3.05003597e-37,
          4.59163468e-41, 2.80259693e-45, 7.00649232e-45, 0.,
          3.50000000e+00, 5.60519386e-45, 0., -1.64925254e-21,
          2.86819792e+00, 1.64163669e-35, 3.36793375e+00, 6.52462782e-38,
          3.26153135e+00, 2.01167049e+37, 3.04906964e+00, 1.27875038e+02,
          2.80259693e-45, 0., 1.79366203e-43 ]
      - [ 0., 0., 1.61149323e-43, 1.66754517e-43, 0., 0., 3.04994270e-37,
          4.59163468e-41, 0., 3.50000000e+00, 2.63169637e+17,
          3.44046426e+00, 1.73761010e-43, 2.86819792e+00, 1.05019649e+37,
          3.45948529e+00, 0., 3.50000000e+00, 9.63552608e+11,
          3.24579430e+00, 0., 0., 0., 3.50000000e+00, 3.70586179e-22,
          3.24582267e+00, .Nan, 4.58855182e-41, 2.94552937e-41, 0.,
          3.05009359e-37, 4.59163468e-41, 2.94160574e-41, 0.,
          2.28759438e-38, 4.58869195e-41, 8.94540735e-39, 0., .Nan,
          4.58855182e-41, 0., 3.50000000e+00, 2.27855348e-38,
          4.58869195e-41, 5.74532370e-44, 0., 2.41968820e-38,
          4.58869195e-41, 0., 3.50000000e+00, 197500448., 3.35057664e+00,
          -3.40017090e+02, 2.77904177e+00, 0., 3.50000000e+00,
          5.20944513e-25, 3.22412443e+00, 0., 0., 0., 0., 0.,
          3.50000000e+00, 7.67759956e-33, 3.13234854e+00,
          -5.66883262e+29, 3.30755591e+00, 1.93672548e-16,
          3.42016387e+00, -4.04449195e-01, 3.42018795e+00, 0.,
          3.50000000e+00, 0., 3.50000000e+00, -6.67172526e-06,
          3.17294836e+00, 3.05008642e-37, 4.59163468e-41, 8.94539614e-39,
          0., 3.78350585e-44, 0., 3.05003978e-37, 4.59163468e-41,
          7.00649232e-45, 0., 3.05008642e-37, 4.59163468e-41,
          2.32781375e-38, 4.58869195e-41, 0., 2.77904177e+00,
          -2.18236293e-33, 3.22500134e+00, .Nan, .Nan, 8.45738066e+10,
          3.25663710e+00, 0., 3.50000000e+00, 3.05004337e-37,
          4.59163468e-41, 3.05003978e-37, 4.59163468e-41, 3.05003575e-37,
          4.59163468e-41, 3.05003597e-37, 4.59163468e-41, 2.80259693e-45,
          7.00649232e-45, 0., 3.50000000e+00, 5.60519386e-45, 0.,
          2.01007558e+33, 3.01035523e+00, 0., 3.50000000e+00, 0.,
          3.50000000e+00, 0., 0., 1.27875038e+02, 2.80259693e-45, 0.,
          1.79366203e-43 ]
      - [ 6.47756196e+28, 3.47682309e+00, 3.47942660e-31, 3.40095901e+00,
          1.48115722e+20, 3.38545918e+00, -1.55554843e+30,
          3.01055717e+00, 1.66306363e-05, 3.49363804e+00, 1.37180878e-36,
          3.33188725e+00, -1.01899267e+17, 3.01056957e+00,
          1.91939702e+32, 3.43379951e+00, -1.30475630e-08,
          3.46262050e+00, -3.42908922e-18, 3.17294836e+00,
          -5.99105312e+05, 3.07150793e+00, 0., 3.50000000e+00,
          -8.08488721e+03, 3.01036787e+00, -1.42314253e-21,
          2.86819792e+00, 0., 0., 3.68219611e-21, 3.49251866e+00,
          1.94537941e+12, 3.25663710e+00, 1.59730998e-16, 3.35872960e+00,
          -6.05116894e+13, 3.45839071e+00, 2.78175193e+20,
          3.17295265e+00, -9.81477934e+22, 3.41859603e+00, 0.,
          3.50000000e+00, 3.68732387e-08, 3.22890234e+00, 0.,
          3.50000000e+00, -4.87510914e-15, 3.44686246e+00,
          3.25775562e-09, 3.32833219e+00, 1531479936., 3.38730049e+00,
          -9.83190234e+04, 3.49909282e+00, -1.10789427e+38,
          2.99003291e+00, -1.22752774e+00, 3.39054894e+00,
          -5.77402716e-06, 2.98584008e+00, -9.43899841e+01,
          3.49249101e+00, -2.68949389e+31, 3.11934161e+00,
          2.25464109e+05, 3.37873030e+00, -6.09096652e-03,
          3.34739518e+00, -72669992., 3.43494987e+00, -1.54551630e+33,
          3.46549177e+00, 0., 3.50000000e+00, -8.39809205e-20,
          3.37232900e+00, 0., 3.50000000e+00, 7.55066364e+15,
          3.33121657e+00, -1.92560870e-33, 3.37232900e+00,
          4.50824493e+33, 3.20400286e+00, 0., 3.50000000e+00,
          -4.39211655e+00, 3.01055717e+00, -1.22699062e-12,
          3.37724543e+00, -3.40017090e+02, 2.77904177e+00,
          9.03978689e-36, 3.31055641e+00, 3.00624321e-26, 3.21929073e+00,
          -3.11301907e+38, 3.36820316e+00, -1.12577667e+11,
          3.29713750e+00, 0., 3.50000000e+00, -3.68223826e-33,
          3.37766051e+00, 9.77003303e+20, 3.42025089e+00,
          -5.52853273e+26, 3.18786621e+00, 0., 3.50000000e+00, 0.,
          3.50000000e+00, 1.26217329e+17, 3.07053494e+00,
          -1.61416653e-21, 2.86819792e+00, -1.61247897e-06,
          3.46924949e+00, -2.53457172e-17, 3.17294836e+00,
          9.75691050e+31, 3.13118243e+00, 0., 0., -4.53303948e+15,
          3.34125471e+00 ]
      - [ 0., 3.50000000e+00, -1.51263678e-33, 3.45330763e+00,
          1.99168347e-34, 3.32963395e+00, -1108375552., 3.01345015e+00,
          0., 3.50000000e+00, 5.29166920e-34, 3.38898921e+00,
          5.54228257e-18, 3.31840205e+00, -4.75202870e+16,
          3.47403431e+00, -1.22596003e-01, 3.45507312e+00,
          6.47114342e+29, 3.35328913e+00, -7.89857416e-11,
          2.86826968e+00, 0., 3.50000000e+00, 3.14545713e+38,
          3.20332718e+00, 0., 0., 4.91200858e-18, 3.31840205e+00,
          -2.19018635e+27, 3.48427558e+00, 0., 3.50000000e+00,
          -1.31922696e+28, 3.23626351e+00, -1.10825901e+33,
          3.48427510e+00, 2.90013289e+12, 3.27505946e+00, 0.,
          3.50000000e+00, 0., 3.50000000e+00, 0., 3.50000000e+00, 0.,
          3.50000000e+00, 0., 3.50000000e+00, 4.17682312e+02,
          3.47890306e+00, -2.31109500e-01, 3.18794894e+00, 0.,
          3.50000000e+00, -1.62795468e+37, 3.23746204e+00, 0., 0.,
          -3.40017090e+02, 2.77904177e+00, 3.12085312e+17,
          3.42158580e+00, -2.14780697e-35, 3.13397169e+00,
          -5.70937221e+10, 3.28217268e+00, 1.59262369e-37,
          3.48427582e+00, 0., 3.50000000e+00, 0., 3.50000000e+00, 0.,
          3.50000000e+00, 0., 3.50000000e+00, 0., 3.50000000e+00, 0.,
          3.50000000e+00, 1.40496232e-30, 3.28932714e+00, 3.05542049e+18,
          3.26453400e+00, 0., 3.50000000e+00, -2.56149264e-15,
          3.27386332e+00, 1.65336451e-12, 3.14462495e+00, 0., 0.,
          -2.29371711e-21, 3.22007346e+00, -4.53342606e+12,
          2.99011374e+00, -435453664., 3.37573862e+00, 0.,
          3.50000000e+00, 0., 3.50000000e+00, -1.81040715e-21,
          3.49163222e+00, -198860800., 3.46258855e+00, 1.11817685e+33,
          3.38121963e+00, 0., 3.50000000e+00, 0., 3.50000000e+00,
          -7.53825781e+03, 3.01036787e+00, 1.20524798e+27,
          2.88121963e+00, 0., 3.50000000e+00, -1.08537816e-28,
          3.41690946e+00, -7.59152930e+03, 3.01036787e+00,
          -2.62894599e-22, 2.92294836e+00, -3.46086552e-21,
          3.05000854e+00 ]
      - [ 0., 3.50000000e+00, 2.45406432e+18, 3.49329042e+00,
          3.17554517e+03, 3.36576319e+00, -2.77935261e-22,
          3.30967665e+00, 0., 3.50000000e+00, 8.09314386e+27,
          3.46782136e+00, 1.26185486e-11, 3.41509843e+00, 0.,
          3.50000000e+00, -3.01770371e+30, 3.44284368e+00,
          1.16484391e+20, 3.29707956e+00, -5.05094258e+04,
          3.02904177e+00, 0., 3.50000000e+00, 1.41956406e+02,
          3.14462614e+00, 0., 0., 0., 0., 0., 3.50000000e+00,
          1.20180395e-23, 3.38736534e+00, 0., 3.50000000e+00,
          7.99757885e-25, 3.46882820e+00, 2.22090408e+02, 3.08423162e+00,
          0., 3.50000000e+00, 0., 3.50000000e+00, 1.36241614e-08,
          3.44683123e+00, 0., 3.50000000e+00, 0., 3.50000000e+00,
          1.23611156e-11, 3.41509843e+00, -3.89682223e+24,
          3.10565567e+00, 0., 3.50000000e+00, 139316832., 3.14525819e+00,
          4.62556938e+05, 3.08183861e+00, 0., 0., -2.40245063e+36,
          3.48083043e+00, -6.12527542e+35, 3.09900498e+00,
          2.43239109e+11, 3.36057878e+00, -9.56650454e+25,
          3.43645287e+00, 0., 3.50000000e+00, 0., 3.50000000e+00,
          -7.65711117e+00, 3.39199877e+00, 8.14516210e-31,
          3.45598555e+00, 0., 3.50000000e+00, 0., 3.50000000e+00,
          -1.47281655e-12, 3.19683123e+00, 8.86803946e-08,
          3.14695573e+00, 0., 3.50000000e+00, 8.25703629e+10,
          3.22915006e+00, -6.02095616e+10, 3.21258855e+00, 0., 0.,
          -1.62285620e+34, 3.21472740e+00, 3.81068234e-22,
          3.26953673e+00, 9.84090698e+02, 3.08183861e+00, 1.02183926e+29,
          3.44926143e+00, 0., 3.50000000e+00, 0., 3.50000000e+00,
          7.54690855e-15, 3.22890186e+00, -1.49390207e-27,
          3.30083609e+00, 0., 3.50000000e+00, 1.10376623e-05,
          3.41949177e+00, 2.13805204e+18, 3.07053494e+00,
          -5.42811758e+04, 2.77904177e+00, 1.67998276e-03,
          3.43126392e+00, -2.17762763e+32, 3.23584151e+00,
          1.51418039e+20, 2.78888226e+00, 0., 0., 5.75746287e+24,
          3.28888226e+00 ]
      - [ -3.62262141e+25, 3.42979074e+00, 8.36247481e-20,
          3.41097665e+00, 3.45752055e-22, 3.26953673e+00, 9.12951236e+17,
          2.78888226e+00, 0., 3.50000000e+00, -6.76937305e+33,
          3.38343430e+00, -5.65441656e+00, 3.39199877e+00,
          -1.25118201e-15, 3.27718544e+00, 2.07414783e-28,
          3.49694228e+00, 1.92297505e-22, 3.28217268e+00,
          -5.09445857e-19, 2.92294836e+00, -1.30144287e+10,
          3.47690725e+00, 3.52511321e+37, 3.13134003e+00, 0., 0., 0., 0.,
          3.56420145e+33, 3.20400286e+00, 3.15567318e+37, 3.26570463e+00,
          5.25456999e-05, 3.36440611e+00, -1.47092108e+31,
          3.30755591e+00, 4.66873870e+27, 3.05262542e+00, 0.,
          3.50000000e+00, 0., 3.50000000e+00, 0., 3.50000000e+00,
          1.51209701e-06, 3.40479112e+00, 0., 3.50000000e+00,
          -1.50138443e+02, 3.35965657e+00, 1.14034926e+24,
          3.24579024e+00, 7.78231634e-21, 3.33471990e+00, 4.10423505e-39,
          3.10623932e+00, 0., 0., 0., 0., -4.21927863e-04,
          3.04909968e+00, 3.43998952e-04, 3.02256083e+00,
          -9.44269103e+22, 3.44493866e+00, -1.36840159e+19,
          3.19774413e+00, 2.43823372e-25, 3.19684625e+00, 2.53717740e-08,
          3.49787879e+00, 0., 3.50000000e+00, 0., 3.50000000e+00, 0.,
          3.50000000e+00, 7.15363997e-23, 3.48070669e+00,
          -9.48728358e-34, 3.14470172e+00, 4.27200484e-13,
          3.30525422e+00, 0., 3.50000000e+00, 3.22477844e-09,
          3.35329103e+00, -3.40017090e+02, 2.77904177e+00, 0., 0.,
          3.79787563e+33, 3.16101050e+00, 1.57484297e-38, 2.98593497e+00,
          2.09533526e+28, 3.39523244e+00, 0., 3.50000000e+00,
          -1.58674959e-06, 3.43786359e+00, -16188712., 3.48082256e+00,
          -2.32220898e+36, 3.42769361e+00, -5.34248907e+18,
          3.21532083e+00, 0., 3.50000000e+00, 0., 3.50000000e+00,
          -1.05495162e-13, 2.86826968e+00, 1212524416., 3.32709956e+00,
          1.09285754e+03, 3.41841626e+00, -2.13964567e-01,
          3.34354234e+00, -2.89682429e-02, 2.98584008e+00,
          -7.22850342e+01, 3.01036787e+00, 2.23708848e-20,
          3.17327714e+00 ]
      - [ 0., 3.50000000e+00, 7.89316275e-35, 3.40582275e+00,
          1.70469596e+12, 3.27505684e+00, 1.40310545e+01, 3.01056981e+00,
          0., 3.50000000e+00, -1.49183133e-24, 3.35976076e+00,
          9.76109299e+32, 3.24579048e+00, -2.12041667e-29,
          3.40531850e+00, -1.19020575e+30, 3.38479447e+00,
          3.38015523e-21, 3.26953673e+00, -5.85108533e-19,
          2.92294836e+00, -6.49881382e+34, 3.34491372e+00,
          7.65380306e+30, 3.07053566e+00, -4.63947852e+04,
          2.77904177e+00, 0., 0., -3.35072126e-31, 2.92296386e+00,
          1664613632., 3.45839763e+00, 0., 3.50000000e+00,
          -5.15978789e+11, 3.12573862e+00, -4.98958656e-23,
          3.05085158e+00, 0., 3.50000000e+00, 0., 3.50000000e+00,
          -4.32547380e-27, 3.40432167e+00, 4.54675405e+09,
          3.47701335e+00, 0., 3.50000000e+00, -1.50031523e+04,
          3.36317444e+00, -1.81495543e-21, 3.11819792e+00,
          -4.89375375e+10, 3.37539530e+00, -3.68347908e-10,
          3.10788941e+00, 3.03782353e-15, 3.33556175e+00, 0., 0.,
          1.85267746e-30, 2.88140464e+00, -9.43508160e-10,
          3.09561491e+00, 3.17369881e+18, 3.40095949e+00, 2.77137868e-09,
          3.29212952e+00, 1.46642111e-13, 3.43047714e+00,
          -2.11254605e+20, 3.49510193e+00, -2.82835026e+01,
          3.49249172e+00, 0., 3.50000000e+00, 0., 3.50000000e+00,
          -4.65955088e+12, 3.36527872e+00, 5.33396951e-29,
          3.25716352e+00, -7.87087930e-12, 3.28702378e+00, 0.,
          3.50000000e+00, -2.55267193e-30, 2.92423725e+00,
          -4.10939464e-16, 3.41095424e+00, 0., 0., 2.08821516e-22,
          3.13224506e+00, 1.48593338e+36, 3.05261302e+00,
          -5.06400491e+27, 3.32640409e+00, 0., 3.50000000e+00, 0.,
          3.50000000e+00, 0., 3.50000000e+00, 6.87247466e-15,
          3.47890186e+00, 1.82604510e-03, 3.27937198e+00, 0.,
          3.50000000e+00, -1.50517213e+14, 3.45335150e+00,
          9.57790434e-08, 3.01953673e+00, -2.64500051e+35,
          2.98593473e+00, 2.92563057e+01, 3.49172068e+00,
          -1.76947913e-03, 3.01328659e+00, 2.44633799e-21,
          2.92423248e+00, 0., 0., 6.35476423e+19, 3.37410760e+00 ]
      - [ 1.25510024e-03, 3.46270895e+00, -1.93445874e-16,
          3.42176342e+00, -2.23553167e+10, 3.37410760e+00,
          -8.63373047e+12, 2.93920040e+00, 0., 3.50000000e+00,
          1.60311265e+37, 3.35057664e+00, 2.92070173e+18, 3.32053494e+00,
          0., 3.50000000e+00, 0., 3.50000000e+00, 4.53953428e-22,
          3.28217268e+00, -1.50111148e-21, 2.86819792e+00, 0.,
          3.50000000e+00, 2.69221001e-08, 3.20332742e+00, 0., 0., 0., 0.,
          9.94982472e-20, 3.42742491e+00, -5.53774259e-16,
          3.31596112e+00, 2.49650133e-26, 3.49882698e+00,
          -2.53300656e+23, 3.47957850e+00, -4.55174275e+23,
          3.08443022e+00, 0., 3.50000000e+00, 0., 3.50000000e+00,
          -6.56929393e-37, 3.46444368e+00, 0., 3.50000000e+00, 0.,
          3.50000000e+00, -3.84595258e-28, 3.38935304e+00,
          2.13619038e-31, 3.10565591e+00, 0., 3.50000000e+00,
          1.52095005e-19, 3.11451054e+00, 0., 0., 0., 0.,
          -1.25522604e-06, 3.46469355e+00, -9.41744817e-36,
          3.10131645e+00, 6.01833188e-17, 3.49968219e+00, 0.,
          3.50000000e+00, -3.59886261e+02, 3.27534080e+00, 0.,
          3.50000000e+00, 0., 3.50000000e+00, 0., 3.50000000e+00, 0.,
          3.50000000e+00, 1.87520265e-22, 3.47097731e+00,
          -2.66992350e-20, 3.21259236e+00, -2.54867995e-18,
          3.28352046e+00, 0., 3.50000000e+00, 7.17107184e-07,
          3.29376769e+00, -5.94530508e+04, 2.77904177e+00, 0., 0.,
          -1.68725486e+12, 3.14816189e+00, 2.52790473e+26,
          2.98740625e+00, -2.16524083e-36, 3.35566878e+00, 0.,
          3.50000000e+00, -4.47443261e-26, 3.44864321e+00,
          -5.07915833e+02, 3.47753263e+00, 8.98103658e+23,
          3.49579024e+00, -9.45205938e+05, 3.45038152e+00, 0.,
          3.50000000e+00, 0., 3.50000000e+00, 287922144., 3.04907060e+00,
          3.34846651e-15, 3.18254638e+00, -55507188., 3.39326239e+00,
          5.23394460e+29, 3.40353274e+00, -2.01412045e-24,
          2.86819792e+00, -8.68135968e+33, 3.01036787e+00,
          -4.67628947e+26, 3.14470291e+00 ]
      - [ 0., 3.50000000e+00, -1.89898623e+26, 3.41312480e+00,
          -6.56229453e-29, 3.32963037e+00, 9.12951236e+17,
          2.78888226e+00, 0., 3.50000000e+00, 1.60432359e+25,
          3.42158580e+00, 9.07107997e-15, 3.22890186e+00,
          -1.01017606e-29, 3.30045366e+00, 7.43022556e+22,
          3.49300814e+00, -3.00034401e-07, 3.34739518e+00,
          -1.60247119e-21, 2.86819792e+00, -8.05468115e-36,
          3.48938394e+00, 1.88293853e-17, 3.09355879e+00, 0., 0., 0., 0.,
          4.13826575e-37, 3.48731518e+00, 0., 3.50000000e+00,
          8.62703057e-19, 3.49962640e+00, -9.10386575e-08,
          3.48082852e+00, -2.23947033e-18, 3.08203602e+00, 0.,
          3.50000000e+00, 0., 3.50000000e+00, -4.43306183e+31,
          3.43161035e+00, -4.13440947e+36, 3.48732471e+00, 0.,
          3.50000000e+00, 5.04329163e+02, 3.44045234e+00, 1.56143035e-12,
          3.14462495e+00, -2.75965720e-36, 3.48748326e+00,
          1.89263964e+33, 3.10897493e+00, 0., 0., 0., 0.,
          -9.56996317e+31, 3.40722489e+00, 2.53290325e-26,
          3.09458590e+00, -1.46507080e-06, 3.28497744e+00,
          -2.18715181e+38, 3.46634912e+00, 0., 3.50000000e+00,
          7.30166260e-34, 3.49777889e+00, 8.61727634e-10, 3.48427773e+00,
          0., 3.50000000e+00, 0., 3.50000000e+00, -1.97371889e-26,
          3.49872351e+00, 8.29508474e+17, 3.17327642e+00, 1.71878466e+11,
          3.28218365e+00, 0., 3.50000000e+00, 9.79256543e+03,
          3.37574792e+00, -4.30292815e-19, 2.92294836e+00, 0., 0.,
          2.14466740e-34, 3.10117197e+00, 1.06750026e+32, 2.88118243e+00,
          -7.53408997e-34, 3.37864590e+00, .Nan, 3.40140939e+00, 0.,
          3.50000000e+00, -2.82604942e-36, 3.37671852e+00, 0.,
          3.50000000e+00, 3.25636826e-32, 3.32372308e+00, 0.,
          3.50000000e+00, 0., 3.50000000e+00, 2.01007558e+33,
          3.01035523e+00, -3.43103636e-07, 3.34739518e+00,
          -4.76272144e+36, 3.43370366e+00, 2.18370056e+38,
          3.48731542e+00, 0., 0., -1.22741495e-09, 3.18786359e+00,
          -7.63979464e-19, 3.01038074e+00 ]
      - [ 1.28188960e-24, 3.45534062e+00, 9.36009523e-15, 3.37515569e+00,
          1.07378590e-17, 3.17359972e+00, 7980821., 3.01348066e+00, 0.,
          3.50000000e+00, 5.45775183e-05, 3.31841993e+00,
          -4.63947162e+10, 3.37573862e+00, -3.42725031e+19,
          3.45268726e+00, -3.29394654e+26, 3.49784017e+00,
          -1.11566173e+38, 3.26568723e+00, -5.38239961e+04,
          3.02904177e+00, 0., 3.50000000e+00, 1.79190917e+19,
          3.03221941e+00, 0., 0., 0., 0., 1.01845501e+32, 3.38118243e+00,
          -4.76145604e+21, 3.20337152e+00, -1.91212910e+16,
          3.49003458e+00, 2.94296198e-15, 3.17973685e+00, 3.47674278e-10,
          3.07955933e+00, -2.25166043e+22, 3.49089694e+00, 0.,
          3.50000000e+00, 9.36622046e-36, 3.46058059e+00,
          -1.95454546e+28, 3.47814727e+00, 0., 3.50000000e+00,
          2.36020297e-01, 3.37233996e+00, 1.25836923e-08, 3.19683123e+00,
          6.23862970e-31, 3.37526202e+00, 3.35940087e-12, 3.09494638e+00,
          0., 0., 0., 0., 6.50933499e+13, 3.08183885e+00,
          -1.30601204e-20, 3.06478071e+00, -4.17058416e-19,
          3.37995934e+00, -1.93157310e-10, 3.49777842e+00,
          7.14205387e+16, 3.16861153e+00, 0., 3.50000000e+00,
          -5.98439982e+35, 3.48082304e+00, 0., 3.50000000e+00,
          3.35160272e-23, 3.49779296e+00, 0., 3.50000000e+00,
          8.40314315e-04, 3.13176942e+00, -3.29348022e+11,
          3.29598069e+00, 0., 3.50000000e+00, -1.30745106e+11,
          3.30997515e+00, -1.32957984e-21, 2.86819792e+00, 0., 0.,
          -3.86865884e-02, 3.14497471e+00, -6.77666016e+01,
          2.92548800e+00, 3.84039267e-05, 3.38640070e+00,
          -3.58833102e-12, 3.49791265e+00, 0., 3.50000000e+00,
          3.06167964e+35, 3.44739580e+00, -1.22651412e-22,
          3.48427486e+00, -1.50078016e-24, 3.39055228e+00, 0.,
          3.50000000e+00, 0., 3.50000000e+00, -2.56202228e+35,
          2.98593473e+00, 1.13050591e-08, 3.09382486e+00, 65111552.,
          3.38422990e+00, 3.94373830e-27, 3.35181260e+00,
          -4.81932175e-19, 3.17294836e+00, 9.12951236e+17,
          2.78888226e+00, -2.04993515e+02, 3.19683123e+00 ]
      - [ 0., 3.50000000e+00, -1.07308083e-13, 3.38899064e+00,
          1.72090085e+37, 3.37410760e+00, 9.95842904e+26, 2.98896503e+00,
          0., 3.50000000e+00, -6.64777605e+10, 3.34445667e+00,
          -2.04571451e-29, 3.31309009e+00, 5.98707511e-20,
          3.39753604e+00, 2.12477685e+27, 3.48039389e+00,
          -1.57729500e-19, 3.25148654e+00, -1.51670533e-21,
          2.86819792e+00, 0., 3.50000000e+00, 3.20201006e-16,
          3.08902884e+00, 0., 0., 0., 0., 2.68115444e-22, 3.49871874e+00,
          0., 3.50000000e+00, -1.20893408e-11, 3.21463823e+00,
          2.64473386e+26, 3.48431921e+00, -1.36784061e-27,
          3.13143444e+00, 0., 3.50000000e+00, 0., 3.50000000e+00, 0.,
          3.50000000e+00, 0., 3.50000000e+00, 0., 3.50000000e+00,
          3.34509415e+37, 3.33697200e+00, -1.42482905e-32,
          3.15854120e+00, -2.88212314e-38, 3.48740530e+00,
          -3.45765269e+20, 3.20497227e+00, -6.47587552e-19,
          2.92294836e+00, 0., 0., 9.07166931e+02, 3.47455597e+00,
          1.43450433e-02, 3.19720697e+00, -3.59302476e+25,
          3.40274596e+00, 1.24290737e+21, 3.41509867e+00, 0.,
          3.50000000e+00, 0., 3.50000000e+00, 0., 3.50000000e+00, 0.,
          3.50000000e+00, 0., 3.50000000e+00, 0., 3.50000000e+00,
          6.34585959e-18, 3.21933651e+00, -6.49653335e-22,
          3.23584604e+00, 0., 3.50000000e+00, -3.51118430e-22,
          3.19698381e+00, 2.87450767e+18, 3.07053494e+00, 0., 0.,
          5.15992069e-26, 3.16390181e+00, -1.47442684e+01,
          3.39199877e+00, -2.54518401e+38, 3.42018652e+00, 0.,
          3.50000000e+00, -2.97101212e+01, 3.48807764e+00, 0.,
          3.50000000e+00, 0., 3.50000000e+00, 6.69629904e-25,
          3.28416109e+00, 0., 3.50000000e+00, 0., 3.50000000e+00,
          6.39188162e-29, 3.13118267e+00, 1.28181132e+19, 2.78888226e+00,
          -5.55060495e-08, 3.45967078e+00, 0., 3.50000000e+00,
          -3.12456191e-02, 2.98584008e+00, 0., 0., -450985664.,
          3.26035523e+00 ]
      - [ -2.70334664e+38, 3.42955279e+00, 1.04124242e-36,
          3.35198259e+00, -4.78331553e-23, 3.34128332e+00,
          6.45221055e+04, 3.00192165e+00, 0., 3.50000000e+00,
          -3.12897447e+22, 3.39695597e+00, 2.56275534e+35,
          3.26035523e+00, -2.02128128e-08, 3.41945505e+00,
          -1.91356146e+00, 3.40523982e+00, -4.75960986e+09,
          3.34125471e+00, -5.69058851e-19, 2.92294836e+00,
          -1.41068639e+12, 3.49055648e+00, 7.10307343e-21,
          3.11819863e+00, 0., 0., 0., 0., -9.88977238e-13,
          3.49003267e+00, 0., 3.50000000e+00, -5.30266322e+23,
          3.42158580e+00, -1.05948680e-10, 3.49003267e+00,
          -1.53808817e-14, 3.13347960e+00, 0., 3.50000000e+00, 0.,
          3.50000000e+00, -4.21510593e+28, 3.41312480e+00,
          1.12344172e+21, 3.49022007e+00, 0., 3.50000000e+00,
          -1.27530227e-33, 3.46778631e+00, -3.76245903e+24,
          3.10565567e+00, 6.53205996e+28, 3.49034834e+00, 2.06121179e+33,
          3.15936446e+00, 0., 0., 0., 0., -1.74713717e+20,
          3.37864590e+00, 1.02521084e+17, 3.09486771e+00, 9.49598160e+01,
          3.34905553e+00, -7.13391404e-04, 3.49003267e+00, 0.,
          3.50000000e+00, -1.86518422e+21, 3.49554682e+00,
          -5.63707083e+37, 3.46634912e+00, 0., 3.50000000e+00, 0.,
          3.50000000e+00, 6.14636021e+21, 3.49480486e+00,
          -2.44347316e+14, 3.20839071e+00, -2.63592853e-34,
          3.26035523e+00, 0., 3.50000000e+00, 1.63893015e-13,
          3.40270686e+00, 0., 0., 0., 0., 3.43387188e+04, 3.11221123e+00,
          6.66109161e+01, 2.86848354e+00, 3.37819715e-15, 3.31660295e+00,
          -7.11341690e-23, 3.39674377e+00, 0., 3.50000000e+00,
          7.62256756e-02, 3.34171796e+00, -1.75421014e-02,
          3.49249101e+00, 2.44403315e+19, 3.38135099e+00, 0.,
          3.50000000e+00, -1.43403321e-21, 3.49367762e+00,
          7.42539448e+15, 3.07053494e+00, 8.12801269e-37, 3.38898921e+00,
          -2.85480133e-26, 3.47363234e+00, 1.56680157e-18,
          3.47894859e+00, 0., 0., 2.57464232e+21, 3.24579024e+00,
          -4.17732048e-33, 3.13136768e+00 ]
      - [ 0., 3.50000000e+00, 2.90384577e+11, 3.45892215e+00,
          1.60444684e-24, 3.21929073e+00, -7.63979464e-19,
          3.01038074e+00, 0., 3.50000000e+00, -2.00409446e-38,
          3.32434511e+00, 5.83973655e-35, 3.38898921e+00, 1.78381285e-07,
          3.34912992e+00, -4.58743230e+36, 3.39305115e+00,
          -1.75385796e+31, 3.30755591e+00, 9770014., 2.98584056e+00,
          -2.59342313e-31, 3.45895910e+00, -7.85176636e+28,
          3.11820269e+00, 0., 0., 0., 0., 1.67990613e+21, 3.24729538e+00,
          0., 3.50000000e+00, 1.64867833e+24, 3.29494190e+00,
          -5.11682779e-02, 3.23584008e+00, -1.06270904e+30,
          3.07097960e+00, 0., 3.50000000e+00, 0., 3.50000000e+00, 0.,
          3.50000000e+00, -2.39274321e+23, 3.36216354e+00, 0.,
          3.50000000e+00, 27912406., 3.42013550e+00, -3.14681060e+15,
          3.21258855e+00, -8.33020987e+13, 3.32371068e+00,
          3.79488564e+25, 3.14726472e+00, 0., 0., 0., 0.,
          -6.94074253e+24, 3.00199270e+00, 0., 3.50000000e+00,
          1.39061263e-09, 3.41510582e+00, -2.51561362e+15,
          3.30083847e+00, 7.22358272e+37, 3.46082258e+00, 0.,
          3.50000000e+00, 0., 3.50000000e+00, 0., 3.50000000e+00, 0.,
          3.50000000e+00, 0., 3.50000000e+00, -2.48066385e-06,
          3.13344216e+00, -2.32305629e-20, 3.30519462e+00, 0.,
          3.50000000e+00, 8.25324116e+25, 3.22890472e+00, 1.85552453e+05,
          2.92295361e+00, 0., 0., 1.55894755e-04, 3.15099692e+00, 0.,
          3.50000000e+00, 5.16617659e-28, 3.39268732e+00, 0.,
          3.50000000e+00, 0., 3.50000000e+00, 0., 3.50000000e+00,
          -3.38097122e+34, 3.44277620e+00, 2.93676567e-16,
          3.26512265e+00, 0., 3.50000000e+00, 0., 3.50000000e+00,
          -1.90175709e-21, 3.36819792e+00, -6.46391875e+04,
          3.08184052e+00, 0., 3.50000000e+00, -2.33791510e-29,
          3.47206378e+00, 1.27113701e-14, 3.22890186e+00, 0., 0.,
          -8.76542873e+24, 3.07163715e+00 ]
      - [ 0., 3.50000000e+00, 0., 3.50000000e+00, 1.06363460e+32,
          2.88118243e+00, -1.16669384e+26, 2.86855412e+00, 0.,
          3.50000000e+00, 6.72676579e-37, 3.25862646e+00,
          -6.04744663e+10, 3.21258855e+00, 3.88596282e-33,
          3.31294513e+00, -1.43648159e-19, 3.44579220e+00,
          4.47951685e-29, 3.02904534e+00, 2.37603219e+35, 3.01035523e+00,
          -7.86629080e-15, 3.49487305e+00, 5.55104685e+00,
          3.01361179e+00, 0., 0., 0., 0., -2.06745827e+36,
          3.49473619e+00, -1.20051622e-39, 3.43786764e+00,
          1.93039923e-21, 3.46616793e+00, 1.23240980e-19, 3.40270686e+00,
          4.13349290e+15, 3.13498902e+00, 0., 3.50000000e+00, 0.,
          3.50000000e+00, -1.14880786e+35, 3.26035690e+00, 0.,
          3.50000000e+00, 0., 3.50000000e+00, -1.49653087e-14,
          3.31316328e+00, 4.53682199e-29, 3.02904534e+00, 6.21655386e+19,
          3.49477696e+00, 782124736., 3.18821001e+00, 0., 0., 0., 0.,
          2.41150575e-28, 3.49363804e+00, -3.40606434e-24,
          3.10978651e+00, 3.69197026e+36, 3.07059765e+00,
          -7.89687107e+19, 3.48128033e+00, -1.61527790e-12,
          3.49003267e+00, 0., 3.50000000e+00, -3.69732635e+02,
          3.28533840e+00, 0., 3.50000000e+00, 0., 3.50000000e+00, 0.,
          3.50000000e+00, -5.69945156e+04, 3.08184052e+00,
          -6.18100348e+37, 3.27526999e+00, 0., 3.50000000e+00,
          6.77057547e-18, 3.29525375e+00, 0., 0., 0., 0., 9.46001114e-23,
          3.18822026e+00, 1.38010694e-06, 2.88903975e+00, 0., 0.,
          -3.38873241e+30, 3.41733813e+00, 0., 3.50000000e+00,
          9.77231487e-36, 3.38503551e+00, -3.40017090e+02,
          2.77904177e+00, -9.42581954e+21, 3.37963700e+00, 0.,
          3.50000000e+00, 0., 3.50000000e+00, -3.40017090e+02,
          2.77904177e+00, -1.93580721e-21, 3.11819792e+00, 0.,
          3.50000000e+00, 1.85358436e+21, 3.44489145e+00, 0., 0., 0., 0.,
          -3.11149593e+11, 3.27909636e+00 ]
      - [ 0., 3.50000000e+00, 0., 3.50000000e+00, -2.60495732e+23,
          3.29212332e+00, -5.66343673e-12, 3.22891736e+00, 0.,
          3.50000000e+00, -4.13715158e+20, 3.43166733e+00,
          -4.73297364e+16, 3.14462471e+00, 2.23139541e+25,
          3.49577665e+00, 0., 3.50000000e+00, 5.24376519e-30,
          3.02909636e+00, -1.66874480e-21, 2.86819792e+00, 0.,
          3.50000000e+00, -1.21817981e+26, 3.01423979e+00, 0., 0., 0.,
          0., 0., 3.50000000e+00, 0., 3.50000000e+00, 0., 3.50000000e+00,
          0., 3.50000000e+00, 1.01621777e-25, 3.17353415e+00, 0.,
          3.50000000e+00, 0., 3.50000000e+00, 4.38780562e-18,
          3.41858172e+00, 0., 3.50000000e+00, 0., 3.50000000e+00,
          1.02420451e-07, 3.33881092e+00, 1.33564947e+15, 3.02904868e+00,
          0., 3.50000000e+00, -9.67413860e-37, 3.16756916e+00,
          -4.63947852e+04, 2.77904177e+00, 0., 0., -2.22104423e-33,
          3.30251932e+00, -1.16625187e-18, 3.33863473e+00,
          -1.40139571e-08, 3.41704345e+00, 0., 3.50000000e+00,
          -3.07510989e-10, 3.49003267e+00, 0., 3.50000000e+00,
          -4.49825464e-29, 3.37278962e+00, 0., 3.50000000e+00, 0.,
          3.50000000e+00, 0., 3.50000000e+00, 1.23952968e+12,
          3.15858364e+00, -3.03516947e-23, 3.28243494e+00, 0.,
          3.50000000e+00, -1.13310224e-26, 3.27506852e+00,
          1.08945804e+23, 3.31323624e+00, 0., 0., 3.17249731e+27,
          3.14793921e+00, -2.03256888e+36, 3.01055741e+00,
          5.08993203e+04, 3.30543137e+00, 1.46142446e+11, 3.47646070e+00,
          0., 3.50000000e+00, 1.31725550e+01, 3.43542123e+00,
          9.12951236e+17, 2.78888226e+00, 2.60720525e+27, 3.34354687e+00,
          0., 3.50000000e+00, 0., 3.50000000e+00, 4.61312077e+35,
          3.13119173e+00, -1.61681357e-32, 3.15854120e+00,
          1.18285095e+02, 3.49532056e+00, -2.60436476e-37,
          3.37232900e+00, -3.94230442e-35, 3.35652113e+00, 0., 0.,
          -2.38973456e-28, 3.21261930e+00 ]
      - [ 0., 3.50000000e+00, 0., 3.50000000e+00, 0., 0., 1.73417173e-22,
          2.93983984e+00, 0., 3.50000000e+00, -1.07719024e-27,
          3.29491806e+00, 0., 0., -1.72734051e+01, 3.40385175e+00, 0.,
          3.50000000e+00, -126035680., 2.98602915e+00, 0., 0., 0.,
          3.50000000e+00, -1.21872555e-36, 3.07079577e+00, 0., 0., 0.,
          0., 0., 3.50000000e+00, 0., 3.50000000e+00, -438033120.,
          3.33890009e+00, 1.20609837e-15, 3.14462495e+00, 2.32219263e-05,
          3.10621357e+00, 9.72270367e-19, 3.49975109e+00, 0.,
          3.50000000e+00, 1.77472674e-13, 3.22890186e+00, 0.,
          3.50000000e+00, 0., 3.50000000e+00, 3.19344940e+01,
          3.37048697e+00, 1.03199227e+30, 3.01327634e+00, 0.,
          3.50000000e+00, 4.09535659e+13, 3.16156816e+00, 0., 0., 0., 0.,
          3.27886740e-09, 3.48082232e+00, -28764772., 3.44862294e+00,
          2.86378593e-18, 3.23584032e+00, 0., 3.50000000e+00,
          -2.97042970e+34, 3.04098988e+00, 0., 3.50000000e+00,
          1.18687988e+04, 3.48584723e+00, 0., 3.50000000e+00, 0.,
          3.50000000e+00, 0., 3.50000000e+00, -4.79679074e-36,
          3.13136768e+00, -1.89923594e+21, 3.36820459e+00, 0.,
          3.50000000e+00, 9.50153418e+25, 3.37724566e+00, 0., 0., 0., 0.,
          3.79361345e-34, 3.21362138e+00, -1.21244810e-08,
          3.00199294e+00, 0., 0., 0., 3.50000000e+00, -1.98317511e+31,
          3.29216886e+00, -3.04732788e-27, 3.39642525e+00,
          -5.00522422e+04, 2.77904177e+00, -4.16395234e+13,
          3.36386633e+00, 0., 3.50000000e+00, 0., 3.50000000e+00, 0., 0.,
          -5.06113748e-31, 3.15854120e+00, 0., 3.50000000e+00,
          -8.66512766e+15, 3.48584008e+00, 0., 0., 0., 0.,
          6.01302236e-02, 3.33863473e+00 ]
      - [ 1.65057712e+28, 3.19709897e+00, 0., 3.50000000e+00,
          2.01474250e+05, 2.92295361e+00, 1.40310545e+01, 3.01056981e+00,
          0., 3.50000000e+00, -3.84888573e+01, 3.30909395e+00, 0., 0.,
          1.38835659e-18, 3.48417473e+00, 0., 3.50000000e+00,
          -5.51955430e+04, 3.02904177e+00, 0., 0., 0., 3.50000000e+00,
          2.42433914e+19, 3.00225043e+00, 0., 0., 0., 0.,
          -5.21492215e-37, 3.46444368e+00, 1.87279206e+33,
          3.01039362e+00, 8.75282582e-28, 3.42770696e+00, 1.53219177e+03,
          3.43334961e+00, -331666976., 3.10779619e+00, 1.35754887e-18,
          3.38916016e+00, 0., 3.50000000e+00, -1.66151560e-14,
          3.17544651e+00, 0., 3.50000000e+00, 0., 3.50000000e+00,
          5.43870343e-18, 3.31840205e+00, -1.54009600e-21,
          2.86819792e+00, 1.00680156e-23, 3.46439338e+00,
          -1.10654109e+25, 3.11856818e+00, 0., 0., 0., 0.,
          -5.08731447e+36, 3.26568723e+00, -1.18146867e+11,
          3.08193946e+00, 2.84809564e+30, 2.88118243e+00, 0.,
          3.50000000e+00, -4.79999130e-32, 3.07157159e+00,
          6.18169316e+13, 3.49574876e+00, 1.55148286e+20, 3.28888226e+00,
          0., 3.50000000e+00, -3.66136396e+33, 3.39976311e+00,
          3.17193605e-26, 3.45578623e+00, 2.21196231e+18, 3.07053494e+00,
          9.53773874e+34, 3.28475666e+00, 1.08543823e-07, 3.47028017e+00,
          -1.05237598e-06, 3.23584604e+00, -3.40017090e+02,
          2.77904177e+00, 0., 0., -2.15839200e-40, 3.05999041e+00,
          -1.25318399e-30, 2.88129377e+00, 0., 0., 0., 3.50000000e+00,
          9.05729565e-33, 3.33653116e+00, 1.22234323e-05, 3.43703318e+00,
          -3.40017090e+02, 2.77904177e+00, 3.37407557e-27,
          3.39203453e+00, 0., 3.50000000e+00, 0., 3.50000000e+00, 0., 0.,
          1.53166150e-24, 3.21929073e+00, -2.97386390e+32,
          3.49907374e+00, 0., 3.50000000e+00, 0., 0., 0., 0.,
          -5.39215221e-38, 2.92873836e+00 ]
      - [ -6.34571566e+36, 3.35970211e+00, 0., 3.50000000e+00,
          2.40214213e+22, 3.07053518e+00, 6.88520087e+15, 3.01095247e+00,
          0., 3.50000000e+00, -3.14226185e+18, 3.33985925e+00,
          2.22158406e+11, 3.39335346e+00, 2.34673795e-37, 3.41853142e+00,
          5.54895859e+04, 3.44687462e+00, -2.23205130e+13,
          3.02904177e+00, -1.51295307e-32, 3.15854120e+00,
          -7.17674589e+00, 3.44282818e+00, -1.63169898e+32,
          3.01055717e+00, 0., 0., 0., 0., -6.70710860e-36,
          3.04906964e+00, 3.40073390e-12, 3.03145576e+00, 0.,
          3.50000000e+00, -1.02974632e-15, 3.40095854e+00,
          1.72804437e-06, 3.03360343e+00, 3.62690055e+22, 3.37511516e+00,
          0., 3.50000000e+00, -10427592., 3.26036310e+00,
          -1.01766030e-26, 3.36487174e+00, 0., 3.50000000e+00,
          7.16735074e-38, 3.31841540e+00, 4.55882092e-29, 3.02904534e+00,
          -2.44610494e-14, 3.31079245e+00, -2.02169726e+12,
          3.13235712e+00, 0., 0., 0., 0., -3.35072126e-31,
          2.92296386e+00, -1.19411709e+34, 3.07163692e+00,
          -9.71538484e-01, 3.39054894e+00, -1.28578902e+30,
          3.45330477e+00, -8.48268020e-29, 3.05021191e+00, 0.,
          3.50000000e+00, -1.11908177e+18, 3.28519559e+00, 0.,
          3.50000000e+00, 1.26105689e+15, 3.41071677e+00, 0.,
          3.50000000e+00, -5.64508906e+04, 3.08184052e+00,
          -3.19739819e+01, 3.28221655e+00, 0., 3.50000000e+00,
          -4.56145657e+27, 3.23733735e+00, 0., 0., 0., 0.,
          4.11922944e+09, 3.15917039e+00, -1793141376., 3.10621238e+00,
          0., 0., 1.90281067e+03, 3.35984182e+00, -2.24184156e+05,
          3.38556457e+00, 0., 3.50000000e+00, 9.12951236e+17,
          2.78888226e+00, -3.76328483e+30, 3.39465380e+00, 0.,
          3.50000000e+00, 0., 3.50000000e+00, -4.30292815e-19,
          2.92294836e+00, -1.14350248e+38, 3.26568723e+00, 0.,
          3.50000000e+00, 2.37322924e-33, 3.49004793e+00, 0., 0., 0., 0.,
          -2.27319024e+26, 3.08867860e+00 ]
      - [ 0., 3.50000000e+00, 0., 3.50000000e+00, 1.19492645e-11,
          3.41509843e+00, 8.03009597e+24, 2.92548347e+00, 0.,
          3.50000000e+00, 1.52961957e-06, 3.42014432e+00, 7.42539448e+15,
          3.07053494e+00, -2089720832., 3.37051845e+00, 2.88197309e-12,
          3.46664762e+00, 11043557., 2.98584056e+00, 0., 0., 0.,
          3.50000000e+00, -1.89902876e-13, 3.00340438e+00, 0., 0., 0.,
          0., 0., 3.50000000e+00, 0., 3.50000000e+00, 0., 3.50000000e+00,
          0., 3.50000000e+00, -1.24062502e+00, 3.05426669e+00, 0.,
          3.50000000e+00, 0., 3.50000000e+00, 0., 3.50000000e+00, 0.,
          3.50000000e+00, 0., 3.50000000e+00, -1.72562240e-29,
          3.31309009e+00, -7.27101593e+01, 3.01036787e+00, 0.,
          3.50000000e+00, -1.64948764e+13, 3.29912186e+00, 0., 0., 0.,
          0., -7.64503027e+03, 3.40433073e+00, 0., 3.50000000e+00,
          3.86313393e+20, 3.28888226e+00, 0., 3.50000000e+00,
          2.05289426e-19, 3.46061325e+00, 0., 3.50000000e+00, 0.,
          3.50000000e+00, 0., 3.50000000e+00, 0., 3.50000000e+00, 0.,
          3.50000000e+00, -3.48939969e+05, 3.13343382e+00,
          4.07932215e-29, 3.30782843e+00, 0., 3.50000000e+00,
          -2.48610051e+35, 3.44703388e+00, 0., 0., 0., 0.,
          7.52266090e-22, 3.18883085e+00, -3.29525896e-24,
          3.26035523e+00, 1.24850546e+19, 2.78888226e+00, 1.50737672e-33,
          3.36295748e+00, 0., 3.50000000e+00, -1.94140196e-01,
          3.44919682e+00, -5.36959590e-19, 2.92294836e+00, .Nan,
          3.38548255e+00, 0., 3.50000000e+00, 0., 3.50000000e+00, 0., 0.,
          -1.65443900e+36, 3.17294860e+00, 0., 3.50000000e+00,
          6.84834793e-02, 3.37956357e+00, 0., 0., 0., 0.,
          -4.42319094e+05, 3.43494987e+00 ]
      - [ -8.50755072e+09, 3.36296988e+00, 0., 3.50000000e+00,
          4.52376855e+24, 3.28888226e+00, -4.19893956e+16,
          3.01079321e+00, 0., 3.50000000e+00, 8.49865656e-03,
          3.30387664e+00, -3.40017090e+02, 2.77904177e+00,
          -2.21926246e+32, 3.48408628e+00, -1.06404699e+33,
          3.45431614e+00, 10432267., 2.98584056e+00, 0., 0., 0.,
          3.50000000e+00, -2.38801170e-30, 2.92771459e+00, 0., 0., 0.,
          0., 0., 3.50000000e+00, 0., 3.50000000e+00, -3.77865535e-22,
          3.37931180e+00, 0., 3.50000000e+00, -1.55019499e-18,
          3.17335987e+00, -1.17591094e+17, 3.46325517e+00, 0.,
          3.50000000e+00, -1.21080738e-17, 3.40095854e+00, 0.,
          3.50000000e+00, 0., 3.50000000e+00, -4.08855292e-25,
          3.33556247e+00, 2.16394880e-24, 2.92423248e+00, 0.,
          3.50000000e+00, -4.05010300e+01, 3.18500805e+00, 0., 0., 0.,
          0., 6.39486046e-08, 3.20339918e+00, 6.27875174e+09,
          3.38730049e+00, 3.67486523e-31, 3.10565591e+00, 2.31619350e+36,
          3.48584533e+00, -1.00335473e+34, 3.13501763e+00, 0.,
          3.50000000e+00, -3.80016201e-12, 3.38382936e+00, 0.,
          3.50000000e+00, 1.10977749e-06, 3.41460371e+00, 0.,
          3.50000000e+00, 1.14412995e+33, 3.11820245e+00, 2.47420406e+33,
          3.31840253e+00, 0., 3.50000000e+00, -2.25441996e-12,
          3.18167114e+00, 0., 0., 0., 0., -3.67695469e+12,
          3.14528155e+00, -4.20107361e+12, 2.99011374e+00, 0., 0.,
          1.87664395e-04, 3.37233043e+00, 5.38617073e+31, 3.43961048e+00,
          0., 3.50000000e+00, 0., 0., 4.01267819e-09, 3.43334460e+00, 0.,
          3.50000000e+00, 0., 3.50000000e+00, -3.40017090e+02,
          2.77904177e+00, -1.98514902e-27, 3.30519462e+00,
          -1.19473388e+06, 3.44188666e+00, 5.94523527e+25,
          3.43760633e+00, 0., 0., 0., 0., -6.11920106e+32,
          3.01348042e+00 ]
      - [ -8.52006290e+33, 3.49419308e+00, 0., 3.50000000e+00,
          -1.20302278e-31, 3.41858006e+00, .Nan, 2.88136768e+00, 0.,
          3.50000000e+00, -4.14515637e+20, 3.25952315e+00,
          2.01007558e+33, 3.01035523e+00, -1.88883159e-36,
          3.39001608e+00, 0., 3.50000000e+00, -6.49216662e-21,
          3.04997754e+00, 0., 0., 0., 3.50000000e+00, -1.12921438e-20,
          3.02995634e+00, 0., 0., 0., 0., 0., 3.50000000e+00, 0.,
          3.50000000e+00, -1.60532952e+25, 3.26662588e+00, 0.,
          3.50000000e+00, -1.44873656e+05, 3.10334015e+00, 0.,
          3.50000000e+00, 0., 3.50000000e+00, 3.70809943e-08,
          3.49363828e+00, 0., 3.50000000e+00, 0., 3.50000000e+00,
          1.06378317e+12, 3.33628249e+00, 7.74070351e+33, 3.07059741e+00,
          0., 3.50000000e+00, -2.58575391e+30, 3.13743091e+00,
          -2.01412045e-24, 2.86819792e+00, 0., 0., -1.05288847e-20,
          3.47206569e+00, -5.35377937e+30, 3.40722489e+00,
          -6.02832713e-25, 3.10569048e+00, 0., 3.50000000e+00,
          1.11632017e-19, 3.40270686e+00, 0., 3.50000000e+00,
          1.46198068e-02, 3.40270686e+00, 0., 3.50000000e+00, 0.,
          3.50000000e+00, 0., 3.50000000e+00, -3.24025692e-36,
          3.13119173e+00, -1.87281971e+19, 3.28647161e+00, 0.,
          3.50000000e+00, -3.55657031e+22, 3.36294842e+00,
          -5.77402716e-06, 2.98584008e+00, 0., 0., -5.00125838e+26,
          3.26570678e+00, -4.50142423e-25, 3.01096463e+00, 0., 0., 0.,
          3.50000000e+00, 0., 3.50000000e+00, -5.10807240e-06,
          3.39758801e+00, 0., 0., 2.90983056e-37, 3.38735557e+00, 0.,
          3.50000000e+00, 0., 3.50000000e+00, 0., 0., -2.01859125e-29,
          3.15854120e+00, 0., 3.50000000e+00, 0., 3.50000000e+00, 0., 0.,
          0., 0., 5.87558681e+30, 3.30961633e+00 ]
      - [ -9.90105621e-15, 3.40730309e+00, 2.34693341e-13,
          3.46658063e+00, -6.80360157e-15, 3.42544651e+00,
          9.00459481e+24, 2.93920302e+00, 0., 3.50000000e+00,
          5.82020903e-07, 3.28281975e+00, 2.89842492e-34, 3.26568747e+00,
          -1.35237101e-22, 3.48622990e+00, -4.00307650e+06,
          3.33465767e+00, 1.99357264e-16, 3.04907155e+00, 2.24242904e+37,
          3.04906964e+00, 0., 3.50000000e+00, -7.55096217e-19,
          3.02910304e+00, 0., 0., 0., 0., 0., 3.50000000e+00,
          -1.29514325e-11, 3.49872398e+00, 0., 3.50000000e+00, 0.,
          3.50000000e+00, 7.94119187e-22, 3.09372663e+00, 0.,
          3.50000000e+00, 0., 3.50000000e+00, -3.01457712e-33,
          3.44683123e+00, 0., 3.50000000e+00, 0., 3.50000000e+00,
          -2.47174532e+36, 3.30529356e+00, -3.26829918e+22,
          3.01035523e+00, 1.75309278e-08, 3.48266339e+00, 3.81226987e-02,
          3.19780207e+00, 0., 0., 0., 0., -4.54974314e-35,
          3.28888226e+00, 1.49811245e-36, 3.40582275e+00,
          -8.54239132e+13, 3.39058995e+00, 0., 3.50000000e+00,
          1.04165303e-30, 3.01328683e+00, 4.53238016e+21, 3.43256831e+00,
          -2.42939792e+14, 3.37045360e+00, 0., 3.50000000e+00,
          4.33375392e-21, 3.33405113e+00, 3.50473864e+25, 3.36814475e+00,
          8.22000650e+06, 3.07151175e+00, -4.96373910e+30,
          3.26095366e+00, 0., 3.50000000e+00, 9.27250404e-38,
          3.18983006e+00, 0., 0., 0., 0., 2.43698138e+29, 3.22682524e+00,
          1.20830476e+33, 2.99011445e+00, 2.32581202e-24, 3.26953673e+00,
          7.19377297e+19, 3.37410760e+00, 7.00461206e+28, 3.20334911e+00,
          -1.25357258e-13, 3.46414900e+00, 0., 0., 2.42223056e-20,
          3.38549685e+00, -6.54915445e-12, 3.49995875e+00, 0.,
          3.50000000e+00, 0., 0., 1.31038709e-08, 3.19683123e+00, 0.,
          3.50000000e+00, -5.60734675e+20, 3.45721674e+00, 0., 0., 0.,
          0., -3.09298241e-33, 3.11146688e+00 ]
      - [ 0., 3.50000000e+00, 0., 3.50000000e+00, -5.92041588e+00,
          3.39199877e+00, 3.96562963e-28, 2.99011517e+00, 0.,
          3.50000000e+00, 1.67182474e-38, 3.27261400e+00,
          -5.77402716e-06, 2.98584008e+00, 8.54736906e-11,
          3.45636630e+00, 7.52180815e-13, 3.47329545e+00,
          -5.11188441e-33, 3.01343989e+00, 0., 0., 0., 3.50000000e+00,
          2.02056037e-13, 3.05106950e+00, 0., 0., 0., 0., 0.,
          3.50000000e+00, -2.21447830e+38, 3.47334027e+00, 0.,
          3.50000000e+00, 0., 3.50000000e+00, 6.02147606e-33,
          3.11308765e+00, 0., 3.50000000e+00, 0., 3.50000000e+00,
          -8.93571066e+37, 3.44277620e+00, 0., 3.50000000e+00, 0.,
          3.50000000e+00, 6.87076760e-38, 3.33589292e+00, -128886496.,
          2.98602915e+00, 0., 3.50000000e+00, 9.15320590e-02,
          3.22682834e+00, 0., 0., 0., 0., -1.64940754e-08,
          3.32986784e+00, -1.64642185e-01, 3.39199877e+00,
          -8.59558373e-26, 3.13234401e+00, 0., 3.50000000e+00,
          -1.19233346e-06, 3.49129105e+00, 0., 3.50000000e+00,
          -1.06822788e-29, 3.40856051e+00, 0., 3.50000000e+00, 0.,
          3.50000000e+00, 0., 3.50000000e+00, -8.59280814e-22,
          3.08382750e+00, -147814480., 3.29911423e+00, 0.,
          3.50000000e+00, -1.18806529e-08, 3.35057878e+00, 0., 0., 0.,
          0., -2.66216546e-13, 3.19887304e+00, -8.41110465e-32,
          2.92770624e+00, 0., 0., 1.57650140e+27, 3.45128489e+00, 0.,
          3.50000000e+00, 1.26089668e-04, 3.42334962e+00,
          -5.00522422e+04, 2.77904177e+00, -3.30430812e+05,
          3.37143731e+00, 0., 3.50000000e+00, 0., 3.50000000e+00, 0., 0.,
          -1.84872981e+23, 3.18161035e+00, 0., 3.50000000e+00, 0.,
          3.50000000e+00, 0., 0., 0., 0., 9.47942575e+17, 3.09741068e+00 ]
      - [ 0., 3.50000000e+00, 0., 3.50000000e+00, 2.58411982e+17,
          3.42158580e+00, -4.56173781e-29, 2.80519462e+00, 0.,
          3.50000000e+00, 2.01407429e-02, 3.33199263e+00,
          -3.40017090e+02, 3.02904177e+00, 2.89437766e-21,
          3.41545320e+00, 0., 3.50000000e+00, -2.64289526e+10,
          3.08183861e+00, 0., 0., 0., 3.50000000e+00, -1.46503009e-34,
          3.06010818e+00, 0., 0., 0., 0., 0., 3.50000000e+00, 0.,
          3.50000000e+00, 0., 3.50000000e+00, 0., 3.50000000e+00,
          3.36485376e+03, 3.08909464e+00, 0., 3.50000000e+00, 0.,
          3.50000000e+00, 4.70251117e-30, 3.49363804e+00, 0.,
          3.50000000e+00, 0., 3.50000000e+00, 5.84296714e-30,
          3.38546491e+00, 1.72919425e-33, 2.98731518e+00, 0.,
          3.50000000e+00, 1.01484040e+34, 3.26065731e+00, 0., 0., 0., 0.,
          0., 3.50000000e+00, 1.53198773e-11, 3.48082232e+00,
          2.86785671e-08, 3.13233972e+00, 0., 3.50000000e+00,
          2.82630377e+32, 3.45184445e+00, -1.27895590e+16,
          3.46519852e+00, -6.29354364e-25, 3.47206473e+00, 0.,
          3.50000000e+00, 0., 3.50000000e+00, 2.50491739e+24,
          3.40859818e+00, -1.52450225e-21, 3.11819792e+00,
          -1.54584900e-34, 3.37037277e+00, 0., 3.50000000e+00,
          1.17304628e-08, 3.22395563e+00, 0., 0., 0., 0.,
          -6.30518996e-27, 3.11971521e+00, -2.39600248e+16,
          2.93920040e+00, 0., 0., 0., 3.50000000e+00, 0., 3.50000000e+00,
          1.48423697e+21, 3.43013859e+00, -5.14237891e+04,
          2.77904177e+00, 8.99017423e-19, 3.32783055e+00, 0.,
          3.50000000e+00, 0., 3.50000000e+00, 0., 0., 1.22230333e-08,
          3.19683123e+00, 1.43069152e+14, 3.49331403e+00, 0.,
          3.50000000e+00, 0., 0., 0., 0., 4.99182033e-12, 3.21931648e+00 ]
      - [ 4.78832847e+32, 3.40097570e+00, -1.13116461e+14,
          3.48870969e+00, 2.36697318e+09, 3.27505684e+00, 5.89244604e+00,
          2.93919802e+00, 0., 3.50000000e+00, 3.42420122e+27,
          3.29230499e+00, -3.40017090e+02, 2.77904177e+00,
          -2.98714085e+29, 3.43216228e+00, 0., 3.50000000e+00, 11094525.,
          2.98584056e+00, 0., 0., 0., 3.50000000e+00, -3.06929711e+26,
          2.99019456e+00, 0., 0., 0., 0., 1.05662667e+29, 3.43503475e+00,
          0., 3.50000000e+00, -5.76221917e+23, 3.20840859e+00, 0.,
          3.50000000e+00, -1.18933762e-16, 3.12261796e+00, 0.,
          3.50000000e+00, 0., 3.50000000e+00, 1.41475211e-22,
          3.33556199e+00, 0., 3.50000000e+00, 0., 3.50000000e+00,
          -5.22247879e-20, 3.29479885e+00, 1.22852195e+19,
          2.78888226e+00, 0., 3.50000000e+00, -1.32750961e-16,
          3.10641408e+00, 0., 0., 0., 0., -4.10737768e-02,
          3.14463091e+00, -4.98960439e-24, 3.35964608e+00,
          -2.62085003e-08, 2.93786359e+00, -1.79030047e-25,
          3.48431897e+00, 7.25766602e+03, 3.37037277e+00, 0.,
          3.50000000e+00, 4.89144468e+28, 3.30961633e+00, 0.,
          3.50000000e+00, 0., 3.50000000e+00, 0., 3.50000000e+00,
          2.06913291e+22, 3.07053518e+00, -1.20432010e-23,
          3.25663710e+00, 0., 3.50000000e+00, 2.34081523e-36,
          3.07078409e+00, 0., 0., 0., 0., 4.08832331e-24, 3.11028171e+00,
          -126566648., 2.98602915e+00, 0., 0., 1.29980814e+00,
          3.37100577e+00, 0., 3.50000000e+00, -1.78592511e+37,
          3.38699746e+00, -3.40017090e+02, 2.77904177e+00,
          -4.20653095e-07, 3.36294127e+00, 0., 3.50000000e+00, 0.,
          3.50000000e+00, 0., 0., 1.15351098e+32, 3.13118243e+00, 0.,
          3.50000000e+00, -1.96383965e-10, 3.37724543e+00, 0., 0., 0.,
          0., -1.24026127e-29, 3.04977202e+00 ]
      - [ 0., 0., 1.63951920e-43, 1.66754517e-43, 0., 0., 3.04994270e-37,
          4.59163468e-41, 0., 3.50000000e+00, 3.85801519e+12,
          3.29810810e+00, 1.73761010e-43, 3.38343382e+00,
          -4.83029820e-29, 3.49994826e+00, 5.15613849e+20,
          3.47001672e+00, 1.43323719e+13, 3.04907060e+00,
          -4.01985918e+16, 3.14462471e+00, 0., 3.50000000e+00,
          -4.73420312e-20, 3.08187318e+00, .Nan, 4.58855182e-41,
          4.45220548e-41, 0., 3.05009359e-37, 4.59163468e-41,
          4.44828185e-41, 0., 2.28759438e-38, 4.58869195e-41,
          8.94540735e-39, 0., .Nan, 4.58855182e-41, -1.32557320e+36,
          3.47988129e+00, 2.27855348e-38, 4.58869195e-41, 8.68805048e-44,
          0., 2.41968820e-38, 4.58869195e-41, 0., 3.50000000e+00,
          -2.02773709e-09, 3.34126902e+00, 7.32024658e+03,
          3.02915049e+00, 0., 3.50000000e+00, 6.15371935e-15,
          3.15982866e+00, 0., 0., 0., 0., -1.02818420e-10,
          3.31309128e+00, 5.71002438e+05, 3.33183861e+00, 4.90768137e-09,
          3.08872271e+00, 0., 3.50000000e+00, -8.53275130e+24,
          3.22896457e+00, 2.06238274e-36, 3.49027586e+00, 1.32811505e-14,
          3.36581922e+00, 0., 3.50000000e+00, 3.05008642e-37,
          4.59163468e-41, 8.94539614e-39, 0., 5.74532370e-44, 0.,
          3.05003978e-37, 4.59163468e-41, 7.00649232e-45, 0.,
          3.05008642e-37, 4.59163468e-41, 2.32781375e-38, 4.58869195e-41,
          0., 0., -2.97787710e+31, 3.12576652e+00, .Nan, .Nan, 0., 0.,
          -3.33860181e+03, 3.49731135e+00, 3.05004337e-37,
          4.59163468e-41, 3.05003978e-37, 4.59163468e-41, 3.05003575e-37,
          4.59163468e-41, 3.05003597e-37, 4.59163468e-41, 2.80259693e-45,
          7.00649232e-45, 0., 3.50000000e+00, 5.60519386e-45, 0.,
          -1.11137091e-25, 3.28695989e+00, 4.33188507e+02,
          3.41463542e+00, -9.17745836e+28, 3.42985845e+00, 0., 0.,
          1.27875038e+02, 2.80259693e-45, 0., 1.79366203e-43 ]
      - [ 0., 3.50000000e+00, 0., 3.50000000e+00, -1.67314964e-26,
          3.35964608e+00, 3.07877312e-26, 2.88906503e+00, 0.,
          3.50000000e+00, -7.76177847e-17, 3.32713938e+00,
          -1.79563021e+31, 3.30755591e+00, 5.53123790e+17,
          3.45501566e+00, 0., 3.50000000e+00, -3.97332701e-31,
          3.04908514e+00, 2.17484856e+37, 3.04906964e+00, 0.,
          3.50000000e+00, 7.83020767e-32, 3.01584244e+00, 0., 0., 0., 0.,
          -2.49853363e+36, 3.42769361e+00, -1.38527942e+03,
          3.46449375e+00, 0., 3.50000000e+00, 0., 3.50000000e+00,
          5.73324981e-21, 3.03590512e+00, 0., 3.50000000e+00, 0.,
          3.50000000e+00, 2.86312833e-20, 3.42975974e+00, 0.,
          3.50000000e+00, 0., 3.50000000e+00, 1.07815576e-10,
          3.35565639e+00, 1.44432578e+13, 3.04907060e+00, 0.,
          3.50000000e+00, -3.72566750e+35, 3.21287417e+00, 0., 0., 0.,
          0., 71248016., 3.15271020e+00, -4.59419212e-23, 3.32963037e+00,
          -2.95735026e-06, 3.22455645e+00, 0., 3.50000000e+00,
          4.31714058e-15, 3.33556175e+00, 0., 3.50000000e+00,
          6.56129297e+03, 3.33184266e+00, 0., 3.50000000e+00, 0.,
          3.50000000e+00, 0., 3.50000000e+00, -7.48651019e-06,
          3.15854120e+00, -4.29789906e+05, 3.22951770e+00, 0.,
          3.50000000e+00, -2.01111805e-04, 3.13909650e+00, 0., 0., 0.,
          0., -6.29123906e-06, 3.19779038e+00, 1.51738819e-38,
          2.98593497e+00, -2.01412045e-24, 2.86819792e+00,
          -3.67756083e-25, 3.43649268e+00, 0., 3.50000000e+00,
          -110067664., 3.45285797e+00, 9.12951236e+17, 2.78888226e+00,
          1.80896843e-35, 3.30643940e+00, 0., 3.50000000e+00, 0.,
          3.50000000e+00, -1.32957984e-21, 2.86819792e+00,
          1.96804575e+06, 3.08183861e+00, 0., 3.50000000e+00, 0.,
          3.50000000e+00, 0., 0., 0., 0., 16489212., 3.08257055e+00 ]
      - [ -7.04022340e-10, 3.23804498e+00, 0., 3.50000000e+00, 0.,
          3.50000000e+00, 1.24928891e+25, 3.14472103e+00,
          -6.44627043e+19, 3.47682381e+00, 0., 3.50000000e+00,
          -3.44593597e-28, 3.45598245e+00, -1.35237407e+15,
          3.47705126e+00, 5.38683545e-14, 3.49975181e+00, 2.33081173e-14,
          3.34740591e+00, 1.33381302e-17, 3.27131653e+00, 0.,
          3.50000000e+00, 0., 3.50000000e+00, 4.21471241e-22,
          3.49962640e+00, 6.04258790e+29, 3.37731338e+00, 1.85005553e-02,
          3.38273406e+00, 1.86996057e+21, 3.02267218e+00, 0.,
          3.50000000e+00, 0., 3.50000000e+00, -5.52006967e-14,
          3.36931729e+00, -4.70125608e+17, 3.38608479e+00, 0.,
          3.50000000e+00, 0., 3.50000000e+00, 0., 3.50000000e+00, 0.,
          3.50000000e+00, -3.64321380e-07, 3.35410833e+00, 0.,
          3.50000000e+00, 0., 3.50000000e+00, 0., 3.50000000e+00,
          -2.46777600e+15, 3.46929145e+00, 0., 3.50000000e+00,
          -3.48738123e+28, 3.43498778e+00, -6.70331597e-01,
          3.30317712e+00, 0., 3.50000000e+00, 2.98988254e-23,
          3.48949909e+00, 1.02247305e+34, 3.38369846e+00, 0.,
          3.50000000e+00, 0., 3.50000000e+00, 0., 3.50000000e+00,
          1.28162073e+03, 3.46108985e+00, 0., 3.50000000e+00, 0.,
          3.50000000e+00, 4.17263815e-17, 3.34405613e+00, 0.,
          3.50000000e+00, -1.97585344e+00, 3.46672416e+00, 0.,
          3.50000000e+00, 1.24978602e+20, 3.44636106e+00,
          -4.55484397e-08, 3.48870993e+00, 5.54084301e+20,
          3.30968523e+00, -1.88024653e+25, 3.43786359e+00,
          -2.27408877e-24, 3.49485445e+00, -1.46553067e+32,
          3.37050653e+00, -8.33567028e-05, 3.39746308e+00,
          2.11362103e+36, 3.41095471e+00, 1.20831296e-33, 3.31626582e+00,
          0., 3.50000000e+00, 0., 3.50000000e+00, 4.47276211e+26,
          3.19712210e+00, -1.42927672e-19, 3.41509867e+00, 0.,
          3.50000000e+00, 1.38294162e+30, 3.49992251e+00,
          -3.35351424e+13, 3.45951033e+00, 7.20082705e-09,
          3.49680328e+00, -7.08281999e-34, 3.48871827e+00 ]
      - [ -7.41023012e-03, 3.49003267e+00, 0., 3.50000000e+00, 0.,
          3.50000000e+00, -1.71653717e+35, 3.37048483e+00, 0.,
          3.50000000e+00, 4.98707694e+11, 3.42183709e+00, 3.20399124e-07,
          3.44438076e+00, 3.96567420e-19, 3.38989878e+00, 9.29662194e+37,
          3.48699093e+00, 8.14073293e+09, 3.38546038e+00, 2.95045180e-24,
          3.34872985e+00, 0., 3.50000000e+00, -1.88201390e-39,
          3.43334126e+00, 8.70980621e-10, 3.46452951e+00, 9.31182346e+10,
          3.32709956e+00, 0., 3.50000000e+00, 8.31595177e-33,
          3.39462519e+00, 1.00164206e+06, 3.49554467e+00,
          -1.14512430e-25, 3.47686839e+00, -1.15578693e-23,
          3.48781013e+00, 0., 3.50000000e+00, 0., 3.50000000e+00, 0.,
          3.50000000e+00, -6.08469713e+35, 3.47954082e+00, 0.,
          3.50000000e+00, -1.84640028e+26, 3.46479607e+00,
          -2.27071700e+16, 3.48111105e+00, -6.47564453e+03,
          3.42504478e+00, -1.13698899e-13, 3.48271465e+00,
          -1.46191296e+03, 3.47571564e+00, 5.93811859e+34,
          3.01056981e+00, 9.38590039e+03, 3.49484158e+00, 1.88161115e+18,
          3.40758586e+00, 0., 3.50000000e+00, 2.84609680e+36,
          3.46636748e+00, 1.17502824e+33, 3.34465194e+00,
          -3.55281083e-31, 3.47696662e+00, 0., 3.50000000e+00, 0.,
          3.50000000e+00, 8.16447324e-29, 3.38750458e+00,
          -1.77125025e-06, 3.47633076e+00, 3.26159157e+18,
          3.49210596e+00, 5.28507115e+24, 3.48584223e+00, 0.,
          3.50000000e+00, 1.46396333e+32, 3.38401628e+00,
          -1.31967509e+00, 3.48584008e+00, 1.85129549e-22,
          3.28217268e+00, 5.41864449e+37, 3.46444488e+00, 1.85488042e+30,
          3.38080668e+00, -1.28623341e-32, 3.40957093e+00, 0.,
          3.50000000e+00, -1.45195418e-05, 3.41026664e+00,
          4.09793845e-17, 3.40792942e+00, -104635152., 3.47735882e+00,
          0., 3.50000000e+00, 0., 3.50000000e+00, 0., 3.50000000e+00,
          7.55292375e+05, 3.36574841e+00, 4.15369678e+36, 3.48105240e+00,
          1.41680359e-30, 3.44012213e+00, 0., 3.50000000e+00,
          1.80244627e+34, 3.46444368e+00, 1.43099716e+23, 3.33863473e+00,
          -3.53009277e+25, 3.46520019e+00 ]
      - [ 0., 3.50000000e+00, 0., 3.50000000e+00, 644432768.,
          3.39318991e+00, -42609276., 3.35057688e+00, 0., 3.50000000e+00,
          1.10636400e-29, 3.42545485e+00, -1.71448717e+18,
          3.45107913e+00, -3.28490284e-25, 3.32664585e+00,
          7.75460766e-29, 3.40439844e+00, -8.02592184e-29,
          3.35329127e+00, 1.15704797e+19, 3.32053494e+00, 0.,
          3.50000000e+00, -4.00632992e+15, 3.00192189e+00,
          2.75560358e-20, 3.40861225e+00, 8.12308750e+06, 3.37250280e+00,
          5.39945752e+03, 3.49539685e+00, -1.39304628e+01,
          3.38234615e+00, 0., 3.50000000e+00, -7.52086096e+22,
          3.32605004e+00, 1.03522406e+20, 3.47682285e+00, 0.,
          3.50000000e+00, 0., 3.50000000e+00, 0., 3.50000000e+00,
          8.95519698e+37, 3.49314594e+00, 0., 3.50000000e+00,
          1.25001237e+32, 3.43860006e+00, 2.38132282e-27, 3.43161058e+00,
          -1.16670099e-32, 3.49920630e+00, 1.04795062e-16,
          3.30521536e+00, -2.37656676e-14, 3.41509843e+00,
          -3.06271382e+38, 3.49871850e+00, -1.56220314e-10,
          3.49249148e+00, -6.39577024e-03, 3.44067812e+00,
          -5.64759368e+29, 3.46959901e+00, -2.33128911e-17,
          3.38205719e+00, 3.03349066e-27, 3.46452737e+00, 0.,
          3.50000000e+00, 0., 3.50000000e+00, 0., 3.50000000e+00, 0.,
          3.50000000e+00, -7.69609941e-36, 3.45338321e+00,
          -6.76313616e-16, 3.46929240e+00, 2.87961266e+28,
          3.47682667e+00, 0., 3.50000000e+00, 5.70372200e-14,
          3.40854192e+00, 1.17046906e+38, 3.37037373e+00,
          -1.58281234e+05, 3.28696084e+00, -2.78992638e+22,
          3.39055157e+00, 2.45582008e-08, 3.33063364e+00, 2.36404628e+30,
          3.35885358e+00, -1.04642222e+10, 3.42835426e+00,
          -3.27835771e+10, 3.46621323e+00, -6.73704178e-19,
          3.38207054e+00, 8.67314225e-17, 3.41975570e+00,
          -1.03398378e+15, 3.37323952e+00, 3.41370416e-08,
          3.49380493e+00, 0., 3.50000000e+00, 2.02791702e+02,
          3.33863473e+00, -5.31146145e+00, 3.39199877e+00,
          5.09969876e-18, 3.41699052e+00, 5.39304241e+18, 3.49446774e+00,
          -1.91853602e+31, 3.43982983e+00, -1.18393690e-32,
          3.15854120e+00, 9.44682631e-30, 3.39991522e+00 ]
      - [ 0., 3.50000000e+00, 6.70276137e+21, 3.45609498e+00,
          2.75994678e+03, 3.39464998e+00, -7.36828320e-20,
          3.15855241e+00, 0., 3.50000000e+00, -1.18921044e+36,
          3.40101647e+00, -3.23122627e+12, 3.48260713e+00,
          9.86482018e+31, 3.39397931e+00, -7.39599102e-08,
          3.39389586e+00, -1.38891673e+00, 3.29212618e+00,
          5.74445482e+23, 2.98584127e+00, 0., 3.50000000e+00,
          7.15359998e+20, 3.37410760e+00, 3.05084975e-22, 3.26953673e+00,
          1.85673846e-19, 3.31840205e+00, 0., 3.50000000e+00,
          -3.22411320e-10, 3.30769277e+00, 7.94607347e+16,
          3.47668862e+00, 1.14734064e-07, 3.42884994e+00, 5.39686236e-21,
          3.45330501e+00, 0., 3.50000000e+00, 0., 3.50000000e+00,
          1.61609417e+12, 3.49523568e+00, 0., 3.50000000e+00, 0.,
          3.50000000e+00, -1.13094862e-23, 3.29997754e+00,
          6.32393267e-08, 3.32413602e+00, 0., 3.50000000e+00,
          8.00780655e-26, 3.16512656e+00, -5.76528945e+04,
          2.77904177e+00, 2.09416570e-28, 3.49363804e+00, 0.,
          3.50000000e+00, 1.07489081e+19, 3.39335346e+00,
          -2.96691040e-24, 3.42715478e+00, -7.19714387e-25,
          3.49744725e+00, 3.97824562e+05, 3.46678448e+00, 0.,
          3.50000000e+00, 0., 3.50000000e+00, -5.60018840e+35,
          3.49473667e+00, 0., 3.50000000e+00, 0., 3.50000000e+00,
          -1.30732459e+16, 3.21259236e+00, -1.74424436e-31,
          3.29221439e+00, 0., 3.50000000e+00, -637427840.,
          3.49779820e+00, 1.51853141e+05, 3.04930162e+00, 1.08072405e+24,
          3.24579024e+00, -7.84225321e+00, 3.29250050e+00,
          -5.17431181e-05, 3.34739518e+00, 8.61273180e-15,
          3.46616793e+00, 1.47884005e-12, 3.44820833e+00,
          -8.93711299e-21, 3.42014647e+00, 0., 3.50000000e+00,
          -296187616., 3.39462495e+00, 2.37026540e-35, 3.46058083e+00,
          0., 3.50000000e+00, 0., 3.50000000e+00, -4.30292815e-19,
          2.92294836e+00, 1.08016805e+20, 2.98584127e+00,
          -9.41066502e-26, 3.44111800e+00, 0., 3.50000000e+00,
          -1.15097766e+38, 3.26568723e+00, 0., 0., 1.72395876e+34,
          3.34739566e+00 ]
      - [ 881360128., 3.10621190e+00, 0., 3.50000000e+00, 2.72026300e-05,
          3.48431277e+00, -3.55742293e+35, 3.25769711e+00,
          -1.27465406e-04, 3.46490335e+00, -1.14301191e-08,
          3.47990561e+00, -1.38204203e+05, 3.43786359e+00, 44800168.,
          3.47782874e+00, 9.54658574e-11, 3.47827697e+00, 1.02929210e-11,
          3.47890186e+00, -9.27409780e-21, 3.11827445e+00, 0.,
          3.50000000e+00, -2.80549249e+30, 3.35480976e+00,
          -3.94717195e-16, 3.41095424e+00, -3.40017090e+02,
          2.77904177e+00, 1.04703575e+06, 3.37583780e+00,
          -2.98562220e-37, 3.26570463e+00, 0., 3.50000000e+00,
          6.41184711e+00, 3.44988918e+00, -3.32916710e+20,
          3.43990827e+00, -7.91162691e-08, 3.38744807e+00, 0.,
          3.50000000e+00, -80977520., 3.49016094e+00, 0., 3.50000000e+00,
          0., 3.50000000e+00, -6.85893459e+14, 3.34734249e+00,
          -6.82923026e+12, 3.44818759e+00, 1.43445892e+02,
          3.45849586e+00, 2.03431358e+27, 3.29712844e+00,
          -1.32141507e+11, 3.37573862e+00, 2.38774452e-11,
          3.02909970e+00, 1.96872565e-30, 3.39585018e+00,
          -3.94506775e-24, 3.41694212e+00, 0., 3.50000000e+00, 0.,
          3.50000000e+00, -9.36454020e-38, 3.49062037e+00, 0.,
          3.50000000e+00, 0., 3.50000000e+00, 0., 3.50000000e+00,
          1.64011852e-18, 3.43600225e+00, 0., 3.50000000e+00,
          -1.90606224e-27, 3.47334099e+00, 1.68362689e+00,
          3.27525258e+00, 0., 3.50000000e+00, 172042704., 3.46481895e+00,
          4.16864347e-29, 3.46616793e+00, -8.11689743e-11,
          2.86826968e+00, 7.87288116e-07, 3.27681375e+00, 3.50143565e+29,
          3.24607944e+00, -2.36037488e-38, 3.38765526e+00,
          -4.49551837e+22, 3.42574382e+00, 3.14656821e-36,
          3.40996909e+00, -4.27795025e-35, 3.46502662e+00,
          5.63240567e-21, 3.37273216e+00, 0., 3.50000000e+00,
          -3.24438163e-35, 3.46008587e+00, 0., 3.50000000e+00,
          -70635336., 3.20616102e+00, 1.56595973e+34, 3.46444368e+00,
          -1.26244829e+28, 3.30184579e+00, -1.18900466e+20,
          3.48740554e+00, 2.79367295e+18, 3.32053494e+00, 2.67585303e-19,
          3.09354091e+00, -2.41651855e-11, 3.46939349e+00 ]
      - [ -2.09672984e+22, 3.42546606e+00, 0., 3.50000000e+00,
          -2.32016178e+21, 3.37470961e+00, 1.05541289e+05,
          3.13119197e+00, 0., 3.50000000e+00, 6.98436130e+19,
          3.49250841e+00, 1.70417070e+10, 3.44683123e+00, 8.62426034e-23,
          3.39296389e+00, 0., 3.50000000e+00, -1.02022062e-35,
          3.26163197e+00, -3.05297117e+38, 3.22207332e+00, 0.,
          3.50000000e+00, 0., 3.50000000e+00, 1.79044091e-16,
          3.09354091e+00, 2.02965247e-03, 3.41690826e+00, 0.,
          3.50000000e+00, -181638928., 3.36576343e+00, 0.,
          3.50000000e+00, -9.47664396e-21, 3.38708091e+00,
          -6.68008962e+29, 3.24981904e+00, 0., 3.50000000e+00, 0.,
          3.50000000e+00, -2.97758945e+35, 3.49003363e+00, 0.,
          3.50000000e+00, 0., 3.50000000e+00, 4.59775149e-29,
          3.37881827e+00, -53254864., 3.42123175e+00, 0., 3.50000000e+00,
          0., 3.50000000e+00, 5.19584547e+11, 3.37889791e+00,
          -4.79775853e-02, 3.48584008e+00, 0., 3.50000000e+00,
          6.79361737e-37, 3.41511726e+00, 0., 3.50000000e+00,
          1.53924388e-32, 3.48659110e+00, -6.94217849e+23,
          3.42050767e+00, 0., 3.50000000e+00, 0., 3.50000000e+00, 0.,
          3.50000000e+00, -5.05957825e+02, 3.49858141e+00, 0.,
          3.50000000e+00, 1.46217057e-23, 3.42088199e+00,
          -4.46811171e+22, 3.42019677e+00, 0., 3.50000000e+00, 0.,
          3.50000000e+00, -2.72664748e+38, 3.48904681e+00, 1244991232.,
          3.10565639e+00, 1.37614344e+11, 3.40271354e+00,
          -4.80374268e+02, 3.38730812e+00, -8.24900355e+34,
          3.40432167e+00, -5.35840869e-01, 3.49733067e+00,
          -2.97780729e-33, 3.41486311e+00, 5.11758789e+04,
          3.46779394e+00, 4.45972478e-23, 3.38289428e+00,
          -3.74564607e+34, 3.49631047e+00, 0., 3.50000000e+00, 0.,
          3.50000000e+00, 3.68286219e+37, 3.29480338e+00,
          -1.61040960e+18, 3.49129105e+00, 0., 3.50000000e+00,
          -4.08282332e-11, 3.46814275e+00, -7.14759903e-27,
          3.18161130e+00, -2.01412045e-24, 3.11819792e+00,
          2.52099335e-03, 3.47246933e+00 ]
      - [ -5.16764880e+19, 3.39462471e+00, 2.94395883e-31,
          3.30243278e+00, 0., 3.50000000e+00, 6.41750467e+11,
          3.20598269e+00, -1.01344080e-08, 3.49778008e+00,
          5.24855661e+00, 3.36590505e+00, 12327287., 3.45455551e+00,
          -3.77962274e-16, 3.34443951e+00, -1.08298313e-08,
          3.36708498e+00, 1.10902623e+29, 3.28320765e+00,
          -2.18691166e-05, 3.24585867e+00, 0., 3.50000000e+00,
          8.71991171e+18, 3.14954638e+00, -3.40017090e+02,
          2.77904177e+00, -1.62295033e+28, 3.41312480e+00, 0.,
          3.50000000e+00, 3.42199398e+10, 3.09354329e+00,
          -1.71038067e+34, 3.42930245e+00, 0., 3.50000000e+00,
          -2.36318343e+32, 3.29907250e+00, 2.92119957e-30,
          3.37367010e+00, 0., 3.50000000e+00, 0., 3.50000000e+00, 0.,
          3.50000000e+00, 0., 3.50000000e+00, -4.69266607e+24,
          3.37840366e+00, -1.52610136e+37, 3.49473619e+00, 0.,
          3.50000000e+00, 9.39097314e-04, 3.27509975e+00,
          -4.04865280e+09, 3.34125471e+00, -3.27405917e+38,
          3.49871850e+00, 0., 3.50000000e+00, 1.02011225e+06,
          3.11823511e+00, 7.70151688e+19, 3.49046731e+00, 0.,
          3.50000000e+00, 9.56910141e+11, 3.25152993e+00, 0.,
          3.50000000e+00, 0., 3.50000000e+00, 0., 3.50000000e+00,
          2.56626667e-08, 3.49091220e+00, 0., 3.50000000e+00,
          8.17045272e-27, 3.49473643e+00, 5.65651591e-36, 3.35688639e+00,
          0., 3.50000000e+00, 0., 3.50000000e+00, -3.26620258e+38,
          3.49871850e+00, -9.47813286e-11, 2.86826968e+00,
          -7.02888489e+36, 3.49473619e+00, 1.30638945e+00,
          3.23427653e+00, 0., 3.50000000e+00, 0., 3.50000000e+00,
          1094483712., 3.40722704e+00, -8.15903310e+30, 3.38809252e+00,
          1.45211657e+22, 3.44588137e+00, -1.34700280e-26,
          3.49815154e+00, 0., 3.50000000e+00, 0., 3.50000000e+00,
          2.42830238e+27, 3.25663733e+00, -2.71110356e-10,
          3.27693534e+00, 3.21145384e+23, 3.45963001e+00, 0.,
          3.50000000e+00, 6.62556232e-09, 3.19683123e+00, 0., 0.,
          -8.00957362e+36, 3.49473619e+00 ]
      - [ 2.75056775e+32, 3.05261302e+00, 0., 3.50000000e+00,
          -1.68885067e-01, 3.35530734e+00, -2.31700312e-22,
          3.37995434e+00, 1.83960344e-06, 3.39939642e+00,
          -1.90824483e+34, 3.41520810e+00, -4.69743958e-17,
          3.45048857e+00, 0., 3.50000000e+00, 0., 3.50000000e+00,
          7.09478650e+06, 3.37847853e+00, -1.02115109e-06,
          3.19284534e+00, 0., 3.50000000e+00, 3.96126938e+16,
          3.19862390e+00, 0., 3.50000000e+00, -1.07604823e-13,
          2.86826968e+00, 0., 3.50000000e+00, 1.18351578e-04,
          3.10725355e+00, -6.86860800e+00, 3.45650935e+00, 0.,
          3.50000000e+00, 2.92398749e+32, 3.32760334e+00,
          -1.84559343e-21, 3.34145546e+00, 0., 3.50000000e+00,
          3.84123666e+11, 3.49637675e+00, 0., 3.50000000e+00, 0.,
          3.50000000e+00, 0., 3.50000000e+00, 0., 3.50000000e+00, 0.,
          3.50000000e+00, -6.95448741e-03, 3.23665762e+00, 0.,
          3.50000000e+00, 2.69358870e-15, 3.33556175e+00,
          -1.19103569e+02, 3.46699190e+00, -3.18775997e+34,
          3.31950450e+00, -1.00673815e+12, 3.42423248e+00, 0.,
          3.50000000e+00, -3.81282021e-20, 3.30643344e+00, 0.,
          3.50000000e+00, 0., 3.50000000e+00, 0., 3.50000000e+00,
          1.67552902e+02, 3.36471009e+00, 0., 3.50000000e+00, 0.,
          3.50000000e+00, 0., 3.50000000e+00, 0., 3.50000000e+00,
          -2.48768410e+10, 3.43726182e+00, -2.01852658e+14,
          3.48731709e+00, 0., 3.50000000e+00, -1.73300538e-25,
          3.46648002e+00, -2.89128952e-08, 3.43200064e+00,
          -2.86855322e-31, 3.39399934e+00, 1.51410701e+34,
          3.43581152e+00, -1.15820882e-15, 3.30810452e+00,
          -2.77527617e+13, 3.36232519e+00, -1367902592., 3.41260219e+00,
          -2.77514637e-33, 3.49795580e+00, 2.39419697e+14,
          3.39589572e+00, 0., 3.50000000e+00, -1.98522038e-38,
          3.38118243e+00, -1.29729112e+06, 3.40196085e+00,
          -1.40788259e-09, 3.46623039e+00, 4.06241277e-36,
          3.49825859e+00, 1.50688678e-33, 3.48731518e+00, 0.,
          3.50000000e+00, 7.29718314e+35, 3.48150778e+00 ]
      - [ 1.72501539e+12, 3.27505684e+00, 0., 3.50000000e+00, 0.,
          3.50000000e+00, 1.54308730e+31, 3.18794918e+00, 4.17313780e-22,
          3.49680734e+00, 0., 3.50000000e+00, 1.91833834e-07,
          3.39695573e+00, 2.18902911e-25, 3.46636581e+00, 1.57078658e+15,
          3.37984371e+00, -537187840., 3.27510595e+00, 2.89261203e+17,
          3.25665379e+00, 0., 3.50000000e+00, -3.88194274e-36,
          3.09520936e+00, 3.71489812e+05, 3.08183861e+00, 8.31938171e+01,
          2.92295361e+00, 0., 3.50000000e+00, -4.23386172e+19,
          3.23089433e+00, 0., 3.50000000e+00, 0., 3.50000000e+00,
          1.42174612e-30, 3.26786590e+00, 1.04578510e+35, 3.41162801e+00,
